{"learner":{"attributes":{"scikit_learn":"{\"_estimator_type\": \"classifier\"}"},"feature_names":["Feature_RSI","Feature_EMA_Dist","Feature_Volume_Ratio","Feature_ADX_14","Feature_ATR_Ratio","Feature_MACD_Hist_Accel","Feature_Relative_Strength","Feature_ROC_20","Feature_Trend_Age","Feature_Vol_Expansion","Feature_Dist_To_200DMA","Feature_Bollinger_Width","Feature_Rel_ROC_20","Feature_Rel_Trend_Age","Feature_ROC_20_PctRank","Feature_Trend_Age_PctRank","Feature_Bollinger_Width_PctRank"],"feature_types":["float","float","float","float","float","float","float","float","float","float","float","float","float","float","float","float","float"],"gradient_booster":{"model":{"cats":{"enc":[],"feature_segments":[],"sorted_idx":[]},"gbtree_model_param":{"num_parallel_tree":"1","num_trees":"504"},"iteration_indptr":[0,3,6,9,12,15,18,21,24,27,30,33,36,39,42,45,48,51,54,57,60,63,66,69,72,75,78,81,84,87,90,93,96,99,102,105,108,111,114,117,120,123,126,129,132,135,138,141,144,147,150,153,156,159,162,165,168,171,174,177,180,183,186,189,192,195,198,201,204,207,210,213,216,219,222,225,228,231,234,237,240,243,246,249,252,255,258,261,264,267,270,273,276,279,282,285,288,291,294,297,300,303,306,309,312,315,318,321,324,327,330,333,336,339,342,345,348,351,354,357,360,363,366,369,372,375,378,381,384,387,390,393,396,399,402,405,408,411,414,417,420,423,426,429,432,435,438,441,444,447,450,453,456,459,462,465,468,471,474,477,480,483,486,489,492,495,498,501,504],"tree_info":[0,1,2,0,1,2,0,1,2,0,1,2,0,1,2,0,1,2,0,1,2,0,1,2,0,1,2,0,1,2,0,1,2,0,1,2,0,1,2,0,1,2,0,1,2,0,1,2,0,1,2,0,1,2,0,1,2,0,1,2,0,1,2,0,1,2,0,1,2,0,1,2,0,1,2,0,1,2,0,1,2,0,1,2,0,1,2,0,1,2,0,1,2,0,1,2,0,1,2,0,1,2,0,1,2,0,1,2,0,1,2,0,1,2,0,1,2,0,1,2,0,1,2,0,1,2,0,1,2,0,1,2,0,1,2,0,1,2,0,1,2,0,1,2,0,1,2,0,1,2,0,1,2,0,1,2,0,1,2,0,1,2,0,1,2,0,1,2,0,1,2,0,1,2,0,1,2,0,1,2,0,1,2,0,1,2,0,1,2,0,1,2,0,1,2,0,1,2,0,1,2,0,1,2,0,1,2,0,1,2,0,1,2,0,1,2,0,1,2,0,1,2,0,1,2,0,1,2,0,1,2,0,1,2,0,1,2,0,1,2,0,1,2,0,1,2,0,1,2,0,1,2,0,1,2,0,1,2,0,1,2,0,1,2,0,1,2,0,1,2,0,1,2,0,1,2,0,1,2,0,1,2,0,1,2,0,1,2,0,1,2,0,1,2,0,1,2,0,1,2,0,1,2,0,1,2,0,1,2,0,1,2,0,1,2,0,1,2,0,1,2,0,1,2,0,1,2,0,1,2,0,1,2,0,1,2,0,1,2,0,1,2,0,1,2,0,1,2,0,1,2,0,1,2,0,1,2,0,1,2,0,1,2,0,1,2,0,1,2,0,1,2,0,1,2,0,1,2,0,1,2,0,1,2,0,1,2,0,1,2,0,1,2,0,1,2,0,1,2,0,1,2,0,1,2,0,1,2,0,1,2,0,1,2,0,1,2,0,1,2,0,1,2,0,1,2,0,1,2,0,1,2,0,1,2,0,1,2,0,1,2,0,1,2,0,1,2,0,1,2,0,1,2,0,1,2,0,1,2,0,1,2,0,1,2,0,1,2,0,1,2,0,1,2,0,1,2,0,1,2,0,1,2,0,1,2,0,1,2,0,1,2,0,1,2,0,1,2,0,1,2,0,1,2],"trees":[{"base_weights":[-1.1221597E-3,1.05392896E-1,-1.998987E-1,2.4670626E-1,5.623109E-2,-4.0575263E-1,-1.611239E-1,-9.397625E-1,2.6000875E-1,-9.614982E-2,9.774995E-2,-2.1287344E-1,-4.7907966E-1,-7.411609E-2,-2.6069596E-1,-3.917453E-2,-8.6121885E-3,3.2083312E-1,1.274231E-1,1.0371593E-1,-2.234568E-1,1.0273354E-1,-8.288085E-1,-7.7831787E-1,-6.1307702E-2,-7.1704537E-1,-4.2287233E-1,-5.3392123E-2,-4.4167602E-1,-3.285226E-1,-3.417664E-2,1.7073482E-2,8.877209E-3,2.1927846E-3,2.1098323E-2,1.3806301E-2,-1.259361E-3,3.996466E-4,-1.2677451E-2,2.9482725E-3,1.0417985E-2,-3.9085645E-2,-4.4689844E-3,-3.5293557E-2,-3.9377203E-3,-8.765102E-3,8.7387655E-3,-8.122354E-4,-2.9911421E-2,8.087825E-3,-1.7860383E-2,1.4428569E-3,-5.2948967E-3,-2.051513E-2,3.250512E-2,-1.6237216E-2,-6.07819E-3,2.2192512E-2,-3.187973E-3],"categories":[],"categories_nodes":[],"categories_segments":[],"categories_sizes":[],"default_left":[0,0,0,0,0,0,0,0,0,0,0,0,0,0,0,0,0,0,0,0,0,0,0,0,0,0,0,0,0,0,0,0,0,0,0,0,0,0,0,0,0,0,0,0,0,0,0,0,0,0,0,0,0,0,0,0,0,0,0],"id":0,"left_children":[1,3,5,7,9,11,13,15,17,19,21,23,25,27,29,-1,-1,31,33,35,37,39,41,43,45,47,49,51,53,55,57,-1,-1,-1,-1,-1,-1,-1,-1,-1,-1,-1,-1,-1,-1,-1,-1,-1,-1,-1,-1,-1,-1,-1,-1,-1,-1,-1,-1],"loss_changes":[2.6444595E2,5.6482742E1,3.47175E1,3.336728E1,3.8188484E1,9.657661E0,3.1764107E1,4.6291542E-1,1.670221E1,3.2914215E1,2.1986115E1,1.639653E1,6.3735046E0,1.4900525E1,2.6267418E1,0E0,0E0,1.4819778E1,1.8982634E1,1.6452316E1,1.7242836E1,2.1581837E1,2.601509E0,2.7755566E0,6.777104E0,1.9968185E0,6.092415E0,1.311763E1,9.743654E0,1.792714E1,1.0641708E1,0E0,0E0,0E0,0E0,0E0,0E0,0E0,0E0,0E0,0E0,0E0,0E0,0E0,0E0,0E0,0E0,0E0,0E0,0E0,0E0,0E0,0E0,0E0,0E0,0E0,0E0,0E0,0E0],"parents":[2147483647,0,0,1,1,2,2,3,3,4,4,5,5,6,6,7,7,8,8,9,9,10,10,11,11,12,12,13,13,14,14,17,17,18,18,19,19,20,20,21,21,22,22,23,23,24,24,25,25,26,26,27,27,28,28,29,29,30,30],"right_children":[2,4,6,8,10,12,14,16,18,20,22,24,26,28,30,-1,-1,32,34,36,38,40,42,44,46,48,50,52,54,56,58,-1,-1,-1,-1,-1,-1,-1,-1,-1,-1,-1,-1,-1,-1,-1,-1,-1,-1,-1,-1,-1,-1,-1,-1,-1,-1,-1,-1],"split_conditions":[1.0204829E0,8.38248E-1,-3.473527E0,-5.328503E-1,-3.4192595E0,-9.481735E0,1.4798218E-1,2.5141656E-1,2.4956839E1,2.1714508E1,1E0,-3.314415E-1,-1.6774384E1,3.9881814E-1,1.7797118E0,-3.917453E-2,-8.6121885E-3,3.382353E-1,-4.709936E-2,-6.4122467E0,-1.0445786E1,1.44E2,1.2720166E0,2.5917011E1,3.0527409E1,1.0220584E0,-7.6E1,5.137931E-1,1E2,2.7046503E1,-8.2E1,1.7073482E-2,8.877209E-3,2.1927846E-3,2.1098323E-2,1.3806301E-2,-1.259361E-3,3.996466E-4,-1.2677451E-2,2.9482725E-3,1.0417985E-2,-3.9085645E-2,-4.4689844E-3,-3.5293557E-2,-3.9377203E-3,-8.765102E-3,8.7387655E-3,-8.122354E-4,-2.9911421E-2,8.087825E-3,-1.7860383E-2,1.4428569E-3,-5.2948967E-3,-2.051513E-2,3.250512E-2,-1.6237216E-2,-6.07819E-3,2.2192512E-2,-3.187973E-3],"split_indices":[4,4,1,10,1,12,5,1,3,3,15,10,6,11,2,0,0,15,10,12,12,8,5,5,3,4,13,15,13,3,13,0,0,0,0,0,0,0,0,0,0,0,0,0,0,0,0,0,0,0,0,0,0,0,0,0,0,0,0],"split_type":[0,0,0,0,0,0,0,0,0,0,0,0,0,0,0,0,0,0,0,0,0,0,0,0,0,0,0,0,0,0,0,0,0,0,0,0,0,0,0,0,0,0,0,0,0,0,0,0,0,0,0,0,0,0,0,0,0,0,0],"sum_hessian":[1.2487957E4,8.131263E3,4.3566943E3,2.0976492E3,6.0336143E3,6.890562E2,3.667638E3,2.248552E1,2.0751636E3,1.2916681E3,4.7419463E3,1.9087708E2,4.9817917E2,1.9582389E3,1.709399E3,2.0986485E1,1.4990346E0,1.4215845E3,6.535791E2,5.0267627E2,7.889919E2,4.717462E3,2.4484232E1,3.947458E1,1.514025E2,9.294015E1,4.05239E2,1.8548054E3,1.0343339E2,1.315153E3,3.942461E2,6.8455914E2,7.370253E2,5.541431E2,9.943596E1,1.7988416E2,3.227921E2,2.2585454E2,5.631373E2,3.9854333E3,7.3202856E2,1.9987127E1,4.4971037E0,3.397812E1,5.49646E0,9.693757E1,5.4464924E1,3.9974256E0,8.894272E1,1.4490667E1,3.9074835E2,8.6993976E2,9.848657E2,9.843661E1,4.996782E0,9.1341174E2,4.0174127E2,2.74823E1,3.667638E2],"tree_param":{"num_deleted":"0","num_feature":"17","num_nodes":"59","size_leaf_vector":"1"}},{"base_weights":[-5.4382156E-3,1.7267812E0,-1.2415098E-2,9.353695E-1,2.08729E0,-1.1897791E-1,4.2788252E-2,1.7121668E0,-6.938627E-2,8.831638E-2,7.4085486E-1,-2.2903758E-1,-1.190629E-2,-1.5775692E-1,7.665958E-2,7.0353257E-3,7.759212E-2,-1.917947E-2,4.436855E-1,-1.2829518E-2,5.3394184E-2,-2.3986895E-1,1.0154493E0,8.531096E-2,-1.575452E-1,-2.641885E-1,1.865415E-2,1.9194351E-1,-1.1631993E-2,-1.2829518E-2,3.6383595E-2,-1.3991519E-2,-8.2333945E-3,-2.0083116E-2,6.8628766E-2,5.3910003E-4,1.3049075E-2,-4.9076322E-3,-2.2365594E-2,-5.9544872E-3,-1.4682357E-2,8.609497E-3,-4.133405E-3,7.1078804E-3,4.485313E-2,-4.265661E-3,1.9498157E-3],"categories":[],"categories_nodes":[],"categories_segments":[],"categories_sizes":[],"default_left":[0,0,0,0,0,0,0,0,0,0,0,0,0,0,0,0,0,0,0,0,0,0,0,0,0,0,0,0,0,0,0,0,0,0,0,0,0,0,0,0,0,0,0,0,0,0,0],"id":1,"left_children":[1,3,5,7,9,11,13,15,17,-1,19,21,23,25,27,-1,-1,-1,29,-1,-1,31,33,35,37,39,41,43,45,-1,-1,-1,-1,-1,-1,-1,-1,-1,-1,-1,-1,-1,-1,-1,-1,-1,-1],"loss_changes":[1.02765656E2,7.7798996E0,4.9821156E1,9.86523E0,2.038475E0,3.4055214E1,3.791024E1,2.1353722E0,1.5606145E0,0E0,2.5501137E0,1.9453453E1,2.076998E1,1.5147165E1,4.8592228E1,0E0,0E0,0E0,1.4902091E0,0E0,0E0,5.216385E0,1.413168E1,1.5221229E1,8.150677E0,5.913658E0,7.3222303E0,2.7214485E1,1.551817E1,0E0,0E0,0E0,0E0,0E0,0E0,0E0,0E0,0E0,0E0,0E0,0E0,0E0,0E0,0E0,0E0,0E0,0E0],"parents":[2147483647,0,0,1,1,2,2,3,3,4,4,5,5,6,6,7,7,8,8,10,10,11,11,12,12,13,13,14,14,18,18,21,21,22,22,23,23,24,24,25,25,26,26,27,27,28,28],"right_children":[2,4,6,8,10,12,14,16,18,-1,20,22,24,26,28,-1,-1,-1,30,-1,-1,32,34,36,38,40,42,44,46,-1,-1,-1,-1,-1,-1,-1,-1,-1,-1,-1,-1,-1,-1,-1,-1,-1,-1],"split_conditions":[-3.6618835E1,8.763915E-1,9.447917E-2,7.142857E-3,6.0623676E1,9.0106213E-1,-6.3E1,6.013986E-1,7.163614E-1,8.831638E-2,7.5E1,9.9285716E-1,4.323001E0,1.0527828E0,-1.0923274E0,7.0353257E-3,7.759212E-2,-1.917947E-2,4.5641895E1,-1.2829518E-2,5.3394184E-2,-3.2128603E0,1.58522005E1,1.0320818E0,3.7451153E1,9.3478364E-1,-1.7014378E1,5.4628654E1,9.9675626E-1,-1.2829518E-2,3.6383595E-2,-1.3991519E-2,-8.2333945E-3,-2.0083116E-2,6.8628766E-2,5.3910003E-4,1.3049075E-2,-4.9076322E-3,-2.2365594E-2,-5.9544872E-3,-1.4682357E-2,8.609497E-3,-4.133405E-3,7.1078804E-3,4.485313E-2,-4.265661E-3,1.9498157E-3],"split_indices":[7,2,11,14,3,4,13,15,2,0,8,15,6,4,1,0,0,0,3,0,0,12,3,4,6,4,6,3,4,0,0,0,0,0,0,0,0,0,0,0,0,0,0,0,0,0,0],"split_type":[0,0,0,0,0,0,0,0,0,0,0,0,0,0,0,0,0,0,0,0,0,0,0,0,0,0,0,0,0,0,0,0,0,0,0,0,0,0,0,0,0,0,0,0,0,0,0],"sum_hessian":[8.500451E3,3.3111183E1,8.46734E3,1.1487553E1,2.1623629E1,2.8891194E3,5.57822E3,6.0816455E0,5.405907E0,1.9258545E1,2.3650844E0,1.4241187E3,1.4650009E3,8.0548016E2,4.77274E3,1.0136076E0,5.068038E0,3.0408227E0,2.3650844E0,1.0136076E0,1.3514768E0,1.4126311E3,1.1487553E1,8.787978E2,5.8620306E2,5.0207364E2,3.0340652E2,2.0694487E3,2.7032915E3,1.0136076E0,1.3514768E0,3.3178754E2,1.0808435E3,3.716561E0,7.7709913E0,6.777656E2,2.0103217E2,5.405907E2,4.5612343E1,2.3785991E2,2.642137E2,1.1588914E2,1.8751741E2,2.0393784E3,3.0070358E1,1.0500974E3,1.653194E3],"tree_param":{"num_deleted":"0","num_feature":"17","num_nodes":"47","size_leaf_vector":"1"}},{"base_weights":[2.1504487E-3,-9.2253E-2,1.9056676E-1,-3.259017E-1,-6.344476E-2,3.818974E-1,8.949012E-2,-4.6265832E-1,-6.440863E-2,6.1817754E-2,-1.1303467E-1,-6.0896546E-1,4.2428145E-1,4.4363794E-1,4.2356435E-2,-1.6385333E-1,-4.9149132E-1,-1.3926055E-1,7.341478E-1,-5.9158485E-2,2.325198E-1,-1.24490134E-1,1.1550659E0,4.0510446E-1,-2.6862826E-2,3.8933575E-1,1.3929474E0,3.4321427E-1,8.199655E-1,9.1998145E-4,5.136668E-1,-2.0514306E-2,3.3026405E-2,-2.304211E-2,-1.4100038E-2,1.2934945E-3,-1.726415E-2,-2.3515636E-2,5.0937064E-2,-4.7226693E-3,5.4578204E-3,1.7776231E-3,1.2613791E-2,2.0593915E-3,-7.370237E-3,-7.4898032E-3,5.0012365E-2,3.992143E-2,-1.4918353E-2,3.0700559E-2,1.26941465E-2,2.2531373E-2,6.0256366E-2,1.8143624E-2,-5.2435677E-3,5.136592E-2,1.771365E-2,5.179112E-3,-2.7957845E-3,1.5683467E-2,4.0305886E-2],"categories":[],"categories_nodes":[],"categories_segments":[],"categories_sizes":[],"default_left":[0,0,0,0,0,0,0,0,0,0,0,0,0,0,0,0,0,0,0,0,0,0,0,0,0,0,0,0,0,0,0,0,0,0,0,0,0,0,0,0,0,0,0,0,0,0,0,0,0,0,0,0,0,0,0,0,0,0,0,0,0],"id":2,"left_children":[1,3,5,7,9,11,13,15,17,19,21,23,25,27,29,31,33,35,37,39,41,43,45,47,-1,49,51,53,55,57,59,-1,-1,-1,-1,-1,-1,-1,-1,-1,-1,-1,-1,-1,-1,-1,-1,-1,-1,-1,-1,-1,-1,-1,-1,-1,-1,-1,-1,-1,-1],"loss_changes":[1.7641028E2,4.4453426E1,6.3988E1,2.5897057E1,3.6552887E1,4.8304443E1,3.6161263E1,4.0193863E0,1.5053038E1,3.4484684E1,6.1375534E1,3.2774563E0,3.661563E1,9.335976E0,3.7378662E1,1.5404098E1,4.8919907E0,1.152839E1,1.6144978E1,1.12817745E1,1.0773949E1,4.3953712E1,5.0710335E0,1.9298815E0,0E0,2.8635452E1,2.712967E0,1.0665773E1,8.688976E0,1.6034569E1,8.894287E0,0E0,0E0,0E0,0E0,0E0,0E0,0E0,0E0,0E0,0E0,0E0,0E0,0E0,0E0,0E0,0E0,0E0,0E0,0E0,0E0,0E0,0E0,0E0,0E0,0E0,0E0,0E0,0E0,0E0,0E0],"parents":[2147483647,0,0,1,1,2,2,3,3,4,4,5,5,6,6,7,7,8,8,9,9,10,10,11,11,12,12,13,13,14,14,15,15,16,16,17,17,18,18,19,19,20,20,21,21,22,22,23,23,25,25,26,26,27,27,28,28,29,29,30,30],"right_children":[2,4,6,8,10,12,14,16,18,20,22,24,26,28,30,32,34,36,38,40,42,44,46,48,-1,50,52,54,56,58,60,-1,-1,-1,-1,-1,-1,-1,-1,-1,-1,-1,-1,-1,-1,-1,-1,-1,-1,-1,-1,-1,-1,-1,-1,-1,-1,-1,-1,-1,-1],"split_conditions":[1.0287181E0,7.813116E-1,-1.1037124E0,5.8E1,-9.3064375E-2,1.4705882E-2,1.6171999E1,-4.559088E1,1.36842785E1,9.188786E-1,4.7976463E1,1.58965E-1,3.7451153E1,8.6764705E-1,5.325754E1,-2.773765E-1,7.5540614E-1,-7.575099E-2,1.3653375E1,6.3E1,1.8661043E1,2E-1,2.851901E-1,-7.8384476E0,-2.6862826E-2,-1.5816593E-1,1.08598374E-1,6.8171797E0,1.4083565E1,4.8E1,4.6788284E-1,-2.0514306E-2,3.3026405E-2,-2.304211E-2,-1.4100038E-2,1.2934945E-3,-1.726415E-2,-2.3515636E-2,5.0937064E-2,-4.7226693E-3,5.4578204E-3,1.7776231E-3,1.2613791E-2,2.0593915E-3,-7.370237E-3,-7.4898032E-3,5.0012365E-2,3.992143E-2,-1.4918353E-2,3.0700559E-2,1.26941465E-2,2.2531373E-2,6.0256366E-2,1.8143624E-2,-5.2435677E-3,5.136592E-2,1.771365E-2,5.179112E-3,-2.7957845E-3,1.5683467E-2,4.0305886E-2],"split_indices":[4,4,7,8,10,14,3,6,6,4,3,11,6,14,6,10,4,10,3,8,3,16,9,7,0,10,11,7,3,8,11,0,0,0,0,0,0,0,0,0,0,0,0,0,0,0,0,0,0,0,0,0,0,0,0,0,0,0,0,0,0],"split_type":[0,0,0,0,0,0,0,0,0,0,0,0,0,0,0,0,0,0,0,0,0,0,0,0,0,0,0,0,0,0,0,0,0,0,0,0,0,0,0,0,0,0,0,0,0,0,0,0,0,0,0,0,0,0,0,0,0,0,0,0,0],"sum_hessian":[9.915861E3,6.6063496E3,3.309512E3,7.2400525E2,5.8823447E3,1.1430411E3,2.1664707E3,4.748809E2,2.4912434E2,1.6682222E3,4.2141226E3,4.6339504E1,1.0967015E3,2.5348105E2,1.9129897E3,4.237886E1,4.3250204E2,2.28529E2,2.0595335E1,9.7669415E2,6.9152795E2,4.1772886E3,3.6833965E1,2.3763847E0,4.396312E1,1.0598677E3,3.6833965E1,2.0159665E2,5.1884403E1,1.7593169E3,1.5367288E2,3.1685131E1,1.0693731E1,2.6694724E2,1.6555481E2,1.4456342E2,8.39656E1,5.940962E0,1.4654373E1,7.509376E2,2.2575656E2,2.1189432E2,4.7963367E2,1.0590754E3,3.118213E3,2.3763847E0,3.445758E1,1.1881924E0,1.1881924E0,1.679312E2,8.919364E2,5.1488338E0,3.1685131E1,1.635745E2,3.8022156E1,2.2179592E1,2.970481E1,6.2459314E2,1.1347238E3,1.247602E2,2.8912682E1],"tree_param":{"num_deleted":"0","num_feature":"17","num_nodes":"61","size_leaf_vector":"1"}},{"base_weights":[2.4719809E-3,1.1205601E-1,-1.7148091E-1,2.438962E-1,6.1014988E-2,-3.8192964E-1,-1.0112553E-1,-3.81874E-2,2.5619793E-1,-9.1843545E-2,1.01299435E-1,-1.1079409E-1,-4.342259E-1,-5.8053124E-1,-9.126453E-2,1.9312948E-1,3.6557212E-1,1.0942988E-1,-1.6289671E-1,1.05762854E-1,-8.545289E-1,-6.7168105E-1,6.640398E-2,-4.005181E-1,-7.788704E-1,-3.7315646E-1,-9.100658E-1,-1.5666103E-2,-1.5558678E-1,1.2764752E-2,4.352513E-3,1.7169712E-2,5.5389903E-3,1.3155478E-2,-2.3592475E-3,-3.0177673E-3,-1.708522E-2,3.1221062E-3,1.0857226E-2,-1.3594212E-2,-3.5671506E-2,-3.9713793E-3,-3.365657E-2,1.8348942E-2,-3.456996E-3,-8.436447E-3,-1.9489283E-2,-3.220692E-2,-6.100277E-4,-3.1195132E-2,-1.4704315E-3,-1.41032105E-2,-3.9066035E-2,7.245384E-4,-1.1369993E-2,-9.681658E-3,-3.246854E-3],"categories":[],"categories_nodes":[],"categories_segments":[],"categories_sizes":[],"default_left":[0,0,0,0,0,0,0,0,0,0,0,0,0,0,0,0,0,0,0,0,0,0,0,0,0,0,0,0,0,0,0,0,0,0,0,0,0,0,0,0,0,0,0,0,0,0,0,0,0,0,0,0,0,0,0,0,0],"id":3,"left_children":[1,3,5,7,9,11,13,-1,15,17,19,21,23,25,27,29,31,33,35,37,39,41,43,45,47,49,51,53,55,-1,-1,-1,-1,-1,-1,-1,-1,-1,-1,-1,-1,-1,-1,-1,-1,-1,-1,-1,-1,-1,-1,-1,-1,-1,-1,-1,-1],"loss_changes":[2.38789E2,5.1700996E1,7.164456E1,3.1865402E1,3.4133865E1,1.7146622E1,1.7106453E1,0E0,1.4577911E1,1.6555153E1,1.8803455E1,1.9665737E1,1.1493912E1,4.6469784E0,1.7297935E1,1.429594E1,1.1154503E1,1.1192383E1,1.9726398E1,2.0025425E1,8.998394E-2,4.529957E0,9.08927E0,1.5151077E1,1.7849236E0,6.3308835E0,6.7604446E-1,1.4853895E1,1.2346619E1,0E0,0E0,0E0,0E0,0E0,0E0,0E0,0E0,0E0,0E0,0E0,0E0,0E0,0E0,0E0,0E0,0E0,0E0,0E0,0E0,0E0,0E0,0E0,0E0,0E0,0E0,0E0,0E0],"parents":[2147483647,0,0,1,1,2,2,3,3,4,4,5,5,6,6,8,8,9,9,10,10,11,11,12,12,13,13,14,14,15,15,16,16,17,17,18,18,19,19,20,20,21,21,22,22,23,23,24,24,25,25,26,26,27,27,28,28],"right_children":[2,4,6,8,10,12,14,-1,16,18,20,22,24,26,28,30,32,34,36,38,40,42,44,46,48,50,52,54,56,-1,-1,-1,-1,-1,-1,-1,-1,-1,-1,-1,-1,-1,-1,-1,-1,-1,-1,-1,-1,-1,-1,-1,-1,-1,-1,-1,-1],"split_conditions":[1.0061035E0,8.3975536E-1,-4.143601E0,-5.328503E-1,-3.4192595E0,-1.1353836E1,-1.9067994E-1,-3.81874E-2,4.5580566E1,-5E1,1E0,-3.1194615E-1,5.642857E-1,1.9292878E-1,1.0933176E0,7.7170503E-1,3.6264803E0,1.1111111E-1,1.9965789E-1,1.46E2,5.882831E-2,7.586609E-1,2.097902E-2,1.3028719E-1,2.6819723E0,-2.3272479E-1,1.0370239E0,1.69E2,7.2673593E0,1.2764752E-2,4.352513E-3,1.7169712E-2,5.5389903E-3,1.3155478E-2,-2.3592475E-3,-3.0177673E-3,-1.708522E-2,3.1221062E-3,1.0857226E-2,-1.3594212E-2,-3.5671506E-2,-3.9713793E-3,-3.365657E-2,1.8348942E-2,-3.456996E-3,-8.436447E-3,-1.9489283E-2,-3.220692E-2,-6.100277E-4,-3.1195132E-2,-1.4704315E-3,-1.41032105E-2,-3.9066035E-2,7.245384E-4,-1.1369993E-2,-9.681658E-3,-3.246854E-3],"split_indices":[4,4,7,10,1,12,10,0,0,13,15,10,14,11,4,4,12,14,11,8,11,2,14,11,1,10,4,8,7,0,0,0,0,0,0,0,0,0,0,0,0,0,0,0,0,0,0,0,0,0,0,0,0,0,0,0,0],"split_type":[0,0,0,0,0,0,0,0,0,0,0,0,0,0,0,0,0,0,0,0,0,0,0,0,0,0,0,0,0,0,0,0,0,0,0,0,0,0,0,0,0,0,0,0,0,0,0,0,0,0,0,0,0,0,0,0,0],"sum_hessian":[1.2524655E4,7.6842266E3,4.840429E3,2.143566E3,5.5406606E3,1.2116584E3,3.6287705E3,2.099889E1,2.1225671E3,1.1553665E3,4.3852944E3,1.9641939E2,1.015239E3,7.197018E1,3.5568003E3,1.3480225E3,7.7454456E2,3.013076E2,8.5405884E2,4.365797E3,1.9497553E1,4.6486046E1,1.4993335E2,9.2675977E2,8.847924E1,4.548133E1,2.6488844E1,1.6356508E3,1.9211497E3,5.3933777E2,8.0868475E2,6.042441E2,1.7030048E2,1.3041302E2,1.7089456E2,6.4264905E2,2.1140976E2,3.741458E3,6.243388E2,1.9994622E0,1.749809E1,1.0994368E1,3.5491676E1,4.1471733E1,1.0846162E2,2.9190945E2,6.3485034E2,8.5480484E1,2.9987547E0,1.9991777E1,2.5489553E1,3.4978824E0,2.2990961E1,1.4537468E3,1.8190402E2,8.8764496E2,1.0335046E3],"tree_param":{"num_deleted":"0","num_feature":"17","num_nodes":"57","size_leaf_vector":"1"}},{"base_weights":[1.855797E-3,1.571506E0,-4.6677124E-3,1.0446186E0,1.8574251E0,-1.0475082E-1,4.720136E-2,6.429136E-2,8.221029E-2,7.735004E-2,1.8094266E-2,-2.1307337E-1,-2.6260572E-2,-2.1262775E-1,7.13338E-2,-3.131721E-1,3.544934E-2,-2.204626E-1,6.359978E-1,5.6354456E-2,-1.6581927E-1,-3.2661253E-1,1.7306249E-1,1.7447051E0,6.652048E-2,-1.140004E-3,-1.7906535E-2,-9.335714E-3,6.533476E-3,-2.031469E-2,5.6044407E-2,-1.1512187E-2,4.7183665E-3,9.399017E-3,-7.785961E-3,-1.4315471E-2,7.864456E-3,4.381909E-2,-1.4237353E-3,-1.6175804E-3,7.956707E-2,6.1509395E-3,-8.160149E-5],"categories":[],"categories_nodes":[],"categories_segments":[],"categories_sizes":[],"default_left":[0,0,0,0,0,0,0,0,0,0,0,0,0,0,0,0,0,0,0,0,0,0,0,0,0,0,0,0,0,0,0,0,0,0,0,0,0,0,0,0,0,0,0],"id":4,"left_children":[1,3,5,7,9,11,13,-1,15,-1,-1,17,19,21,23,25,-1,27,29,31,33,35,37,39,41,-1,-1,-1,-1,-1,-1,-1,-1,-1,-1,-1,-1,-1,-1,-1,-1,-1,-1],"loss_changes":[8.6499725E1,3.3267593E0,4.3677963E1,7.765318E0,1.4179993E0,2.4413363E1,3.476406E1,0E0,2.3230758E0,0E0,0E0,7.710186E0,1.9223358E1,2.077275E1,4.07329E1,1.8067434E-1,0E0,5.977886E0,1.0047388E1,2.224398E1,7.208975E0,6.0278625E0,2.0853876E1,6.4113464E0,3.0258335E1,0E0,0E0,0E0,0E0,0E0,0E0,0E0,0E0,0E0,0E0,0E0,0E0,0E0,0E0,0E0,0E0,0E0,0E0],"parents":[2147483647,0,0,1,1,2,2,3,3,4,4,5,5,6,6,8,8,11,11,12,12,13,13,14,14,15,15,17,17,18,18,19,19,20,20,21,21,22,22,23,23,24,24],"right_children":[2,4,6,8,10,12,14,-1,16,-1,-1,18,20,22,24,26,-1,28,30,32,34,36,38,40,42,-1,-1,-1,-1,-1,-1,-1,-1,-1,-1,-1,-1,-1,-1,-1,-1,-1,-1],"split_conditions":[-3.6618835E1,7.320981E-1,9.447917E-2,7.142857E-3,2.5917011E1,8.8309926E-1,-7.5E1,6.429136E-2,-1.8890593E1,7.735004E-2,1.8094266E-2,1.98E2,4.323001E0,1.1526679E0,-5.328503E-1,8.8449043E-1,3.544934E-2,6.1189983E1,5.287849E-2,-9.740673E-2,3.7029788E-1,-3.3634388E0,-1.6961963E-1,-9.481735E0,-1.0923274E0,-1.140004E-3,-1.7906535E-2,-9.335714E-3,6.533476E-3,-2.031469E-2,5.6044407E-2,-1.1512187E-2,4.7183665E-3,9.399017E-3,-7.785961E-3,-1.4315471E-2,7.864456E-3,4.381909E-2,-1.4237353E-3,-1.6175804E-3,7.956707E-2,6.1509395E-3,-8.160149E-5],"split_indices":[7,9,11,14,5,4,13,0,1,0,0,8,6,4,10,4,0,0,11,10,9,6,10,12,1,0,0,0,0,0,0,0,0,0,0,0,0,0,0,0,0,0,0],"split_type":[0,0,0,0,0,0,0,0,0,0,0,0,0,0,0,0,0,0,0,0,0,0,0,0,0,0,0,0,0,0,0,0,0,0,0,0,0,0,0,0,0,0,0],"sum_hessian":[8.445829E3,3.396292E1,8.411866E3,1.358403E1,2.0378893E1,2.8710535E3,5.540813E3,8.149447E0,5.4345827E0,1.8972029E1,1.4068646E0,1.2055658E3,1.6654877E3,4.702216E2,5.0705913E3,4.0523252E0,1.3822575E0,1.1958986E3,9.667237E0,1.0465526E3,6.1893506E2,3.6307388E2,1.0714768E2,1.3506542E1,5.057085E3,1.6890645E0,2.363261E0,1.1573008E3,3.859772E1,4.0093546E0,5.657882E0,1.5833441E2,8.8821826E2,4.1053547E1,5.7788153E2,3.4289435E2,2.0179564E1,1.898217E1,8.816551E1,1.7274196E0,1.1779122E1,2.224654E3,2.832431E3],"tree_param":{"num_deleted":"0","num_feature":"17","num_nodes":"43","size_leaf_vector":"1"}},{"base_weights":[-6.599959E-3,-1.03315055E-1,1.646317E-1,-3.0934355E-1,-7.654804E-2,6.0690757E-2,2.7860978E-1,-4.4819856E-1,-5.492272E-2,4.057452E-1,-8.5028864E-2,4.0223926E-2,6.005939E-1,3.2598343E-1,-1.4324073E-1,-1.3363551E-2,-4.9024147E-1,6.566367E-1,-2.2231059E-1,-2.6099524E-2,6.7641187E-1,-1.0256831E-1,1.388088E-1,2.3203492E-1,-1.2063331E-2,-2.4387496E-2,7.608865E-1,2.4558921E-1,6.5031165E-1,4.715694E-1,-3.0613878E-1,2.9658487E-2,-2.0221502E-2,-2.183181E-2,-1.3516818E-2,-8.068629E-3,4.4327162E-2,-1.2478246E-2,2.6374912E-2,-1.0110419E-3,3.8533643E-2,-8.361909E-3,-2.9312565E-3,1.6039506E-3,2.7952632E-2,-7.5466214E-3,1.4113743E-2,5.902086E-3,-3.3398387E-3,5.6248467E-2,1.8394673E-2,2.6121864E-2,6.8690293E-3,3.27345E-2,7.733099E-3,-6.7761145E-3,3.4647036E-2,2.4988878E-4,-1.5751535E-2],"categories":[],"categories_nodes":[],"categories_segments":[],"categories_sizes":[],"default_left":[0,0,0,0,0,0,0,0,0,0,0,0,0,0,0,0,0,0,0,0,0,0,0,0,0,0,0,0,0,0,0,0,0,0,0,0,0,0,0,0,0,0,0,0,0,0,0,0,0,0,0,0,0,0,0,0,0,0,0],"id":5,"left_children":[1,3,5,7,9,11,13,15,17,19,21,23,25,27,29,31,33,35,37,-1,39,41,43,45,47,-1,49,51,53,55,57,-1,-1,-1,-1,-1,-1,-1,-1,-1,-1,-1,-1,-1,-1,-1,-1,-1,-1,-1,-1,-1,-1,-1,-1,-1,-1,-1,-1],"loss_changes":[1.6493558E2,3.5075417E1,4.2571526E1,2.5816612E1,2.3079304E1,2.0766651E1,3.430768E1,8.641998E0,3.1042568E1,2.8377636E1,2.1754631E1,1.8194447E1,1.3781519E1,4.0035873E1,1.7548704E1,1.6251244E1,3.4655304E0,1.9468575E1,1.6863111E1,0E0,1.5760448E1,1.6000267E1,2.2238447E1,1.9816256E1,1.6274275E1,0E0,1.1215374E1,3.7116096E1,2.3311981E1,9.452983E0,3.78061E0,0E0,0E0,0E0,0E0,0E0,0E0,0E0,0E0,0E0,0E0,0E0,0E0,0E0,0E0,0E0,0E0,0E0,0E0,0E0,0E0,0E0,0E0,0E0,0E0,0E0,0E0,0E0,0E0],"parents":[2147483647,0,0,1,1,2,2,3,3,4,4,5,5,6,6,7,7,8,8,9,9,10,10,11,11,12,12,13,13,14,14,15,15,16,16,17,17,18,18,20,20,21,21,22,22,23,23,24,24,26,26,27,27,28,28,29,29,30,30],"right_children":[2,4,6,8,10,12,14,16,18,20,22,24,26,28,30,32,34,36,38,-1,40,42,44,46,48,-1,50,52,54,56,58,-1,-1,-1,-1,-1,-1,-1,-1,-1,-1,-1,-1,-1,-1,-1,-1,-1,-1,-1,-1,-1,-1,-1,-1,-1,-1,-1,-1],"split_conditions":[1.0173713E0,7.813116E-1,4.2157013E-2,5.8E1,-9E1,2.4845732E1,3.7240707E1,-4.559088E1,1E0,9.875433E-2,3.6646458E1,-3.473527E0,-7.7E1,1.52E2,3.5E1,9.7095E-2,7.646729E-1,-1.35E1,1.36842785E1,-2.6099524E-2,-9.7E1,5.498935E-1,1.1103216E1,-9.481735E0,-2.4E1,-2.4387496E-2,6E0,4.4092377E1,1.3772575E0,1.2E1,3.572099E-1,2.9658487E-2,-2.0221502E-2,-2.183181E-2,-1.3516818E-2,-8.068629E-3,4.4327162E-2,-1.2478246E-2,2.6374912E-2,-1.0110419E-3,3.8533643E-2,-8.361909E-3,-2.9312565E-3,1.6039506E-3,2.7952632E-2,-7.5466214E-3,1.4113743E-2,5.902086E-3,-3.3398387E-3,5.6248467E-2,1.8394673E-2,2.6121864E-2,6.8690293E-3,3.27345E-2,7.733099E-3,-6.7761145E-3,3.4647036E-2,2.4988878E-4,-1.5751535E-2],"split_indices":[4,4,5,8,13,12,3,6,13,11,3,1,13,8,8,11,4,13,6,0,13,2,12,12,13,0,13,0,2,8,5,0,0,0,0,0,0,0,0,0,0,0,0,0,0,0,0,0,0,0,0,0,0,0,0,0,0,0,0],"split_type":[0,0,0,0,0,0,0,0,0,0,0,0,0,0,0,0,0,0,0,0,0,0,0,0,0,0,0,0,0,0,0,0,0,0,0,0,0,0,0,0,0,0,0,0,0,0,0,0,0,0,0,0,0,0,0,0,0,0,0],"sum_hessian":[9.9574375E3,6.3635645E3,3.593873E3,7.3047406E2,5.6330903E3,1.8805032E3,1.7133698E3,4.720708E2,2.5840326E2,9.653317E1,5.536557E3,1.8128553E3,6.764783E1,1.5405895E3,1.7278032E2,4.1735302E1,4.303355E2,4.8654022E1,2.0974924E2,1.9374289E1,7.715888E1,5.1347505E3,4.0180655E2,3.875877E2,1.4252677E3,7.5837207E0,6.006411E1,1.2359744E3,3.0461514E2,3.579351E1,1.3698682E2,1.6272453E1,2.546285E1,3.1343707E2,1.1689842E2,1.6962568E1,3.1691454E1,1.9097768E2,1.8771566E1,2.2658712E1,5.450017E1,1.1063214E3,4.0284292E3,3.4250607E2,5.930047E1,8.634407E1,3.0124365E2,4.4031744E2,9.8495026E2,1.7937733E1,4.2126377E1,1.8846922E2,1.0475051E3,2.2213623E2,8.247892E1,1.3856557E1,2.1936954E1,3.021791E1,1.06768906E2],"tree_param":{"num_deleted":"0","num_feature":"17","num_nodes":"59","size_leaf_vector":"1"}},{"base_weights":[4.4344333E-3,7.86279E-2,-1.2372837E-1,1.7982262E-1,3.386496E-2,-2.1067987E-1,-3.3731133E-2,2.8218412E-1,7.375172E-2,-6.1543014E-2,7.756634E-2,-7.1872175E-2,-3.0774018E-1,-3.3993554E-1,-7.3487647E-3,3.6949587E-1,9.692135E-2,-1.3353506E-1,2.1517406E-1,-3.3299245E-2,-4.6431035E-1,2.2651887E-1,2.5619406E-2,-1.8980148E-1,1.2938455E-1,-2.6190805E-1,-5.2048427E-1,-4.186695E-1,7.3607266E-1,3.750899E-2,-2.0689079E-1,-6.713559E-3,1.5560233E-2,1.9905928E-3,2.6793258E-2,1.1822693E-2,-8.086141E-3,1.2220044E-2,-1.21223815E-2,-1.8155709E-3,2.8148068E-2,-1.0522604E-3,-2.2579918E-2,1.8218135E-2,6.8150866E-3,-1.0458177E-2,2.0026977E-3,-2.0829112E-4,-1.3409062E-2,1.0365142E-2,-7.9668337E-4,-7.246348E-3,-1.5064893E-2,-3.0283209E-2,-1.601634E-2,6.940884E-3,-2.1278962E-2,7.391453E-3,3.1777587E-2,3.07266E-3,-9.857618E-3,-2.0044865E-2,4.8817362E-4],"categories":[],"categories_nodes":[],"categories_segments":[],"categories_sizes":[],"default_left":[0,0,0,0,0,0,0,0,0,0,0,0,0,0,0,0,0,0,0,0,0,0,0,0,0,0,0,0,0,0,0,0,0,0,0,0,0,0,0,0,0,0,0,0,0,0,0,0,0,0,0,0,0,0,0,0,0,0,0,0,0,0,0],"id":6,"left_children":[1,3,5,7,9,11,13,15,17,19,21,23,25,27,29,31,33,35,37,39,41,43,45,47,49,51,53,55,57,59,61,-1,-1,-1,-1,-1,-1,-1,-1,-1,-1,-1,-1,-1,-1,-1,-1,-1,-1,-1,-1,-1,-1,-1,-1,-1,-1,-1,-1,-1,-1,-1,-1],"loss_changes":[1.18298454E2,3.568594E1,3.5687943E1,2.6213974E1,2.2787386E1,3.1231697E1,1.8114538E1,1.9848541E1,3.4854527E1,1.9518057E1,2.8995071E1,2.271201E1,1.3171982E1,1.5377516E1,1.8498543E1,8.820595E0,1.0641449E1,1.4264184E1,3.3167477E1,1.4339188E1,4.919512E0,1.2376839E1,1.9524391E1,1.6189098E1,6.8580523E0,1.0352509E1,6.5409775E0,1.125642E1,2.5511122E-1,1.8853312E1,2.4458246E1,0E0,0E0,0E0,0E0,0E0,0E0,0E0,0E0,0E0,0E0,0E0,0E0,0E0,0E0,0E0,0E0,0E0,0E0,0E0,0E0,0E0,0E0,0E0,0E0,0E0,0E0,0E0,0E0,0E0,0E0,0E0,0E0],"parents":[2147483647,0,0,1,1,2,2,3,3,4,4,5,5,6,6,7,7,8,8,9,9,10,10,11,11,12,12,13,13,14,14,15,15,16,16,17,17,18,18,19,19,20,20,21,21,22,22,23,23,24,24,25,25,26,26,27,27,28,28,29,29,30,30],"right_children":[2,4,6,8,10,12,14,16,18,20,22,24,26,28,30,32,34,36,38,40,42,44,46,48,50,52,54,56,58,60,62,-1,-1,-1,-1,-1,-1,-1,-1,-1,-1,-1,-1,-1,-1,-1,-1,-1,-1,-1,-1,-1,-1,-1,-1,-1,-1,-1,-1,-1,-1,-1,-1],"split_conditions":[1.400482E-1,-1.2576192E1,2.4323874E0,3.916084E-1,-2.4297976E0,-7.2059364E0,-1.7014378E1,1.0921154E-1,4.6088947E1,6.2068963E-1,-1.6658066E-2,-1.2413239E1,8.0344826E-1,2.6540276E-2,1.56E2,-4.3725796E1,-4.4923168E-2,4.8611112E-2,-1E1,1.464521E1,7.041207E-2,5.7202384E-2,-3.75E1,4.9E1,4.9655172E-1,3.3571428E-1,3.8357277E1,1.5132466E-1,5.827884E1,3.3735108E-1,8.321678E-1,-6.713559E-3,1.5560233E-2,1.9905928E-3,2.6793258E-2,1.1822693E-2,-8.086141E-3,1.2220044E-2,-1.21223815E-2,-1.8155709E-3,2.8148068E-2,-1.0522604E-3,-2.2579918E-2,1.8218135E-2,6.8150866E-3,-1.0458177E-2,2.0026977E-3,-2.0829112E-4,-1.3409062E-2,1.0365142E-2,-7.9668337E-4,-7.246348E-3,-1.5064893E-2,-3.0283209E-2,-1.601634E-2,6.940884E-3,-2.1278962E-2,7.391453E-3,3.1777587E-2,3.07266E-3,-9.857618E-3,-2.0044865E-2,4.8817362E-4],"split_indices":[11,6,7,14,7,12,6,11,0,14,10,7,15,10,8,6,10,15,13,5,11,11,13,8,15,14,0,11,0,11,14,0,0,0,0,0,0,0,0,0,0,0,0,0,0,0,0,0,0,0,0,0,0,0,0,0,0,0,0,0,0,0,0],"split_type":[0,0,0,0,0,0,0,0,0,0,0,0,0,0,0,0,0,0,0,0,0,0,0,0,0,0,0,0,0,0,0,0,0,0,0,0,0,0,0,0,0,0,0,0,0,0,0,0,0,0,0,0,0,0,0,0,0,0,0,0,0,0,0],"sum_hessian":[1.2438867E4,7.8784297E3,4.5604375E3,2.415266E3,5.4631636E3,2.3187852E3,2.2416523E3,1.22828E3,1.1869861E3,1.7161313E3,3.747032E3,9.549025E2,1.3638826E3,1.7687578E2,2.0647766E3,8.341584E2,3.941216E2,4.814163E2,7.055698E2,1.6046865E3,1.1144481E2,9.680078E2,2.7790242E3,6.0213165E2,3.5277084E2,1.1239727E3,2.3990996E2,1.6538509E2,1.1490694E1,1.6864653E3,3.7831134E2,2.8959757E1,8.051986E2,3.651526E2,2.8969034E1,6.5914665E1,4.1550165E2,6.0119354E2,1.043763E2,1.5797108E3,2.4975725E1,2.0981161E1,9.046365E1,1.8923465E2,7.787732E2,2.1733525E2,2.561689E3,2.6578958E2,3.3634207E2,1.883543E2,1.6441656E2,6.6115424E2,4.6281845E2,7.898122E1,1.6092874E2,2.6475935E1,1.3890915E2,1.4989359E0,9.991758E0,1.4820347E3,2.044306E2,1.6091948E2,2.1739186E2],"tree_param":{"num_deleted":"0","num_feature":"17","num_nodes":"63","size_leaf_vector":"1"}},{"base_weights":[6.1071618E-3,1.441258E0,-4.3793232E-5,1.3486382E-1,1.7147489E0,-9.566403E-2,5.02149E-2,4.186521E-2,-2.0226931E-2,7.3868304E-2,5.843875E-1,-2.157517E-1,-8.5998E-3,-1.4445199E-1,8.229372E-2,-1.6492158E-2,5.409718E-2,-2.2740102E-1,9.4185376E-1,7.732124E-2,-1.5005615E-1,-3.3234826E-1,-1.7011644E-2,1.8074737E-1,-6.6833035E-3,-9.620585E-3,4.782189E-3,-1.9763526E-2,6.374463E-2,-1.0543509E-2,5.949206E-3,-7.06763E-3,1.1909074E-2,-3.5187798E-3,-1.5183058E-2,4.18808E-3,-9.0207625E-3,6.3265758E-3,3.172293E-2,-4.252968E-3,2.3896592E-3],"categories":[],"categories_nodes":[],"categories_segments":[],"categories_sizes":[],"default_left":[0,0,0,0,0,0,0,0,0,0,0,0,0,0,0,0,0,0,0,0,0,0,0,0,0,0,0,0,0,0,0,0,0,0,0,0,0,0,0,0,0],"id":7,"left_children":[1,3,5,7,9,11,13,-1,-1,-1,15,17,19,21,23,-1,-1,25,27,29,31,33,35,37,39,-1,-1,-1,-1,-1,-1,-1,-1,-1,-1,-1,-1,-1,-1,-1,-1],"loss_changes":[7.4603424E1,1.2654907E1,4.0450615E1,4.80942E0,3.3565369E0,3.0317564E1,3.446527E1,0E0,0E0,0E0,4.057214E0,1.6649555E1,2.0456417E1,1.8693745E1,4.150067E1,0E0,0E0,5.5223503E0,1.2333524E1,2.5531036E1,7.637678E0,3.60849E0,1.1859197E1,3.0973145E1,1.6482666E1,0E0,0E0,0E0,0E0,0E0,0E0,0E0,0E0,0E0,0E0,0E0,0E0,0E0,0E0,0E0,0E0],"parents":[2147483647,0,0,1,1,2,2,3,3,4,4,5,5,6,6,10,10,11,11,12,12,13,13,14,14,17,17,18,18,19,19,20,20,21,21,22,22,23,23,24,24],"right_children":[2,4,6,8,10,12,14,-1,-1,-1,16,18,20,22,24,-1,-1,26,28,30,32,34,36,38,40,-1,-1,-1,-1,-1,-1,-1,-1,-1,-1,-1,-1,-1,-1,-1,-1],"split_conditions":[-5.328503E-1,-8.55E1,9.493647E-2,2.5410585E1,-3.1765732E1,8.8309926E-1,-6.3E1,4.186521E-2,-2.0226931E-2,7.3868304E-2,6.676394E-1,9.9285716E-1,4.323001E0,4.2705208E1,-6.213747E-1,-1.6492158E-2,5.409718E-2,1.8532081E0,5.287849E-2,-9.024331E-2,1.22E2,-3.1194615E-1,3.2566578E0,9.7931033E-1,5E-1,-9.620585E-3,4.782189E-3,-1.9763526E-2,6.374463E-2,-1.0543509E-2,5.949206E-3,-7.06763E-3,1.1909074E-2,-3.5187798E-3,-1.5183058E-2,4.18808E-3,-9.0207625E-3,6.3265758E-3,3.172293E-2,-4.252968E-3,2.3896592E-3],"split_indices":[10,13,11,0,6,4,13,0,0,0,4,15,6,0,1,0,0,2,11,10,13,10,1,16,15,0,0,0,0,0,0,0,0,0,0,0,0,0,0,0,0],"split_type":[0,0,0,0,0,0,0,0,0,0,0,0,0,0,0,0,0,0,0,0,0,0,0,0,0,0,0,0,0,0,0,0,0,0,0,0,0,0,0,0,0],"sum_hessian":[8.450198E3,3.5066692E1,8.415132E3,6.328799E0,2.8737892E1,2.898898E3,5.516234E3,2.3498867E0,3.978912E0,2.5166245E1,3.571649E0,1.2177616E3,1.6811364E3,7.7991284E2,4.7363213E3,1.756024E0,1.815625E0,1.2064246E3,1.1337035E1,1.0461531E3,6.3498334E2,3.1454468E2,4.653682E2,2.247935E3,2.488386E3,1.1627826E3,4.364199E1,3.6148431E0,7.7221923E0,1.8071608E2,8.6543695E2,5.999057E2,3.5077618E1,5.140676E1,2.631379E2,2.9415607E2,1.7121213E2,2.1691921E3,7.874288E1,9.9509186E2,1.4932942E3],"tree_param":{"num_deleted":"0","num_feature":"17","num_nodes":"41","size_leaf_vector":"1"}},{"base_weights":[-4.022725E-3,-9.49967E-2,1.5701304E-1,-3.3292678E-1,-6.3755184E-2,1.344213E-1,5.9215367E-1,-3.6355373E-1,6.033828E-1,6.0415115E-2,-1.10283546E-1,3.559434E-1,9.8301E-2,1.012406E0,4.9750668E-1,-4.5709977E-1,-1.8059164E-1,-2.3439588E-2,1.0336057E0,-6.3365325E-2,2.3814797E-1,-1.2133401E-1,1.0293297E0,-2.656622E-2,4.5717835E-1,5.3819414E-2,3.060732E-1,1.201531E0,5.744871E-2,3.7788415E-1,9.242912E-1,-3.1518533E-3,-1.9742493E-2,2.37024E-2,-1.4515082E-2,-1.887014E-2,5.042599E-2,-5.724315E-3,8.393317E-3,4.700132E-2,7.882806E-3,2.6171973E-3,-7.428668E-3,-9.697654E-3,4.5330513E-2,2.582057E-2,7.4654114E-3,1.0029023E-2,-2.4949553E-4,1.964626E-2,2.3861793E-4,1.274667E-2,5.3187456E-2,-2.1165017E-2,3.426501E-2,2.5583707E-2,-6.810563E-4,5.6946147E-2,2.3891332E-2],"categories":[],"categories_nodes":[],"categories_segments":[],"categories_sizes":[],"default_left":[0,0,0,0,0,0,0,0,0,0,0,0,0,0,0,0,0,0,0,0,0,0,0,0,0,0,0,0,0,0,0,0,0,0,0,0,0,0,0,0,0,0,0,0,0,0,0,0,0,0,0,0,0,0,0,0,0,0,0],"id":8,"left_children":[1,3,5,7,9,11,13,15,17,19,21,23,25,27,29,31,33,-1,35,37,39,41,43,-1,45,47,49,51,53,55,57,-1,-1,-1,-1,-1,-1,-1,-1,-1,-1,-1,-1,-1,-1,-1,-1,-1,-1,-1,-1,-1,-1,-1,-1,-1,-1,-1,-1],"loss_changes":[1.4505948E2,4.701053E1,3.505921E1,2.1271484E1,3.2325928E1,2.716441E1,6.5018196E0,1.2095047E1,1.2696506E1,3.3574726E1,5.137434E1,4.947926E1,2.7008387E1,5.6035576E0,7.0900154E0,6.446144E0,3.437216E1,0E0,6.6490784E0,1.9636892E1,2.3877628E1,4.8487274E1,5.4545937E0,0E0,2.1982323E1,2.8497686E1,2.8625889E1,2.536827E0,3.379493E0,1.1948744E1,4.246063E0,0E0,0E0,0E0,0E0,0E0,0E0,0E0,0E0,0E0,0E0,0E0,0E0,0E0,0E0,0E0,0E0,0E0,0E0,0E0,0E0,0E0,0E0,0E0,0E0,0E0,0E0,0E0,0E0],"parents":[2147483647,0,0,1,1,2,2,3,3,4,4,5,5,6,6,7,7,8,8,9,9,10,10,11,11,12,12,13,13,14,14,15,15,16,16,18,18,19,19,20,20,21,21,22,22,24,24,25,25,26,26,27,27,28,28,29,29,30,30],"right_children":[2,4,6,8,10,12,14,16,18,20,22,24,26,28,30,32,34,-1,36,38,40,42,44,-1,46,48,50,52,54,56,58,-1,-1,-1,-1,-1,-1,-1,-1,-1,-1,-1,-1,-1,-1,-1,-1,-1,-1,-1,-1,-1,-1,-1,-1,-1,-1,-1,-1],"split_conditions":[1.0173713E0,7.813116E-1,5.325754E1,1.36842785E1,-9.740673E-2,-1.17060155E-1,6.896552E-1,4.6206897E-1,1.3653375E1,9.163346E-1,4.6782574E1,1.4705882E-2,1.57E2,6.664924E0,4.6788284E-1,-4.559088E1,1E0,-2.3439588E-2,8.9E1,4.6896553E-1,3.9285716E-2,2E-1,2.851901E-1,-2.656622E-2,-1.8391527E0,1.79457E1,1.218691E-1,1.0431232E-1,6.1938038E1,3.6911396E1,5.008204E-1,-3.1518533E-3,-1.9742493E-2,2.37024E-2,-1.4515082E-2,-1.887014E-2,5.042599E-2,-5.724315E-3,8.393317E-3,4.700132E-2,7.882806E-3,2.6171973E-3,-7.428668E-3,-9.697654E-3,4.5330513E-2,2.582057E-2,7.4654114E-3,1.0029023E-2,-2.4949553E-4,1.964626E-2,2.3861793E-4,1.274667E-2,5.3187456E-2,-2.1165017E-2,3.426501E-2,2.5583707E-2,-6.810563E-4,5.6946147E-2,2.3891332E-2],"split_indices":[4,4,6,6,10,10,14,15,3,4,3,14,8,1,11,6,13,0,8,15,15,16,9,0,1,3,10,11,6,3,10,0,0,0,0,0,0,0,0,0,0,0,0,0,0,0,0,0,0,0,0,0,0,0,0,0,0,0,0],"split_type":[0,0,0,0,0,0,0,0,0,0,0,0,0,0,0,0,0,0,0,0,0,0,0,0,0,0,0,0,0,0,0,0,0,0,0,0,0,0,0,0,0,0,0,0,0,0,0,0,0,0,0,0,0,0,0,0,0,0,0],"sum_hessian":[9.899609E3,6.3261733E3,3.5734363E3,7.3312915E2,5.593044E3,3.3983108E3,1.751255E2,7.105002E2,2.262895E1,1.5244484E3,4.0685957E3,4.7518646E2,2.9231243E3,3.0408552E1,1.4471695E2,4.6913803E2,2.4136218E2,5.9148874E0,1.6714064E1,8.9899493E2,6.254534E2,4.0304077E3,3.8188038E1,4.2398216E1,4.3278824E2,2.4087073E3,5.14417E2,2.5166279E1,5.2422743E0,1.14507355E2,3.0209604E1,4.1520363E1,4.2761768E2,4.561947E1,1.957427E2,2.0492454E0,1.4664818E1,6.962469E2,2.0274803E2,2.5111708E1,6.0034174E2,1.033211E3,2.9971968E3,2.78439E0,3.540365E1,2.5434354E2,1.7844472E2,5.6221564E2,1.8464918E3,3.177912E2,1.9662576E2,3.6319928E0,2.1534285E1,3.2181504E0,2.0241241E0,6.849554E1,4.6011814E1,1.0627357E1,1.9582249E1],"tree_param":{"num_deleted":"0","num_feature":"17","num_nodes":"59","size_leaf_vector":"1"}},{"base_weights":[-3.4584948E-3,1.0009755E-1,-1.8752836E-1,2.3167755E-1,5.167989E-2,-3.8885042E-1,-1.1150558E-1,2.9742646E-1,8.326871E-2,-1.12059854E-1,8.993667E-2,-1.559707E-1,-4.3478248E-1,-1.9553433E-1,-2.8980643E-2,5.459409E-1,2.6519096E-1,-4.983238E-1,1.2297465E-1,5.3610817E-2,-2.508385E-1,9.712116E-2,-6.7832094E-1,-6.725836E-1,-6.344945E-2,-2.7774304E-1,-5.099655E-1,-8.553254E-2,-2.9641417E-1,9.162588E-2,-1.256855E-1,2.826903E-2,1.198032E-2,1.1437146E-2,-2.9437058E-3,-3.155142E-2,2.3435517E-3,-8.229938E-5,1.2563939E-2,-8.72621E-3,1.0656414E-2,-2.180764E-3,-1.3841839E-2,-4.0986494E-4,6.1040972E-3,1.9283604E-2,-3.0998051E-2,-4.6326253E-3,-3.3216592E-2,-5.180099E-3,1.6013816E-2,-1.6943654E-2,-9.817674E-4,-1.564436E-2,-2.4308676E-2,-2.039104E-2,-1.9040105E-3,-1.4223105E-2,-1.5041905E-3,4.910991E-3,-7.511508E-3,-3.7175429E-3,-1.590802E-2],"categories":[],"categories_nodes":[],"categories_segments":[],"categories_sizes":[],"default_left":[0,0,0,0,0,0,0,0,0,0,0,0,0,0,0,0,0,0,0,0,0,0,0,0,0,0,0,0,0,0,0,0,0,0,0,0,0,0,0,0,0,0,0,0,0,0,0,0,0,0,0,0,0,0,0,0,0,0,0,0,0,0,0],"id":9,"left_children":[1,3,5,7,9,11,13,15,17,19,21,23,25,27,29,31,33,35,37,39,41,43,45,47,49,51,53,55,57,59,61,-1,-1,-1,-1,-1,-1,-1,-1,-1,-1,-1,-1,-1,-1,-1,-1,-1,-1,-1,-1,-1,-1,-1,-1,-1,-1,-1,-1,-1,-1,-1,-1],"loss_changes":[2.3787314E2,5.0866806E1,6.872191E1,2.093422E1,3.6588455E1,1.3101501E1,2.2620193E1,1.17764435E1,1.5321638E1,2.545066E1,2.6195015E1,9.726404E0,1.1993042E1,1.7912907E1,1.9224476E1,6.520977E0,9.289139E0,6.9098196E0,1.4802231E1,2.927163E1,1.123737E1,2.7945126E1,5.305706E0,2.6226568E0,5.395958E0,1.2358637E1,7.823578E0,1.2442521E1,1.28917465E1,6.4082465E0,8.110589E0,0E0,0E0,0E0,0E0,0E0,0E0,0E0,0E0,0E0,0E0,0E0,0E0,0E0,0E0,0E0,0E0,0E0,0E0,0E0,0E0,0E0,0E0,0E0,0E0,0E0,0E0,0E0,0E0,0E0,0E0,0E0,0E0],"parents":[2147483647,0,0,1,1,2,2,3,3,4,4,5,5,6,6,7,7,8,8,9,9,10,10,11,11,12,12,13,13,14,14,15,15,16,16,17,17,18,18,19,19,20,20,21,21,22,22,23,23,24,24,25,25,26,26,27,27,28,28,29,29,30,30],"right_children":[2,4,6,8,10,12,14,16,18,20,22,24,26,28,30,32,34,36,38,40,42,44,46,48,50,52,54,56,58,60,62,-1,-1,-1,-1,-1,-1,-1,-1,-1,-1,-1,-1,-1,-1,-1,-1,-1,-1,-1,-1,-1,-1,-1,-1,-1,-1,-1,-1,-1,-1,-1,-1],"split_conditions":[1.0173713E0,8.3975536E-1,-3.2826216E0,2.550033E1,-7.5881133E0,-1.0744636E1,2.444952E1,4.895105E-2,4.4827588E-2,-8.017409E0,4.7976463E1,-3.6618835E1,1.24571815E-1,7.655758E-2,1.1147177E0,9.1976225E-2,7.3E1,-5E1,-2.3135579E0,-1.4345127E1,2.1629372E1,2.5735295E-1,2.9085472E-1,8.763915E-1,3.5054088E0,3.146853E-1,1.7525841E-1,2.6402745E-1,2.0095208E0,9.75E1,4.2921457E-1,2.826903E-2,1.198032E-2,1.1437146E-2,-2.9437058E-3,-3.155142E-2,2.3435517E-3,-8.229938E-5,1.2563939E-2,-8.72621E-3,1.0656414E-2,-2.180764E-3,-1.3841839E-2,-4.0986494E-4,6.1040972E-3,1.9283604E-2,-3.0998051E-2,-4.6326253E-3,-3.3216592E-2,-5.180099E-3,1.6013816E-2,-1.6943654E-2,-9.817674E-4,-1.564436E-2,-2.4308676E-2,-2.039104E-2,-1.9040105E-3,-1.4223105E-2,-1.5041905E-3,4.910991E-3,-7.511508E-3,-3.7175429E-3,-1.590802E-2],"split_indices":[4,4,7,3,7,12,3,15,15,12,3,7,11,5,4,11,13,13,1,7,3,16,9,2,5,16,5,9,2,13,11,0,0,0,0,0,0,0,0,0,0,0,0,0,0,0,0,0,0,0,0,0,0,0,0,0,0,0,0,0,0,0,0],"split_type":[0,0,0,0,0,0,0,0,0,0,0,0,0,0,0,0,0,0,0,0,0,0,0,0,0,0,0,0,0,0,0,0,0,0,0,0,0,0,0,0,0,0,0,0,0,0,0,0,0,0,0,0,0,0,0,0,0,0,0,0,0,0,0],"sum_hessian":[1.24772295E4,7.985254E3,4.4919756E3,2.1469392E3,5.8383145E3,1.230164E3,3.2618115E3,1.4871082E3,6.598311E2,1.1053722E3,4.7329424E3,2.0338402E2,1.0267799E3,1.615502E3,1.6463097E3,1.6891895E2,1.3181892E3,4.1430325E1,6.184008E2,5.0414703E2,6.0122516E2,4.689957E3,4.2985264E1,2.9939676E1,1.7344434E2,3.3394424E2,6.9283575E2,7.7369464E2,8.418073E2,7.32641E2,9.136687E2,1.01093056E2,6.782588E1,1.2423011E3,7.588805E1,2.695526E1,1.4475064E1,3.7443607E2,2.4396475E2,2.2138777E2,2.8275928E2,1.9686304E2,4.0436212E2,1.598106E3,3.0918513E3,2.9976902E0,3.9987576E1,6.9956164E0,2.294406E1,1.5245297E2,2.0991365E1,2.1146347E2,1.2248077E2,3.149218E2,3.779139E2,6.2478737E1,7.112159E2,6.848725E2,1.5693484E2,6.5966266E2,7.29783E1,8.166917E2,9.697695E1],"tree_param":{"num_deleted":"0","num_feature":"17","num_nodes":"63","size_leaf_vector":"1"}},{"base_weights":[-3.571985E-3,1.3237686E0,-9.49693E-3,5.8392394E-1,1.6671208E0,-9.7471066E-2,3.6388498E-2,1.2882054E0,-2.6262015E-1,7.0220046E-2,5.0114655E-1,-2.0175198E-1,2.6127286E-3,1.0590089E-1,-2.8463393E-2,2.8389823E-4,6.413779E-2,-2.0566627E-2,1.1411258E-2,-1.3341468E-2,4.3191098E-2,-2.1190675E-1,8.3217037E-1,9.168453E-2,-1.330579E-1,1.9560637E-1,2.7097518E-2,-1.3147143E-1,2.9453924E-2,-6.185226E-3,-1.4238641E-2,-2.0716893E-2,6.2221263E-2,6.502034E-4,1.0911334E-2,-5.690017E-3,4.4789176E-2,4.8035714E-3,1.8410075E-2,-1.9601476E-3,5.733985E-3,-2.093736E-3,-9.245775E-3,2.9081597E-3,-7.4973027E-3],"categories":[],"categories_nodes":[],"categories_segments":[],"categories_sizes":[],"default_left":[0,0,0,0,0,0,0,0,0,0,0,0,0,0,0,0,0,0,0,0,0,0,0,0,0,0,0,0,0,0,0,0,0,0,0,0,0,0,0,0,0,0,0,0,0],"id":10,"left_children":[1,3,5,7,9,11,13,15,17,-1,19,21,23,25,27,-1,-1,-1,-1,-1,-1,29,31,33,35,37,39,41,43,-1,-1,-1,-1,-1,-1,-1,-1,-1,-1,-1,-1,-1,-1,-1,-1],"loss_changes":[6.620516E1,8.5298E0,3.383258E1,8.325942E0,1.697815E0,2.9984896E1,2.4834785E1,3.0104961E0,1.0997069E0,0E0,1.8872666E0,1.4948582E1,1.7739544E1,1.8790462E1,1.700982E1,0E0,0E0,0E0,0E0,0E0,0E0,1.1447826E1,1.4368111E1,1.2100578E1,6.859497E0,2.4791618E1,1.2539619E1,8.080545E0,1.71367E1,0E0,0E0,0E0,0E0,0E0,0E0,0E0,0E0,0E0,0E0,0E0,0E0,0E0,0E0,0E0,0E0],"parents":[2147483647,0,0,1,1,2,2,3,3,4,4,5,5,6,6,7,7,8,8,10,10,11,11,12,12,13,13,14,14,21,21,22,22,23,23,24,24,25,25,26,26,27,27,28,28],"right_children":[2,4,6,8,10,12,14,16,18,-1,20,22,24,26,28,-1,-1,-1,-1,-1,-1,30,32,34,36,38,40,42,44,-1,-1,-1,-1,-1,-1,-1,-1,-1,-1,-1,-1,-1,-1,-1,-1],"split_conditions":[-3.6618835E1,8.5609776E-1,9.493647E-2,7.142857E-3,6.0623676E1,9.0106213E-1,-6.213747E-1,6.013986E-1,7.163614E-1,7.0220046E-2,7.5E1,9.9285716E-1,4.323001E0,8.032185E-1,9.9675626E-1,2.8389823E-4,6.413779E-2,-2.0566627E-2,1.1411258E-2,-1.3341468E-2,4.3191098E-2,3.2374102E-1,1.58522005E1,1.014524E0,3.2702813E0,1.9615808E-1,-8.009359E0,5.865244E1,8.43095E0,-6.185226E-3,-1.4238641E-2,-2.0716893E-2,6.2221263E-2,6.502034E-4,1.0911334E-2,-5.690017E-3,4.4789176E-2,4.8035714E-3,1.8410075E-2,-1.9601476E-3,5.733985E-3,-2.093736E-3,-9.245775E-3,2.9081597E-3,-7.4973027E-3],"split_indices":[7,2,11,14,3,4,1,15,2,0,8,15,6,2,4,0,0,0,0,0,0,16,3,4,2,11,6,0,1,0,0,0,0,0,0,0,0,0,0,0,0,0,0,0,0],"split_type":[0,0,0,0,0,0,0,0,0,0,0,0,0,0,0,0,0,0,0,0,0,0,0,0,0,0,0,0,0,0,0,0,0,0,0,0,0,0,0,0,0,0,0,0,0],"sum_hessian":[8.415716E3,3.6410458E1,8.379306E3,1.2397454E1,2.4013002E1,2.8719385E3,5.5073667E3,6.482567E0,5.9148874E0,2.1851088E1,2.1619153E0,1.4059807E3,1.4659578E3,2.6578647E3,2.849502E3,1.4820693E0,5.000498E0,4.095971E0,1.8189166E0,1.0585369E0,1.1033784E0,1.3930933E3,1.2887363E1,8.8515283E2,5.808049E2,1.2422606E3,1.4156042E3,1.0250837E3,1.8244182E3,9.982683E2,3.9482498E2,4.595066E0,8.292297E0,6.256523E2,2.5950055E2,5.7745416E2,3.3507006E0,9.676062E2,2.746544E2,8.5589496E2,5.597093E2,5.7228516E2,4.527986E2,1.5216464E3,3.0277188E2],"tree_param":{"num_deleted":"0","num_feature":"17","num_nodes":"45","size_leaf_vector":"1"}},{"base_weights":[3.5589673E-3,-9.028391E-2,1.6777103E-1,-2.995615E-1,-6.354124E-2,1.2062989E-1,3.654756E-1,-4.4642583E-1,-3.4580823E-2,7.2071776E-2,-9.394378E-2,2.8219804E-1,3.7984863E-2,4.340061E-1,2.8217912E-3,-1.0043753E-1,-4.8076674E-1,6.031192E-1,-1.7790206E-1,3.880196E-2,1.0246464E0,4.5627132E-1,-1.04965284E-1,1.4019851E-1,4.986183E-1,2.9548487E-1,-9.090621E-3,1.487349E-1,5.525621E-1,9.356539E-1,-1.1022524E-1,2.7136149E-2,-2.1734148E-2,-4.7582854E-3,-2.0606946E-2,4.3627482E-2,-2.9182986E-3,-1.130173E-2,3.1460717E-2,-1.0808987E-3,1.0862027E-2,8.572996E-3,4.8106644E-2,-1.4207388E-2,2.5639681E-2,-5.109935E-3,5.2692154E-3,8.09163E-3,-9.188087E-3,2.1669162E-2,-6.7435442E-3,3.923925E-2,9.658507E-3,-1.3070235E-3,2.643221E-2,-1.073648E-2,1.7867887E-2,3.965705E-2,1.646149E-2,-7.6742116E-3,4.941671E-2,-1.01148235E-2,1.45243285E-2],"categories":[],"categories_nodes":[],"categories_segments":[],"categories_sizes":[],"default_left":[0,0,0,0,0,0,0,0,0,0,0,0,0,0,0,0,0,0,0,0,0,0,0,0,0,0,0,0,0,0,0,0,0,0,0,0,0,0,0,0,0,0,0,0,0,0,0,0,0,0,0,0,0,0,0,0,0,0,0,0,0,0,0],"id":11,"left_children":[1,3,5,7,9,11,13,15,17,19,21,23,25,27,29,31,33,35,37,39,41,43,45,47,49,51,53,55,57,59,61,-1,-1,-1,-1,-1,-1,-1,-1,-1,-1,-1,-1,-1,-1,-1,-1,-1,-1,-1,-1,-1,-1,-1,-1,-1,-1,-1,-1,-1,-1,-1,-1],"loss_changes":[1.5156137E2,3.5008068E1,3.32899E1,2.7571136E1,2.2892286E1,3.857189E1,1.7100624E1,5.369728E0,2.3309816E1,3.2193314E1,2.7546902E1,2.99758E1,2.3189451E1,1.9491516E1,1.1742499E1,1.5008008E1,5.0995407E0,1.5510967E1,2.1218658E1,1.5079528E1,4.687866E0,1.3603796E1,2.3994831E1,1.3637371E1,1.1221458E1,1.0712502E1,2.5587044E1,2.1408804E1,2.4872635E1,4.3048553E0,6.7990355E0,0E0,0E0,0E0,0E0,0E0,0E0,0E0,0E0,0E0,0E0,0E0,0E0,0E0,0E0,0E0,0E0,0E0,0E0,0E0,0E0,0E0,0E0,0E0,0E0,0E0,0E0,0E0,0E0,0E0,0E0,0E0,0E0],"parents":[2147483647,0,0,1,1,2,2,3,3,4,4,5,5,6,6,7,7,8,8,9,9,10,10,11,11,12,12,13,13,14,14,15,15,16,16,17,17,18,18,19,19,20,20,21,21,22,22,23,23,24,24,25,25,26,26,27,27,28,28,29,29,30,30],"right_children":[2,4,6,8,10,12,14,16,18,20,22,24,26,28,30,32,34,36,38,40,42,44,46,48,50,52,54,56,58,60,62,-1,-1,-1,-1,-1,-1,-1,-1,-1,-1,-1,-1,-1,-1,-1,-1,-1,-1,-1,-1,-1,-1,-1,-1,-1,-1,-1,-1,-1,-1,-1,-1],"split_conditions":[1.0173713E0,7.813116E-1,1.55E2,4.6206897E-1,1.6197184E-1,-3E1,3.5093494E1,-4.559088E1,1E0,9.103587E-2,-9E1,-5.75E1,1.6171999E1,1.0743221E0,8.496503E-1,9.7095E-2,2.7509296E1,-8.588172E0,1.36842785E1,3.3458827E0,3.4E1,1.6101122E1,3.6646458E1,2.1E1,5.8E1,-1.1162628E1,1.2920689E1,1.72E2,8.2E1,6.4E1,1.12E2,2.7136149E-2,-2.1734148E-2,-4.7582854E-3,-2.0606946E-2,4.3627482E-2,-2.9182986E-3,-1.130173E-2,3.1460717E-2,-1.0808987E-3,1.0862027E-2,8.572996E-3,4.8106644E-2,-1.4207388E-2,2.5639681E-2,-5.109935E-3,5.2692154E-3,8.09163E-3,-9.188087E-3,2.1669162E-2,-6.7435442E-3,3.923925E-2,9.658507E-3,-1.3070235E-3,2.643221E-2,-1.073648E-2,1.7867887E-2,3.965705E-2,1.646149E-2,-7.6742116E-3,4.941671E-2,-1.01148235E-2,1.45243285E-2],"split_indices":[4,4,8,15,16,13,3,6,13,11,13,13,3,4,15,11,0,6,6,12,8,3,3,8,8,6,1,8,13,13,13,0,0,0,0,0,0,0,0,0,0,0,0,0,0,0,0,0,0,0,0,0,0,0,0,0,0,0,0,0,0,0,0],"split_type":[0,0,0,0,0,0,0,0,0,0,0,0,0,0,0,0,0,0,0,0,0,0,0,0,0,0,0,0,0,0,0,0,0,0,0,0,0,0,0,0,0,0,0,0,0,0,0,0,0,0,0,0,0,0,0,0,0,0,0,0,0,0,0],"sum_hessian":[9.833194E3,6.2575938E3,3.5756003E3,7.0787115E2,5.5497227E3,2.8884756E3,6.871246E2,4.5500305E2,2.5286813E2,1.01607336E3,4.533649E3,9.766819E2,1.9117938E3,5.777506E2,1.0937398E2,4.143777E1,4.1356528E2,4.581383E1,2.070543E2,9.82789E2,3.3284355E1,8.8237976E1,4.445411E3,5.9073285E2,3.85949E2,2.9467313E2,1.6171207E3,1.7027852E2,4.0747208E2,1.1035497E1,9.833848E1,1.4829435E1,2.6608337E1,3.6300537E1,3.7726474E2,2.6261501E1,1.955233E1,1.8742537E2,1.9628931E1,7.668091E2,2.1597989E2,6.3921404E0,2.6892214E1,1.619082E1,7.204716E1,4.055509E3,3.8990204E2,5.0621222E2,8.452066E1,3.6270154E2,2.3247484E1,2.027255E1,2.7440057E2,1.563042E3,5.4078655E1,7.099074E1,9.928779E1,9.762781E1,3.0984427E2,2.393341E0,8.642156E0,7.5923645E1,2.2414835E1],"tree_param":{"num_deleted":"0","num_feature":"17","num_nodes":"63","size_leaf_vector":"1"}},{"base_weights":[1.7647482E-3,9.808741E-2,-1.7460983E-1,1.3422437E-1,-5.8880065E-2,-3.860743E-1,-9.766893E-2,3.3039573E-1,1.073671E-1,-6.744551E-1,-4.472591E-2,-3.471699E-1,-6.050982E-1,-8.424181E-2,-4.1838467E-1,4.7594807E-1,1.6271602E-1,1.11056745E-1,-7.8458464E-1,-7.765525E-1,2.559886E-2,3.0845997E-1,-7.268333E-2,-2.2990571E-1,-4.5842177E-1,2.2675017E-1,-6.4596504E-1,-1.1835854E-2,-1.3709483E-1,-6.7493856E-1,-2.3868045E-1,-8.13988E-3,2.0791292E-2,-3.5401788E-3,1.0316206E-2,3.514212E-3,1.0480679E-2,-3.7868503E-2,1.7379995E-2,-1.202272E-3,-3.4106858E-2,2.2433428E-2,-1.0586279E-2,-1.9311232E-2,-1.5779495E-3,-1.3948902E-2,-1.5448616E-3,-2.0347461E-2,-4.482822E-3,3.1290136E-2,-1.0759694E-2,-3.2651883E-2,-2.0904271E-2,5.24085E-4,-1.3354655E-2,-2.3759203E-2,-5.1130983E-3,1.0579823E-2,-3.0702343E-2,-2.1295607E-2,7.1133077E-3],"categories":[],"categories_nodes":[],"categories_segments":[],"categories_sizes":[],"default_left":[0,0,0,0,0,0,0,0,0,0,0,0,0,0,0,0,0,0,0,0,0,0,0,0,0,0,0,0,0,0,0,0,0,0,0,0,0,0,0,0,0,0,0,0,0,0,0,0,0,0,0,0,0,0,0,0,0,0,0,0,0],"id":12,"left_children":[1,3,5,7,9,11,13,15,17,19,21,23,25,27,29,31,33,35,37,39,-1,41,43,45,47,49,51,53,55,57,59,-1,-1,-1,-1,-1,-1,-1,-1,-1,-1,-1,-1,-1,-1,-1,-1,-1,-1,-1,-1,-1,-1,-1,-1,-1,-1,-1,-1,-1,-1],"loss_changes":[2.1247604E2,4.5891922E1,7.1839035E1,3.46091E1,1.3165276E1,9.829422E0,1.391913E1,1.9236664E1,1.9126366E1,5.055584E0,1.4650946E1,1.2977531E1,6.1421204E0,1.1905701E1,5.8306484E0,1.2707336E1,8.8528385E0,2.015947E1,5.1463394E0,1.7911243E0,0E0,1.5894105E1,1.8702797E1,1.1128468E1,8.884514E0,2.6886277E0,3.111145E0,1.0556774E1,7.539177E0,4.8134403E0,9.633656E0,0E0,0E0,0E0,0E0,0E0,0E0,0E0,0E0,0E0,0E0,0E0,0E0,0E0,0E0,0E0,0E0,0E0,0E0,0E0,0E0,0E0,0E0,0E0,0E0,0E0,0E0,0E0,0E0,0E0,0E0],"parents":[2147483647,0,0,1,1,2,2,3,3,4,4,5,5,6,6,7,7,8,8,9,9,10,10,11,11,12,12,13,13,14,14,15,15,16,16,17,17,18,18,19,19,21,21,22,22,23,23,24,24,25,25,26,26,27,27,28,28,29,29,30,30],"right_children":[2,4,6,8,10,12,14,16,18,20,22,24,26,28,30,32,34,36,38,40,-1,42,44,46,48,50,52,54,56,58,60,-1,-1,-1,-1,-1,-1,-1,-1,-1,-1,-1,-1,-1,-1,-1,-1,-1,-1,-1,-1,-1,-1,-1,-1,-1,-1,-1,-1,-1,-1],"split_conditions":[1.0204829E0,1.58965E-1,-3.4324522E0,7.813116E-1,4.195804E-2,5.103448E-1,6.1938038E1,3.382353E-1,1E0,8.6206895E-1,4.895105E-2,1.0500657E-1,7.49656E-2,1.0933176E0,3.4385604E-1,-1.169147E0,-2.0320417E1,1.2341534E1,4.848666E-2,2.7509296E1,2.559886E-2,-5.85E1,1.360294E-1,-7.8384476E0,3.149493E-1,4.5833334E-1,-5.433526E0,1E2,-1.6623662E-1,7.2E1,8.6206895E-1,-8.13988E-3,2.0791292E-2,-3.5401788E-3,1.0316206E-2,3.514212E-3,1.0480679E-2,-3.7868503E-2,1.7379995E-2,-1.202272E-3,-3.4106858E-2,2.2433428E-2,-1.0586279E-2,-1.9311232E-2,-1.5779495E-3,-1.3948902E-2,-1.5448616E-3,-2.0347461E-2,-4.482822E-3,3.1290136E-2,-1.0759694E-2,-3.2651883E-2,-2.0904271E-2,5.24085E-4,-1.3354655E-2,-2.3759203E-2,-5.1130983E-3,1.0579823E-2,-3.0702343E-2,-2.1295607E-2,7.1133077E-3],"split_indices":[4,11,7,4,15,14,6,15,15,14,15,5,11,4,10,5,6,6,10,0,0,13,15,7,11,15,7,13,10,13,15,0,0,0,0,0,0,0,0,0,0,0,0,0,0,0,0,0,0,0,0,0,0,0,0,0,0,0,0,0,0],"split_type":[0,0,0,0,0,0,0,0,0,0,0,0,0,0,0,0,0,0,0,0,0,0,0,0,0,0,0,0,0,0,0,0,0,0,0,0,0,0,0,0,0,0,0,0,0,0,0,0,0,0,0,0,0,0,0,0,0,0,0,0,0],"sum_hessian":[1.2504772E4,8.0880986E3,4.4166733E3,6.574635E3,1.513464E3,1.1772098E3,3.2394636E3,7.903615E2,5.784273E3,3.2968937E1,1.480495E3,1.0018416E3,1.7536826E2,3.1105017E3,1.2896196E2,4.22113E2,3.6824847E2,5.7613164E3,2.295674E1,3.0972382E1,1.9965539E0,1.0786052E2,1.3726345E3,4.892343E2,5.126073E2,7.999015E0,1.6736923E2,1.3129926E3,1.797509E3,5.1987057E1,7.69749E1,2.5361368E1,3.9675165E2,1.012095E2,2.6703897E2,4.9951772E3,7.661389E2,2.0459253E1,2.4974847E0,2.9950407E0,2.797734E1,7.4899475E1,3.296104E1,1.0188613E2,1.2707484E3,3.0127393E2,1.879604E2,4.4723322E2,6.537412E1,3.4996014E0,4.4994135E0,6.794037E1,9.942887E1,1.2195131E3,9.347953E1,3.4481102E1,1.763028E3,4.4989567E0,4.7488102E1,4.4979095E1,3.1995808E1],"tree_param":{"num_deleted":"0","num_feature":"17","num_nodes":"61","size_leaf_vector":"1"}},{"base_weights":[3.1514182E-3,1.2894511E0,-2.8737988E-3,4.1035065E-1,1.5701315E0,-1.0652741E-1,5.0045196E-2,8.293608E-1,-2.9813597E-1,6.534524E-2,6.4924896E-1,-2.1345726E-1,-2.9646363E-2,-1.2669668E-1,7.9548255E-2,-1.6884454E-2,5.344059E-2,-1.8562542E-2,5.566859E-3,1.0941123E-3,4.216225E-2,-2.2167206E-1,7.2280926E-1,4.4517715E-2,-1.4961025E-1,-2.2603376E-1,3.6489747E-2,1.7628716E-1,1.4684198E-3,-6.9842767E-3,-1.3654255E-2,-1.859779E-2,4.9239755E-2,-5.8135454E-4,1.0614298E-2,1.0262772E-2,-7.2680605E-3,-4.191176E-3,-1.3195933E-2,-8.026782E-3,5.359252E-3,3.5916198E-2,6.378123E-3,-4.2517283E-3,2.5061034E-3],"categories":[],"categories_nodes":[],"categories_segments":[],"categories_sizes":[],"default_left":[0,0,0,0,0,0,0,0,0,0,0,0,0,0,0,0,0,0,0,0,0,0,0,0,0,0,0,0,0,0,0,0,0,0,0,0,0,0,0,0,0,0,0,0,0],"id":13,"left_children":[1,3,5,7,9,11,13,15,17,-1,19,21,23,25,27,-1,-1,-1,-1,-1,-1,29,31,33,35,37,39,41,43,-1,-1,-1,-1,-1,-1,-1,-1,-1,-1,-1,-1,-1,-1,-1,-1],"loss_changes":[6.539307E1,9.062325E0,4.6074493E1,3.4754071E0,6.6231537E-1,2.3332397E1,2.9006374E1,5.064179E0,4.1119105E-1,0E0,8.674443E-1,9.291779E0,1.471068E1,1.2909316E1,3.5998558E1,0E0,0E0,0E0,0E0,0E0,0E0,6.57436E0,6.9470468E0,1.3332647E1,8.279653E0,6.1975155E0,7.0095406E0,2.571476E1,1.7401905E1,0E0,0E0,0E0,0E0,0E0,0E0,0E0,0E0,0E0,0E0,0E0,0E0,0E0,0E0,0E0,0E0],"parents":[2147483647,0,0,1,1,2,2,3,3,4,4,5,5,6,6,7,7,8,8,10,10,11,11,12,12,13,13,14,14,21,21,22,22,23,23,24,24,25,25,26,26,27,27,28,28],"right_children":[2,4,6,8,10,12,14,16,18,-1,20,22,24,26,28,-1,-1,-1,-1,-1,-1,30,32,34,36,38,40,42,44,-1,-1,-1,-1,-1,-1,-1,-1,-1,-1,-1,-1,-1,-1,-1,-1],"split_conditions":[-3.303862E1,7.586609E-1,9.447917E-2,1.13E2,6.0623676E1,8.8309926E-1,-6.3E1,6.013986E-1,6.7824936E-1,6.534524E-2,7.5E1,9.9285716E-1,4.323001E0,1.0584146E0,-1.0605674E0,-1.6884454E-2,5.344059E-2,-1.8562542E-2,5.566859E-3,1.0941123E-3,4.216225E-2,3.1944445E-1,1.58522005E1,1.0254655E0,3.7029788E-1,9.3478364E-1,2.0175406E1,2.0658062E1,9.8957145E-1,-6.9842767E-3,-1.3654255E-2,-1.859779E-2,4.9239755E-2,-5.8135454E-4,1.0614298E-2,1.0262772E-2,-7.2680605E-3,-4.191176E-3,-1.3195933E-2,-8.026782E-3,5.359252E-3,3.5916198E-2,6.378123E-3,-4.2517283E-3,2.5061034E-3],"split_indices":[12,2,11,8,3,4,13,15,2,0,8,15,6,4,1,0,0,0,0,0,0,16,3,4,9,4,3,0,4,0,0,0,0,0,0,0,0,0,0,0,0,0,0,0,0],"split_type":[0,0,0,0,0,0,0,0,0,0,0,0,0,0,0,0,0,0,0,0,0,0,0,0,0,0,0,0,0,0,0,0,0,0,0,0,0,0,0,0,0,0,0,0,0],"sum_hessian":[8.436081E3,3.8338493E1,8.397742E3,9.8741865E0,2.8464306E1,2.8379578E3,5.559784E3,6.0974493E0,3.776737E0,2.5904099E1,2.560207E0,1.186266E3,1.6516919E3,7.948483E2,4.764936E3,1.80524E0,4.2922096E0,2.693542E0,1.0831949E0,1.4303553E0,1.1298516E0,1.1767048E3,9.561169E0,1.02107306E3,6.306189E2,4.9384384E2,3.0100452E2,2.1276165E3,2.6373196E3,8.46344E2,3.303608E2,2.890481E0,6.670688E0,8.063838E2,2.1468927E2,4.5663258E1,5.849556E2,2.2877472E2,2.650691E2,8.738128E1,2.1362323E2,4.7308933E1,2.0803074E3,9.548453E2,1.6824742E3],"tree_param":{"num_deleted":"0","num_feature":"17","num_nodes":"45","size_leaf_vector":"1"}},{"base_weights":[1.322917E-4,-9.962083E-2,1.3776283E-1,-3.2505614E-1,-6.744019E-2,3.0940825E-1,5.4610737E-2,-3.543969E-1,5.518363E-1,-1.7757352E-1,-3.6782864E-2,-1.7118308E-1,3.783941E-1,2.5916545E-2,4.8723015E-1,-4.4574162E-1,-1.7703709E-1,-2.3688419E-2,1.0038056E0,5.490461E-1,-1.8978626E-1,-4.717256E-2,3.146784E-1,-5.7187426E-1,-2.754581E-2,9.3852796E-2,4.8114893E-1,2.4568714E-1,-1.1114887E-2,1.1361E0,4.0100062E-1,-2.7360173E-3,-1.9366307E-2,5.374308E-4,-2.0314006E-2,-1.8647848E-2,4.916009E-2,-2.196698E-2,3.6785092E-2,-8.130992E-3,1.809826E-2,-1.188712E-3,-8.560502E-3,2.5108652E-3,3.5745814E-2,-2.5354007E-2,4.5790183E-3,8.196538E-3,-7.6422994E-3,-4.0866924E-3,1.1534086E-2,2.9476997E-3,2.2451768E-2,-2.2902207E-3,1.6182682E-2,4.159772E-3,-2.959273E-3,1.6697525E-3,4.8317626E-2,1.8627102E-2,-9.835161E-3],"categories":[],"categories_nodes":[],"categories_segments":[],"categories_sizes":[],"default_left":[0,0,0,0,0,0,0,0,0,0,0,0,0,0,0,0,0,0,0,0,0,0,0,0,0,0,0,0,0,0,0,0,0,0,0,0,0,0,0,0,0,0,0,0,0,0,0,0,0,0,0,0,0,0,0,0,0,0,0,0,0],"id":14,"left_children":[1,3,5,7,9,11,13,15,17,19,21,23,25,27,29,31,33,-1,35,37,39,41,43,45,47,49,51,53,55,57,59,-1,-1,-1,-1,-1,-1,-1,-1,-1,-1,-1,-1,-1,-1,-1,-1,-1,-1,-1,-1,-1,-1,-1,-1,-1,-1,-1,-1,-1,-1],"loss_changes":[1.3614268E2,4.168745E1,5.9458054E1,1.8666908E1,1.6984837E1,4.5143753E1,3.4849472E1,1.118544E1,1.2815575E1,9.826122E0,1.4394209E1,9.846927E0,3.472824E1,2.1445335E1,9.315117E0,6.6099854E0,1.5004673E1,0E0,6.3042564E0,7.979656E0,9.432194E0,1.1134526E1,1.6453125E1,1.9939108E0,4.8737946E0,1.2107143E1,2.8484573E1,1.8312098E1,1.6331636E1,1.5171509E0,6.628212E0,0E0,0E0,0E0,0E0,0E0,0E0,0E0,0E0,0E0,0E0,0E0,0E0,0E0,0E0,0E0,0E0,0E0,0E0,0E0,0E0,0E0,0E0,0E0,0E0,0E0,0E0,0E0,0E0,0E0,0E0],"parents":[2147483647,0,0,1,1,2,2,3,3,4,4,5,5,6,6,7,7,8,8,9,9,10,10,11,11,12,12,13,13,14,14,15,15,16,16,18,18,19,19,20,20,21,21,22,22,23,23,24,24,25,25,26,26,27,27,28,28,29,29,30,30],"right_children":[2,4,6,8,10,12,14,16,18,20,22,24,26,28,30,32,34,-1,36,38,40,42,44,46,48,50,52,54,56,58,60,-1,-1,-1,-1,-1,-1,-1,-1,-1,-1,-1,-1,-1,-1,-1,-1,-1,-1,-1,-1,-1,-1,-1,-1,-1,-1,-1,-1,-1,-1],"split_conditions":[9.9546033E-1,7.813116E-1,-2.15371E0,1.36842785E1,5.5356437E-1,-1.1353836E1,5.325754E1,4.6206897E-1,1.3653375E1,3.9285716E-2,1.084951E1,-2.2582275E1,1.0975623E-1,1.6171999E1,4.707295E0,-4.559088E1,6.551724E-1,-2.3688419E-2,8.9E1,3.4965035E-2,1.8E2,1.4042263E1,3.9096535E1,-7.679388E0,-1.5140607E1,-1.0497708E0,4.4266272E-1,4.4642314E-1,5E1,-2.6010222E0,9.9285716E-1,-2.7360173E-3,-1.9366307E-2,5.374308E-4,-2.0314006E-2,-1.8647848E-2,4.916009E-2,-2.196698E-2,3.6785092E-2,-8.130992E-3,1.809826E-2,-1.188712E-3,-8.560502E-3,2.5108652E-3,3.5745814E-2,-2.5354007E-2,4.5790183E-3,8.196538E-3,-7.6422994E-3,-4.0866924E-3,1.1534086E-2,2.9476997E-3,2.2451768E-2,-2.2902207E-3,1.6182682E-2,4.159772E-3,-2.959273E-3,1.6697525E-3,4.8317626E-2,1.8627102E-2,-9.835161E-3],"split_indices":[4,4,7,6,2,12,6,15,3,15,12,12,11,3,7,6,15,0,8,15,8,6,3,1,6,12,9,1,8,12,15,0,0,0,0,0,0,0,0,0,0,0,0,0,0,0,0,0,0,0,0,0,0,0,0,0,0,0,0,0,0],"split_type":[0,0,0,0,0,0,0,0,0,0,0,0,0,0,0,0,0,0,0,0,0,0,0,0,0,0,0,0,0,0,0,0,0,0,0,0,0,0,0,0,0,0,0,0,0,0,0,0,0,0,0,0,0,0,0,0,0,0,0,0,0],"sum_hessian":[9.914378E3,5.7483286E3,4.16605E3,7.169274E2,5.031401E3,1.3586847E3,2.807365E3,6.9429236E2,2.2635126E1,1.0945499E3,3.936851E3,1.7036339E2,1.1883214E3,2.633738E3,1.7362708E2,4.5727246E2,2.3701987E2,6.3220797E0,1.6313047E1,1.7366066E1,1.0771838E3,3.8246545E3,1.1219648E2,4.4168728E1,1.2619466E2,3.1578516E2,8.725362E2,3.7897845E2,2.2547595E3,1.8938818E1,1.5468826E2,4.250903E1,4.1476343E2,1.5102394E2,8.599594E1,2.0249212E0,1.4288126E1,4.2598968E0,1.3106169E1,1.0556953E3,2.1488483E1,3.463484E3,3.6117075E2,7.895278E1,3.32437E1,4.0580853E1,3.5878766E0,5.2006084E1,7.4188576E1,1.5751414E2,1.5827101E2,1.4373105E2,7.288052E2,1.3059926E2,2.4837918E2,7.9622314E2,1.4585364E3,1.2640764E0,1.7674742E1,1.4088254E2,1.380573E1],"tree_param":{"num_deleted":"0","num_feature":"17","num_nodes":"61","size_leaf_vector":"1"}},{"base_weights":[-1.8260953E-3,8.929912E-2,-1.6366738E-1,2.166074E-1,4.248511E-2,-3.4852433E-1,-1.3268404E-1,2.9002035E-1,9.2536844E-2,8.028912E-2,-1.0360934E-1,-2.043392E-1,-4.3943194E-1,-6.47575E-2,-2.206362E-1,5.6616986E-1,2.4784885E-1,-5.4797415E-2,2.984631E-1,-1.9290656E-2,1.349546E-1,-5.551323E-2,-3.7894022E-1,-7.408483E-1,-1.14718474E-1,4.767898E-1,-4.7065818E-1,-4.6937164E-2,-4.0383345E-1,-3.1540778E-1,-4.710864E-2,-4.466727E-3,2.7405806E-2,1.0879372E-2,-3.8775783E-3,2.5107563E-3,-1.1875409E-2,1.768789E-2,-3.5590757E-4,1.7240411E-3,-1.0211071E-2,1.0476639E-3,9.165342E-3,-1.6412212E-2,-1.02331636E-4,8.629318E-3,-1.7713891E-2,-3.459192E-2,3.98417E-3,-8.614284E-3,1.3958447E-2,-9.743846E-3,2.8234381E-2,-1.6130654E-2,-2.638527E-2,-5.885318E-3,1.1122471E-3,-1.8925851E-2,1.4727461E-2,-1.608081E-2,-7.012123E-3,-4.8709414E-3,6.6802637E-3],"categories":[],"categories_nodes":[],"categories_segments":[],"categories_sizes":[],"default_left":[0,0,0,0,0,0,0,0,0,0,0,0,0,0,0,0,0,0,0,0,0,0,0,0,0,0,0,0,0,0,0,0,0,0,0,0,0,0,0,0,0,0,0,0,0,0,0,0,0,0,0,0,0,0,0,0,0,0,0,0,0,0,0],"id":15,"left_children":[1,3,5,7,9,11,13,15,17,19,21,23,25,27,29,31,33,35,37,39,41,43,45,47,49,51,53,55,57,59,61,-1,-1,-1,-1,-1,-1,-1,-1,-1,-1,-1,-1,-1,-1,-1,-1,-1,-1,-1,-1,-1,-1,-1,-1,-1,-1,-1,-1,-1,-1,-1,-1],"loss_changes":[1.8399759E2,4.756196E1,2.5694633E1,1.9517677E1,3.2247025E1,8.35836E0,2.2991173E1,1.5553658E1,2.4262323E1,2.5248966E1,1.5874992E1,1.1988495E1,1.1509018E1,1.3118177E1,2.757418E1,1.4411869E1,9.769928E0,1.3301247E1,1.4735306E1,2.4224648E1,3.0664928E1,1.9220152E1,6.8729935E0,3.8111706E0,1.0170567E1,2.3991005E0,4.597992E0,1.5481641E1,5.976198E0,1.3093971E1,9.512684E0,0E0,0E0,0E0,0E0,0E0,0E0,0E0,0E0,0E0,0E0,0E0,0E0,0E0,0E0,0E0,0E0,0E0,0E0,0E0,0E0,0E0,0E0,0E0,0E0,0E0,0E0,0E0,0E0,0E0,0E0,0E0,0E0],"parents":[2147483647,0,0,1,1,2,2,3,3,4,4,5,5,6,6,7,7,8,8,9,9,10,10,11,11,12,12,13,13,14,14,15,15,16,16,17,17,18,18,19,19,20,20,21,21,22,22,23,23,24,24,25,25,26,26,27,27,28,28,29,29,30,30],"right_children":[2,4,6,8,10,12,14,16,18,20,22,24,26,28,30,32,34,36,38,40,42,44,46,48,50,52,54,56,58,60,62,-1,-1,-1,-1,-1,-1,-1,-1,-1,-1,-1,-1,-1,-1,-1,-1,-1,-1,-1,-1,-1,-1,-1,-1,-1,-1,-1,-1,-1,-1,-1,-1],"split_conditions":[1.0173713E0,8.3975536E-1,4.040468E1,2.3400024E1,1.5799822E-1,-7.637554E0,2.0546158E-1,2E0,-2.0320417E1,2.5735295E-1,3.792649E1,-3.808646E1,7.600951E-2,3.9881814E-1,1.3907851E0,-4.3725796E1,7.3E1,3.9E1,9E1,4.079385E0,4.6286278E1,6.2237763E-1,4.4485122E-1,2.5917011E1,3.3735108E-1,3.55491E1,2.9314425E1,5.241379E-1,8.689655E-1,2.444952E1,2.9314425E1,-4.466727E-3,2.7405806E-2,1.0879372E-2,-3.8775783E-3,2.5107563E-3,-1.1875409E-2,1.768789E-2,-3.5590757E-4,1.7240411E-3,-1.0211071E-2,1.0476639E-3,9.165342E-3,-1.6412212E-2,-1.02331636E-4,8.629318E-3,-1.7713891E-2,-3.459192E-2,3.98417E-3,-8.614284E-3,1.3958447E-2,-9.743846E-3,2.8234381E-2,-1.6130654E-2,-2.638527E-2,-5.885318E-3,1.1122471E-3,-1.8925851E-2,1.4727461E-2,-1.608081E-2,-7.012123E-3,-4.8709414E-3,6.6802637E-3],"split_indices":[4,4,0,3,11,12,5,8,6,16,3,6,11,11,2,6,13,8,8,12,0,16,2,5,11,0,3,16,15,3,3,0,0,0,0,0,0,0,0,0,0,0,0,0,0,0,0,0,0,0,0,0,0,0,0,0,0,0,0,0,0,0,0],"split_type":[0,0,0,0,0,0,0,0,0,0,0,0,0,0,0,0,0,0,0,0,0,0,0,0,0,0,0,0,0,0,0,0,0,0,0,0,0,0,0,0,0,0,0,0,0,0,0,0,0,0,0,0,0,0,0,0,0,0,0,0,0,0,0],"sum_hessian":[1.2474265E4,7.980991E3,4.493273E3,2.1447708E3,5.8362207E3,6.435269E2,3.849746E3,1.3466287E3,7.9814215E2,4.6368267E3,1.199394E3,2.501002E2,3.9342673E2,2.1731396E3,1.6766062E3,1.7675665E2,1.1698721E3,4.656891E2,3.324531E2,1.6435497E3,2.9932769E3,1.0220578E3,1.7733627E2,3.4757866E1,2.1534233E2,1.249639E1,3.8093036E2,2.0657134E3,1.074264E2,1.083848E3,5.927582E2,2.6401388E1,1.5035526E2,1.0935349E3,7.633715E1,3.1395987E2,1.5172919E2,2.2622334E2,1.0622975E2,1.300525E3,3.4302466E2,1.3896783E3,1.6035985E3,1.3186034E2,8.9019745E2,1.697775E1,1.6035852E2,3.026537E1,4.4924955E0,1.7737895E2,3.7963387E1,2.9996333E0,9.4967575E0,2.8310376E2,9.7826584E1,8.821693E2,1.1835441E3,9.8931366E1,8.495038E0,6.6863165E2,4.1521637E2,4.398187E2,1.5293948E2],"tree_param":{"num_deleted":"0","num_feature":"17","num_nodes":"63","size_leaf_vector":"1"}},{"base_weights":[-1.1039545E-3,1.2737731E0,-7.2797933E-3,2.6982582E-1,1.4893641E0,-1.0292752E-1,4.121852E-2,9.562782E-1,-1.9838974E-2,6.320084E-2,6.6499466E-1,-1.0960402E-1,9.890851E-1,9.500473E-1,3.754557E-2,5.2110832E-2,2.1063525E-3,-1.6564624E-2,5.505882E-2,-2.522435E-1,-7.349445E-2,-2.0507108E-2,1.5241671E0,1.6047835E-1,1.3095182E0,-7.95499E-2,7.21599E-2,5.7569187E-4,-1.2387529E-2,-7.617293E-4,-7.1393084E-3,6.6647686E-2,2.965654E-3,3.9237402E-2,-2.0669263E-2,2.5768187E-2,5.954121E-2,-5.1794043E-3,6.6368286E-3,8.536571E-3,-5.233621E-4],"categories":[],"categories_nodes":[],"categories_segments":[],"categories_sizes":[],"default_left":[0,0,0,0,0,0,0,0,0,0,0,0,0,0,0,0,0,0,0,0,0,0,0,0,0,0,0,0,0,0,0,0,0,0,0,0,0,0,0,0,0],"id":16,"left_children":[1,3,5,7,9,11,13,15,-1,-1,17,19,21,23,25,-1,-1,-1,-1,27,29,-1,31,33,35,37,39,-1,-1,-1,-1,-1,-1,-1,-1,-1,-1,-1,-1,-1,-1],"loss_changes":[6.6513466E1,8.413002E0,3.900191E1,4.901019E0,1.4383621E0,2.0732834E1,1.8587872E1,1.4286318E0,0E0,0E0,4.4291687E0,1.4467815E1,1.4674984E1,6.1520004E0,2.2532084E1,0E0,0E0,0E0,0E0,8.7006645E0,1.2835101E1,0E0,2.5535889E0,5.036449E0,8.589306E-1,1.5570624E1,5.1661026E1,0E0,0E0,0E0,0E0,0E0,0E0,0E0,0E0,0E0,0E0,0E0,0E0,0E0,0E0],"parents":[2147483647,0,0,1,1,2,2,3,3,4,4,5,5,6,6,7,7,10,10,11,11,12,12,13,13,14,14,19,19,20,20,22,22,23,23,24,24,25,25,26,26],"right_children":[2,4,6,8,10,12,14,16,-1,-1,18,20,22,24,26,-1,-1,-1,-1,28,30,-1,32,34,36,38,40,-1,-1,-1,-1,-1,-1,-1,-1,-1,-1,-1,-1,-1,-1],"split_conditions":[-5.328503E-1,6E0,9.447917E-2,2.804466E1,-3.240644E1,1E0,-3.6618835E1,6.0623676E1,-1.9838974E-2,6.320084E-2,1.49E2,-9.6055135E-2,1.5441665E1,7.320981E-1,-1.2578794E-1,5.2110832E-2,2.1063525E-3,-1.6564624E-2,5.505882E-2,-1.0560597E0,4.323001E0,-2.0507108E-2,2.8510061E1,9.3E1,6.1764705E-1,3.7240707E1,-7.182617E-1,5.7569187E-4,-1.2387529E-2,-7.617293E-4,-7.1393084E-3,6.6647686E-2,2.965654E-3,3.9237402E-2,-2.0669263E-2,2.5768187E-2,5.954121E-2,-5.1794043E-3,6.6368286E-3,8.536571E-3,-5.233621E-4],"split_indices":[10,8,11,0,6,15,7,3,0,0,8,10,3,9,10,0,0,0,0,5,6,0,3,8,15,3,1,0,0,0,0,0,0,0,0,0,0,0,0,0,0],"split_type":[0,0,0,0,0,0,0,0,0,0,0,0,0,0,0,0,0,0,0,0,0,0,0,0,0,0,0,0,0,0,0,0,0,0,0,0,0,0,0,0,0],"sum_hessian":[8.445655E3,3.9726234E1,8.405929E3,7.4208727E0,3.2305363E1,2.8278193E3,5.5781094E3,3.7820058E0,3.638867E0,2.8278862E1,4.0265007E0,2.8115293E3,1.6289896E1,2.1415585E1,5.556694E3,2.4144576E0,1.3675482E0,1.7659681E0,2.2605324E0,5.667554E2,2.244774E3,4.2903786E0,1.1999517E1,7.152257E0,1.4263328E1,1.2675275E3,4.2891665E3,1.0059279E2,4.661626E2,1.4789244E3,7.658495E2,1.0793275E1,1.2062426E0,3.031285E0,4.120972E0,3.9990792E0,1.0264248E1,1.053658E3,2.1386942E2,1.6136869E3,2.6754795E3],"tree_param":{"num_deleted":"0","num_feature":"17","num_nodes":"41","size_leaf_vector":"1"}},{"base_weights":[-3.2357343E-3,-8.348327E-2,1.3724455E-1,-2.9521105E-1,-5.697118E-2,3.2707545E-1,6.646479E-2,-4.2814487E-1,-6.119938E-2,8.317452E-2,-9.5110275E-2,-3.4150392E-1,4.0662506E-1,3.6690492E-2,3.5704234E-1,-2.6042413E-2,-3.9585674E-1,5.595214E-1,-2.1181159E-1,-2.7069107E-1,1.398985E-1,-1.05975665E-1,8.26575E-1,4.0995907E-2,-5.386656E-1,-7.969616E-2,4.6386668E-1,1.6631288E-2,5.707862E-1,4.709495E-1,-2.3170927E-1,-9.064661E-3,-1.9600715E-2,3.659886E-2,-2.5195293E-2,-1.0707056E-2,4.3174215E-2,-1.286425E-2,3.0311696E-2,-2.3948918E-3,1.2380181E-2,2.4755555E-3,-6.9735977E-3,2.41028E-2,5.6200523E-2,-5.515863E-3,4.305785E-2,-3.5019114E-3,-2.517859E-2,3.0384509E-2,-6.8685953E-3,7.7632433E-3,2.2179842E-2,7.200567E-3,-2.1548409E-3,-1.16167385E-2,3.735622E-2,2.2633616E-2,-1.9880904E-2,1.7983593E-2,-2.3811705E-2],"categories":[],"categories_nodes":[],"categories_segments":[],"categories_sizes":[],"default_left":[0,0,0,0,0,0,0,0,0,0,0,0,0,0,0,0,0,0,0,0,0,0,0,0,0,0,0,0,0,0,0,0,0,0,0,0,0,0,0,0,0,0,0,0,0,0,0,0,0,0,0,0,0,0,0,0,0,0,0,0,0],"id":17,"left_children":[1,3,5,7,9,11,13,15,17,19,21,23,25,27,29,-1,31,33,35,37,39,41,43,45,47,49,51,53,55,57,59,-1,-1,-1,-1,-1,-1,-1,-1,-1,-1,-1,-1,-1,-1,-1,-1,-1,-1,-1,-1,-1,-1,-1,-1,-1,-1,-1,-1,-1,-1],"loss_changes":[1.11210014E2,3.5226376E1,4.8167336E1,2.1701168E1,2.98386E1,5.193135E1,2.2599964E1,2.9469986E0,2.3882689E1,2.40134E1,4.4026863E1,7.871996E0,2.4275986E1,2.5401844E1,1.6392653E1,0E0,6.1273956E0,2.1676624E1,1.5096317E1,8.902606E0,3.492011E1,4.9785885E1,5.7919807E0,6.878708E0,2.761242E0,7.2780876E0,1.8943588E1,2.6354094E1,2.7111145E1,1.8998562E1,1.0183866E1,0E0,0E0,0E0,0E0,0E0,0E0,0E0,0E0,0E0,0E0,0E0,0E0,0E0,0E0,0E0,0E0,0E0,0E0,0E0,0E0,0E0,0E0,0E0,0E0,0E0,0E0,0E0,0E0,0E0,0E0],"parents":[2147483647,0,0,1,1,2,2,3,3,4,4,5,5,6,6,7,7,8,8,9,9,10,10,11,11,12,12,13,13,14,14,16,16,17,17,18,18,19,19,20,20,21,21,22,22,23,23,24,24,25,25,26,26,27,27,28,28,29,29,30,30],"right_children":[2,4,6,8,10,12,14,16,18,20,22,24,26,28,30,-1,32,34,36,38,40,42,44,46,48,50,52,54,56,58,60,-1,-1,-1,-1,-1,-1,-1,-1,-1,-1,-1,-1,-1,-1,-1,-1,-1,-1,-1,-1,-1,-1,-1,-1,-1,-1,-1,-1,-1,-1],"split_conditions":[1.0190831E0,7.813116E-1,-3.5126395E0,5.8E1,-1.1888188E-1,-1.3161875E1,1E2,6.382368E-1,1E0,-1.1353836E1,4.5641895E1,5.0357145E-1,5.2456504E-1,4.2921457E-1,9.9310344E-1,-2.6042413E-2,-1.7926526E-1,-6.005698E-2,8E1,4.189589E1,1.2333975E-1,2.2758621E-1,1.78E2,7E1,1.716122E-1,1E0,1.1481408E-1,-3E1,7.805523E-2,9.285714E-1,2E2,-9.064661E-3,-1.9600715E-2,3.659886E-2,-2.5195293E-2,-1.0707056E-2,4.3174215E-2,-1.286425E-2,3.0311696E-2,-2.3948918E-3,1.2380181E-2,2.4755555E-3,-6.9735977E-3,2.41028E-2,5.6200523E-2,-5.515863E-3,4.305785E-2,-3.5019114E-3,-2.517859E-2,3.0384509E-2,-6.8685953E-3,7.7632433E-3,2.2179842E-2,7.200567E-3,-2.1548409E-3,-1.16167385E-2,3.735622E-2,2.2633616E-2,-1.9880904E-2,1.7983593E-2,-2.3811705E-2],"split_indices":[4,4,7,8,10,12,13,4,13,12,3,15,2,11,15,0,10,10,13,0,11,16,8,8,11,8,11,13,10,16,8,0,0,0,0,0,0,0,0,0,0,0,0,0,0,0,0,0,0,0,0,0,0,0,0,0,0,0,0,0,0],"split_type":[0,0,0,0,0,0,0,0,0,0,0,0,0,0,0,0,0,0,0,0,0,0,0,0,0,0,0,0,0,0,0,0,0,0,0,0,0,0,0,0,0,0,0,0,0,0,0,0,0,0,0,0,0,0,0,0,0,0,0,0,0],"sum_hessian":[9.862978E3,6.2774634E3,3.585514E3,6.974483E2,5.580015E3,9.7281323E2,2.6127007E3,4.4425375E2,2.5319456E2,1.1934371E3,4.386578E3,1.0309047E2,8.697228E2,2.3708914E3,2.4180931E2,5.378195E1,3.904718E2,4.8909206E1,2.0428537E2,1.643552E2,1.0290819E3,4.3363438E3,5.0234444E1,3.5333824E1,6.7756645E1,9.154762E1,7.781752E2,2.286064E3,8.48273E1,2.0277754E2,3.9031765E1,1.4080435E2,2.4966745E2,3.78335E1,1.1075709E1,1.9657294E2,7.7124205E0,1.5725745E2,7.0977445E0,4.7281863E2,5.562633E2,1.2549591E3,3.0813845E3,3.7683075E1,1.2551369E1,3.0867702E1,4.466121E0,1.1681853E1,5.607479E1,8.328435E0,8.3219185E1,1.9646857E2,5.817066E2,6.886425E2,1.5974215E3,2.5218111E1,5.960919E1,1.850522E2,1.772535E1,1.3499408E1,2.5532356E1],"tree_param":{"num_deleted":"0","num_feature":"17","num_nodes":"61","size_leaf_vector":"1"}},{"base_weights":[3.9325384E-3,1.0095588E-1,-1.4375941E-1,2.1606055E-1,5.6691647E-2,-3.307551E-1,-8.0932625E-2,-8.538624E-1,2.2722268E-1,-6.329701E-2,9.948519E-2,-3.047544E-1,-7.268423E-1,-1.7629653E-1,-1.0521214E-2,-3.579998E-2,-7.022659E-3,1.6119376E-1,3.8064152E-1,1.02829136E-1,-1.6497643E-1,1.04412995E-1,-7.6824075E-1,-9.918908E-2,-3.5356358E-1,8.241181E-3,-7.483186E-1,-1.5280104E-1,-4.9528733E-1,1.03196934E-1,-7.6538645E-2,1.0269915E-2,9.6433354E-4,2.1218745E-2,5.5640046E-3,9.75664E-3,-6.2859124E-3,1.5983108E-3,-9.091468E-3,3.042911E-3,1.107727E-2,-3.3704482E-2,-4.60326E-3,3.6299647E-5,-1.8714078E-2,-1.5613708E-2,-7.935965E-3,-3.0804925E-2,1.2409926E-3,-8.872659E-3,-1.3896012E-3,-2.720327E-2,-8.44142E-3,6.1041424E-3,-1.0972027E-2,2.0310465E-2,-3.5607242E-3],"categories":[],"categories_nodes":[],"categories_segments":[],"categories_sizes":[],"default_left":[0,0,0,0,0,0,0,0,0,0,0,0,0,0,0,0,0,0,0,0,0,0,0,0,0,0,0,0,0,0,0,0,0,0,0,0,0,0,0,0,0,0,0,0,0,0,0,0,0,0,0,0,0,0,0,0,0],"id":18,"left_children":[1,3,5,7,9,11,13,15,17,19,21,23,25,27,29,-1,-1,31,33,35,37,39,41,43,45,-1,47,49,51,53,55,-1,-1,-1,-1,-1,-1,-1,-1,-1,-1,-1,-1,-1,-1,-1,-1,-1,-1,-1,-1,-1,-1,-1,-1,-1,-1],"loss_changes":[1.7958504E2,3.852469E1,5.834861E1,2.5278618E1,2.806367E1,1.2644089E1,2.4980581E1,4.5386314E-1,2.100444E1,2.4291765E1,1.7304455E1,1.1744522E1,1.6814804E0,1.1767719E1,1.6083828E1,0E0,0E0,1.9060303E1,2.2543465E1,2.0074265E1,1.1397516E1,1.9566444E1,1.0137863E0,8.3646755E0,5.3347244E0,0E0,1.29385E0,1.1996342E1,5.5274296E0,1.4719179E1,9.92844E0,0E0,0E0,0E0,0E0,0E0,0E0,0E0,0E0,0E0,0E0,0E0,0E0,0E0,0E0,0E0,0E0,0E0,0E0,0E0,0E0,0E0,0E0,0E0,0E0,0E0,0E0],"parents":[2147483647,0,0,1,1,2,2,3,3,4,4,5,5,6,6,7,7,8,8,9,9,10,10,11,11,12,12,13,13,14,14,17,17,18,18,19,19,20,20,21,21,22,22,23,23,24,24,26,26,27,27,28,28,29,29,30,30],"right_children":[2,4,6,8,10,12,14,16,18,20,22,24,26,28,30,-1,-1,32,34,36,38,40,42,44,46,-1,48,50,52,54,56,-1,-1,-1,-1,-1,-1,-1,-1,-1,-1,-1,-1,-1,-1,-1,-1,-1,-1,-1,-1,-1,-1,-1,-1,-1,-1],"split_conditions":[1.0016364E0,8.38248E-1,-4.143601E0,-5.328503E-1,3.9948368E1,5.7342654E-1,4.8951048E-1,1.7937464E1,-5.1862508E-2,2.1206581E1,1E0,1.7727869E1,4.137931E-2,9.172414E-1,1.0866143E0,-3.579998E-2,-7.022659E-3,2.403924E1,6.678322E-1,3.3571428E-1,-1.0445786E1,1.46E2,1.4933772E0,5.12408E-1,-6.3005295E0,8.241181E-3,8.551724E-1,2.203459E1,6.2857145E-1,1.65E2,-5.326523E0,1.0269915E-2,9.6433354E-4,2.1218745E-2,5.5640046E-3,9.75664E-3,-6.2859124E-3,1.5983108E-3,-9.091468E-3,3.042911E-3,1.107727E-2,-3.3704482E-2,-4.60326E-3,3.6299647E-5,-1.8714078E-2,-1.5613708E-2,-7.935965E-3,-3.0804925E-2,1.2409926E-3,-8.872659E-3,-1.3896012E-3,-2.720327E-2,-8.44142E-3,6.1041424E-3,-1.0972027E-2,2.0310465E-2,-3.5607242E-3],"split_indices":[4,4,7,10,0,14,16,7,10,3,15,3,16,14,4,0,0,3,15,14,12,8,5,5,7,0,16,3,15,8,12,0,0,0,0,0,0,0,0,0,0,0,0,0,0,0,0,0,0,0,0,0,0,0,0,0,0],"split_type":[0,0,0,0,0,0,0,0,0,0,0,0,0,0,0,0,0,0,0,0,0,0,0,0,0,0,0,0,0,0,0,0,0,0,0,0,0,0,0,0,0,0,0,0,0,0,0,0,0,0,0,0,0,0,0,0,0],"sum_hessian":[1.2530469E4,7.5626504E3,4.967819E3,2.0994255E3,5.463225E3,1.2482632E3,3.7195554E3,2.0896944E1,2.0785286E3,1.4360922E3,4.0271328E3,1.1730303E3,7.523288E1,1.5792053E3,2.1403503E3,1.9400843E1,1.4961014E0,1.4545604E3,6.23968E2,5.452458E2,8.908464E2,4.0052666E3,2.1866201E1,2.2566185E2,9.473684E2,1.4996359E0,7.373324E1,1.472245E3,1.06960236E2,7.859504E2,1.3543999E3,8.566015E2,5.979589E2,3.8435687E2,2.3961116E2,3.5347842E2,1.917674E2,2.0779187E2,6.830545E2,3.4413809E3,5.638858E2,1.9370539E1,2.495663E0,1.7825967E2,4.7402187E1,7.646138E2,1.8275464E2,7.173798E1,1.9952593E0,9.28556E2,5.4368896E2,6.3976234E1,4.2984E1,6.955173E2,9.043309E1,2.7492382E1,1.3269075E3],"tree_param":{"num_deleted":"0","num_feature":"17","num_nodes":"57","size_leaf_vector":"1"}},{"base_weights":[7.9416344E-4,1.2194184E0,-5.4138023E-3,5.473729E-1,6.0276058E-2,-9.810531E-2,4.176566E-2,4.965206E-2,-2.8873628E-1,-1.9916208E-1,-2.550111E-2,-2.0532362E-1,6.4313725E-2,-2.0703644E-2,1.6812502E-1,-2.0956881E-1,6.1220324E-1,4.5260463E-2,-1.419342E-1,-3.2197535E-1,1.6107634E-1,1.1302534E-1,-8.771774E-3,-1.308637E-2,2.220041E-2,-6.9074705E-3,-1.5429716E-2,-2.0950062E-2,4.962504E-2,-1.2399032E-3,9.629435E-3,-4.382458E-3,-2.2757575E-2,-1.4397886E-2,1.0039331E-3,1.7663168E-2,-1.4037894E-2,3.5790175E-3,1.5812457E-2,3.0901471E-2,-6.426204E-4],"categories":[],"categories_nodes":[],"categories_segments":[],"categories_sizes":[],"default_left":[0,0,0,0,0,0,0,0,0,0,0,0,0,0,0,0,0,0,0,0,0,0,0,0,0,0,0,0,0,0,0,0,0,0,0,0,0,0,0,0,0],"id":19,"left_children":[1,3,5,7,-1,9,11,-1,13,15,17,19,21,-1,23,25,27,29,31,33,35,37,39,-1,-1,-1,-1,-1,-1,-1,-1,-1,-1,-1,-1,-1,-1,-1,-1,-1,-1],"loss_changes":[6.384737E1,7.4394913E0,3.6725277E1,8.705409E0,0E0,2.0778584E1,3.101979E1,0E0,8.5404116E-1,1.0126709E1,1.3596879E1,1.9953516E1,1.8160046E1,0E0,7.953676E-1,7.5348854E0,1.1536575E1,1.5312758E1,8.560409E0,4.6680794E0,1.6400513E1,2.0312199E1,1.1642823E1,0E0,0E0,0E0,0E0,0E0,0E0,0E0,0E0,0E0,0E0,0E0,0E0,0E0,0E0,0E0,0E0,0E0,0E0],"parents":[2147483647,0,0,1,1,2,2,3,3,5,5,6,6,8,8,9,9,10,10,11,11,12,12,14,14,15,15,16,16,17,17,18,18,19,19,20,20,21,21,22,22],"right_children":[2,4,6,8,-1,10,12,-1,14,16,18,20,22,-1,24,26,28,30,32,34,36,38,40,-1,-1,-1,-1,-1,-1,-1,-1,-1,-1,-1,-1,-1,-1,-1,-1,-1,-1],"split_conditions":[-3.6618835E1,8.763915E-1,9.447917E-2,7.142857E-3,6.0276058E-2,8.8309926E-1,-7.5E1,4.965206E-2,7.061043E-1,1.98E2,4.323001E0,1.1526679E0,3.7050319E0,-2.0703644E-2,5.1011097E1,3.7931034E-1,1.58522005E1,1.0061035E0,3.7451153E1,3.637273E1,3.7187487E-1,9.3793106E-1,-6.7E1,-1.308637E-2,2.220041E-2,-6.9074705E-3,-1.5429716E-2,-2.0950062E-2,4.962504E-2,-1.2399032E-3,9.629435E-3,-4.382458E-3,-2.2757575E-2,-1.4397886E-2,1.0039331E-3,1.7663168E-2,-1.4037894E-2,3.5790175E-3,1.5812457E-2,3.0901471E-2,-6.426204E-4],"split_indices":[7,2,11,14,0,4,13,0,9,8,6,4,6,0,3,16,3,4,6,3,5,16,13,0,0,0,0,0,0,0,0,0,0,0,0,0,0,0,0,0,0],"split_type":[0,0,0,0,0,0,0,0,0,0,0,0,0,0,0,0,0,0,0,0,0,0,0,0,0,0,0,0,0,0,0,0,0,0,0,0,0,0,0,0,0],"sum_hessian":[8.437767E3,4.1775646E1,8.395991E3,1.3386417E1,2.8389229E1,2.8316626E3,5.564328E3,7.050358E0,6.336059E0,1.183133E3,1.6485295E3,4.6463168E2,5.0996963E3,4.1328626E0,2.2031968E0,1.1688826E3,1.42506075E1,1.0257482E3,6.227815E2,3.5252014E2,1.1211154E2,3.0597927E3,2.0399037E3,1.03394E0,1.1692568E0,9.681753E2,2.0070723E2,5.134999E0,9.115608E0,7.384921E2,2.8725598E2,5.800615E2,4.2719917E1,3.1772244E2,3.4797703E1,7.252023E1,3.959131E1,2.825399E3,2.3439374E2,1.7896564E1,2.0220072E3],"tree_param":{"num_deleted":"0","num_feature":"17","num_nodes":"41","size_leaf_vector":"1"}},{"base_weights":[-2.2664752E-3,-8.240961E-2,1.371145E-1,-3.060323E-1,-5.9495043E-2,4.697809E-2,2.4972482E-1,-3.4508187E-1,9.4912344E-1,7.583834E-2,-9.989697E-2,2.0703587E-1,-1.4737122E-3,2.9832113E-1,-1.7449886E-1,-4.5645997E-1,-1.08561E-1,-2.1061873E-2,1.3441677E0,4.1118026E-2,8.0604374E-1,5.3368866E-2,-1.5778849E-1,1.3460052E-1,5.613229E-1,-2.6633807E-2,4.5478806E-1,2.0928961E-1,6.113074E-1,1.9993031E-2,-4.189237E-1,-2.990192E-3,-1.9939523E-2,3.0799173E-2,-1.1668533E-2,5.9036244E-2,6.7225855E-4,-5.94377E-4,9.21641E-3,-1.9808006E-2,3.4821454E-2,-8.790606E-3,5.528075E-3,-6.8186102E-3,3.522308E-2,-3.3777112E-3,1.1433567E-2,8.276598E-3,3.6744554E-2,9.309057E-3,-2.281079E-3,-2.4913229E-2,2.3632297E-2,2.1299873E-2,4.742614E-3,3.0671844E-2,7.2324607E-3,4.625021E-2,-1.3206704E-3,6.268597E-3,-1.9230353E-2],"categories":[],"categories_nodes":[],"categories_segments":[],"categories_sizes":[],"default_left":[0,0,0,0,0,0,0,0,0,0,0,0,0,0,0,0,0,0,0,0,0,0,0,0,0,0,0,0,0,0,0,0,0,0,0,0,0,0,0,0,0,0,0,0,0,0,0,0,0,0,0,0,0,0,0,0,0,0,0,0,0],"id":20,"left_children":[1,3,5,7,9,11,13,15,17,19,21,23,25,27,29,31,33,-1,35,37,39,41,43,45,47,49,51,53,55,57,59,-1,-1,-1,-1,-1,-1,-1,-1,-1,-1,-1,-1,-1,-1,-1,-1,-1,-1,-1,-1,-1,-1,-1,-1,-1,-1,-1,-1,-1,-1],"loss_changes":[1.10194405E2,3.2076786E1,3.6543793E1,2.8849052E1,3.1077839E1,1.5522494E1,3.3055283E1,1.4836739E1,1.1098656E1,3.310275E1,3.884018E1,1.186055E1,1.7661266E1,3.9906868E1,7.8602743E0,6.120865E0,2.9545448E1,0E0,2.4830914E0,1.3234899E1,5.4051323E0,2.7849691E1,4.196772E1,1.2860328E1,9.767393E0,1.1506626E1,1.2153498E1,3.2779892E1,2.1124321E1,5.6358685E0,2.6821117E0,0E0,0E0,0E0,0E0,0E0,0E0,0E0,0E0,0E0,0E0,0E0,0E0,0E0,0E0,0E0,0E0,0E0,0E0,0E0,0E0,0E0,0E0,0E0,0E0,0E0,0E0,0E0,0E0,0E0,0E0],"parents":[2147483647,0,0,1,1,2,2,3,3,4,4,5,5,6,6,7,7,8,8,9,9,10,10,11,11,12,12,13,13,14,14,15,15,16,16,18,18,19,19,20,20,21,21,22,22,23,23,24,24,25,25,26,26,27,27,28,28,29,29,30,30],"right_children":[2,4,6,8,10,12,14,16,18,20,22,24,26,28,30,32,34,-1,36,38,40,42,44,46,48,50,52,54,56,58,60,-1,-1,-1,-1,-1,-1,-1,-1,-1,-1,-1,-1,-1,-1,-1,-1,-1,-1,-1,-1,-1,-1,-1,-1,-1,-1,-1,-1,-1,-1],"split_conditions":[1.0190831E0,7.7170503E-1,1.3140614E-1,1.55652E1,2.0588236E-1,3.3103448E-1,3.7240707E1,5.8E1,1.2400095E1,9.5565215E-2,-1.1061915E-1,8.137931E-1,2.4845732E1,1.5E2,1.7E1,-4.559088E1,1E0,-2.1061873E-2,1.6E2,3.3458827E0,-3.2288415E0,-9.065403E0,4.7976463E1,8.219382E-2,-7.17977E-1,-1.5093665E-1,-7.7E1,-9.024331E-2,1.3772575E0,2.857143E-1,3.435324E-1,-2.990192E-3,-1.9939523E-2,3.0799173E-2,-1.1668533E-2,5.9036244E-2,6.7225855E-4,-5.94377E-4,9.21641E-3,-1.9808006E-2,3.4821454E-2,-8.790606E-3,5.528075E-3,-6.8186102E-3,3.522308E-2,-3.3777112E-3,1.1433567E-2,8.276598E-3,3.6744554E-2,9.309057E-3,-2.281079E-3,-2.4913229E-2,2.3632297E-2,2.1299873E-2,4.742614E-3,3.0671844E-2,7.2324607E-3,4.625021E-2,-1.3206704E-3,6.268597E-3,-1.9230353E-2],"split_indices":[4,4,5,6,16,16,3,8,3,11,10,14,12,8,13,6,13,0,8,12,5,12,3,11,5,10,13,10,2,16,5,0,0,0,0,0,0,0,0,0,0,0,0,0,0,0,0,0,0,0,0,0,0,0,0,0,0,0,0,0,0],"split_type":[0,0,0,0,0,0,0,0,0,0,0,0,0,0,0,0,0,0,0,0,0,0,0,0,0,0,0,0,0,0,0,0,0,0,0,0,0,0,0,0,0,0,0,0,0,0,0,0,0,0,0,0,0,0,0,0,0,0,0,0,0],"sum_hessian":[9.862821E3,6.2623945E3,3.6004265E3,5.80914E2,5.6814805E3,2.0005491E3,1.5998774E3,5.6408954E2,1.6824514E1,1.3059829E3,4.3754976E3,4.641111E2,1.5364379E3,1.4357087E3,1.6416873E2,3.828669E2,1.812226E2,3.4825864E0,1.33419285E1,1.247712E3,5.8270786E1,1.1996206E3,3.1758767E3,3.864748E2,7.763634E1,1.457033E3,7.940498E1,1.1190535E3,3.1665533E2,9.1933945E1,7.223478E1,3.825038E1,3.4461655E2,3.0709936E1,1.5051266E2,1.2035513E1,1.3064154E0,9.636602E2,2.8405185E2,2.4362898E0,5.5834496E1,2.839158E2,9.1570483E2,3.1383977E3,3.7478947E1,1.5803287E2,2.2844193E2,3.9768173E1,3.7868164E1,1.521346E2,1.3048983E3,8.498255E0,7.090673E1,2.4420355E2,8.7484985E2,2.3205817E2,8.459716E1,3.170136E0,8.876381E1,6.857958E0,6.537682E1],"tree_param":{"num_deleted":"0","num_feature":"17","num_nodes":"61","size_leaf_vector":"1"}},{"base_weights":[1.4621692E-3,8.629672E-2,-1.5398599E-1,-4.2951208E-2,1.3415697E-1,-2.6808897E-1,-9.9906154E-2,1.6771044E-1,-9.718705E-2,3.090372E-1,9.613803E-2,-1.8490896E-1,-4.01691E-1,-1.9002673E-1,-3.622629E-2,3.2600623E-1,-2.5737304E-2,6.349529E-3,-2.1163294E-1,-3.6645344E-1,3.335874E-1,1.5227089E-2,1.497307E-1,-3.1695998E-1,-2.9149102E-2,-7.048183E-2,-4.44437E-1,7.55166E-2,-2.2017533E-1,3.163021E-1,-8.869495E-2,1.3891886E-2,-2.6775897E-2,8.9982E-3,-1.6997295E-2,4.632334E-3,-5.7910746E-3,-1.51479505E-2,-4.550459E-3,-2.4273906E-2,2.7069505E-2,2.8685085E-2,1.2199002E-2,3.8475483E-3,-6.601677E-3,6.5179258E-3,-1.314147E-2,-9.897166E-3,-2.197237E-2,5.2168285E-3,-8.441265E-3,-1.3107173E-2,2.0143908E-2,-2.1244409E-2,-1.0392616E-2,8.70657E-3,-1.0524535E-2,-1.601427E-2,-7.2000152E-3,1.6952328E-2,-5.1670712E-3,-1.8015249E-2,-2.2965758E-3],"categories":[],"categories_nodes":[],"categories_segments":[],"categories_sizes":[],"default_left":[0,0,0,0,0,0,0,0,0,0,0,0,0,0,0,0,0,0,0,0,0,0,0,0,0,0,0,0,0,0,0,0,0,0,0,0,0,0,0,0,0,0,0,0,0,0,0,0,0,0,0,0,0,0,0,0,0,0,0,0,0,0,0],"id":21,"left_children":[1,3,5,7,9,11,13,15,17,19,21,23,25,27,29,31,33,35,37,39,41,43,45,47,49,51,53,55,57,59,61,-1,-1,-1,-1,-1,-1,-1,-1,-1,-1,-1,-1,-1,-1,-1,-1,-1,-1,-1,-1,-1,-1,-1,-1,-1,-1,-1,-1,-1,-1,-1,-1],"loss_changes":[1.6453448E2,4.9935524E1,2.715522E1,2.4946167E1,3.913588E1,1.5660217E1,1.7153305E1,1.3699742E1,2.0570105E1,1.7559494E1,2.0985836E1,1.797653E1,7.648155E0,9.926331E0,3.245923E1,5.445305E0,2.0324783E1,1.5108748E1,1.3438641E1,9.777653E0,1.0921364E1,2.8179153E1,1.8458534E1,7.507824E0,1.1703642E1,9.495295E0,7.5464783E0,6.1681767E0,7.976509E0,1.0943935E1,1.7249996E1,0E0,0E0,0E0,0E0,0E0,0E0,0E0,0E0,0E0,0E0,0E0,0E0,0E0,0E0,0E0,0E0,0E0,0E0,0E0,0E0,0E0,0E0,0E0,0E0,0E0,0E0,0E0,0E0,0E0,0E0,0E0,0E0],"parents":[2147483647,0,0,1,1,2,2,3,3,4,4,5,5,6,6,7,7,8,8,9,9,10,10,11,11,12,12,13,13,14,14,15,15,16,16,17,17,18,18,19,19,20,20,21,21,22,22,23,23,24,24,25,25,26,26,27,27,28,28,29,29,30,30],"right_children":[2,4,6,8,10,12,14,16,18,20,22,24,26,28,30,32,34,36,38,40,42,44,46,48,50,52,54,56,58,60,62,-1,-1,-1,-1,-1,-1,-1,-1,-1,-1,-1,-1,-1,-1,-1,-1,-1,-1,-1,-1,-1,-1,-1,-1,-1,-1,-1,-1,-1,-1,-1,-1],"split_conditions":[1.0204829E0,-2.8783846E0,4.8301834E1,-9.95011E0,8.154967E-1,6.897492E-2,5.241379E-1,3.9310345E-1,1.2947491E-1,-4.3725796E1,3.006993E-1,-3.473527E0,-1.3817051E1,6.520649E-2,1.4581962E-1,-4.263923E0,9.285714E-1,3.2142857E-1,7.3103446E-1,6.3012075E-1,6.676394E-1,2.51931E0,9.722222E-1,4.827586E-1,5.590278E-1,3.8E1,3.0320873E0,4.8512993E0,1.5384616E-1,2.5342957E1,-1.5724541E1,1.3891886E-2,-2.6775897E-2,8.9982E-3,-1.6997295E-2,4.632334E-3,-5.7910746E-3,-1.51479505E-2,-4.550459E-3,-2.4273906E-2,2.7069505E-2,2.8685085E-2,1.2199002E-2,3.8475483E-3,-6.601677E-3,6.5179258E-3,-1.314147E-2,-9.897166E-3,-2.197237E-2,5.2168285E-3,-8.441265E-3,-1.3107173E-2,2.0143908E-2,-2.1244409E-2,-1.0392616E-2,8.70657E-3,-1.0524535E-2,-1.601427E-2,-7.2000152E-3,1.6952328E-2,-5.1670712E-3,-1.8015249E-2,-2.2965758E-3],"split_indices":[4,1,0,12,4,5,16,15,11,6,16,1,12,11,11,6,16,14,16,5,4,12,15,14,15,13,6,12,16,6,6,0,0,0,0,0,0,0,0,0,0,0,0,0,0,0,0,0,0,0,0,0,0,0,0,0,0,0,0,0,0,0,0],"split_type":[0,0,0,0,0,0,0,0,0,0,0,0,0,0,0,0,0,0,0,0,0,0,0,0,0,0,0,0,0,0,0,0,0,0,0,0,0,0,0,0,0,0,0,0,0,0,0,0,0,0,0,0,0,0,0,0,0,0,0,0,0,0,0],"sum_hessian":[1.2474658E4,8.070626E3,4.4040327E3,2.1809668E3,5.889659E3,1.4148613E3,2.9891714E3,4.461088E2,1.7348579E3,1.0504858E3,4.8391733E3,8.734435E2,5.4141785E2,1.2368214E3,1.75235E3,2.4496875E2,2.0114003E2,9.113368E2,8.235211E2,3.6351795E1,1.014134E3,1.9286696E3,2.9105037E3,4.7213727E2,4.0130624E2,6.219107E1,4.7922678E2,1.25952286E2,1.1108691E3,2.2637108E2,1.5259789E3,2.4047626E2,4.4925E0,1.2381892E2,7.732112E1,5.286653E2,3.826715E2,3.0316E2,5.2036115E2,2.9883648E1,6.4681463E0,6.873253E1,9.454014E2,1.3312506E3,5.9741895E2,2.8328735E3,7.763032E1,3.649811E2,1.0715615E2,2.1391582E2,1.8739044E2,4.3245537E1,1.8945536E1,3.2484628E2,1.5438051E2,8.896459E1,3.6987694E1,2.0089694E2,9.0997217E2,1.8240134E2,4.3969734E1,1.20402954E2,1.4055759E3],"tree_param":{"num_deleted":"0","num_feature":"17","num_nodes":"63","size_leaf_vector":"1"}},{"base_weights":[-6.26326E-5,1.1991832E0,-6.0211523E-3,1.2072818E-1,5.5667523E-2,-1.7629679E-1,1.9231942E-2,7.181059E-1,-1.9356837E-2,-2.7912864E-1,-8.534869E-3,-7.103854E-2,6.624066E-2,5.000023E-2,-1.2221073E-3,-3.5483193E-1,-7.064978E-2,3.2169577E-1,-7.940382E-2,-1.8546745E-1,8.136926E-3,1.22810826E-1,-1.2483061E-2,-1.5244037E-2,2.546813E-2,1.1591793E-2,-1.6157305E-2,2.359171E-2,-1.8100703E-2,-6.4635617E-3,3.2653064E-3,-7.7934545E-3,2.4995463E-2,3.4780374E-3,-4.169377E-3,3.8754658E-3,2.2127979E-2,-4.867561E-3,9.72222E-4],"categories":[],"categories_nodes":[],"categories_segments":[],"categories_sizes":[],"default_left":[0,0,0,0,0,0,0,0,0,0,0,0,0,0,0,0,0,0,0,0,0,0,0,0,0,0,0,0,0,0,0,0,0,0,0,0,0,0,0],"id":22,"left_children":[1,3,5,7,-1,9,11,13,-1,15,17,19,21,-1,-1,23,25,27,29,31,33,35,37,-1,-1,-1,-1,-1,-1,-1,-1,-1,-1,-1,-1,-1,-1,-1,-1],"loss_changes":[6.0427944E1,8.511848E0,3.618645E1,3.0303643E0,0E0,1.874768E1,3.1104515E1,1.6863184E0,0E0,1.06093445E1,9.716086E0,2.27429E1,2.1465714E1,0E0,0E0,1.3111355E1,2.1829918E1,1.5493553E1,4.5356884E0,7.915531E0,1.3156793E1,3.1238071E1,8.102975E0,0E0,0E0,0E0,0E0,0E0,0E0,0E0,0E0,0E0,0E0,0E0,0E0,0E0,0E0,0E0,0E0],"parents":[2147483647,0,0,1,1,2,2,3,3,5,5,6,6,7,7,9,9,10,10,11,11,12,12,15,15,16,16,17,17,18,18,19,19,20,20,21,21,22,22],"right_children":[2,4,6,8,-1,10,12,14,-1,16,18,20,22,-1,-1,24,26,28,30,32,34,36,38,-1,-1,-1,-1,-1,-1,-1,-1,-1,-1,-1,-1,-1,-1,-1,-1],"split_conditions":[-5.328503E-1,-8.7E1,-6.3E1,-5.120759E1,5.5667523E-2,1.0220584E0,9.447917E-2,8.5208035E-1,-1.9356837E-2,-9.1595404E-2,3.2814983E-1,8.8449043E-1,3.7050319E0,5.000023E-2,-1.2221073E-3,-3.3634388E0,1.25E-1,-4.2491984E-2,-7.4E1,9.9285716E-1,4.323001E0,9.5862067E-1,1.6E1,-1.5244037E-2,2.546813E-2,1.1591793E-2,-1.6157305E-2,2.359171E-2,-1.8100703E-2,-6.4635617E-3,3.2653064E-3,-7.7934545E-3,2.4995463E-2,3.4780374E-3,-4.169377E-3,3.8754658E-3,2.2127979E-2,-4.867561E-3,9.72222E-4],"split_indices":[10,13,13,6,0,4,11,4,0,10,9,4,6,0,0,6,15,10,13,15,6,16,13,0,0,0,0,0,0,0,0,0,0,0,0,0,0,0,0],"split_type":[0,0,0,0,0,0,0,0,0,0,0,0,0,0,0,0,0,0,0,0,0,0,0,0,0,0,0,0,0,0,0,0,0,0,0,0,0,0,0],"sum_hessian":[8.454501E3,4.0808918E1,8.413692E3,6.4275427E0,3.4381374E1,1.08588E3,7.3278125E3,3.1388245E0,3.2887182E0,6.72809E2,4.130709E2,2.5090984E3,4.818714E3,1.4435582E0,1.6952662E0,4.930644E2,1.7974467E2,7.235877E1,3.4071213E2,1.0255592E3,1.4835393E3,2.8035486E3,2.0151653E3,4.8093842E2,1.2125964E1,8.641622E1,9.332845E1,5.3924007E1,1.843477E1,2.2558238E2,1.15129745E2,1.01458856E3,1.0970606E1,8.721E2,6.114394E2,2.645428E3,1.5812051E2,5.072122E2,1.5079531E3],"tree_param":{"num_deleted":"0","num_feature":"17","num_nodes":"39","size_leaf_vector":"1"}},{"base_weights":[-1.5641839E-3,-8.450273E-2,1.4138964E-1,-2.8665444E-1,-5.9733383E-2,1.2530355E-1,6.5791243E-1,-3.220843E-1,6.335437E-1,5.9102863E-2,-1.10025354E-1,-5.1726764E-1,1.3546416E-1,9.198762E-1,2.941414E-1,-4.13144E-1,-1.3524401E-1,-2.3391638E-2,1.0783173E0,-3.3206582E-2,2.4041647E-1,-1.2079619E-1,9.004831E-1,-6.282745E-1,-1.3196883E-1,4.93059E-1,1.0079958E-1,5.734754E-2,7.490312E-1,1.2009866E0,7.1353905E-2,-1.9509166E-3,-1.8028919E-2,2.1670917E-2,-1.2040734E-2,-1.7025786E-2,4.95826E-2,-4.056958E-3,7.65809E-3,-4.0524905E-3,1.1809279E-2,2.096215E-3,-7.264019E-3,4.0026024E-2,-1.1687705E-2,3.4504798E-3,-2.60297E-2,3.270807E-2,-2.4968352E-2,1.4828854E-4,2.5543785E-2,2.4036025E-3,1.12795625E-2,3.7715945E-2,-7.888773E-3,5.4433864E-2,2.924135E-3,1.6412895E-2,-2.0567529E-2],"categories":[],"categories_nodes":[],"categories_segments":[],"categories_sizes":[],"default_left":[0,0,0,0,0,0,0,0,0,0,0,0,0,0,0,0,0,0,0,0,0,0,0,0,0,0,0,0,0,0,0,0,0,0,0,0,0,0,0,0,0,0,0,0,0,0,0,0,0,0,0,0,0,0,0,0,0,0,0],"id":23,"left_children":[1,3,5,7,9,11,13,15,17,19,21,23,25,27,29,31,33,-1,35,37,39,41,43,45,47,49,51,-1,53,55,57,-1,-1,-1,-1,-1,-1,-1,-1,-1,-1,-1,-1,-1,-1,-1,-1,-1,-1,-1,-1,-1,-1,-1,-1,-1,-1,-1,-1],"loss_changes":[1.1743828E2,3.1369358E1,3.0134659E1,2.2502491E1,3.3387505E1,2.3105003E1,1.0174049E1,1.1160416E1,1.4553953E1,2.78167E1,4.2826935E1,2.2749395E0,4.301374E1,4.4781647E0,9.48171E0,6.040451E0,2.4574104E1,0E0,5.177616E0,1.6906206E1,1.0532028E1,4.091706E1,5.251644E0,7.389431E-1,6.8661203E0,2.184359E1,2.3352627E1,0E0,9.277489E0,1.5730715E0,7.967422E0,0E0,0E0,0E0,0E0,0E0,0E0,0E0,0E0,0E0,0E0,0E0,0E0,0E0,0E0,0E0,0E0,0E0,0E0,0E0,0E0,0E0,0E0,0E0,0E0,0E0,0E0,0E0,0E0],"parents":[2147483647,0,0,1,1,2,2,3,3,4,4,5,5,6,6,7,7,8,8,9,9,10,10,11,11,12,12,13,13,14,14,15,15,16,16,18,18,19,19,20,20,21,21,22,22,23,23,24,24,25,25,26,26,28,28,29,29,30,30],"right_children":[2,4,6,8,10,12,14,16,18,20,22,24,26,28,30,32,34,-1,36,38,40,42,44,46,48,50,52,-1,54,56,58,-1,-1,-1,-1,-1,-1,-1,-1,-1,-1,-1,-1,-1,-1,-1,-1,-1,-1,-1,-1,-1,-1,-1,-1,-1,-1,-1,-1],"split_conditions":[1.0190831E0,7.813116E-1,6.1938038E1,1.36842785E1,-9.024331E-2,-1.9170965E1,3.9999176E1,5.8E1,1.3653375E1,9.3478364E-1,4.6782574E1,-1.7926526E-1,-1.4817446E-1,8.496503E-1,6.0565834E1,-4.559088E1,1E0,-2.3391638E-2,8.9E1,4.6551725E-1,-1.1353836E1,2E-1,1.009682E0,3.4897548E-1,-1.7013397E0,4.305269E-1,1.58E2,5.734754E-2,1.1987169E0,5.2643658E1,8.884892E-1,-1.9509166E-3,-1.8028919E-2,2.1670917E-2,-1.2040734E-2,-1.7025786E-2,4.95826E-2,-4.056958E-3,7.65809E-3,-4.0524905E-3,1.1809279E-2,2.096215E-3,-7.264019E-3,4.0026024E-2,-1.1687705E-2,3.4504798E-3,-2.60297E-2,3.270807E-2,-2.4968352E-2,1.4828854E-4,2.5543785E-2,2.4036025E-3,1.12795625E-2,3.7715945E-2,-7.888773E-3,5.4433864E-2,2.924135E-3,1.6412895E-2,-2.0567529E-2],"split_indices":[4,4,6,6,10,12,3,8,3,4,3,10,10,15,0,6,13,0,8,15,12,16,4,2,6,9,8,0,4,3,15,0,0,0,0,0,0,0,0,0,0,0,0,0,0,0,0,0,0,0,0,0,0,0,0,0,0,0,0],"split_type":[0,0,0,0,0,0,0,0,0,0,0,0,0,0,0,0,0,0,0,0,0,0,0,0,0,0,0,0,0,0,0,0,0,0,0,0,0,0,0,0,0,0,0,0,0,0,0,0,0,0,0,0,0,0,0,0,0,0,0],"sum_hessian":[9.903061E3,6.267316E3,3.6357446E3,6.8294855E2,5.5843677E3,3.5271414E3,1.0860329E2,6.5825415E2,2.4694405E1,1.6605155E3,3.923852E3,5.4127594E1,3.473014E3,6.2247818E1,4.635547E1,4.4174924E2,2.1650491E2,6.5199614E0,1.8174444E1,1.1008655E3,5.5965E2,3.8833406E3,4.05114E1,4.153151E1,1.2596082E1,3.0574707E2,3.1672668E3,1.3688435E1,4.8559383E1,8.276336E0,3.8079132E1,4.15147E1,4.0023453E2,4.2139687E1,1.7436522E2,1.6011143E0,1.657333E1,8.4487024E2,2.5599524E2,7.724487E1,4.8240518E2,1.0090868E3,2.874254E3,3.7521164E1,2.9902341E0,1.1795558E0,4.0351955E1,4.07434E0,8.521742E0,7.032167E1,2.354254E2,2.5872883E3,5.799784E2,4.0305206E1,8.254174E0,7.0680065E0,1.2083292E0,2.4307083E1,1.3772049E1],"tree_param":{"num_deleted":"0","num_feature":"17","num_nodes":"59","size_leaf_vector":"1"}},{"base_weights":[-8.017722E-4,8.766303E-2,-1.4181788E-1,1.8436928E-1,4.153785E-2,-3.1742102E-1,-7.564116E-2,-3.508469E-2,1.9455317E-1,-9.388201E-2,7.261491E-2,-2.8643632E-1,-6.4927375E-1,-1.5439364E-1,1.8379341E-3,1.2899412E-1,3.0054402E-1,-3.480023E-2,-5.0910366E-1,8.067383E-2,-4.726494E-1,-3.3830656E-3,-3.2587168E-1,-7.4028456E-1,-2.6445624E-1,-1.2790874E-1,-5.0402665E-1,1.1538451E-1,-7.056432E-2,1.5318589E-2,3.4447731E-3,-1.6583286E-2,1.2980797E-2,1.6938179E-3,-1.011061E-2,-2.6612906E-2,2.9319455E-3,2.0340635E-3,9.222392E-3,2.6581446E-2,-2.0871097E-2,-3.2511416E-3,2.597167E-2,-3.5901393E-3,-1.4434471E-2,-3.024661E-2,-8.349429E-3,2.2886641E-2,-1.7771741E-2,-1.6199717E-3,-8.408391E-3,4.361899E-3,-2.4171667E-2,-2.7395496E-3,7.324104E-3,-5.2390993E-3,1.1984423E-3],"categories":[],"categories_nodes":[],"categories_segments":[],"categories_sizes":[],"default_left":[0,0,0,0,0,0,0,0,0,0,0,0,0,0,0,0,0,0,0,0,0,0,0,0,0,0,0,0,0,0,0,0,0,0,0,0,0,0,0,0,0,0,0,0,0,0,0,0,0,0,0,0,0,0,0,0,0],"id":24,"left_children":[1,3,5,7,9,11,13,-1,15,17,19,21,23,25,27,29,31,33,35,37,39,41,43,45,47,49,51,53,55,-1,-1,-1,-1,-1,-1,-1,-1,-1,-1,-1,-1,-1,-1,-1,-1,-1,-1,-1,-1,-1,-1,-1,-1,-1,-1,-1,-1],"loss_changes":[1.559391E2,3.4255775E1,5.597458E1,2.6982666E1,2.1899504E1,1.3372589E1,2.1363342E1,0E0,1.7037788E1,2.381311E1,1.863307E1,1.348085E1,3.7202873E0,1.6013977E1,1.4525222E1,1.6519526E1,1.6224388E1,1.432848E1,1.1051392E1,1.8631855E1,3.7981434E0,7.613098E0,8.725975E0,6.008072E-1,3.7060435E0,1.1612551E1,7.5607014E0,8.578472E0,6.556179E0,0E0,0E0,0E0,0E0,0E0,0E0,0E0,0E0,0E0,0E0,0E0,0E0,0E0,0E0,0E0,0E0,0E0,0E0,0E0,0E0,0E0,0E0,0E0,0E0,0E0,0E0,0E0,0E0],"parents":[2147483647,0,0,1,1,2,2,3,3,4,4,5,5,6,6,8,8,9,9,10,10,11,11,12,12,13,13,14,14,15,15,16,16,17,17,18,18,19,19,20,20,21,21,22,22,23,23,24,24,25,25,26,26,27,27,28,28],"right_children":[2,4,6,8,10,12,14,-1,16,18,20,22,24,26,28,30,32,34,36,38,40,42,44,46,48,50,52,54,56,-1,-1,-1,-1,-1,-1,-1,-1,-1,-1,-1,-1,-1,-1,-1,-1,-1,-1,-1,-1,-1,-1,-1,-1,-1,-1,-1,-1],"split_conditions":[1.007979E0,8.5208035E-1,-3.4324522E0,-5.328503E-1,-7.723036E0,5.7931036E-1,2.444952E1,-3.508469E-2,4.531813E1,2.9655173E-1,4.464231E1,1.5770208E1,-3.8280022E0,1.4613943E1,1.0933176E0,7.1662295E-1,-4.3725796E1,3.3232903E1,-2.798391E0,1.2341534E1,3.006993E-1,8.2E1,5.4161E-1,7.638889E-1,1.476743E1,7.655758E-2,-5.428098E-2,-2.45E1,1.0699339E0,1.5318589E-2,3.4447731E-3,-1.6583286E-2,1.2980797E-2,1.6938179E-3,-1.011061E-2,-2.6612906E-2,2.9319455E-3,2.0340635E-3,9.222392E-3,2.6581446E-2,-2.0871097E-2,-3.2511416E-3,2.597167E-2,-3.5901393E-3,-1.4434471E-2,-3.024661E-2,-8.349429E-3,2.2886641E-2,-1.7771741E-2,-1.6199717E-3,-8.408391E-3,4.361899E-3,-2.4171667E-2,-2.7395496E-3,7.324104E-3,-5.2390993E-3,1.1984423E-3],"split_indices":[4,4,7,10,7,14,3,0,0,14,3,3,7,7,4,4,6,3,1,6,14,13,2,14,3,5,10,13,2,0,0,0,0,0,0,0,0,0,0,0,0,0,0,0,0,0,0,0,0,0,0,0,0,0,0,0,0],"split_type":[0,0,0,0,0,0,0,0,0,0,0,0,0,0,0,0,0,0,0,0,0,0,0,0,0,0,0,0,0,0,0,0,0,0,0,0,0,0,0,0,0,0,0,0,0,0,0,0,0,0,0,0,0,0,0,0,0],"sum_hessian":[1.249817E4,7.680363E3,4.817807E3,2.4792854E3,5.2010776E3,1.3176259E3,3.5001814E3,2.2751226E1,2.4565342E3,9.704167E2,4.230661E3,1.2068105E3,1.1081536E2,1.7353342E3,1.7648472E3,1.5191215E3,9.374126E2,8.5048517E2,1.1993149E2,4.169883E3,6.0778152E1,1.4770699E2,1.0591035E3,8.887286E1,2.1942501E1,1.6144077E3,1.2092647E2,6.869413E2,1.0779059E3,2.1826828E2,1.3008533E3,2.9880482E1,9.075321E2,6.287527E2,2.217325E2,9.445362E1,2.5477863E1,3.4790156E3,6.9086725E2,1.99821E0,5.8779945E1,1.3274017E2,1.4966814E1,1.3715143E2,9.2195215E2,8.5884384E1,2.988482E0,3.4962049E0,1.8446295E1,7.8363007E2,8.3077765E2,1.6984781E1,1.0394169E2,1.8489342E2,5.0204788E2,6.7309204E2,4.048139E2],"tree_param":{"num_deleted":"0","num_feature":"17","num_nodes":"57","size_leaf_vector":"1"}},{"base_weights":[1.4417914E-3,1.1300713E0,-4.3566367E-3,1.1694536E-1,5.2213434E-2,-1.6695134E-1,1.7882776E-2,6.941462E-1,-1.9229116E-2,-3.363465E-1,-4.4182207E-2,7.2995275E-1,1.1453748E-2,5.3578828E-2,-1.4802628E-2,7.871673E-1,-3.5180476E-1,-1.2597716E-1,2.3535883E-1,8.907043E-1,-4.2884383E-2,-3.179378E-1,2.13246E-2,4.714133E-2,-1.430942E-2,-1.1427804E-2,-2.1979654E-2,-1.3678544E-2,-6.7817164E-4,5.4331943E-2,2.2683844E-3,4.1161183E-2,-1.0192077E-2,4.0323704E-2,-1.2307249E-2,3.7722748E-2,-1.367264E-2,7.759427E-3,1.2078178E-4],"categories":[],"categories_nodes":[],"categories_segments":[],"categories_sizes":[],"default_left":[0,0,0,0,0,0,0,0,0,0,0,0,0,0,0,0,0,0,0,0,0,0,0,0,0,0,0,0,0,0,0,0,0,0,0,0,0,0,0],"id":25,"left_children":[1,3,5,7,-1,9,11,13,-1,15,17,19,21,-1,-1,23,25,27,29,31,33,35,37,-1,-1,-1,-1,-1,-1,-1,-1,-1,-1,-1,-1,-1,-1,-1,-1],"loss_changes":[5.5160637E1,7.4972916E0,3.0326855E1,2.9045506E0,0E0,2.0971056E1,3.376703E1,3.380246E0,0E0,7.6387253E0,1.343374E1,8.23774E0,2.3783733E1,0E0,0E0,3.137771E0,5.3165665E0,1.0688866E1,2.661476E1,8.926697E0,3.7383413E0,6.7308426E0,2.2442818E1,0E0,0E0,0E0,0E0,0E0,0E0,0E0,0E0,0E0,0E0,0E0,0E0,0E0,0E0,0E0,0E0],"parents":[2147483647,0,0,1,1,2,2,3,3,5,5,6,6,7,7,9,9,10,10,11,11,12,12,15,15,16,16,17,17,18,18,19,19,20,20,21,21,22,22],"right_children":[2,4,6,8,-1,10,12,14,-1,16,18,20,22,-1,-1,24,26,28,30,32,34,36,38,-1,-1,-1,-1,-1,-1,-1,-1,-1,-1,-1,-1,-1,-1,-1,-1],"split_conditions":[-5.328503E-1,-8.7E1,-6.45E1,2.804466E1,5.2213434E-2,4.4092377E1,2.0658062E1,8.1151766E-1,-1.9229116E-2,1.9705158E-1,1.1526679E0,4.1E1,1.1516801E1,5.3578828E-2,-1.4802628E-2,4.244824E1,-1.8063343E1,-1.9806702E1,-1.6623662E-1,2.0518672E0,-1.923895E1,1E0,3.2814983E-1,4.714133E-2,-1.430942E-2,-1.1427804E-2,-2.1979654E-2,-1.3678544E-2,-6.7817164E-4,5.4331943E-2,2.2683844E-3,4.1161183E-2,-1.0192077E-2,4.0323704E-2,-1.2307249E-2,3.7722748E-2,-1.367264E-2,7.759427E-3,1.2078178E-4],"split_indices":[10,13,13,0,0,0,0,9,0,2,4,13,3,0,0,0,6,6,10,2,5,8,9,0,0,0,0,0,0,0,0,0,0,0,0,0,0,0,0],"split_type":[0,0,0,0,0,0,0,0,0,0,0,0,0,0,0,0,0,0,0,0,0,0,0,0,0,0,0,0,0,0,0,0,0,0,0,0,0,0,0],"sum_hessian":[8.427083E3,4.20825E1,8.385001E3,6.4522395E0,3.563026E1,1.0081082E3,7.3768926E3,3.2002223E0,3.2520173E0,4.228819E2,5.852263E2,6.500041E1,7.3118926E3,1.8311722E0,1.36905E0,5.061848E0,4.1782004E2,4.531747E2,1.3205159E2,5.3681953E1,1.1318457E1,2.1183173E2,7.1000605E3,3.7504468E0,1.3114014E0,3.149431E2,1.0287694E2,1.5129861E2,3.018761E2,1.7218386E1,1.148332E2,4.798876E1,5.6931887E0,1.7129052E0,9.605552E0,3.2212796E0,2.0861044E2,6.796562E2,6.4204043E3],"tree_param":{"num_deleted":"0","num_feature":"17","num_nodes":"39","size_leaf_vector":"1"}},{"base_weights":[3.9094286E-3,-7.339903E-2,1.3644361E-1,-2.9132515E-1,-4.6988588E-2,2.8173313E-1,5.3481158E-2,-4.1896036E-1,-7.122188E-2,8.4178284E-2,-8.621435E-2,-4.3231845E-1,3.203665E-1,3.3079583E-2,5.504016E-1,-1.8322957E-1,-4.4730815E-1,3.8919303E-1,-1.5260354E-1,5.311506E-2,1.0467794E0,-1.03788234E-1,1.4369847E-1,3.9588785E-1,-5.061047E-1,-2.3713708E-2,3.7763104E-1,2.9278377E-1,-5.6772316E-3,-5.2421796E-1,7.619543E-1,-1.5848309E-2,1.1188738E-2,-1.8074622E-2,2.20587E-2,-1.9699205E-2,3.603369E-2,-2.0151187E-3,-1.6438853E-2,-3.7141E-3,5.51072E-3,1.2596567E-2,4.9450565E-2,6.1234285E-4,-5.358445E-3,3.0246382E-3,5.4263942E-2,-1.8076908E-2,3.897999E-2,-2.5561757E-2,-1.3915531E-2,-3.1254813E-3,3.3050068E-2,2.7505133E-2,1.2942623E-2,8.02578E-3,3.5358343E-2,-2.0361727E-3,8.441071E-3,2.0188095E-2,-2.591782E-2,3.4561887E-2,-3.7295267E-3],"categories":[],"categories_nodes":[],"categories_segments":[],"categories_sizes":[],"default_left":[0,0,0,0,0,0,0,0,0,0,0,0,0,0,0,0,0,0,0,0,0,0,0,0,0,0,0,0,0,0,0,0,0,0,0,0,0,0,0,0,0,0,0,0,0,0,0,0,0,0,0,0,0,0,0,0,0,0,0,0,0,0,0],"id":26,"left_children":[1,3,5,7,9,11,13,15,17,19,21,23,25,27,29,31,33,35,37,39,41,43,45,47,49,51,53,55,57,59,61,-1,-1,-1,-1,-1,-1,-1,-1,-1,-1,-1,-1,-1,-1,-1,-1,-1,-1,-1,-1,-1,-1,-1,-1,-1,-1,-1,-1,-1,-1,-1,-1],"loss_changes":[1.0105268E2,3.5838387E1,4.3781563E1,1.8880077E1,2.8598892E1,3.6564156E1,2.3441736E1,2.7637634E0,9.361876E0,3.821177E1,1.7301044E1,4.3680677E0,2.4702103E1,2.2385633E1,2.113175E1,4.785075E0,1.9763489E0,1.739331E1,5.5705633E0,1.5345173E1,5.151417E0,1.4286346E1,2.5018738E1,3.4524393E0,1.1040306E0,8.379598E0,1.7785828E1,1.5553764E1,1.8985975E1,2.3120375E0,6.7687263E0,0E0,0E0,0E0,0E0,0E0,0E0,0E0,0E0,0E0,0E0,0E0,0E0,0E0,0E0,0E0,0E0,0E0,0E0,0E0,0E0,0E0,0E0,0E0,0E0,0E0,0E0,0E0,0E0,0E0,0E0,0E0,0E0],"parents":[2147483647,0,0,1,1,2,2,3,3,4,4,5,5,6,6,7,7,8,8,9,9,10,10,11,11,12,12,13,13,14,14,15,15,16,16,17,17,18,18,19,19,20,20,21,21,22,22,23,23,24,24,25,25,26,26,27,27,28,28,29,29,30,30],"right_children":[2,4,6,8,10,12,14,16,18,20,22,24,26,28,30,32,34,36,38,40,42,44,46,48,50,52,54,56,58,60,62,-1,-1,-1,-1,-1,-1,-1,-1,-1,-1,-1,-1,-1,-1,-1,-1,-1,-1,-1,-1,-1,-1,-1,-1,-1,-1,-1,-1,-1,-1,-1,-1],"split_conditions":[1.0190831E0,7.813116E-1,-1.0420226E0,4.6206897E-1,2.0588236E-1,-1.7106352E1,4.2921457E-1,2.7509296E1,5.0357145E-1,1.00774854E-1,3.867433E1,3.4617844E-1,4.3449694E-1,1.6171999E1,1.3986014E-1,7.5091237E-1,1.084951E1,1.5010334E1,5.928571E-1,-9.432215E-1,5.4E1,-4.0152416E0,1.84E2,-1.9170965E1,2.463745E1,6.827586E-1,2E1,9.86497E0,1.64E2,1.2430553E0,6.0623676E1,-1.5848309E-2,1.1188738E-2,-1.8074622E-2,2.20587E-2,-1.9699205E-2,3.603369E-2,-2.0151187E-3,-1.6438853E-2,-3.7141E-3,5.51072E-3,1.2596567E-2,4.9450565E-2,6.1234285E-4,-5.358445E-3,3.0246382E-3,5.4263942E-2,-1.8076908E-2,3.897999E-2,-2.5561757E-2,-1.3915531E-2,-3.1254813E-3,3.3050068E-2,2.7505133E-2,1.2942623E-2,8.02578E-3,3.5358343E-2,-2.0361727E-3,8.441071E-3,2.0188095E-2,-2.591782E-2,3.4561887E-2,-3.7295267E-3],"split_indices":[4,4,7,15,16,12,11,0,15,11,3,9,9,3,15,4,12,3,16,12,8,1,8,12,0,14,8,12,8,4,3,0,0,0,0,0,0,0,0,0,0,0,0,0,0,0,0,0,0,0,0,0,0,0,0,0,0,0,0,0,0,0,0],"split_type":[0,0,0,0,0,0,0,0,0,0,0,0,0,0,0,0,0,0,0,0,0,0,0,0,0,0,0,0,0,0,0,0,0,0,0,0,0,0,0,0,0,0,0,0,0,0,0,0,0,0,0,0,0,0,0,0,0,0,0,0,0,0,0],"sum_hessian":[9.860656E3,6.228158E3,3.632498E3,6.7212006E2,5.556038E3,1.3194287E3,2.3130693E3,4.2485077E2,2.4726927E2,1.2787811E3,4.277257E3,6.7199844E1,1.2522289E3,2.2228738E3,9.019576E1,4.6407215E1,3.7844354E2,3.6573456E1,2.1069582E2,1.2398269E3,3.895415E1,3.974041E3,3.0321588E2,5.140089E0,6.2059757E1,1.7875371E2,1.0734751E3,2.8780133E2,1.9350724E3,1.4592515E1,7.560325E1,3.1883463E1,1.4523751E1,3.7726965E2,1.1739023E0,1.3444089E1,2.3129366E1,1.5182132E2,5.88745E1,4.5506274E2,7.8476416E2,8.5587635E0,3.039539E1,8.0339954E2,3.1706416E3,2.8810623E2,1.5109633E1,2.173834E0,2.966255E0,3.2072346E1,2.9987411E1,1.688503E2,9.90342E0,1.5767706E2,9.157981E2,2.5015248E2,3.764884E1,1.6015806E3,3.3349182E2,1.2358692E0,1.3356646E1,6.753104E1,8.072214E0],"tree_param":{"num_deleted":"0","num_feature":"17","num_nodes":"63","size_leaf_vector":"1"}},{"base_weights":[3.8417242E-3,5.0809752E-2,-1.2430756E-1,1.6614439E-1,1.606671E-2,-2.6919007E-1,-7.389241E-2,2.600333E-1,6.60041E-2,