{"learner":{"attributes":{"scikit_learn":"{\"_estimator_type\": \"classifier\"}"},"feature_names":["Feature_RSI","Feature_EMA_Dist","Feature_Volume_Ratio","Feature_ADX_14","Feature_ATR_Ratio","Feature_ROC_20","Feature_MACD_Hist_Accel","Feature_Relative_Strength"],"feature_types":["float","float","float","float","float","float","float","float"],"gradient_booster":{"model":{"cats":{"enc":[],"feature_segments":[],"sorted_idx":[]},"gbtree_model_param":{"num_parallel_tree":"1","num_trees":"519"},"iteration_indptr":[0,3,6,9,12,15,18,21,24,27,30,33,36,39,42,45,48,51,54,57,60,63,66,69,72,75,78,81,84,87,90,93,96,99,102,105,108,111,114,117,120,123,126,129,132,135,138,141,144,147,150,153,156,159,162,165,168,171,174,177,180,183,186,189,192,195,198,201,204,207,210,213,216,219,222,225,228,231,234,237,240,243,246,249,252,255,258,261,264,267,270,273,276,279,282,285,288,291,294,297,300,303,306,309,312,315,318,321,324,327,330,333,336,339,342,345,348,351,354,357,360,363,366,369,372,375,378,381,384,387,390,393,396,399,402,405,408,411,414,417,420,423,426,429,432,435,438,441,444,447,450,453,456,459,462,465,468,471,474,477,480,483,486,489,492,495,498,501,504,507,510,513,516,519],"tree_info":[0,1,2,0,1,2,0,1,2,0,1,2,0,1,2,0,1,2,0,1,2,0,1,2,0,1,2,0,1,2,0,1,2,0,1,2,0,1,2,0,1,2,0,1,2,0,1,2,0,1,2,0,1,2,0,1,2,0,1,2,0,1,2,0,1,2,0,1,2,0,1,2,0,1,2,0,1,2,0,1,2,0,1,2,0,1,2,0,1,2,0,1,2,0,1,2,0,1,2,0,1,2,0,1,2,0,1,2,0,1,2,0,1,2,0,1,2,0,1,2,0,1,2,0,1,2,0,1,2,0,1,2,0,1,2,0,1,2,0,1,2,0,1,2,0,1,2,0,1,2,0,1,2,0,1,2,0,1,2,0,1,2,0,1,2,0,1,2,0,1,2,0,1,2,0,1,2,0,1,2,0,1,2,0,1,2,0,1,2,0,1,2,0,1,2,0,1,2,0,1,2,0,1,2,0,1,2,0,1,2,0,1,2,0,1,2,0,1,2,0,1,2,0,1,2,0,1,2,0,1,2,0,1,2,0,1,2,0,1,2,0,1,2,0,1,2,0,1,2,0,1,2,0,1,2,0,1,2,0,1,2,0,1,2,0,1,2,0,1,2,0,1,2,0,1,2,0,1,2,0,1,2,0,1,2,0,1,2,0,1,2,0,1,2,0,1,2,0,1,2,0,1,2,0,1,2,0,1,2,0,1,2,0,1,2,0,1,2,0,1,2,0,1,2,0,1,2,0,1,2,0,1,2,0,1,2,0,1,2,0,1,2,0,1,2,0,1,2,0,1,2,0,1,2,0,1,2,0,1,2,0,1,2,0,1,2,0,1,2,0,1,2,0,1,2,0,1,2,0,1,2,0,1,2,0,1,2,0,1,2,0,1,2,0,1,2,0,1,2,0,1,2,0,1,2,0,1,2,0,1,2,0,1,2,0,1,2,0,1,2,0,1,2,0,1,2,0,1,2,0,1,2,0,1,2,0,1,2,0,1,2,0,1,2,0,1,2,0,1,2,0,1,2,0,1,2,0,1,2,0,1,2,0,1,2,0,1,2,0,1,2,0,1,2,0,1,2,0,1,2,0,1,2,0,1,2,0,1,2,0,1,2,0,1,2,0,1,2,0,1,2,0,1,2,0,1,2,0,1,2,0,1,2,0,1,2,0,1,2],"trees":[{"base_weights":[-4.3560477E-4,-1.523285E-1,3.1874005E-2,1.5214278E-2,-2.1868904E-1,6.3362665E-2,-4.447861E-2,9.6805304E-2,-1.538128E-1,8.557857E-2,-2.3858793E-1,2.1949318E-1,4.4922676E-2,-7.825237E-2,5.8067862E-2,-2.5309032E-1,1.4632963E-1,6.10755E-2,-3.050084E-1,-4.2313747E-3,3.505087E-2,-6.1773926E-1,-2.2687337E-1,2.7352166E-1,-2.3896968E-1,-3.1726013E-3,1.03957154E-1,2.2340156E-2,-1.0764359E-1,7.8031984E-3,1.6814813E-1,-1.8374335E-2,3.8532657E-3,3.341374E-3,1.757492E-2,6.062298E-3,-1.7308116E-2,2.7814383E-2,-1.3283987E-2,-1.3908492E-2,6.0383817E-3,1.11951465E-2,-3.6297463E-2,-9.343721E-3,1.4752999E-2,7.83188E-4,1.1968251E-2,-3.6317336E-3,-2.0367583E-2,-6.0352837E-3,6.625192E-4,4.718329E-3,-9.84972E-3,-4.0796185E-3,3.2434629E-3,-4.571096E-3,1.3309577E-2,1.9424E-3,-1.8210247E-2,1.0188794E-2,9.437765E-4],"categories":[],"categories_nodes":[],"categories_segments":[],"categories_sizes":[],"default_left":[0,0,0,0,0,0,0,0,0,0,0,0,0,0,0,0,0,0,0,0,0,0,0,0,0,0,0,0,0,0,0,0,0,0,0,0,0,0,0,0,0,0,0,0,0,0,0,0,0,0,0,0,0,0,0,0,0,0,0,0,0],"id":0,"left_children":[1,3,5,7,9,11,13,15,17,19,21,23,25,27,29,31,33,35,37,39,-1,41,43,45,47,49,51,53,55,57,59,-1,-1,-1,-1,-1,-1,-1,-1,-1,-1,-1,-1,-1,-1,-1,-1,-1,-1,-1,-1,-1,-1,-1,-1,-1,-1,-1,-1,-1,-1],"loss_changes":[6.184457E1,2.4578926E1,2.4986298E1,8.676282E0,9.606918E0,2.1173094E1,1.0515161E1,7.387565E0,6.67428E0,6.957872E0,6.461899E0,1.9310055E1,1.868761E1,6.753166E0,4.162113E0,3.8614705E0,6.8129597E0,3.8827991E0,3.4942636E0,4.7932262E0,0E0,1.1687468E1,5.864128E0,4.53043E0,3.2547064E0,1.0578172E1,1.4517166E1,3.785328E0,5.2007923E0,9.791112E0,2.9452114E0,0E0,0E0,0E0,0E0,0E0,0E0,0E0,0E0,0E0,0E0,0E0,0E0,0E0,0E0,0E0,0E0,0E0,0E0,0E0,0E0,0E0,0E0,0E0,0E0,0E0,0E0,0E0,0E0,0E0,0E0],"parents":[2147483647,0,0,1,1,2,2,3,3,4,4,5,5,6,6,7,7,8,8,9,9,10,10,11,11,12,12,13,13,14,14,15,15,16,16,17,17,18,18,19,19,21,21,22,22,23,23,24,24,25,25,26,26,27,27,28,28,29,29,30,30],"right_children":[2,4,6,8,10,12,14,16,18,20,22,24,26,28,30,32,34,36,38,40,-1,42,44,46,48,50,52,54,56,58,60,-1,-1,-1,-1,-1,-1,-1,-1,-1,-1,-1,-1,-1,-1,-1,-1,-1,-1,-1,-1,-1,-1,-1,-1,-1,-1,-1,-1,-1,-1],"split_conditions":[-7.657387E0,2.1616888E1,5.06557E-1,1.03697464E-1,4.3171036E-1,1.3635113E1,1.5300705E0,-1.350365E1,3.9297493E1,4.442746E1,-3.4984024E1,1.3333122E0,-2.8362328E-1,6.479528E-1,2.6900099E1,1.2328436E0,-1.3116212E-2,1.3798486E0,2.3894425E-1,2.5595818E1,3.505087E-2,7.593728E-1,6.0582027E1,-3.4389799E0,5.9179565E1,-3.732204E0,4.1554314E1,4.705667E1,4.2074936E1,1.0836625E1,3.5480778E0,-1.8374335E-2,3.8532657E-3,3.341374E-3,1.757492E-2,6.062298E-3,-1.7308116E-2,2.7814383E-2,-1.3283987E-2,-1.3908492E-2,6.0383817E-3,1.11951465E-2,-3.6297463E-2,-9.343721E-3,1.4752999E-2,7.83188E-4,1.1968251E-2,-3.6317336E-3,-2.0367583E-2,-6.0352837E-3,6.625192E-4,4.718329E-3,-9.84972E-3,-4.0796185E-3,3.2434629E-3,-4.571096E-3,1.3309577E-2,1.9424E-3,-1.8210247E-2,1.0188794E-2,9.437765E-4],"split_indices":[5,3,6,6,2,3,2,5,0,0,5,1,6,2,3,2,6,2,2,3,0,2,3,1,0,1,3,0,6,1,6,0,0,0,0,0,0,0,0,0,0,0,0,0,0,0,0,0,0,0,0,0,0,0,0,0,0,0,0,0,0],"split_type":[0,0,0,0,0,0,0,0,0,0,0,0,0,0,0,0,0,0,0,0,0,0,0,0,0,0,0,0,0,0,0,0,0,0,0,0,0,0,0,0,0,0,0,0,0,0,0,0,0,0,0,0,0,0,0,0,0,0,0,0,0],"sum_hessian":[1.2599806E4,2.2093877E3,1.0390418E4,6.270424E2,1.5823453E3,7.356632E3,3.0337861E3,4.231912E2,2.0385124E2,9.692927E1,1.485416E3,7.759338E2,6.5806978E3,2.2823345E3,7.5145166E2,5.1962082E1,3.712291E2,8.4438385E1,1.1941286E2,8.793583E1,8.993437E0,4.2968643E1,1.4424474E3,6.944932E2,8.144057E1,3.6268533E3,2.9538445E3,5.1612335E2,1.7662112E3,5.16623E2,2.3482864E2,3.24763E1,1.948578E1,3.0677612E2,6.4452965E1,7.1947495E1,1.2490885E1,2.498177E0,1.1691468E2,2.6980312E1,6.0955517E1,1.0492343E1,3.24763E1,1.4269587E3,1.5488697E1,6.395333E1,6.3053986E2,5.3460987E1,2.7979582E1,4.2668863E2,3.2001648E3,2.8409268E3,1.129176E2,1.6537932E2,3.5074405E2,1.7407297E3,2.5481405E1,4.756529E2,4.0970104E1,1.4639317E2,8.843546E1],"tree_param":{"num_deleted":"0","num_feature":"8","num_nodes":"61","size_leaf_vector":"1"}},{"base_weights":[-2.3485595E-4,1.5316956E0,-6.410932E-3,5.5204946E-1,2.0415566E0,-4.8595108E-2,7.5578876E-2,1.1490148E0,-1.2293599E-1,8.656183E-2,1.3766945E-2,1.9124417E-1,-7.496112E-2,1.6015284E-1,-1.8350376E-2,6.536303E-2,5.591149E-1,-3.5103765E-1,1.9403404E-2,-2.524691E-1,2.5624776E-1,-7.981173E-2,7.3422855E-1,7.496725E-2,2.3879282E-1,-1.3384898E-1,2.7486945E-2,4.3532092E-2,-3.8337952E-3,-1.965459E-2,2.3833264E-3,3.486184E-2,-1.3781516E-2,7.5552743E-3,2.6170472E-2,-7.370821E-3,-1.7825456E-3,4.682776E-2,-1.4302265E-2,1.0244149E-2,-1.8088297E-3,1.36709595E-2,3.98875E-3,-1.8987754E-4,-1.0073547E-2,2.5778923E-3,-1.0523817E-2],"categories":[],"categories_nodes":[],"categories_segments":[],"categories_sizes":[],"default_left":[0,0,0,0,0,0,0,0,0,0,0,0,0,0,0,0,0,0,0,0,0,0,0,0,0,0,0,0,0,0,0,0,0,0,0,0,0,0,0,0,0,0,0,0,0,0,0],"id":1,"left_children":[1,3,5,7,9,11,13,15,17,-1,-1,19,21,23,25,-1,27,29,-1,31,33,35,37,39,41,43,45,-1,-1,-1,-1,-1,-1,-1,-1,-1,-1,-1,-1,-1,-1,-1,-1,-1,-1,-1,-1],"loss_changes":[8.109487E1,1.6063469E1,2.9529484E1,5.440556E0,3.8843613E0,3.5662178E1,2.304427E1,1.1109991E0,1.1516227E0,0E0,0E0,1.6176899E1,1.9996563E1,1.0207104E1,7.2838244E0,0E0,1.7378023E0,3.5919213E-1,0E0,7.7392907E0,1.2953846E1,1.8586792E1,1.488884E1,1.5994123E1,1.13262825E1,5.9526677E0,1.0598792E1,0E0,0E0,0E0,0E0,0E0,0E0,0E0,0E0,0E0,0E0,0E0,0E0,0E0,0E0,0E0,0E0,0E0,0E0,0E0,0E0],"parents":[2147483647,0,0,1,1,2,2,3,3,4,4,5,5,6,6,7,7,8,8,11,11,12,12,13,13,14,14,16,16,17,17,19,19,20,20,21,21,22,22,23,23,24,24,25,25,26,26],"right_children":[2,4,6,8,10,12,14,16,18,-1,-1,20,22,24,26,-1,28,30,-1,32,34,36,38,40,42,44,46,-1,-1,-1,-1,-1,-1,-1,-1,-1,-1,-1,-1,-1,-1,-1,-1,-1,-1,-1,-1],"split_conditions":[-3.4984024E1,8.7304556E-1,1.0228761E0,5.804431E-1,6.0582027E1,-1.0798423E1,6.5679946E0,5.073133E1,7.593728E-1,8.656183E-2,1.3766945E-2,1.9624008E1,5.4526474E1,-5.6759205E0,1.6045496E0,6.536303E-2,4.021877E-1,1.071929E0,1.9403404E-2,7.8284466E-1,2.0125797E0,8.362404E-1,9.08543E-1,8.0054474E-1,2.4749657E1,1.556109E1,2.7443327E1,4.3532092E-2,-3.8337952E-3,-1.965459E-2,2.3833264E-3,3.486184E-2,-1.3781516E-2,7.5552743E-3,2.6170472E-2,-7.370821E-3,-1.7825456E-3,4.682776E-2,-1.4302265E-2,1.0244149E-2,-1.8088297E-3,1.36709595E-2,3.98875E-3,-1.8987754E-4,-1.0073547E-2,2.5778923E-3,-1.0523817E-2],"split_indices":[5,2,4,2,3,5,7,3,2,0,0,3,3,7,5,0,2,4,0,4,6,4,4,2,3,7,5,0,0,0,0,0,0,0,0,0,0,0,0,0,0,0,0,0,0,0,0],"split_type":[0,0,0,0,0,0,0,0,0,0,0,0,0,0,0,0,0,0,0,0,0,0,0,0,0,0,0,0,0,0,0,0,0,0,0,0,0,0,0,0,0,0,0,0,0,0,0],"sum_hessian":[8.569163E3,3.34166E1,8.535747E3,1.215149E1,2.1265108E1,5.636266E3,2.8994807E3,6.075745E0,6.075745E0,1.9577402E1,1.687707E0,5.576184E2,5.078648E3,1.5253496E3,1.3741311E3,2.3627899E0,3.7129555E0,4.7255797E0,1.3501656E0,7.08837E1,4.867347E2,5.0492817E3,2.9366102E1,7.3313995E2,7.9220966E2,3.8986032E2,9.8427075E2,1.687707E0,2.0252485E0,3.375414E0,1.3501656E0,4.7255797E0,6.615811E1,4.1753873E2,6.9195984E1,1.2728687E3,3.776413E3,2.0927567E1,8.438535E0,2.919733E2,4.4116663E2,4.5433072E2,3.3787894E2,1.866604E2,2.0319992E2,8.738947E2,1.1037604E2],"tree_param":{"num_deleted":"0","num_feature":"8","num_nodes":"47","size_leaf_vector":"1"}},{"base_weights":[2.1690056E-3,-1.0325285E-1,1.6614066E-1,-3.0353388E-1,-7.579531E-2,1.4307034E-1,6.7089194E-1,-3.3418968E-1,6.8594617E-1,-1.9542535E-1,-4.4135556E-2,4.6614725E-2,2.5525987E-1,5.509017E-1,1.078355E0,-6.260669E-1,-2.9793566E-1,-2.2676779E-2,1.0557708E0,-2.1064568E-1,1.3958955E-1,-7.052137E-2,1.0202334E-1,2.7705672E-1,-9.835677E-3,2.9098812E-1,-2.5680572E-1,3.6837843E-1,9.505959E-1,1.4288486E0,-2.422492E-2,3.3928605E-3,-2.5527794E-2,-8.892327E-3,-1.6381396E-2,5.4191224E-2,-3.89061E-3,-1.5653873E-2,-7.612589E-3,-1.317844E-2,2.2984916E-2,-2.0578923E-3,-8.918463E-3,9.807706E-3,-2.9930912E-3,-1.7458962E-2,1.2787346E-2,9.881511E-3,-1.9665156E-3,2.659554E-2,8.956921E-3,4.0854053E-3,-1.4701229E-2,3.7621573E-2,1.5076224E-3,5.6560743E-3,4.7492947E-2,2.5688807E-2,6.357092E-2,3.5494383E-2,-1.4221389E-2],"categories":[],"categories_nodes":[],"categories_segments":[],"categories_sizes":[],"default_left":[0,0,0,0,0,0,0,0,0,0,0,0,0,0,0,0,0,0,0,0,0,0,0,0,0,0,0,0,0,0,0,0,0,0,0,0,0,0,0,0,0,0,0,0,0,0,0,0,0,0,0,0,0,0,0,0,0,0,0,0,0],"id":2,"left_children":[1,3,5,7,9,11,13,15,17,19,21,23,25,27,29,31,33,-1,35,37,39,41,43,45,47,49,51,53,55,57,59,-1,-1,-1,-1,-1,-1,-1,-1,-1,-1,-1,-1,-1,-1,-1,-1,-1,-1,-1,-1,-1,-1,-1,-1,-1,-1,-1,-1,-1,-1],"loss_changes":[1.7279184E2,3.34356E1,4.545501E1,2.2470215E1,2.0261927E1,4.048152E1,7.7519226E0,7.3461685E0,1.0959462E1,5.7388077E0,1.6333078E1,2.619308E1,3.1719704E1,9.419395E0,1.4638073E1,7.2439957E-1,5.269314E0,0E0,6.204674E0,3.8618088E0,1.0241123E1,1.0416954E1,1.6419727E1,1.2189749E1,1.6358727E1,4.040706E1,4.5422883E0,1.7667849E1,7.7529144E0,2.5999413E0,3.3653615E0,0E0,0E0,0E0,0E0,0E0,0E0,0E0,0E0,0E0,0E0,0E0,0E0,0E0,0E0,0E0,0E0,0E0,0E0,0E0,0E0,0E0,0E0,0E0,0E0,0E0,0E0,0E0,0E0,0E0,0E0],"parents":[2147483647,0,0,1,1,2,2,3,3,4,4,5,5,6,6,7,7,8,8,9,9,10,10,11,11,12,12,13,13,14,14,15,15,16,16,18,18,19,19,20,20,21,21,22,22,23,23,24,24,25,25,26,26,27,27,28,28,29,29,30,30],"right_children":[2,4,6,8,10,12,14,16,18,20,22,24,26,28,30,32,34,-1,36,38,40,42,44,46,48,50,52,54,56,58,60,-1,-1,-1,-1,-1,-1,-1,-1,-1,-1,-1,-1,-1,-1,-1,-1,-1,-1,-1,-1,-1,-1,-1,-1,-1,-1,-1,-1,-1,-1],"split_conditions":[1.0020807E0,7.7983165E-1,5.288435E1,1.556109E1,5.446856E-1,6.82841E-2,2.1387892E0,6.3709146E-1,1.2519046E1,3.947882E1,3.1212158E1,-3.9172788E0,3.947882E1,1.265808E0,3.506664E1,-9.545981E0,-2.0090075E1,-2.2676779E-2,7.736261E-1,2.1923341E-1,-7.3966044E-1,1.40825405E1,2.7854753E-1,-1.3154889E1,1.622862E1,-2.2797482E0,5.06557E-1,1.0905116E0,-3.514615E0,6.101006E1,8.87016E-1,3.3928605E-3,-2.5527794E-2,-8.892327E-3,-1.6381396E-2,5.4191224E-2,-3.89061E-3,-1.5653873E-2,-7.612589E-3,-1.317844E-2,2.2984916E-2,-2.0578923E-3,-8.918463E-3,9.807706E-3,-2.9930912E-3,-1.7458962E-2,1.2787346E-2,9.881511E-3,-1.9665156E-3,2.659554E-2,8.956921E-3,4.0854053E-3,-1.4701229E-2,3.7621573E-2,1.5076224E-3,5.6560743E-3,4.7492947E-2,2.5688807E-2,6.357092E-2,3.5494383E-2,-1.4221389E-2],"split_indices":[4,4,7,7,2,6,6,4,3,3,3,1,3,4,3,1,7,0,4,2,7,7,6,1,3,1,6,4,6,7,2,0,0,0,0,0,0,0,0,0,0,0,0,0,0,0,0,0,0,0,0,0,0,0,0,0,0,0,0,0,0],"split_type":[0,0,0,0,0,0,0,0,0,0,0,0,0,0,0,0,0,0,0,0,0,0,0,0,0,0,0,0,0,0,0,0,0,0,0,0,0,0,0,0,0,0,0,0,0,0,0,0,0,0,0,0,0,0,0,0,0,0,0,0,0],"sum_hessian":[9.993952E3,6.083241E3,3.9107114E3,7.3222003E2,5.351021E3,3.7410073E3,1.6970415E2,7.1085864E2,2.1361362E1,1.1187024E3,4.232319E3,2.0123193E3,1.728688E3,1.3291513E2,3.6789013E1,7.674267E1,6.3411597E2,4.746969E0,1.6614391E1,1.0704415E3,4.8260853E1,3.5855442E3,6.4677454E2,3.9518518E2,1.6171342E3,1.616343E3,1.1234494E2,9.25659E1,4.034924E1,2.7690655E1,9.098358E0,1.1867423E0,7.555592E1,3.7975754E2,2.5435843E2,1.3054165E1,3.560227E0,1.06411224E2,9.6403033E2,2.3339266E1,2.4921589E1,3.1879854E3,3.975587E2,3.5720944E2,2.8956512E2,2.1756943E1,3.7342825E2,2.140092E2,1.403125E3,2.4446892E2,1.3718741E3,2.6503912E1,8.584103E1,3.3228783E1,5.9337116E1,9.493938E0,3.08553E1,5.5381308E0,2.2152523E1,1.9779038E0,7.120454E0],"tree_param":{"num_deleted":"0","num_feature":"8","num_nodes":"61","size_leaf_vector":"1"}},{"base_weights":[-4.783937E-3,9.564092E-2,-1.9223396E-1,2.318039E-1,4.101288E-2,-3.967928E-1,-1.1728126E-1,3.060626E-1,5.4322094E-2,-1.2551606E-1,7.917964E-2,-1.5925871E-1,-4.289399E-1,-2.2426511E-1,-4.332551E-2,-2.2038318E-1,3.248971E-1,-9.919889E-2,2.7308887E-1,6.2069017E-2,-2.1846674E-1,8.56323E-2,-6.018143E-1,-5.586891E-1,2.070828E-3,-4.1322723E-1,-8.55909E-1,-1.23071775E-1,-3.0530834E-1,-1.3499936E-2,-4.0361023E-1,-3.682201E-2,-3.5983415E-3,2.8154813E-2,1.210879E-2,2.0233361E-2,-6.000797E-3,8.794858E-3,3.392784E-2,7.4311933E-3,-6.270248E-3,-5.6795417E-3,-1.4864589E-2,1.7341566E-3,6.8398747E-3,1.6540188E-2,-2.6851336E-2,-2.788355E-2,2.3098666E-2,3.8266834E-3,-1.71242E-2,-9.570137E-3,-1.7781071E-2,-3.839811E-2,-7.528118E-4,-6.9864127E-3,7.554117E-3,-8.568912E-3,-1.7200252E-2,3.1876282E-3,-4.2313454E-3,2.9286435E-2,-1.8643135E-2],"categories":[],"categories_nodes":[],"categories_segments":[],"categories_sizes":[],"default_left":[0,0,0,0,0,0,0,0,0,0,0,0,0,0,0,0,0,0,0,0,0,0,0,0,0,0,0,0,0,0,0,0,0,0,0,0,0,0,0,0,0,0,0,0,0,0,0,0,0,0,0,0,0,0,0,0,0,0,0,0,0,0,0],"id":3,"left_children":[1,3,5,7,9,11,13,15,17,19,21,23,25,27,29,31,33,35,37,39,41,43,45,47,49,51,53,55,57,59,61,-1,-1,-1,-1,-1,-1,-1,-1,-1,-1,-1,-1,-1,-1,-1,-1,-1,-1,-1,-1,-1,-1,-1,-1,-1,-1,-1,-1,-1,-1,-1,-1],"loss_changes":[2.3782898E2,6.118271E1,6.752754E1,3.1024734E1,3.7333878E1,8.95314E0,2.5521671E1,1.6533936E1,2.3401587E1,1.9111797E1,2.1047276E1,9.178816E0,6.623535E0,1.0777077E1,2.0510216E1,5.2085648E0,1.3262436E1,1.267374E1,8.605505E0,9.874737E0,8.52813E0,1.7078175E1,3.4496841E0,6.8461046E0,4.165632E0,5.366333E0,3.1156464E0,9.496816E0,8.217255E0,1.5181081E1,1.0695017E1,0E0,0E0,0E0,0E0,0E0,0E0,0E0,0E0,0E0,0E0,0E0,0E0,0E0,0E0,0E0,0E0,0E0,0E0,0E0,0E0,0E0,0E0,0E0,0E0,0E0,0E0,0E0,0E0,0E0,0E0,0E0,0E0],"parents":[2147483647,0,0,1,1,2,2,3,3,4,4,5,5,6,6,7,7,8,8,9,9,10,10,11,11,12,12,13,13,14,14,15,15,16,16,17,17,18,18,19,19,20,20,21,21,22,22,23,23,24,24,25,25,26,26,27,27,28,28,29,29,30,30],"right_children":[2,4,6,8,10,12,14,16,18,20,22,24,26,28,30,32,34,36,38,40,42,44,46,48,50,52,54,56,58,60,62,-1,-1,-1,-1,-1,-1,-1,-1,-1,-1,-1,-1,-1,-1,-1,-1,-1,-1,-1,-1,-1,-1,-1,-1,-1,-1,-1,-1,-1,-1,-1,-1],"split_conditions":[1.0197734E0,8.4528077E-1,-3.3952823E0,2.5487923E1,3.7371357E1,5.413105E-1,2.2262482E1,-4.397119E1,-2.0322365E1,2.12718E1,4.661684E1,-1.7638294E1,3.2291313E1,5.370648E1,5.65791E1,1.4347311E1,6.658883E-1,-4.7480408E1,4.2941494E1,-8.412998E0,3.39233E1,4.3294654E0,3.39174E-1,4.899747E1,1.1634291E0,1.6598135E1,1.603563E0,4.33213E0,1.3682427E1,1.1148574E0,4.373901E-1,-3.682201E-2,-3.5983415E-3,2.8154813E-2,1.210879E-2,2.0233361E-2,-6.000797E-3,8.794858E-3,3.392784E-2,7.4311933E-3,-6.270248E-3,-5.6795417E-3,-1.4864589E-2,1.7341566E-3,6.8398747E-3,1.6540188E-2,-2.6851336E-2,-2.788355E-2,2.3098666E-2,3.8266834E-3,-1.71242E-2,-9.570137E-3,-1.7781071E-2,-3.839811E-2,-7.528118E-4,-6.9864127E-3,7.554117E-3,-8.568912E-3,-1.7200252E-2,3.1876282E-3,-4.2313454E-3,2.9286435E-2,-1.8643135E-2],"split_indices":[4,4,5,3,0,2,3,7,7,3,3,7,7,0,7,3,4,7,3,7,3,7,2,3,4,3,2,5,7,4,2,0,0,0,0,0,0,0,0,0,0,0,0,0,0,0,0,0,0,0,0,0,0,0,0,0,0,0,0,0,0,0,0],"split_type":[0,0,0,0,0,0,0,0,0,0,0,0,0,0,0,0,0,0,0,0,0,0,0,0,0,0,0,0,0,0,0,0,0,0,0,0,0,0,0,0,0,0,0,0,0,0,0,0,0,0,0,0,0,0,0,0,0,0,0,0,0,0,0],"sum_hessian":[1.2631941E4,8.22562E3,4.406321E3,2.3542637E3,5.871357E3,1.18043E3,3.2258909E3,1.6592896E3,6.949742E2,1.0943236E3,4.777033E3,1.4142194E2,1.039008E3,1.3176931E3,1.9081979E3,5.6943832E1,1.6023457E3,4.0870758E2,2.862666E2,3.6269537E2,7.3162823E2,4.73306E3,4.397318E1,3.99782E1,1.0144373E2,1.0040272E3,3.498089E1,5.871172E2,7.305759E2,1.7632662E3,1.449316E2,7.9903913E0,4.895344E1,8.6885284E1,1.5154604E3,3.0976303E1,3.7773126E2,2.6328583E2,2.2980778E1,2.3180025E2,1.3089513E2,4.8924094E2,2.423873E2,3.1663665E3,1.5666936E3,2.4988678E0,4.147431E1,3.598159E1,3.9966109E0,8.395474E1,1.748899E1,1.5440945E2,8.4961774E2,3.0983143E1,3.9977458E0,5.0417313E2,8.294403E1,4.2375922E2,3.0681674E2,8.7738995E2,8.858763E2,6.99686E0,1.3793474E2],"tree_param":{"num_deleted":"0","num_feature":"8","num_nodes":"63","size_leaf_vector":"1"}},{"base_weights":[1.0523782E-3,1.5417435E0,-5.4655173E-3,6.687304E-1,1.861917E0,8.511949E-2,-4.7185566E-2,1.1490158E0,2.9600884E-3,7.816941E-2,5.4428285E-1,1.9045271E-1,9.823353E-3,-1.9773881E-1,-7.0302268E-3,5.9970602E-2,6.4163274E-1,-2.842562E-1,2.6560053E-2,6.5924856E-3,2.6250578E-2,1.4418275E-2,2.4799775E-1,-7.9839334E-2,1.6303511E-1,6.8374485E-2,-2.3033185E-1,3.9100084E-2,-6.894425E-2,4.8145235E-2,-1.4593027E-2,-1.7725306E-2,2.517376E-3,5.026606E-2,-3.5470288E-4,2.0095306E-2,8.417455E-3,-5.197908E-3,1.2154651E-2,1.2657191E-3,1.5357099E-2,-3.208579E-3,2.2116767E-2,-1.6738366E-2,-8.090227E-3,-1.5929174E-3,5.26319E-3,-2.0050073E-2,-2.3118372E-3],"categories":[],"categories_nodes":[],"categories_segments":[],"categories_sizes":[],"default_left":[0,0,0,0,0,0,0,0,0,0,0,0,0,0,0,0,0,0,0,0,0,0,0,0,0,0,0,0,0,0,0,0,0,0,0,0,0,0,0,0,0,0,0,0,0,0,0,0,0],"id":4,"left_children":[1,3,5,7,9,11,13,15,17,-1,19,21,23,25,27,-1,29,31,-1,-1,-1,33,35,37,39,41,43,45,47,-1,-1,-1,-1,-1,-1,-1,-1,-1,-1,-1,-1,-1,-1,-1,-1,-1,-1,-1,-1],"loss_changes":[8.559674E1,8.791763E0,3.208223E1,3.576582E0,2.0640182E0,2.1229267E1,3.5136078E1,1.933794E-1,1.2699155E0,0E0,2.2277176E-2,1.1299694E1,2.147201E1,1.0629971E1,1.3110515E1,0E0,2.9297082E0,2.85484E-1,0E0,0E0,0E0,7.993682E0,7.9288483E0,1.899868E1,1.6734695E1,9.713729E0,5.675068E0,1.9205067E1,9.416465E0,0E0,0E0,0E0,0E0,0E0,0E0,0E0,0E0,0E0,0E0,0E0,0E0,0E0,0E0,0E0,0E0,0E0,0E0,0E0,0E0],"parents":[2147483647,0,0,1,1,2,2,3,3,4,4,5,5,6,6,7,7,8,8,10,10,11,11,12,12,13,13,14,14,16,16,17,17,21,21,22,22,23,23,24,24,25,25,26,26,27,27,28,28],"right_children":[2,4,6,8,10,12,14,16,18,-1,20,22,24,26,28,-1,30,32,-1,-1,-1,34,36,38,40,42,44,46,48,-1,-1,-1,-1,-1,-1,-1,-1,-1,-1,-1,-1,-1,-1,-1,-1,-1,-1,-1,-1],"split_conditions":[-3.4984024E1,8.5750604E-1,-2.034852E0,5.804431E-1,6.0582027E1,7.8590995E-1,8.69977E-1,5.073133E1,5.7083023E1,7.816941E-2,1.0965405E0,1.7416996E1,-7.6578083E0,-2.9961502E1,6.5679946E0,5.9970602E-2,4.3171036E-1,9.9304426E-1,2.6560053E-2,6.5924856E-3,2.6250578E-2,-1.4301912E1,-6.94767E0,3.947882E1,1.249859E0,2.665055E1,-2.2626827E1,1.0004821E0,1.1878817E1,4.8145235E-2,-1.4593027E-2,-1.7725306E-2,2.517376E-3,5.026606E-2,-3.5470288E-4,2.0095306E-2,8.417455E-3,-5.197908E-3,1.2154651E-2,1.2657191E-3,1.5357099E-2,-3.208579E-3,2.2116767E-2,-1.6738366E-2,-8.090227E-3,-1.5929174E-3,5.26319E-3,-2.0050073E-2,-2.3118372E-3],"split_indices":[5,2,1,2,3,2,4,3,3,0,2,3,7,7,7,0,2,4,0,0,0,5,1,3,2,3,7,4,3,0,0,0,0,0,0,0,0,0,0,0,0,0,0,0,0,0,0,0,0],"split_type":[0,0,0,0,0,0,0,0,0,0,0,0,0,0,0,0,0,0,0,0,0,0,0,0,0,0,0,0,0,0,0,0,0,0,0,0,0,0,0,0,0,0,0,0,0,0,0,0,0],"sum_hessian":[8.5219795E3,3.490811E1,8.487072E3,1.0195852E1,2.471226E1,2.6759192E3,5.8111523E3,5.5013475E0,4.6945047E0,2.2642689E1,2.0695708E0,1.1148312E3,1.5610881E3,1.222762E3,4.5883906E3,2.0981116E0,3.4032362E0,3.6699383E0,1.0245667E0,1.0347854E0,1.0347854E0,2.749598E2,8.3987134E2,9.850786E2,5.7600946E2,1.3330063E2,1.0894614E3,2.6295552E3,1.9588354E3,2.0581017E0,1.3451345E0,2.3282013E0,1.341737E0,4.084732E0,2.7087506E2,1.06464485E2,7.3340686E2,8.7188055E2,1.131981E2,3.6189108E2,2.1411836E2,1.0265517E2,3.0645456E1,1.3967175E2,9.497897E2,1.4190736E3,1.2104816E3,4.8139233E1,1.9106962E3],"tree_param":{"num_deleted":"0","num_feature":"8","num_nodes":"49","size_leaf_vector":"1"}},{"base_weights":[-6.578151E-4,-9.9109806E-2,1.6073076E-1,-3.2396734E-1,-6.906223E-2,6.0049478E-2,2.7561003E-1,-3.5867593E-1,7.435694E-1,-7.236788E-2,1.26066E0,2.5243476E-1,1.1018526E-2,2.5249422E-1,9.439575E-1,-6.093114E-1,-3.2715014E-1,5.7742767E-2,6.1076898E-2,-2.0012212E-1,-4.496655E-2,5.459916E-2,3.4406176E-3,1.6063309E-1,6.601055E-1,-1.8286966E-2,4.7759932E-1,3.5614094E-1,7.092363E-2,-1.8476173E-2,1.0015094E0,4.56402E-3,-2.5330905E-2,-1.0777295E-2,-1.6509298E-2,2.468615E-2,-1.8123325E-2,-1.6082812E-2,-7.1203797E-3,3.0400297E-3,-2.987552E-3,-2.5575472E-2,7.943717E-3,3.7619133E-2,1.1349022E-2,-1.4214375E-3,1.3659652E-2,-1.3859869E-2,2.1785183E-2,1.1032007E-2,2.7046045E-2,4.1596107E-3,-9.147301E-3,2.7572734E-2,5.153949E-2],"categories":[],"categories_nodes":[],"categories_segments":[],"categories_sizes":[],"default_left":[0,0,0,0,0,0,0,0,0,0,0,0,0,0,0,0,0,0,0,0,0,0,0,0,0,0,0,0,0,0,0,0,0,0,0,0,0,0,0,0,0,0,0,0,0,0,0,0,0,0,0,0,0,0,0],"id":5,"left_children":[1,3,5,7,9,11,13,15,17,19,21,23,25,27,29,31,33,-1,35,37,39,-1,-1,41,43,45,47,49,51,-1,53,-1,-1,-1,-1,-1,-1,-1,-1,-1,-1,-1,-1,-1,-1,-1,-1,-1,-1,-1,-1,-1,-1,-1,-1],"loss_changes":[1.595193E2,4.2108307E1,4.3980545E1,2.7491943E1,2.4275227E1,1.9131937E1,2.7206238E1,5.4289627E0,1.1120967E1,1.9206617E1,1.5610943E0,1.5310825E1,2.212654E1,3.2313576E1,5.2379875E0,1.4316921E0,3.0248718E0,0E0,3.974768E0,4.256172E0,1.6260746E1,0E0,0E0,1.0377885E1,7.689045E0,9.463266E0,5.471327E0,2.793216E1,6.222636E0,0E0,4.219948E0,0E0,0E0,0E0,0E0,0E0,0E0,0E0,0E0,0E0,0E0,0E0,0E0,0E0,0E0,0E0,0E0,0E0,0E0,0E0,0E0,0E0,0E0,0E0,0E0],"parents":[2147483647,0,0,1,1,2,2,3,3,4,4,5,5,6,6,7,7,8,8,9,9,10,10,11,11,12,12,13,13,14,14,15,15,16,16,18,18,19,19,20,20,23,23,24,24,25,25,26,26,27,27,28,28,30,30],"right_children":[2,4,6,8,10,12,14,16,18,20,22,24,26,28,30,32,34,-1,36,38,40,-1,-1,42,44,46,48,50,52,-1,54,-1,-1,-1,-1,-1,-1,-1,-1,-1,-1,-1,-1,-1,-1,-1,-1,-1,-1,-1,-1,-1,-1,-1,-1],"split_conditions":[1.0068873E0,7.7983165E-1,6.82841E-2,1.556109E1,7.843968E1,-3.556877E0,6.101006E1,6.3709146E-1,7.3159546E-1,5.140486E-1,2.0727723E0,-2.6070407E-1,5.288435E1,5.985576E1,4.5539767E-1,-8.663475E0,-2.0090075E1,5.7742767E-2,-1.5086664E0,1.972619E-1,-3.732204E0,5.459916E-2,3.4406176E-3,1.8269442E1,-9.795561E0,8.76538E0,4.373901E-1,1.3682427E1,3.5660107E0,-1.8476173E-2,2.6632247E0,4.56402E-3,-2.5330905E-2,-1.0777295E-2,-1.6509298E-2,2.468615E-2,-1.8123325E-2,-1.6082812E-2,-7.1203797E-3,3.0400297E-3,-2.987552E-3,-2.5575472E-2,7.943717E-3,3.7619133E-2,1.1349022E-2,-1.4214375E-3,1.3659652E-2,-1.3859869E-2,2.1785183E-2,1.1032007E-2,2.7046045E-2,4.1596107E-3,-9.147301E-3,2.7572734E-2,5.153949E-2],"split_indices":[4,4,6,7,0,1,7,4,4,2,6,6,7,0,2,1,7,0,1,2,1,0,0,0,7,1,2,7,2,0,6,0,0,0,0,0,0,0,0,0,0,0,0,0,0,0,0,0,0,0,0,0,0,0,0],"split_type":[0,0,0,0,0,0,0,0,0,0,0,0,0,0,0,0,0,0,0,0,0,0,0,0,0,0,0,0,0,0,0,0,0,0,0,0,0,0,0,0,0,0,0,0,0,0,0,0,0,0,0,0,0,0,0],"sum_hessian":[1.0037587E4,6.234647E3,3.8029402E3,7.337714E2,5.5008755E3,2.027523E3,1.7754174E3,7.1130884E2,2.2462612E1,5.4881777E3,1.2697854E1,4.1094162E2,1.6165813E3,1.7173964E3,5.8020973E1,7.742657E1,6.3388226E2,1.0538567E1,1.1924046E1,9.681292E2,4.5200483E3,1.1513331E1,1.1845224E0,3.3654947E2,7.4392136E1,1.52195E3,9.46314E1,1.0926901E3,6.247063E2,2.00549E0,5.6015484E1,2.3617358E0,7.506483E1,3.8104736E2,2.5283488E2,5.6322803E0,6.2917657E0,9.384915E1,8.742801E2,8.912347E2,3.6288137E3,1.4527714E1,3.2202176E2,4.1774643E1,3.2617493E1,1.4531808E3,6.876911E1,6.804532E0,8.7826866E1,8.749018E2,2.177883E2,5.6320044E2,6.150586E1,2.8458591E1,2.7556892E1],"tree_param":{"num_deleted":"0","num_feature":"8","num_nodes":"55","size_leaf_vector":"1"}},{"base_weights":[2.772266E-3,1.0157296E-1,-1.7982301E-1,2.1828398E-1,5.4002486E-2,-3.427672E-1,-1.3560797E-1,2.9042646E-1,4.9246684E-2,-8.296517E-2,9.007011E-2,-7.4268326E-2,-3.847791E-1,-2.3812008E-1,-3.1328548E-2,-1.796091E-1,3.0791843E-1,-9.751877E-2,2.555242E-1,9.754671E-2,-1.924931E-1,9.699996E-2,-6.11122E-1,-6.1446285E-1,-2.849281E-3,-7.689049E-1,-3.6365741E-1,-1.0886326E-1,-3.303822E-1,-4.574543E-3,-3.38256E-1,-1.7982E-2,7.1441582E-3,2.094649E-2,1.0783001E-2,1.8675447E-2,-5.6486377E-3,-5.760076E-3,1.3593427E-2,7.858113E-3,-2.6358636E-3,-5.204277E-3,-1.3886862E-2,2.665711E-3,8.7270625E-3,-2.6493648E-2,1.3065491E-2,-6.1909255E-4,-3.6494315E-2,-5.2074306E-3,7.724532E-3,-3.4998003E-2,1.7787525E-4,-1.1153269E-2,-1.8556906E-2,-1.4145189E-3,-1.0138558E-2,-1.5747793E-2,-1.8050979E-3,5.115379E-4,-1.6045658E-2,2.8632304E-2,-1.599837E-2],"categories":[],"categories_nodes":[],"categories_segments":[],"categories_sizes":[],"default_left":[0,0,0,0,0,0,0,0,0,0,0,0,0,0,0,0,0,0,0,0,0,0,0,0,0,0,0,0,0,0,0,0,0,0,0,0,0,0,0,0,0,0,0,0,0,0,0,0,0,0,0,0,0,0,0,0,0,0,0,0,0,0,0],"id":6,"left_children":[1,3,5,7,9,11,13,15,17,19,21,23,25,27,29,31,33,35,37,39,41,43,45,47,49,51,53,55,57,59,61,-1,-1,-1,-1,-1,-1,-1,-1,-1,-1,-1,-1,-1,-1,-1,-1,-1,-1,-1,-1,-1,-1,-1,-1,-1,-1,-1,-1,-1,-1,-1,-1],"loss_changes":[2.2652197E2,4.522386E1,3.171585E1,2.8752632E1,2.860905E1,1.0578148E1,3.7079304E1,1.3647095E1,2.142356E1,2.3888931E1,2.2330494E1,4.954307E0,6.315254E0,2.0825768E1,1.4130428E1,5.87668E0,1.3046539E1,1.0269206E1,9.956043E0,7.393924E0,7.2089615E0,1.6683868E1,2.377306E0,2.6616802E0,2.8814144E0,3.4047089E0,6.439728E0,7.750532E0,1.8408188E1,1.0912022E1,9.2598915E0,0E0,0E0,0E0,0E0,0E0,0E0,0E0,0E0,0E0,0E0,0E0,0E0,0E0,0E0,0E0,0E0,0E0,0E0,0E0,0E0,0E0,0E0,0E0,0E0,0E0,0E0,0E0,0E0,0E0,0E0,0E0,0E0],"parents":[2147483647,0,0,1,1,2,2,3,3,4,4,5,5,6,6,7,7,8,8,9,9,10,10,11,11,12,12,13,13,14,14,15,15,16,16,17,17,18,18,19,19,20,20,21,21,22,22,23,23,24,24,25,25,26,26,27,27,28,28,29,29,30,30],"right_children":[2,4,6,8,10,12,14,16,18,20,22,24,26,28,30,32,34,36,38,40,42,44,46,48,50,52,54,56,58,60,62,-1,-1,-1,-1,-1,-1,-1,-1,-1,-1,-1,-1,-1,-1,-1,-1,-1,-1,-1,-1,-1,-1,-1,-1,-1,-1,-1,-1,-1,-1,-1,-1],"split_conditions":[1.0182815E0,8.4528077E-1,-2.4496596E0,2.5487923E1,-3.3818882E0,1.6669476E1,2.4437649E1,-4.397119E1,-2.0322365E1,2.12718E1,4.773418E1,-2.0573118E1,-3.8186966E1,7.4930996E-2,5.65791E1,1.9850203E1,-2.7817877E1,-4.7480408E1,-4.394395E0,-8.214274E0,3.39233E1,1.1156464E1,1.0104784E0,-7.028479E-1,1.5080976E1,2.6049683E1,-1.9408351E-1,1.6115214E0,1.9604578E0,9.202847E0,4.373901E-1,-1.7982E-2,7.1441582E-3,2.094649E-2,1.0783001E-2,1.8675447E-2,-5.6486377E-3,-5.760076E-3,1.3593427E-2,7.858113E-3,-2.6358636E-3,-5.204277E-3,-1.3886862E-2,2.665711E-3,8.7270625E-3,-2.6493648E-2,1.3065491E-2,-6.1909255E-4,-3.6494315E-2,-5.2074306E-3,7.724532E-3,-3.4998003E-2,1.7787525E-4,-1.1153269E-2,-1.8556906E-2,-1.4145189E-3,-1.0138558E-2,-1.5747793E-2,-1.8050979E-3,5.115379E-4,-1.6045658E-2,2.8632304E-2,-1.599837E-2],"split_indices":[4,4,1,3,1,3,3,7,7,3,3,7,7,6,7,3,7,7,1,7,3,7,4,6,3,6,6,1,2,6,2,0,0,0,0,0,0,0,0,0,0,0,0,0,0,0,0,0,0,0,0,0,0,0,0,0,0,0,0,0,0,0,0],"split_type":[0,0,0,0,0,0,0,0,0,0,0,0,0,0,0,0,0,0,0,0,0,0,0,0,0,0,0,0,0,0,0,0,0,0,0,0,0,0,0,0,0,0,0,0,0,0,0,0,0,0,0,0,0,0,0,0,0,0,0,0,0,0,0],"sum_hessian":[1.2554262E4,8.1466343E3,4.407628E3,2.3579558E3,5.788678E3,9.393011E2,3.468327E3,1.652133E3,7.0582275E2,1.2063262E3,4.5823525E3,1.2746124E2,8.1183984E2,1.748337E3,1.7199899E3,5.894422E1,1.5931888E3,4.127093E2,2.9311343E2,4.55587E2,7.5073914E2,4.538362E3,4.399073E1,1.3995956E1,1.1346529E2,4.0468197E1,7.7137164E2,7.290862E2,1.01925085E3,1.5830176E3,1.3697229E2,3.346831E1,2.547591E1,2.3851237E2,1.3546764E3,2.8960672E1,3.8374863E2,5.095333E1,2.421601E2,2.837042E2,1.7188281E2,5.3628253E2,2.1445659E2,3.6304187E3,9.07943E2,4.199094E1,1.9997923E0,4.9980993E0,8.997857E0,6.897863E1,4.4486656E1,3.5472664E1,4.9955335E0,4.1990634E2,3.5146527E2,4.8420844E2,2.4487776E2,8.3380634E2,1.8544452E2,1.5175424E3,6.547519E1,6.9884915E0,1.299838E2],"tree_param":{"num_deleted":"0","num_feature":"8","num_nodes":"63","size_leaf_vector":"1"}},{"base_weights":[-3.4251164E-3,1.3922082E0,-9.326576E-3,1.5081698E0,4.2658457E-1,-1.2610933E-1,1.5651627E-2,7.5037915E-1,6.7143306E-2,-1.5909085E-2,3.6984574E-2,-1.2929847E-2,-3.0128223E-1,5.4476433E-2,-5.5889387E-2,-1.4922764E-2,1.0588584E0,-3.8781814E-2,9.073135E-1,-1.9288233E-2,-3.412497E-1,1.875927E-2,1.6144612E-1,-4.5704168E-1,-4.4874046E-2,6.1175812E-2,1.3344856E-2,-1.8916165E-3,5.7253588E-2,-1.971228E-2,4.6033133E-2,-1.1094072E-2,3.3599596E-2,-1.0966463E-2,-1.868508E-2,-9.884841E-3,1.4644132E-3,1.2772805E-2,3.8506645E-3,2.482115E-2,-2.0515325E-2,-1.2242694E-3,-1.0853994E-2],"categories":[],"categories_nodes":[],"categories_segments":[],"categories_sizes":[],"default_left":[0,0,0,0,0,0,0,0,0,0,0,0,0,0,0,0,0,0,0,0,0,0,0,0,0,0,0,0,0,0,0,0,0,0,0,0,0,0,0,0,0,0,0],"id":7,"left_children":[1,3,5,7,9,11,13,15,-1,-1,-1,17,19,21,23,-1,25,27,29,31,33,35,37,39,41,-1,-1,-1,-1,-1,-1,-1,-1,-1,-1,-1,-1,-1,-1,-1,-1,-1,-1],"loss_changes":[7.026159E1,3.3788528E0,2.4779905E1,2.830841E0,2.5212348E0,2.9671484E1,1.9441729E1,3.0371208E0,0E0,0E0,0E0,2.1692276E1,6.614361E0,1.7331379E1,1.0860559E1,0E0,1.6198187E0,1.1155685E1,9.062237E0,1.6638977E1,4.216545E0,1.6157944E1,1.1654455E1,4.2716656E0,7.7392445E0,0E0,0E0,0E0,0E0,0E0,0E0,0E0,0E0,0E0,0E0,0E0,0E0,0E0,0E0,0E0,0E0,0E0,0E0],"parents":[2147483647,0,0,1,1,2,2,3,3,4,4,5,5,6,6,7,7,11,11,12,12,13,13,14,14,16,16,17,17,18,18,19,19,20,20,21,21,22,22,23,23,24,24],"right_children":[2,4,6,8,10,12,14,16,-1,-1,-1,18,20,22,24,-1,26,28,30,32,34,36,38,40,42,-1,-1,-1,-1,-1,-1,-1,-1,-1,-1,-1,-1,-1,-1,-1,-1,-1,-1],"split_conditions":[-3.4984024E1,2.6049683E1,8.398446E-1,9.1824305E-1,1.071929E0,4.5052803E1,5.8414454E0,9.1076845E-1,6.7143306E-2,-1.5909085E-2,3.6984574E-2,5.7083023E1,-2.9389307E1,1.0523082E0,1.1878817E1,-1.4922764E-2,9.202847E0,1.0744819E1,-4.5761738E1,2.4027071E1,5.356591E1,-3.1747826E1,-5.85518E-1,-5.562237E0,2.5426098E1,6.1175812E-2,1.3344856E-2,-1.8916165E-3,5.7253588E-2,-1.971228E-2,4.6033133E-2,-1.1094072E-2,3.3599596E-2,-1.0966463E-2,-1.868508E-2,-9.884841E-3,1.4644132E-3,1.2772805E-2,3.8506645E-3,2.482115E-2,-2.0515325E-2,-1.2242694E-3,-1.0853994E-2],"split_indices":[5,6,4,4,4,0,7,6,0,0,0,3,7,4,3,0,6,5,7,3,0,7,6,5,5,0,0,0,0,0,0,0,0,0,0,0,0,0,0,0,0,0,0],"split_type":[0,0,0,0,0,0,0,0,0,0,0,0,0,0,0,0,0,0,0,0,0,0,0,0,0,0,0,0,0,0,0,0,0,0,0,0,0,0,0,0,0,0,0],"sum_hessian":[8.528173E3,3.4920547E1,8.493252E3,3.0674936E1,4.2456117E0,1.4957928E3,6.9974595E3,6.6237583E0,2.4051178E1,1.6748652E0,2.5707467E0,9.093404E2,5.864525E2,4.5360273E3,2.4614316E3,1.3818452E0,5.241913E0,8.8542444E2,2.3915956E1,7.298478E1,5.134677E2,3.401457E3,1.1345706E3,6.4700584E1,2.3967312E3,2.5067205E0,2.7351925E0,8.812916E2,4.132806E0,3.391627E0,2.0524328E1,5.6648876E1,1.6335901E1,3.37024E2,1.7644373E2,2.1319583E2,3.1882612E3,3.3039877E2,8.0417175E2,2.6894772E0,6.2011105E1,2.25576E3,1.409711E2],"tree_param":{"num_deleted":"0","num_feature":"8","num_nodes":"43","size_leaf_vector":"1"}},{"base_weights":[3.3840484E-3,-8.223937E-2,1.9354308E-1,-3.0512172E-1,-5.5639405E-2,9.0632655E-2,3.2065716E-1,-3.349377E-1,6.0805655E-1,-7.66041E-2,9.01899E-2,3.1230572E-1,3.7114423E-2,3.8811523E-1,-6.454539E-2,-5.913742E-1,-3.0236194E-1,-2.3137767E-2,1.0289782E0,-8.0664255E-2,3.8179904E-1,6.96454E-2,1.0118444E0,2.0518807E-1,7.361536E-1,1.2286394E-2,4.2124596E-1,9.241778E-1,3.2037416E-1,-5.53411E-1,1.0259086E-2,-1.06667E-2,-2.599861E-2,-1.07278805E-2,-1.7652009E-2,5.055944E-2,-1.6487342E-3,-2.4308357E-3,-8.1225615E-3,-4.680078E-3,2.954552E-2,6.9595366E-3,-1.8377327E-3,4.7527917E-2,-1.6804438E-2,-1.9556642E-2,1.0290806E-2,4.2227548E-2,1.3780237E-2,1.1075497E-2,-1.0743111E-3,9.994137E-3,3.7423525E-2,1.1916289E-2,4.027321E-2,1.1686938E-2,4.4775523E-2,3.94443E-3,-2.4787761E-2,1.7745836E-2,-4.7906083E-3],"categories":[],"categories_nodes":[],"categories_segments":[],"categories_sizes":[],"default_left":[0,0,0,0,0,0,0,0,0,0,0,0,0,0,0,0,0,0,0,0,0,0,0,0,0,0,0,0,0,0,0,0,0,0,0,0,0,0,0,0,0,0,0,0,0,0,0,0,0,0,0,0,0,0,0,0,0,0,0,0,0],"id":8,"left_children":[1,3,5,7,9,11,13,15,17,19,21,23,25,27,29,31,33,-1,35,37,39,41,43,45,47,49,51,53,55,57,59,-1,-1,-1,-1,-1,-1,-1,-1,-1,-1,-1,-1,-1,-1,-1,-1,-1,-1,-1,-1,-1,-1,-1,-1,-1,-1,-1,-1,-1,-1],"loss_changes":[1.6256192E2,4.0797863E1,4.052063E1,2.0182716E1,1.8813797E1,2.0327057E1,3.6051346E1,5.7625504E0,1.2359824E1,1.0041904E1,1.457871E1,1.4980026E1,1.3176319E1,4.255211E1,7.5927286E0,1.3319168E0,2.8869095E0,0E0,4.5157394E0,1.2971947E1,8.52284E0,9.148493E0,4.740576E0,9.793256E0,8.0020485E0,1.3464338E1,7.1604652E0,6.5249405E0,2.3312202E1,1.2518291E0,1.0248056E1,0E0,0E0,0E0,0E0,0E0,0E0,0E0,0E0,0E0,0E0,0E0,0E0,0E0,0E0,0E0,0E0,0E0,0E0,0E0,0E0,0E0,0E0,0E0,0E0,0E0,0E0,0E0,0E0,0E0,0E0],"parents":[2147483647,0,0,1,1,2,2,3,3,4,4,5,5,6,6,7,7,8,8,9,9,10,10,11,11,12,12,13,13,14,14,15,15,16,16,18,18,19,19,20,20,21,21,22,22,23,23,24,24,25,25,26,26,27,27,28,28,29,29,30,30],"right_children":[2,4,6,8,10,12,14,16,18,20,22,24,26,28,30,32,34,-1,36,38,40,42,44,46,48,50,52,54,56,58,60,-1,-1,-1,-1,-1,-1,-1,-1,-1,-1,-1,-1,-1,-1,-1,-1,-1,-1,-1,-1,-1,-1,-1,-1,-1,-1,-1,-1,-1,-1],"split_conditions":[1.0361463E0,7.7983165E-1,1.2996499E-1,1.5170507E1,3.2755997E1,-3.4927135E0,3.480097E1,6.3709146E-1,1.3538101E1,4.369212E1,7.843968E1,-2.483282E-1,5.288435E1,4.3079548E1,-9.019377E0,-6.0998507E0,3.2528553E1,-2.3137767E-2,7.736261E-1,1.2350099E1,9.884404E-1,-1.7305652E0,2.1387892E0,-3.0580204E1,-1.0363928E1,1.622862E1,1.3292195E0,3.1324366E1,6.101006E1,5.06557E-1,-5.302728E-1,-1.06667E-2,-2.599861E-2,-1.07278805E-2,-1.7652009E-2,5.055944E-2,-1.6487342E-3,-2.4308357E-3,-8.1225615E-3,-4.680078E-3,2.954552E-2,6.9595366E-3,-1.8377327E-3,4.7527917E-2,-1.6804438E-2,-1.9556642E-2,1.0290806E-2,4.2227548E-2,1.3780237E-2,1.1075497E-2,-1.0743111E-3,9.994137E-3,3.7423525E-2,1.1916289E-2,4.027321E-2,1.1686938E-2,4.4775523E-2,3.94443E-3,-2.4787761E-2,1.7745836E-2,-4.7906083E-3],"split_indices":[4,4,6,7,3,1,3,4,3,7,0,6,7,0,1,1,3,0,4,7,4,1,6,7,7,3,4,0,7,6,1,0,0,0,0,0,0,0,0,0,0,0,0,0,0,0,0,0,0,0,0,0,0,0,0,0,0,0,0,0,0],"split_type":[0,0,0,0,0,0,0,0,0,0,0,0,0,0,0,0,0,0,0,0,0,0,0,0,0,0,0,0,0,0,0,0,0,0,0,0,0,0,0,0,0,0,0,0,0,0,0,0,0,0,0,0,0,0,0,0,0,0,0,0,0],"sum_hessian":[9.982132E3,6.8833257E3,3.0988062E3,7.327881E2,6.1505376E3,1.7133812E3,1.3854248E3,7.102317E2,2.2556385E1,5.3778784E3,7.726591E2,3.3227194E2,1.3811093E3,1.1789545E3,2.0647029E2,7.811964E1,6.3211206E2,5.808646E0,1.6747738E1,5.331481E3,4.639784E1,7.568635E2,1.5795595E1,2.6642368E2,6.584826E1,1.2982312E3,8.287813E1,1.3084915E2,1.0481053E3,2.6551517E1,1.7991878E2,1.2789968E1,6.5329666E1,5.0970587E2,1.2240619E2,1.3583758E1,3.1639795E0,4.587398E3,7.440829E2,1.963021E1,2.6767626E1,3.9751642E2,3.5934708E2,1.4215144E1,1.5804507E0,1.8010347E1,2.4841335E2,3.5328857E1,3.0519403E1,1.6652258E2,1.1317086E3,6.327799E1,1.9600142E1,1.579234E1,1.150568E2,1.0136933E3,3.441205E1,2.4050887E0,2.414643E1,4.0965096E1,1.3895369E2],"tree_param":{"num_deleted":"0","num_feature":"8","num_nodes":"61","size_leaf_vector":"1"}},{"base_weights":[-5.14435E-3,-1.5806302E-1,2.7527304E-2,-1.0152071E-1,-3.0382133E-1,4.324931E-2,-1.8502972E-1,-2.2474499E-1,-1.6438954E-2,-8.2359046E-2,-3.3721256E-1,9.5465094E-2,-2.068878E-2,1.5428159E-1,-2.214575E-1,-7.339515E-2,-3.1858402E-1,1.9258825E-2,-3.0165082E-1,-1.2265335E-1,2.9558305E-2,-3.728447E-1,-1.6496404E-1,5.8496475E-2,2.1320504E-1,-1.5449806E-1,7.1257977E-3,-2.4062423E-1,3.5265318E-1,-5.537402E-1,-1.9146132E-1,-2.5967188E-2,2.7563532E-3,-1.7849836E-2,-9.757329E-3,6.954293E-3,-1.0249227E-3,-3.4102403E-2,-8.871006E-3,-7.293803E-3,1.5894586E-2,-1.2247345E-2,-2.0208945E-2,1.2313985E-2,-1.0784019E-2,2.478946E-2,2.0845442E-3,-2.0430561E-2,8.831753E-3,-3.252115E-4,-8.891373E-3,4.973472E-3,-1.1394433E-3,2.5918551E-3,-2.8539652E-2,2.5980925E-2,8.005634E-3,-4.9009803E-3,-2.7919618E-2,-5.513288E-3,-1.5131261E-2],"categories":[],"categories_nodes":[],"categories_segments":[],"categories_sizes":[],"default_left":[0,0,0,0,0,0,0,0,0,0,0,0,0,0,0,0,0,0,0,0,0,0,0,0,0,0,0,0,0,0,0,0,0,0,0,0,0,0,0,0,0,0,0,0,0,0,0,0,0,0,0,0,0,0,0,0,0,0,0,0,0],"id":9,"left_children":[1,3,5,7,9,11,13,15,17,19,21,23,25,27,29,31,33,35,37,39,-1,41,43,45,47,49,51,53,55,57,59,-1,-1,-1,-1,-1,-1,-1,-1,-1,-1,-1,-1,-1,-1,-1,-1,-1,-1,-1,-1,-1,-1,-1,-1,-1,-1,-1,-1,-1,-1],"loss_changes":[6.29351E1,1.8245235E1,3.46941E1,1.676321E1,4.5518837E0,3.2270523E1,8.872288E0,9.252773E0,9.648949E0,2.8197489E0,3.2394905E0,2.3146301E1,1.6175455E1,5.561635E0,6.334053E0,2.063272E1,3.730484E0,5.851758E0,4.449768E0,2.539132E0,0E0,3.7709236E0,4.7326207E0,1.4478129E1,7.095768E0,7.418947E0,1.5025537E1,3.5081472E0,1.9953413E0,3.2093601E0,5.900709E0,0E0,0E0,0E0,0E0,0E0,0E0,0E0,0E0,0E0,0E0,0E0,0E0,0E0,0E0,0E0,0E0,0E0,0E0,0E0,0E0,0E0,0E0,0E0,0E0,0E0,0E0,0E0,0E0,0E0,0E0],"parents":[2147483647,0,0,1,1,2,2,3,3,4,4,5,5,6,6,7,7,8,8,9,9,10,10,11,11,12,12,13,13,14,14,15,15,16,16,17,17,18,18,19,19,21,21,22,22,23,23,24,24,25,25,26,26,27,27,28,28,29,29,30,30],"right_children":[2,4,6,8,10,12,14,16,18,20,22,24,26,28,30,32,34,36,38,40,-1,42,44,46,48,50,52,54,56,58,60,-1,-1,-1,-1,-1,-1,-1,-1,-1,-1,-1,-1,-1,-1,-1,-1,-1,-1,-1,-1,-1,-1,-1,-1,-1,-1,-1,-1,-1,-1],"split_conditions":[-3.732204E0,-5.853747E0,3.469818E1,-1.2075569E1,5.192984E-1,1.2996499E-1,4.7085205E-1,-3.1122046E1,-3.6273649E0,7.5259347E0,1.5122037E0,-7.453499E-2,-6.148222E0,5.4975677E0,-1.514867E0,-3.4984024E1,8.407972E-1,-2.9961502E1,-7.642241E0,5.053235E-1,2.9558305E-2,8.15319E0,1.6297927E0,-2.633761E1,-4.397119E1,3.9297493E1,-1.2407598E1,4.5431164E1,4.0102543E1,-3.6720657E-1,6.101006E1,-2.5967188E-2,2.7563532E-3,-1.7849836E-2,-9.757329E-3,6.954293E-3,-1.0249227E-3,-3.4102403E-2,-8.871006E-3,-7.293803E-3,1.5894586E-2,-1.2247345E-2,-2.0208945E-2,1.2313985E-2,-1.0784019E-2,2.478946E-2,2.0845442E-3,-2.0430561E-2,8.831753E-3,-3.252115E-4,-8.891373E-3,4.973472E-3,-1.1394433E-3,2.5918551E-3,-2.8539652E-2,2.5980925E-2,8.005634E-3,-4.9009803E-3,-2.7919618E-2,-5.513288E-3,-1.5131261E-2],"split_indices":[1,7,7,5,2,6,2,7,5,6,2,6,5,5,5,5,2,7,1,2,0,7,2,6,7,0,7,7,7,6,7,0,0,0,0,0,0,0,0,0,0,0,0,0,0,0,0,0,0,0,0,0,0,0,0,0,0,0,0,0,0],"split_type":[0,0,0,0,0,0,0,0,0,0,0,0,0,0,0,0,0,0,0,0,0,0,0,0,0,0,0,0,0,0,0,0,0,0,0,0,0,0,0,0,0,0,0,0,0,0,0,0,0,0,0,0,0,0,0,0,0,0,0,0,0],"sum_hessian":[1.259496E4,2.2165637E3,1.03783955E4,1.5982642E3,6.1829944E2,9.664358E3,7.1403784E2,6.521341E2,9.461301E2,8.146455E1,5.368349E2,5.319573E3,4.3447847E3,6.891207E1,6.451258E2,2.5026776E2,4.0186633E2,8.41712E2,1.04418144E2,7.846564E1,2.9989097E0,4.4385287E2,9.298205E1,4.0495657E3,1.2700076E3,7.4692975E2,3.5978552E3,2.2970612E1,4.5941463E1,5.1969788E1,5.93156E2,4.8889824E1,2.0137793E2,1.4644684E2,2.554195E2,1.887336E2,6.529784E2,1.1997408E1,9.242074E1,7.096865E1,7.4969864E0,2.9740427E2,1.4644861E2,1.6496832E1,7.648522E1,4.4456432E1,4.0051091E3,1.2486604E1,1.257521E3,2.3678049E2,5.1014926E2,8.378173E2,2.7600378E3,1.4480657E1,8.489955E0,1.4485725E1,3.1455736E1,1.3490688E1,3.84791E1,4.6221042E2,1.3094559E2],"tree_param":{"num_deleted":"0","num_feature":"8","num_nodes":"61","size_leaf_vector":"1"}},{"base_weights":[-5.6843553E-3,1.34195E0,-1.1679093E-2,9.04512E-1,6.3445374E-2,8.669611E-2,-4.8342504E-2,-2.0804654E-1,1.157106E0,8.0197535E-2,6.6425726E-2,-1.8194647E-1,-4.489689E-3,-1.6247092E-2,6.2510674E-3,-1.3206513E-2,1.3147169E0,4.506912E-1,6.812587E-2,-9.373084E-2,-2.3974822E-1,4.256494E-2,-6.513497E-2,6.125219E-2,2.778883E-2,-6.025679E-3,3.0764325E-2,4.058084E-4,6.6702524E-3,-4.6610115E-3,1.4931532E-2,7.4097156E-3,-1.0247982E-2,-4.472408E-4,6.7489394E-3,-2.07179E-3,-1.1351074E-2],"categories":[],"categories_nodes":[],"categories_segments":[],"categories_sizes":[],"default_left":[0,0,0,0,0,0,0,0,0,0,0,0,0,0,0,0,0,0,0,0,0,0,0,0,0,0,0,0,0,0,0,0,0,0,0,0,0],"id":10,"left_children":[1,3,5,7,-1,9,11,13,15,17,-1,19,21,-1,-1,-1,23,25,27,29,31,33,35,-1,-1,-1,-1,-1,-1,-1,-1,-1,-1,-1,-1,-1,-1],"loss_changes":[6.8576355E1,2.5808105E0,3.048136E1,4.679305E0,0E0,2.3336498E1,3.606917E1,3.3560833E-1,3.4870644E0,1.0194151E1,0E0,7.7348824E0,1.3232512E1,0E0,0E0,0E0,5.444813E-1,1.3894571E1,1.26663475E1,6.4719944E0,6.4690933E0,1.7706917E1,5.8943863E0,0E0,0E0,0E0,0E0,0E0,0E0,0E0,0E0,0E0,0E0,0E0,0E0,0E0,0E0],"parents":[2147483647,0,0,1,1,2,2,3,3,5,5,6,6,7,7,8,8,9,9,11,11,12,12,16,16,17,17,18,18,19,19,20,20,21,21,22,22],"right_children":[2,4,6,8,-1,10,12,14,16,18,-1,20,22,-1,-1,-1,24,26,28,30,32,34,36,-1,-1,-1,-1,-1,-1,-1,-1,-1,-1,-1,-1,-1,-1],"split_conditions":[-3.4984024E1,1.0361463E0,-2.4955723E0,1.4563541E1,6.3445374E-2,9.448005E0,8.824962E-1,9.9304426E-1,9.1076845E-1,2.072256E1,6.6425726E-2,4.6166943E1,5.8414454E0,-1.6247092E-2,6.2510674E-3,-1.3206513E-2,1.2113104E1,-2.0522917E1,-7.6578083E0,2.029561E0,-4.2465637E1,1.0579122E0,2.7443327E1,6.125219E-2,2.778883E-2,-6.025679E-3,3.0764325E-2,4.058084E-4,6.6702524E-3,-4.6610115E-3,1.4931532E-2,7.4097156E-3,-1.0247982E-2,-4.472408E-4,6.7489394E-3,-2.07179E-3,-1.1351074E-2],"split_indices":[5,4,1,0,0,5,4,4,6,0,0,0,7,0,0,0,6,5,7,5,7,4,5,0,0,0,0,0,0,0,0,0,0,0,0,0,0],"split_type":[0,0,0,0,0,0,0,0,0,0,0,0,0,0,0,0,0,0,0,0,0,0,0,0,0,0,0,0,0,0,0,0,0,0,0,0,0],"sum_hessian":[8.485582E3,3.6592655E1,8.448989E3,1.4794185E1,2.1798471E1,2.2935566E3,6.155433E3,2.7699993E0,1.2024185E1,2.2851726E3,8.384161E0,1.5203417E3,4.6350913E3,1.7198223E0,1.0501769E0,1.0472438E0,1.0976942E1,7.096102E1,2.2142114E3,6.02873E2,9.174687E2,2.6101646E3,2.0249266E3,7.0457397E0,3.9312022E0,2.4749077E1,4.621195E1,1.3951594E3,8.190521E2,5.7553265E2,2.7340328E1,3.3809185E1,8.8365955E2,1.8310245E3,7.7914014E2,1.9096482E3,1.1527845E2],"tree_param":{"num_deleted":"0","num_feature":"8","num_nodes":"37","size_leaf_vector":"1"}},{"base_weights":[1.7079134E-3,-1.5803326E-2,3.5540238E-1,-1.4147994E-1,1.9907277E-2,8.221239E-1,2.2273572E-1,-1.6812679E-1,1.405159E-1,1.0680154E-1,-1.0468357E-2,-3.6507246E-1,9.182396E-1,1.5095827E-1,9.0419984E-1,-1.9279714E-1,-7.928108E-2,1.0321808E0,7.6548964E-2,-1.915254E-1,1.8136236E-1,-1.07009836E-1,2.415087E-2,-2.349687E-2,2.1424651E-2,2.3129435E-1,1.0755279E0,5.7142373E-2,6.030944E-1,1.1036084E0,-3.1194858E-2,-8.855238E-3,-4.1666417E-3,-4.498734E-3,3.7222E-2,-1.8088574E-2,5.462585E-2,3.3266656E-2,1.6190492E-3,-1.9747613E-2,-5.313435E-3,6.3315756E-3,1.6241493E-2,-2.6943558E-3,-1.1143592E-2,3.8042096E-3,-1.3621238E-3,5.197316E-2,-1.4341447E-3,5.3115748E-2,2.8054075E-2,1.0072198E-2,-5.6127604E-4,4.6102528E-2,6.619368E-3,6.0938176E-2,2.9371357E-2,-1.9417498E-2,1.2181027E-2],"categories":[],"categories_nodes":[],"categories_segments":[],"categories_sizes":[],"default_left":[0,0,0,0,0,0,0,0,0,0,0,0,0,0,0,0,0,0,0,0,0,0,0,0,0,0,0,0,0,0,0,0,0,0,0,0,0,0,0,0,0,0,0,0,0,0,0,0,0,0,0,0,0,0,0,0,0,0,0],"id":11,"left_children":[1,3,5,7,9,11,13,15,17,19,21,23,25,27,29,31,33,35,37,39,41,43,45,-1,-1,47,49,51,53,55,57,-1,-1,-1,-1,-1,-1,-1,-1,-1,-1,-1,-1,-1,-1,-1,-1,-1,-1,-1,-1,-1,-1,-1,-1,-1,-1,-1,-1],"loss_changes":[6.144379E1,4.2425915E1,2.8793957E1,1.5741474E1,1.9432526E1,1.2112488E1,1.775502E1,4.174637E0,1.0252396E1,4.2452736E1,1.8237183E1,2.0060334E0,1.0098579E1,1.4053329E1,6.4984703E0,3.765522E0,1.408458E1,6.579523E0,4.599458E0,6.705184E0,7.847355E0,9.779608E0,1.6591276E1,0E0,0E0,5.5008225E0,6.4010773E0,3.8296509E0,1.3507126E1,3.3149414E0,1.22479E0,0E0,0E0,0E0,0E0,0E0,0E0,0E0,0E0,0E0,0E0,0E0,0E0,0E0,0E0,0E0,0E0,0E0,0E0,0E0,0E0,0E0,0E0,0E0,0E0,0E0,0E0,0E0,0E0],"parents":[2147483647,0,0,1,1,2,2,3,3,4,4,5,5,6,6,7,7,8,8,9,9,10,10,11,11,12,12,13,13,14,14,15,15,16,16,17,17,18,18,19,19,20,20,21,21,22,22,25,25,26,26,27,27,28,28,29,29,30,30],"right_children":[2,4,6,8,10,12,14,16,18,20,22,24,26,28,30,32,34,36,38,40,42,44,46,-1,-1,48,50,52,54,56,58,-1,-1,-1,-1,-1,-1,-1,-1,-1,-1,-1,-1,-1,-1,-1,-1,-1,-1,-1,-1,-1,-1,-1,-1,-1,-1,-1,-1],"split_conditions":[3.880811E1,5.6873745E-1,4.018671E0,3.7801132E0,-6.148222E0,4.7085205E-1,4.2818886E1,7.706993E0,-6.217015E0,-2.8858553E1,-1.1569686E1,3.0491291E1,1.5999665E1,6.847206E1,8.8171077E-1,5.0983787E-1,4.661684E1,6.062479E0,-2.2923908E1,-1.3154889E1,1.0280451E1,1.5122037E0,1.9781382E1,-2.349687E-2,2.1424651E-2,4.0102543E1,9.4893837E-1,8.346681E0,2.1261774E1,6.101006E1,6.847206E1,-8.855238E-3,-4.1666417E-3,-4.498734E-3,3.7222E-2,-1.8088574E-2,5.462585E-2,3.3266656E-2,1.6190492E-3,-1.9747613E-2,-5.313435E-3,6.3315756E-3,1.6241493E-2,-2.6943558E-3,-1.1143592E-2,3.8042096E-3,-1.3621238E-3,5.197316E-2,-1.4341447E-3,5.3115748E-2,2.8054075E-2,1.0072198E-2,-5.6127604E-4,4.6102528E-2,6.619368E-3,6.0938176E-2,2.9371357E-2,-1.9417498E-2,1.2181027E-2],"split_indices":[7,2,5,1,5,2,5,7,6,7,7,3,3,7,6,2,3,7,7,1,7,2,3,0,0,7,2,5,5,7,7,0,0,0,0,0,0,0,0,0,0,0,0,0,0,0,0,0,0,0,0,0,0,0,0,0,0,0,0],"split_type":[0,0,0,0,0,0,0,0,0,0,0,0,0,0,0,0,0,0,0,0,0,0,0,0,0,0,0,0,0,0,0,0,0,0,0,0,0,0,0,0,0,0,0,0,0,0,0,0,0,0,0,0,0,0,0,0,0,0,0],"sum_hessian":[9.918576E3,9.451588E3,4.6698816E2,2.090724E3,7.360864E3,1.0221141E2,3.6477676E2,1.9105891E3,1.8013501E2,1.9059835E3,5.4548804E3,7.4457064E0,9.476571E1,3.311218E2,3.365497E1,1.4944468E3,4.1614236E2,1.1044494E1,1.6909052E2,3.8079752E2,1.5251859E3,1.439237E3,4.015643E3,6.2504835E0,1.1952229E0,1.811599E1,7.664972E1,2.7515494E2,5.596684E1,2.759286E1,6.0621095E0,1.1288812E3,3.6556555E2,4.037617E2,1.2380673E1,1.9606614E0,9.083833E0,6.7037783E0,1.6238673E2,6.0727604E1,3.2006992E2,1.3846898E3,1.4049611E2,1.1702037E3,2.690334E2,1.8093253E3,2.2063179E3,2.8516462E0,1.5264343E1,4.4253662E1,3.2396053E1,7.298959E1,2.0216536E2,2.4087946E1,3.1878891E1,1.1450741E1,1.6142118E1,2.3867667E0,3.675343E0],"tree_param":{"num_deleted":"0","num_feature":"8","num_nodes":"59","size_leaf_vector":"1"}},{"base_weights":[5.842837E-4,1.0060158E-1,-1.6814266E-1,2.1427022E-1,5.159436E-2,-3.7044603E-1,-1.003486E-1,2.899229E-1,7.049853E-2,-8.096696E-2,8.669738E-2,-3.186746E-1,-5.1877993E-1,-1.8962672E-1,-1.1988164E-2,-2.2927031E-1,2.996921E-1,-6.661306E-2,2.5216416E-1,7.999955E-2,-1.8020757E-1,9.359535E-2,-6.1947054E-1,-1.3685301E-1,-3.731065E-1,-6.841158E-2,-5.867394E-1,-9.306357E-2,-2.7092934E-1,1.07486896E-1,-9.507953E-2,-3.0781716E-2,-1.7199783E-3,1.3969227E-2,7.4523287E-3,-1.7309949E-2,-6.466275E-4,7.303559E-3,2.3543805E-2,7.825742E-3,3.7828853E-4,-1.4235026E-2,-5.816857E-3,3.526826E-3,2.39326E-2,-2.908895E-2,-8.863046E-3,-4.4270824E-3,-3.4236126E-2,-1.5794506E-2,3.6325385E-3,-2.0473745E-2,1.1283873E-2,-1.7315803E-2,-2.6752919E-2,-6.009715E-3,5.3180116E-3,-2.0874862E-2,-9.651372E-3,1.6906591E-2,2.780262E-3,-9.027293E-3,-1.3632096E-3],"categories":[],"categories_nodes":[],"categories_segments":[],"categories_sizes":[],"default_left":[0,0,0,0,0,0,0,0,0,0,0,0,0,0,0,0,0,0,0,0,0,0,0,0,0,0,0,0,0,0,0,0,0,0,0,0,0,0,0,0,0,0,0,0,0,0,0,0,0,0,0,0,0,0,0,0,0,0,0,0,0,0,0],"id":12,"left_children":[1,3,5,7,9,11,13,15,17,19,21,23,25,27,29,31,33,35,37,39,41,43,45,47,49,51,53,55,57,59,61,-1,-1,-1,-1,-1,-1,-1,-1,-1,-1,-1,-1,-1,-1,-1,-1,-1,-1,-1,-1,-1,-1,-1,-1,-1,-1,-1,-1,-1,-1,-1,-1],"loss_changes":[2.1296648E2,4.4125397E1,6.437715E1,2.5937714E1,2.5774906E1,8.884766E0,2.7759212E1,7.99852E0,2.0545395E1,1.8542904E1,2.1387005E1,8.620354E0,9.243042E0,1.3717094E1,1.7579046E1,2.9297366E0,8.556717E0,8.682795E0,8.194965E0,3.6125615E0,4.33473E0,1.1822239E1,1.6605568E0,3.7345083E0,6.8358917E0,6.5012045E0,3.0367737E0,1.0379878E1,6.9396744E0,8.666098E0,8.312194E0,0E0,0E0,0E0,0E0,0E0,0E0,0E0,0E0,0E0,0E0,0E0,0E0,0E0,0E0,0E0,0E0,0E0,0E0,0E0,0E0,0E0,0E0,0E0,0E0,0E0,0E0,0E0,0E0,0E0,0E0,0E0,0E0],"parents":[2147483647,0,0,1,1,2,2,3,3,4,4,5,5,6,6,7,7,8,8,9,9,10,10,11,11,12,12,13,13,14,14,15,15,16,16,17,17,18,18,19,19,20,20,21,21,22,22,23,23,24,24,25,25,26,26,27,27,28,28,29,29,30,30],"right_children":[2,4,6,8,10,12,14,16,18,20,22,24,26,28,30,32,34,36,38,40,42,44,46,48,50,52,54,56,58,60,62,-1,-1,-1,-1,-1,-1,-1,-1,-1,-1,-1,-1,-1,-1,-1,-1,-1,-1,-1,-1,-1,-1,-1,-1,-1,-1,-1,-1,-1,-1,-1,-1],"split_conditions":[1.0104784E0,8.4528077E-1,-4.0916047E0,2.4027071E1,-3.3818882E0,1.1425933E0,2.4437649E1,-6.5651712E0,-2.2797482E0,2.12718E1,4.773418E1,1.7789194E1,-7.378109E0,1.4654455E0,1.0972282E0,-1.350365E1,8.1817627E-1,-1.3513601E0,5.7393284E1,-8.549928E0,-1.7154549E1,1.8423714E1,1.7746424E1,1.265808E0,3.6631426E-1,-1.89137E1,1.075701E0,3.5059392E0,1.4071027E1,-4.1469193E0,2.6922376E0,-3.0781716E-2,-1.7199783E-3,1.3969227E-2,7.4523287E-3,-1.7309949E-2,-6.466275E-4,7.303559E-3,2.3543805E-2,7.825742E-3,3.7828853E-4,-1.4235026E-2,-5.816857E-3,3.526826E-3,2.39326E-2,-2.908895E-2,-8.863046E-3,-4.4270824E-3,-3.4236126E-2,-1.5794506E-2,3.6325385E-3,-2.0473745E-2,1.1283873E-2,-1.7315803E-2,-2.6752919E-2,-6.009715E-3,5.3180116E-3,-2.0874862E-2,-9.651372E-3,1.6906591E-2,2.780262E-3,-9.027293E-3,-1.3632096E-3],"split_indices":[4,4,5,3,1,6,3,1,1,3,3,3,1,1,4,5,4,6,0,5,5,6,5,4,1,1,4,5,3,6,1,0,0,0,0,0,0,0,0,0,0,0,0,0,0,0,0,0,0,0,0,0,0,0,0,0,0,0,0,0,0,0,0],"split_type":[0,0,0,0,0,0,0,0,0,0,0,0,0,0,0,0,0,0,0,0,0,0,0,0,0,0,0,0,0,0,0,0,0,0,0,0,0,0,0,0,0,0,0,0,0,0,0,0,0,0,0,0,0,0,0,0,0,0,0,0,0,0,0],"sum_hessian":[1.2617773E4,7.922129E3,4.695645E3,2.38558E3,5.536549E3,1.1774795E3,3.5181655E3,1.5624186E3,8.231615E2,1.1588851E3,4.3776636E3,8.7517487E2,3.023047E2,1.749425E3,1.7687404E3,2.8440714E1,1.5339779E3,4.6946643E2,3.536951E2,4.4206213E2,7.16823E2,4.3361743E3,4.148905E1,2.0244661E2,6.727283E2,3.9899128E1,2.6240555E2,8.006442E2,9.487808E2,7.254048E2,1.0433356E3,6.488812E0,2.1951902E1,1.0661055E3,4.6787244E2,5.593374E1,4.1353268E2,2.9436255E2,5.9332542E1,1.6681671E2,2.752454E2,1.1695852E2,5.998645E2,4.291227E3,4.494723E1,3.1996456E1,9.492595E0,1.9644908E2,5.997517E0,6.427351E2,2.9993118E1,1.7411438E1,2.248769E1,9.347844E1,1.6892712E2,6.3925433E2,1.6138988E2,9.848778E1,8.502931E2,7.692427E1,6.484805E2,3.3130142E2,7.120341E2],"tree_param":{"num_deleted":"0","num_feature":"8","num_nodes":"63","size_leaf_vector":"1"}},{"base_weights":[-2.397978E-3,1.2665879E0,-8.513635E-3,5.329606E-1,1.528959E0,-5.245632E-2,5.670877E-2,2.195355E-1,5.1896274E-2,1.5947149E0,4.866486E-1,2.0547342E-1,-7.977885E-2,1.21606424E-1,-2.2462854E-2,-1.6445095E-2,4.043912E-1,6.4994015E-2,2.07927E-2,-1.3212682E-2,4.15918E-2,1.3276397E-1,6.158433E-1,-1.5738817E-1,-4.7653735E-2,3.8146738E-2,2.1618544E-1,-1.0196394E-1,2.145951E-2,-1.2909405E-2,2.2127869E-2,-1.098064E-2,7.7621383E-3,-1.0101927E-3,3.3998225E-2,-6.9161644E-3,3.4783434E-2,4.4122717E-4,-4.7290097E-3,1.2731973E-2,-7.866246E-4,1.7642012E-2,6.081267E-3,-2.9227808E-3,-2.3246547E-2,2.2704622E-3,-8.040734E-3],"categories":[],"categories_nodes":[],"categories_segments":[],"categories_sizes":[],"default_left":[0,0,0,0,0,0,0,0,0,0,0,0,0,0,0,0,0,0,0,0,0,0,0,0,0,0,0,0,0,0,0,0,0,0,0,0,0,0,0,0,0,0,0,0,0,0,0],"id":13,"left_children":[1,3,5,7,9,11,13,15,-1,17,19,21,23,25,27,-1,29,-1,-1,-1,-1,31,33,35,37,39,41,43,45,-1,-1,-1,-1,-1,-1,-1,-1,-1,-1,-1,-1,-1,-1,-1,-1,-1,-1],"loss_changes":[6.6079475E1,7.045738E0,2.42882E1,2.660506E0,1.2489014E0,3.5697525E1,1.7530281E1,1.3229806E0,0E0,4.1397095E-2,1.7861509E0,1.439678E1,1.1408543E1,1.4790625E1,5.3709917E0,0E0,1.0633007E0,0E0,0E0,0E0,0E0,1.03746E1,1.0941965E1,2.1503212E1,1.3418827E1,1.6156605E1,1.26082115E1,7.5358963E0,7.7961297E0,0E0,0E0,0E0,0E0,0E0,0E0,0E0,0E0,0E0,0E0,0E0,0E0,0E0,0E0,0E0,0E0,0E0,0E0],"parents":[2147483647,0,0,1,1,2,2,3,3,4,4,5,5,6,6,7,7,9,9,10,10,11,11,12,12,13,13,14,14,16,16,21,21,22,22,23,23,24,24,25,25,26,26,27,27,28,28],"right_children":[2,4,6,8,10,12,14,16,-1,18,20,22,24,26,28,-1,30,-1,-1,-1,-1,32,34,36,38,40,42,44,46,-1,-1,-1,-1,-1,-1,-1,-1,-1,-1,-1,-1,-1,-1,-1,-1,-1,-1],"split_conditions":[-3.4984024E1,7.593728E-1,9.9721193E-1,1.2124485E0,6.0582027E1,-1.1006202E1,6.5679946E0,5.073133E1,5.1896274E-2,-3.947283E1,6.437728E-1,1.560863E0,8.398446E-1,-4.43034E0,3.3124714E0,-1.6445095E-2,8.302552E-1,6.4994015E-2,2.07927E-2,-1.3212682E-2,4.15918E-2,1.9549719E1,8.302552E-1,5.4526474E1,8.5322994E-1,4.7085205E-1,-4.349141E0,4.7346806E1,2.5426098E1,-1.2909405E-2,2.2127869E-2,-1.098064E-2,7.7621383E-3,-1.0101927E-3,3.3998225E-2,-6.9161644E-3,3.4783434E-2,4.4122717E-4,-4.7290097E-3,1.2731973E-2,-7.866246E-4,1.7642012E-2,6.081267E-3,-2.9227808E-3,-2.3246547E-2,2.2704622E-3,-8.040734E-3],"split_indices":[5,2,4,4,3,5,7,3,0,7,6,6,4,7,5,0,4,0,0,0,0,3,4,3,2,2,5,7,5,0,0,0,0,0,0,0,0,0,0,0,0,0,0,0,0,0,0],"split_type":[0,0,0,0,0,0,0,0,0,0,0,0,0,0,0,0,0,0,0,0,0,0,0,0,0,0,0,0,0,0,0,0,0,0,0,0,0,0,0,0,0,0,0,0,0,0,0],"sum_hessian":[8.512258E3,3.9838062E1,8.47242E3,1.129288E1,2.8545183E1,5.0620977E3,3.4103218E3,8.922012E0,2.3708673E0,2.63527E1,2.1924837E0,4.8424216E2,4.577856E3,1.873809E3,1.536513E3,1.7449185E0,7.1770945E0,2.513635E1,1.2163485E0,1.0477931E0,1.1446905E0,4.12482E2,7.176016E1,1.3390409E3,3.2388147E3,9.961639E2,8.77645E2,5.463244E2,9.9018854E2,1.0206976E0,6.156397E0,5.3498123E1,3.589839E2,1.9433954E1,5.2326206E1,1.3199305E3,1.9110428E1,1.7687979E3,1.470017E3,1.6963326E2,8.2653064E2,1.9350769E2,6.841373E2,5.1634283E2,2.9981558E1,8.552286E2,1.3495998E2],"tree_param":{"num_deleted":"0","num_feature":"8","num_nodes":"47","size_leaf_vector":"1"}},{"base_weights":[9.386719E-4,-8.08933E-2,1.7368983E-1,-3.0120492E-1,-5.453086E-2,3.6556E-1,7.267417E-2,-5.940098E-1,-2.6681972E-1,-1.95764E-1,-2.6610255E-2,-6.2601763E-1,3.9624727E-1,5.0079044E-2,4.5019472E-1,1.2500717E-1,-6.186573E-1,-1.731337E-1,-3.1621018E-1,-4.1121122E-1,-1.7163849E-1,1.1839946E-1,-4.7443576E-2,-2.6106635E-2,-1.9956921E-1,1.7327182E-1,5.1918113E-1,-2.0882245E-2,1.5284076E-1,6.3960564E-1,1.1436007E-1,-1.4601172E-2,2.2261888E-2,-1.6259788E-2,-2.5700238E-2,-8.396544E-3,7.4678855E-3,-1.5856696E-2,-9.39863E-3,1.0739599E-2,-1.9333942E-2,-1.7318599E-2,-6.2376796E-3,2.422797E-3,1.4104929E-2,-2.0369282E-3,3.101281E-2,2.7837886E-3,-1.5168689E-2,3.3179792E-3,1.6260777E-2,3.5126386E-3,2.2134082E-2,-1.3899329E-4,-8.607428E-3,1.2073757E-2,-5.4085325E-4,-1.4442847E-3,2.999649E-2,2.1769919E-2,-1.7034992E-3],"categories":[],"categories_nodes":[],"categories_segments":[],"categories_sizes":[],"default_left":[0,0,0,0,0,0,0,0,0,0,0,0,0,0,0,0,0,0,0,0,0,0,0,0,0,0,0,0,0,0,0,0,0,0,0,0,0,0,0,0,0,0,0,0,0,0,0,0,0,0,0,0,0,0,0,0,0,0,0,0,0],"id":14,"left_children":[1,3,5,7,9,11,13,15,17,19,21,23,25,27,29,31,33,35,37,39,41,43,45,-1,47,49,51,53,55,57,59,-1,-1,-1,-1,-1,-1,-1,-1,-1,-1,-1,-1,-1,-1,-1,-1,-1,-1,-1,-1,-1,-1,-1,-1,-1,-1,-1,-1,-1,-1],"loss_changes":[1.4142662E2,3.9411335E1,6.2300476E1,7.143791E0,2.3908222E1,3.3989105E1,1.7957973E1,1.4136848E0,2.956997E0,5.131447E0,1.530558E1,2.5242615E-1,2.9409393E1,1.4514288E1,7.490822E0,9.0758896E-1,1.08572006E-1,3.0420485E0,2.6762161E0,5.0363026E0,3.63138E0,8.599923E0,1.2719289E1,0E0,1.9181122E-1,8.0555E0,1.0169418E1,3.9836307E0,2.0156425E1,5.6777515E0,2.9984918E0,0E0,0E0,0E0,0E0,0E0,0E0,0E0,0E0,0E0,0E0,0E0,0E0,0E0,0E0,0E0,0E0,0E0,0E0,0E0,0E0,0E0,0E0,0E0,0E0,0E0,0E0,0E0,0E0,0E0,0E0],"parents":[2147483647,0,0,1,1,2,2,3,3,4,4,5,5,6,6,7,7,8,8,9,9,10,10,11,11,12,12,13,13,14,14,15,15,16,16,17,17,18,18,19,19,20,20,21,21,22,22,24,24,25,25,26,26,27,27,28,28,29,29,30,30],"right_children":[2,4,6,8,10,12,14,16,18,20,22,24,26,28,30,32,34,36,38,40,42,44,46,-1,48,50,52,54,56,58,60,-1,-1,-1,-1,-1,-1,-1,-1,-1,-1,-1,-1,-1,-1,-1,-1,-1,-1,-1,-1,-1,-1,-1,-1,-1,-1,-1,-1,-1,-1],"split_conditions":[1.0328786E0,7.7983165E-1,-1.1554015E0,6.3709146E-1,5.053235E-1,1.8269442E1,1.2816496E1,-8.663475E0,-1.1026788E-1,1.972619E-1,-4.8944907E0,-9.545981E0,-2.6070407E-1,1.2996499E-1,2.145546E0,2.072256E1,-2.4049783E0,-1.505362E-1,-1.4428898E0,8.260834E-1,-1.2075569E1,9.867047E-1,7.843968E1,-2.6106635E-2,-8.281806E0,1.1673137E0,4.5539767E-1,1.5122037E0,1.2160589E0,7.062114E-1,1.0729047E0,-1.4601172E-2,2.2261888E-2,-1.6259788E-2,-2.5700238E-2,-8.396544E-3,7.4678855E-3,-1.5856696E-2,-9.39863E-3,1.0739599E-2,-1.9333942E-2,-1.7318599E-2,-6.2376796E-3,2.422797E-3,1.4104929E-2,-2.0369282E-3,3.101281E-2,2.7837886E-3,-1.5168689E-2,3.3179792E-3,1.6260777E-2,3.5126386E-3,2.2134082E-2,-1.3899329E-4,-8.607428E-3,1.2073757E-2,-5.4085325E-4,-1.4442847E-3,2.999649E-2,2.1769919E-2,-1.7034992E-3],"split_indices":[4,4,5,4,2,0,1,1,6,2,1,1,6,6,2,0,6,6,1,4,5,4,0,0,1,4,2,2,2,2,6,0,0,0,0,0,0,0,0,0,0,0,0,0,0,0,0,0,0,0,0,0,0,0,0,0,0,0,0,0,0],"split_type":[0,0,0,0,0,0,0,0,0,0,0,0,0,0,0,0,0,0,0,0,0,0,0,0,0,0,0,0,0,0,0,0,0,0,0,0,0,0,0,0,0,0,0,0,0,0,0,0,0,0,0,0,0,0,0,0,0,0,0,0,0],"sum_hessian":[1.0002318E4,6.787582E3,3.214736E3,7.242852E2,6.063297E3,1.1078519E3,2.106884E3,7.44065E1,6.498787E2,9.998186E2,5.063478E3,3.2674137E1,1.0751777E3,1.9889739E3,1.179102E2,2.331119E0,7.2075386E1,2.2589546E2,4.2398325E2,9.906822E1,9.007504E2,6.3548944E2,4.427989E3,3.0253176E1,2.4209588E0,3.8296738E2,6.922104E2,1.1770016E3,8.119723E2,7.481179E1,4.309841E1,1.1637471E0,1.167372E0,9.106532E0,6.2968853E1,2.0532492E2,2.0570536E1,2.1140135E2,2.1258188E2,9.244226E0,8.9824E1,4.953146E1,8.5121893E2,5.106654E2,1.2482403E2,4.410275E3,1.7713802E1,1.2142587E0,1.2067001E0,2.7704187E2,1.059255E2,5.1071136E1,6.411393E2,1.0811597E3,9.584192E1,4.279036E2,3.840687E2,1.0593169E1,6.421862E1,1.0866571E1,3.223184E1],"tree_param":{"num_deleted":"0","num_feature":"8","num_nodes":"61","size_leaf_vector":"1"}},{"base_weights":[-2.427455E-3,9.025595E-2,-1.7741503E-1,2.0345949E-1,4.529333E-2,-3.6367637E-1,-1.0892255E-1,-3.236239E-3,2.4178806E-1,-7.6221704E-2,7.794269E-2,-2.8536242E-1,-4.4670394E-1,-3.44147E-2,-1.5706545E-1,-5.1807374E-1,4.82788E-2,-2.755456E-1,2.5868556E-1,-2.2455704E-1,-2.8982367E-2,3.7803065E-2,1.582628E-1,-3.552048E-1,-1.4242037E-1,-1.6653197E-1,-5.0802666E-1,-1.7561705E-3,-3.5619187E-1,-2.3209454E-1,-9.581301E-2,-3.0723512E-2,4.139103E-3,2.8469625E-3,-2.810911E-2,4.211202E-3,-2.1829244E-2,7.684115E-3,1.3675154E-2,3.9777285E-3,-1.2662742E-2,2.0503832E-3,-6.9466596E-3,1.6507218E-2,1.0587166E-3,6.692534E-3,-2.5720473E-2,-2.0836728E-2,-1.184776E-2,5.596033E-3,-8.160065E-3,-1.9460566E-2,-3.5700442E-3,-1.8081779E-2,-2.643748E-2,-5.7537407E-3,2.8745446E-3,-9.830328E-3,-2.3355784E-2,-5.3184703E-3,-1.4218637E-2,-3.0851208E-3,-1.3036277E-2],"categories":[],"categories_nodes":[],"categories_segments":[],"categories_sizes":[],"default_left":[0,0,0,0,0,0,0,0,0,0,0,0,0,0,0,0,0,0,0,0,0,0,0,0,0,0,0,0,0,0,0,0,0,0,0,0,0,0,0,0,0,0,0,0,0,0,0,0,0,0,0,0,0,0,0,0,0,0,0,0,0,0,0],"id":15,"left_children":[1,3,5,7,9,11,13,15,17,19,21,23,25,27,29,31,33,35,37,39,41,43,45,47,49,51,53,55,57,59,61,-1,-1,-1,-1,-1,-1,-1,-1,-1,-1,-1,-1,-1,-1,-1,-1,-1,-1,-1,-1,-1,-1,-1,-1,-1,-1,-1,-1,-1,-1,-1,-1],"loss_changes":[2.041736E2,4.1880623E1,5.5570816E1,1.8533394E1,2.3380486E1,7.490097E0,1.1431843E1,9.756283E0,1.7321732E1,8.740376E0,1.49676895E1,5.995846E0,9.654976E0,1.3165112E1,8.878151E0,5.278981E0,5.800804E0,6.529553E0,1.0522354E1,9.015488E0,1.1013792E1,1.3153859E1,1.1328537E1,3.8177528E0,3.5137048E0,2.5106335E0,3.6783218E0,1.1918494E1,2.7592115E0,1.0589836E1,4.566206E0,0E0,0E0,0E0,0E0,0E0,0E0,0E0,0E0,0E0,0E0,0E0,0E0,0E0,0E0,0E0,0E0,0E0,0E0,0E0,0E0,0E0,0E0,0E0,0E0,0E0,0E0,0E0,0E0,0E0,0E0,0E0,0E0],"parents":[2147483647,0,0,1,1,2,2,3,3,4,4,5,5,6,6,7,7,8,8,9,9,10,10,11,11,12,12,13,13,14,14,15,15,16,16,17,17,18,18,19,19,20,20,21,21,22,22,23,23,24,24,25,25,26,26,27,27,28,28,29,29,30,30],"right_children":[2,4,6,8,10,12,14,16,18,20,22,24,26,28,30,32,34,36,38,40,42,44,46,48,50,52,54,56,58,60,62,-1,-1,-1,-1,-1,-1,-1,-1,-1,-1,-1,-1,-1,-1,-1,-1,-1,-1,-1,-1,-1,-1,-1,-1,-1,-1,-1,-1,-1,-1,-1,-1],"split_conditions":[1.0197734E0,8.4528077E-1,-3.3952823E0,-4.394395E0,-3.3818882E0,1.7427647E-1,1.0882761E0,-2.0867941E0,-4.397119E1,-1.350365E1,4.3294654E0,-3.615972E0,3.5023167E1,3.5985893E1,7.242847E0,3.220021E1,-1.880141E0,-4.0916047E0,4.5562603E1,-3.4824524E1,-7.6578083E0,-5.7850184E0,7.843968E1,-1.6995361E1,1.0400091E0,-4.5761738E1,1.1634291E0,1.8586452E0,5.288435E1,1.1599334E0,6.847206E1,-3.0723512E-2,4.139103E-3,2.8469625E-3,-2.810911E-2,4.211202E-3,-2.1829244E-2,7.684115E-3,1.3675154E-2,3.9777285E-3,-1.2662742E-2,2.0503832E-3,-6.9466596E-3,1.6507218E-2,1.0587166E-3,6.692534E-3,-2.5720473E-2,-2.0836728E-2,-1.184776E-2,5.596033E-3,-8.160065E-3,-1.9460566E-2,-3.5700442E-3,-1.8081779E-2,-2.643748E-2,-5.7537407E-3,2.8745446E-3,-9.830328E-3,-2.3355784E-2,-5.3184703E-3,-1.4218637E-2,-3.0851208E-3,-1.3036277E-2],"split_indices":[4,4,5,1,1,6,4,6,7,5,7,1,0,7,5,0,5,5,0,7,7,6,0,7,4,7,4,5,7,4,7,0,0,0,0,0,0,0,0,0,0,0,0,0,0,0,0,0,0,0,0,0,0,0,0,0,0,0,0,0,0,0,0],"split_type":[0,0,0,0,0,0,0,0,0,0,0,0,0,0,0,0,0,0,0,0,0,0,0,0,0,0,0,0,0,0,0,0,0,0,0,0,0,0,0,0,0,0,0,0,0,0,0,0,0,0,0,0,0,0,0,0,0,0,0,0,0,0,0],"sum_hessian":[1.2586986E4,8.228949E3,4.358037E3,2.3382795E3,5.89067E3,1.1705325E3,3.187505E3,3.6591483E2,1.9723646E3,1.2472598E3,4.64341E3,6.0464825E2,5.6588416E2,1.2518334E3,1.9356714E3,3.2459564E1,3.3345526E2,6.19009E1,1.9104637E3,3.0035794E2,9.469018E2,3.0971123E3,1.5462979E3,4.051866E2,1.9946165E2,1.0228388E2,4.6360028E2,1.1373994E3,1.1443403E2,8.68744E2,1.0669274E3,2.2980204E1,9.4793625E0,3.244687E2,8.986556E0,2.5943691E1,3.595721E1,1.0630079E3,8.474558E2,6.641387E1,2.3394408E2,6.095117E2,3.3739008E2,8.9859566E1,3.0072527E3,1.5298096E3,1.648828E1,1.0434338E2,3.0084326E2,3.5489067E1,1.6397258E2,1.886748E1,8.3416405E1,3.4225366E2,1.21346634E2,3.8786328E2,7.4953613E2,7.846065E1,3.597338E1,4.828426E2,3.8590143E2,9.8802875E2,7.889861E1],"tree_param":{"num_deleted":"0","num_feature":"8","num_nodes":"63","size_leaf_vector":"1"}},{"base_weights":[1.534255E-3,1.2330649E0,-4.613787E-3,5.9155315E-1,6.0932793E-2,7.4307695E-2,-4.9398486E-2,9.465207E-1,3.0511951E-2,6.774588E-2,9.909124E-1,-4.286627E-2,-2.5973654E-1,5.402772E-2,5.5260295E-1,2.680948E-1,-1.651907E-2,1.5224458E-1,1.4406935E-2,6.726463E-2,5.51533E-1,-7.9504706E-2,-3.6317967E-3,3.7337565E-1,-3.0588257E-1,6.9193607E-3,3.73023E-2,-1.5644442E-2,2.582748E-2,1.5566095E-2,4.1863164E-3,-1.1112982E-3,1.090952E-2,3.4531888E-2,-5.978133E-3,-1.5328524E-3,-7.7637136E-3,-1.2247016E-2,2.525964E-4,4.2083245E-2,-5.8124424E-3,-2.1597143E-2,-1.0132398E-2],"categories":[],"categories_nodes":[],"categories_segments":[],"categories_sizes":[],"default_left":[0,0,0,0,0,0,0,0,0,0,0,0,0,0,0,0,0,0,0,0,0,0,0,0,0,0,0,0,0,0,0,0,0,0,0,0,0,0,0,0,0,0,0],"id":16,"left_children":[1,3,5,7,-1,9,11,13,15,17,19,21,23,-1,25,27,-1,29,31,-1,33,35,37,39,41,-1,-1,-1,-1,-1,-1,-1,-1,-1,-1,-1,-1,-1,-1,-1,-1,-1,-1],"loss_changes":[6.450919E1,6.979347E0,2.9968681E1,2.9222813E0,0E0,1.8395365E1,7.42111E0,6.9332886E-1,8.246486E-1,1.3739295E1,5.67181E0,7.543045E0,4.8685474E0,0E0,7.4333644E-1,1.5016952E0,0E0,1.3258976E1,2.03901E1,0E0,3.358798E0,1.2797979E1,7.6307235E0,4.2033005E0,1.7362938E0,0E0,0E0,0E0,0E0,0E0,0E0,0E0,0E0,0E0,0E0,0E0,0E0,0E0,0E0,0E0,0E0,0E0,0E0],"parents":[2147483647,0,0,1,1,2,2,3,3,5,5,6,6,7,7,8,8,9,9,10,10,11,11,12,12,14,14,15,15,17,17,18,18,20,20,21,21,22,22,23,23,24,24],"right_children":[2,4,6,8,-1,10,12,14,16,18,20,22,24,-1,26,28,-1,30,32,-1,34,36,38,40,42,-1,-1,-1,-1,-1,-1,-1,-1,-1,-1,-1,-1,-1,-1,-1,-1,-1,-1],"split_conditions":[-3.4984024E1,8.7304556E-1,-1.6188363E0,5.804431E-1,6.0932793E-2,7.5617003E0,2.5426098E1,1.0496398E1,2.6049683E1,7.441105E-1,-2.1831356E1,3.1207838E0,6.184255E1,5.402772E-2,4.500113E-1,1.4701631E1,-1.651907E-2,-1.18667E1,1.6974285E0,6.726463E-2,-1.9580771E0,5.8414454E0,-9.056251E0,-1.0774434E1,1.0534426E1,6.9193607E-3,3.73023E-2,-1.5644442E-2,2.582748E-2,1.5566095E-2,4.1863164E-3,-1.1112982E-3,1.090952E-2,3.4531888E-2,-5.978133E-3,-1.5328524E-3,-7.7637136E-3,-1.2247016E-2,2.525964E-4,4.2083245E-2,-5.8124424E-3,-2.1597143E-2,-1.0132398E-2],"split_indices":[5,2,1,2,0,5,5,6,6,2,7,5,0,0,2,6,0,5,2,0,1,7,6,7,7,0,0,0,0,0,0,0,0,0,0,0,0,0,0,0,0,0,0],"split_type":[0,0,0,0,0,0,0,0,0,0,0,0,0,0,0,0,0,0,0,0,0,0,0,0,0,0,0,0,0,0,0,0,0,0,0,0,0,0,0,0,0,0,0],"sum_hessian":[8.518247E3,4.1322212E1,8.476925E3,1.3818679E1,2.7503536E1,3.068618E3,5.408307E3,8.042902E0,5.7757764E0,3.0478728E3,2.0745287E1,5.246574E3,1.6173273E2,2.770948E0,5.271954E0,4.0184994E0,1.7572773E0,1.1787157E3,1.8691571E3,6.9665823E0,1.3778706E1,2.7125137E3,2.5340605E3,1.0505717E1,1.51227E2,3.365101E0,1.9068532E0,1.4504611E0,2.568038E0,1.9596019E2,9.827555E2,1.6075175E3,2.616396E2,9.376813E0,4.401892E0,1.996352E3,7.1616174E2,7.971232E1,2.4543484E3,4.1054063E0,6.400311E0,2.6038233E1,1.25188774E2],"tree_param":{"num_deleted":"0","num_feature":"8","num_nodes":"43","size_leaf_vector":"1"}},{"base_weights":[-2.2471577E-3,-2.3180474E-2,2.803738E-1,-1.1192085E-1,1.2946986E-2,5.6716883E-1,1.7610042E-1,-1.3073711E-1,7.873575E-2,4.2207852E-2,-1.0527286E-1,3.957573E-1,1.1634114E0,8.2603745E-2,4.9970785E-1,-1.7079212E-1,-7.096761E-2,1.2650399E-1,-3.6242604E-1,1.6304988E-1,2.2834841E-2,8.393822E-2,-1.5636636E-1,-4.1050714E-1,4.7615945E-1,3.5933945E-1,1.275504E0,3.3660248E-2,5.960382E-1,8.630212E-1,3.7373886E-1,-8.212862E-3,-2.7375645E-4,-1.2234057E-4,-6.1955475E-3,4.2262655E-2,4.1734586E-3,-2.1959841E-2,-5.8731684E-3,-5.6573665E-3,1.01203825E-2,-2.451307E-3,2.3864976E-3,-1.09056E-2,7.865908E-3,-7.975998E-3,6.5309005E-3,-2.0766895E-2,-1.6561906E-3,2.8401103E-2,1.2114403E-2,4.527263E-2,-1.1709426E-2,5.462102E-2,8.967802E-3,-9.160004E-3,3.283466E-3,4.424276E-2,4.9660695E-3,4.5117225E-2,1.3861614E-2,3.6227726E-3,3.1882167E-2],"categories":[],"categories_nodes":[],"categories_segments":[],"categories_sizes":[],"default_left":[0,0,0,0,0,0,0,0,0,0,0,0,0,0,0,0,0,0,0,0,0,0,0,0,0,0,0,0,0,0,0,0,0,0,0,0,0,0,0,0,0,0,0,0,0,0,0,0,0,0,0,0,0,0,0,0,0,0,0,0,0,0,0],"id":17,"left_children":[1,3,5,7,9,11,13,15,17,19,21,23,25,27,29,31,33,35,37,39,41,43,45,47,49,51,53,55,57,59,61,-1,-1,-1,-1,-1,-1,-1,-1,-1,-1,-1,-1,-1,-1,-1,-1,-1,-1,-1,-1,-1,-1,-1,-1,-1,-1,-1,-1,-1,-1,-1,-1],"loss_changes":[5.8867954E1,2.9701597E1,2.0420422E1,9.62616E0,2.2782005E1,1.8192715E1,1.5228122E1,5.8294716E0,5.132951E0,1.2354574E1,1.2645616E1,9.48321E0,3.1683235E0,9.849279E0,4.8456993E0,8.265091E0,5.5890064E0,4.3957424E0,8.784573E-1,2.0009628E1,1.4101017E1,1.1245714E1,1.4189711E1,5.2112913E-1,5.0839214E0,3.5124278E0,2.9989357E0,4.5930853E0,8.074653E0,3.4825134E0,1.019073E1,0E0,0E0,0E0,0E0,0E0,0E0,0E0,0E0,0E0,0E0,0E0,0E0,0E0,0E0,0E0,0E0,0E0,0E0,0E0,0E0,0E0,0E0,0E0,0E0,0E0,0E0,0E0,0E0,0E0,0E0,0E0,0E0],"parents":[2147483647,0,0,1,1,2,2,3,3,4,4,5,5,6,6,7,7,8,8,9,9,10,10,11,11,12,12,13,13,14,14,15,15,16,16,17,17,18,18,19,19,20,20,21,21,22,22,23,23,24,24,25,25,26,26,27,27,28,28,29,29,30,30],"right_children":[2,4,6,8,10,12,14,16,18,20,22,24,26,28,30,32,34,36,38,40,42,44,46,48,50,52,54,56,58,60,62,-1,-1,-1,-1,-1,-1,-1,-1,-1,-1,-1,-1,-1,-1,-1,-1,-1,-1,-1,-1,-1,-1,-1,-1,-1,-1,-1,-1,-1,-1,-1,-1],"split_conditions":[3.2291313E1,6.403785E-1,4.018671E0,3.7036073E0,1.4952822E0,4.9890774E1,1.02350025E1,5.192984E-1,6.126487E-1,-9.773345E0,-7.657387E0,4.8098037E-1,1.5425028E1,6.847206E1,3.0491291E1,9.1883335E0,-1.0122813E0,-3.1122046E1,1.4504107E1,-3.0580204E1,-1.1569686E1,-3.0580204E1,8.37723E0,2.2231328E0,-1.514867E0,1.3873168E1,1.224549E0,5.053235E-1,6.682944E1,2.0870645E0,4.2818886E1,-8.212862E-3,-2.7375645E-4,-1.2234057E-4,-6.1955475E-3,4.2262655E-2,4.1734586E-3,-2.1959841E-2,-5.8731684E-3,-5.6573665E-3,1.01203825E-2,-2.451307E-3,2.3864976E-3,-1.09056E-2,7.865908E-3,-7.975998E-3,6.5309005E-3,-2.0766895E-2,-1.6561906E-3,2.8401103E-2,1.2114403E-2,4.527263E-2,-1.1709426E-2,5.462102E-2,8.967802E-3,-9.160004E-3,3.283466E-3,4.424276E-2,4.9660695E-3,4.5117225E-2,1.3861614E-2,3.6227726E-3,3.1882167E-2],"split_indices":[7,2,5,1,2,7,1,2,2,5,5,2,3,7,3,7,5,7,5,7,7,7,1,5,5,3,2,2,0,2,5,0,0,0,0,0,0,0,0,0,0,0,0,0,0,0,0,0,0,0,0,0,0,0,0,0,0,0,0,0,0,0,0],"split_type":[0,0,0,0,0,0,0,0,0,0,0,0,0,0,0,0,0,0,0,0,0,0,0,0,0,0,0,0,0,0,0,0,0,0,0,0,0,0,0,0,0,0,0,0,0,0,0,0,0,0,0,0,0,0,0,0,0,0,0,0,0,0,0],"sum_hessian":[9.948209E3,9.263028E3,6.8518085E2,2.679424E3,6.583604E3,1.8151103E2,5.036698E2,2.4390264E3,2.4039778E2,5.277902E3,1.3057025E3,1.422732E2,3.9237843E1,3.9174274E2,1.1192706E2,1.4592444E3,9.797819E2,2.1755458E2,2.2843193E1,7.2820416E2,4.5496978E3,2.774815E2,1.0282211E3,1.252891E1,1.2974428E2,5.3153176E0,3.3922523E1,3.5862234E2,3.3120365E1,2.730997E1,8.4617096E1,1.2051693E3,2.5407512E2,5.421277E2,4.3765427E2,3.978293E0,2.135763E2,1.1416956E1,1.1426236E1,1.65949E2,5.622551E2,1.3851737E3,3.164524E3,6.630232E1,2.1117917E2,9.0654706E2,1.21673996E2,9.365182E0,3.1637273E0,5.3903797E1,7.5840485E1,2.0962708E0,3.219047E0,3.0971603E1,2.9509187E0,5.524574E1,3.0337662E2,1.5271013E1,1.7849354E1,1.7268744E1,1.0041227E1,5.14287E1,3.3188396E1],"tree_param":{"num_deleted":"0","num_feature":"8","num_nodes":"63","size_leaf_vector":"1"}},{"base_weights":[7.352429E-4,9.286292E-2,-1.5092438E-1,1.9565998E-1,4.8819978E-2,-3.1097445E-1,-1.1042516E-1,2.5736332E-1,5.225517E-2,-8.18618E-2,8.3756514E-2,-9.655411E-2,-3.434868E-1,-1.9592968E-1,-6.489264E-3,3.2444096E-1,2.0101522E-1,-4.3944396E-2,2.37771E-1,7.087323E-2,-1.7607428E-1,8.9788325E-2,-5.77222E-1,-2.6096424E-1,1.5436262E-1,-2.73984E-1,-4.4709638E-1,-1.15073875E-1,-2.732433E-1,1.1193004E-1,-8.1647836E-2,-4.443907E-3,1.3457578E-2,7.0667914E-3,1.8941803E-2,-1.0887109E-2,-2.3870132E-4,7.572533E-3,2.9768689E-2,-2.0151974E-3,6.6609387E-3,-4.761051E-3,-1.2454316E-2,2.9727995E-2,3.4723475E-3,1.9674312E-2,-2.7144449E-2,-2.2941217E-2,-8.043542E-3,1.38914045E-2,-7.197564E-3,-1.3213989E-2,-3.9042633E-3,-6.725611E-3,-2.3182172E-2,2.3444905E-3,-6.0048974E-3,-1.5486263E-2,-4.4163843E-3,1.7229773E-2,3.389249E-3,-9.32242E-3,-8.663357E-5],"categories":[],"categories_nodes":[],"categories_segments":[],"categories_sizes":[],"default_left":[0,0,0,0,0,0,0,0,0,0,0,0,0,0,0,0,0,0,0,0,0,0,0,0,0,0,0,0,0,0,0,0,0,0,0,0,0,0,0,0,0,0,0,0,0,0,0,0,0,0,0,0,0,0,0,0,0,0,0,0,0,0,0],"id":18,"left_children":[1,3,5,7,9,11,13,15,17,19,21,23,25,27,29,31,33,35,37,39,41,43,45,47,49,51,53,55,57,59,61,-1,-1,-1,-1,-1,-1,-1,-1,-1,-1,-1,-1,-1,-1,-1,-1,-1,-1,-1,-1,-1,-1,-1,-1,-1,-1,-1,-1,-1,-1,-1,-1],"loss_changes":[1.767963E2,3.5629715E1,3.0960876E1,2.0875404E1,2.5172491E1,6.694809E0,3.3926712E1,6.172325E0,1.270709E1,1.675113E1,1.739402E1,5.3396816E0,5.9094467E0,1.306208E1,1.5354653E1,3.9660416E0,5.884365E0,4.0664134E0,5.824953E0,5.163683E0,5.5177097E0,8.329323E0,4.6120644E0,1.3440738E0,3.3826709E0,4.9775085E0,1.2270401E1,6.251752E0,1.980455E1,5.772007E0,1.269986E1,0E0,0E0,0E0,0E0,0E0,0E0,0E0,0E0,0E0,0E0,0E0,0E0,0E0,0E0,0E0,0E0,0E0,0E0,0E0,0E0,0E0,0E0,0E0,0E0,0E0,0E0,0E0,0E0,0E0,0E0,0E0,0E0],"parents":[2147483647,0,0,1,1,2,2,3,3,4,4,5,5,6,6,7,7,8,8,9,9,10,10,11,11,12,12,13,13,14,14,15,15,16,16,17,17,18,18,19,19,20,20,21,21,22,22,23,23,24,24,25,25,26,26,27,27,28,28,29,29,30,30],"right_children":[2,4,6,8,10,12,14,16,18,20,22,24,26,28,30,32,34,36,38,40,42,44,46,48,50,52,54,56,58,60,62,-1,-1,-1,-1,-1,-1,-1,-1,-1,-1,-1,-1,-1,-1,-1,-1,-1,-1,-1,-1,-1,-1,-1,-1,-1,-1,-1,-1,-1,-1,-1,-1],"split_conditions":[1.0068873E0,8.4528077E-1,4.3204597E1,2.536175E1,-3.3818882E0,1.6669476E1,2.5243464E1,7.915508E-1,-1.8062788E0,2.12718E1,4.773418E1,-3.4927135E0,6.82841E-2,2.1321893E-1,1.0929161E0,-4.739966E0,2.2531033E0,-1.0349778E0,6.4151596E1,8.288237E-1,3.39233E1,-2.633761E1,3.183435E-1,3.4136806E1,1.0616095E0,-3.9794955E0,3.3913315E1,-2.5878367E0,1.224549E0,-4.469293E0,2.8659205E0,-4.443907E-3,1.3457578E-2,7.0667914E-3,1.8941803E-2,-1.0887109E-2,-2.3870132E-4,7.572533E-3,2.9768689E-2,-2.0151974E-3,6.6609387E-3,-4.761051E-3,-1.2454316E-2,2.9727995E-2,3.4723475E-3,1.9674312E-2,-2.7144449E-2,-2.2941217E-2,-8.043542E-3,1.38914045E-2,-7.197564E-3,-1.3213989E-2,-3.9042633E-3,-6.725611E-3,-2.3182172E-2,2.3444905E-3,-6.0048974E-3,-1.5486263E-2,-4.4163843E-3,1.7229773E-2,3.389249E-3,-9.32242E-3,-8.663357E-5],"split_indices":[4,4,0,3,1,3,3,4,1,3,3,1,6,6,4,6,1,6,0,2,3,6,2,0,4,1,0,6,2,6,1,0,0,0,0,0,0,0,0,0,0,0,0,0,0,0,0,0,0,0,0,0,0,0,0,0,0,0,0,0,0,0,0],"split_type":[0,0,0,0,0,0,0,0,0,0,0,0,0,0,0,0,0,0,0,0,0,0,0,0,0,0,0,0,0,0,0,0,0,0,0,0,0,0,0,0,0,0,0,0,0,0,0,0,0,0,0,0,0,0,0,0,0,0,0,0,0,0,0],"sum_hessian":[1.2651566E4,7.870757E3,4.780809E3,2.3597087E3,5.511048E3,9.640952E2,3.8167139E3,1.6492747E3,7.104342E2,1.1622507E3,4.3487974E3,1.2746014E2,8.366351E2,2.0935425E3,1.7231714E3,7.507785E2,8.984961E2,4.6833923E2,2.42095E2,4.435026E2,7.1874817E2,4.310327E3,3.847006E1,7.6979935E1,5.04802E1,5.0291605E2,3.3371902E2,1.0245453E3,1.0689972E3,6.6884875E2,1.0543225E3,1.9907028E1,7.3087146E2,8.263275E2,7.216862E1,6.593231E1,4.0240692E2,2.222076E2,1.9887411E1,1.9578482E2,2.4771776E2,5.068806E2,2.1186755E2,1.8438677E1,4.2918887E3,2.998781E0,3.547128E1,1.0996543E1,6.598339E1,3.1983803E1,1.84964E1,3.8045825E2,1.2245781E2,1.08174065E2,2.2554497E2,1.7191809E2,8.526272E2,6.281711E2,4.4082614E2,5.1409462E1,6.1743933E2,3.6226944E2,6.920531E2],"tree_param":{"num_deleted":"0","num_feature":"8","num_nodes":"63","size_leaf_vector":"1"}},{"base_weights":[2.8127388E-3,1.1916486E0,-3.216807E-3,6.069519E-1,1.4416006E0,-7.6252654E-2,3.2816097E-2,9.3885857E-1,1.31506E-1,5.868864E-2,1.9426873E-2,1.8423888E-1,-1.3263737E-1,9.0346165E-2,-1.3125445E-2,5.7457286E-1,5.2923426E-2,-1.8764062E-2,5.5545497E-1,1.0126742E0,1.5092178E-1,-1.4001256E-1,1.2283409E0,1.6785046E-1,3.0033832E-2,-5.7510644E-2,7.127793E-2,4.8084877E-2,-7.960081E-3,-1.8633689E-3,3.730738E-2,1.0127316E-2,5.1354665E-2,-1.3684124E-2,7.4466025E-3,-5.201185E-3,-2.247744E-2,5.8507994E-2,1.7352493E-2,2.0656687E-6,9.651183E-3,1.9597143E-3,-8.754862E-3,-1.0521831E-3,-7.2915414E-3,3.8221802E-3,-1.0920943E-2],"categories":[],"categories_nodes":[],"categories_segments":[],"categories_sizes":[],"default_left":[0,0,0,0,0,0,0,0,0,0,0,0,0,0,0,0,0,0,0,0,0,0,0,0,0,0,0,0,0,0,0,0,0,0,0,0,0,0,0,0,0,0,0,0,0,0,0],"id":19,"left_children":[1,3,5,7,9,11,13,15,17,-1,-1,19,21,23,25,27,-1,-1,29,31,33,35,37,39,41,43,45,-1,-1,-1,-1,-1,-1,-1,-1,-1,-1,-1,-1,-1,-1,-1,-1,-1,-1,-1,-1],"loss_changes":[6.1010986E1,5.402046E0,2.2290121E1,2.1788163E0,6.3591003E-3,4.112321E1,1.4991751E1,4.1955948E-1,2.0838761E0,0E0,0E0,1.3601402E1,2.3266705E1,1.1767111E1,1.1821161E1,3.197743E0,0E0,0E0,1.1007583E0,3.6070976E0,8.408103E0,9.569717E0,1.693676E0,1.35768585E1,6.699885E0,8.046893E0,9.116365E0,0E0,0E0,0E0,0E0,0E0,0E0,0E0,0E0,0E0,0E0,0E0,0E0,0E0,0E0,0E0,0E0,0E0,0E0,0E0,0E0],"parents":[2147483647,0,0,1,1,2,2,3,3,4,4,5,5,6,6,7,7,8,8,11,11,12,12,13,13,14,14,15,15,18,18,19,19,20,20,21,21,22,22,23,23,24,24,25,25,26,26],"right_children":[2,4,6,8,10,12,14,16,18,-1,-1,20,22,24,26,28,-1,-1,30,32,34,36,38,40,42,44,46,-1,-1,-1,-1,-1,-1,-1,-1,-1,-1,-1,-1,-1,-1,-1,-1,-1,-1,-1,-1],"split_conditions":[-3.4984024E1,8.7304556E-1,9.017169E-1,5.804431E-1,-3.947283E1,-8.268182E0,8.129279E-1,1.4563541E1,5.073133E1,5.868864E-2,1.9426873E-2,6.3709146E-1,5.7083023E1,4.9417908E1,1.0864404E0,5.073133E1,5.2923426E-2,-1.8764062E-2,9.1824305E-1,2.6285017E1,-4.5761738E1,2.60415E1,2.9439823E1,1.7789194E1,2.2595804E1,6.2654457E0,2.7443327E1,4.8084877E-2,-7.960081E-3,-1.8633689E-3,3.730738E-2,1.0127316E-2,5.1354665E-2,-1.3684124E-2,7.4466025E-3,-5.201185E-3,-2.247744E-2,5.8507994E-2,1.7352493E-2,2.0656687E-6,9.651183E-3,1.9597143E-3,-8.754862E-3,-1.0521831E-3,-7.2915414E-3,3.8221802E-3,-1.0920943E-2],"split_indices":[5,2,4,2,7,5,2,0,3,0,0,4,3,0,4,3,0,0,4,0,7,7,0,3,5,5,5,0,0,0,0,0,0,0,0,0,0,0,0,0,0,0,0,0,0,0,0],"split_type":[0,0,0,0,0,0,0,0,0,0,0,0,0,0,0,0,0,0,0,0,0,0,0,0,0,0,0,0,0,0,0,0,0,0,0,0,0,0,0,0,0,0,0,0,0,0,0],"sum_hessian":[8.509876E3,4.195039E1,8.467926E3,1.3589534E1,2.8360855E1,2.797169E3,5.670757E3,7.4288177E0,6.160716E0,2.709982E1,1.2610352E0,4.973225E2,2.2998464E3,2.517395E3,3.1533618E3,5.0943055E0,2.3345122E0,2.5051584E0,3.6555576E0,1.8091038E1,4.7923148E2,2.288343E3,1.15035095E1,1.1009006E3,1.4164944E3,2.066808E3,1.0865537E3,2.5067587E0,2.587547E0,1.745823E0,1.9097346E0,5.2688603E0,1.2822176E1,3.1390936E1,4.478405E2,2.236729E3,5.1613968E1,8.233841E0,3.2696688E0,3.354157E2,7.654849E2,1.3169834E3,9.951096E1,1.6542921E3,4.125159E2,1.0156622E3,7.089152E1],"tree_param":{"num_deleted":"0","num_feature":"8","num_nodes":"47","size_leaf_vector":"1"}},{"base_weights":[3.0526663E-3,-8.9801244E-2,1.498115E-1,-2.966878E-1,-6.300676E-2,3.215322E-1,7.467895E-2,-3.297937E-1,7.163135E-1,-7.894414E-2,1.5196984E-1,-5.201865E-1,3.5308218E-1,4.6147823E-2,4.6948797E-1,-5.834088E-1,-2.9955953E-1,-2.1166647E-2,9.9713814E-1,-1.9132173E-1,-4.9284503E-2,-1.7630658E-1,2.4351354E-1,-2.6019314E-2,2.6709135E-4,-1.396191E-2,4.0172386E-1,3.275938E-1,-5.754792E-4,4.9323544E-2,3.897233E-1,4.228158E-3,-2.3849078E-2,-1.0016054E-2,-1.572875E-2,5.2742984E-2,-1.2253511E-2,-6.563579E-3,-1.3590675E-2,-4.216234E-3,-3.4969117E-4,1.3523477E-2,-1.3150148E-2,6.039479E-3,2.5445644E-2,3.9053842E-2,-1.0317091E-2,2.2314994E-2,-6.485494E-3,1.7053992E-2,-8.79505E-3,-6.170467E-3,1.5901538E-2,1.8774861E-2,-5.891582E-4,9.88187E-3,2.6243035E-2],"categories":[],"categories_nodes":[],"categories_segments":[],"categories_sizes":[],"default_left":[0,0,0,0,0,0,0,0,0,0,0,0,0,0,0,0,0,0,0,0,0,0,0,0,0,0,0,0,0,0,0,0,0,0,0,0,0,0,0,0,0,0,0,0,0,0,0,0,0,0,0,0,0,0,0,0,0],"id":20,"left_children":[1,3,5,7,9,11,13,15,17,19,21,23,25,27,29,31,33,-1,35,37,39,41,43,-1,45,47,49,51,53,-1,55,-1,-1,-1,-1,-1,-1,-1,-1,-1,-1,-1,-1,-1,-1,-1,-1,-1,-1,-1,-1,-1,-1,-1,-1,-1,-1],"loss_changes":[1.3558063E2,3.3761864E1,4.9719147E1,2.3660088E1,1.8500767E1,3.133857E1,3.0204508E1,5.0167007E0,8.369066E0,1.673781E1,1.1245907E1,2.9018517E0,2.0204819E1,3.292291E1,1.0527767E1,6.9070435E-1,2.6961594E0,0E0,8.21426E0,4.1842613E0,9.047196E0,6.5311193E0,1.0509031E1,0E0,2.6629E0,1.1389929E1,1.53862915E1,1.2075012E1,1.42951355E1,0E0,6.112253E0,0E0,0E0,0E0,0E0,0E0,0E0,0E0,0E0,0E0,0E0,0E0,0E0,0E0,0E0,0E0,0E0,0E0,0E0,0E0,0E0,0E0,0E0,0E0,0E0,0E0,0E0],"parents":[2147483647,0,0,1,1,2,2,3,3,4,4,5,5,6,6,7,7,8,8,9,9,10,10,11,11,12,12,13,13,14,14,15,15,16,16,18,18,19,19,20,20,21,21,22,22,24,24,25,25,26,26,27,27,28,28,30,30],"right_children":[2,4,6,8,10,12,14,16,18,20,22,24,26,28,30,32,34,-1,36,38,40,42,44,-1,46,48,50,52,54,-1,56,-1,-1,-1,-1,-1,-1,-1,-1,-1,-1,-1,-1,-1,-1,-1,-1,-1,-1,-1,-1,-1,-1,-1,-1,-1,-1],"split_conditions":[1.0068873E0,7.7983165E-1,-2.6248274E0,1.5170507E1,3.71792E1,2.072256E1,5.288435E1,6.3709146E-1,1.3060109E1,5.446856E-1,8.433918E-1,-2.4294428E1,5.28087E-1,1.6160044E1,3.8111646E0,-1.4799124E1,-1.7638294E1,-2.1166647E-2,7.736261E-1,2.8475163E1,8.923769E-1,7.915508E-1,4.899747E1,-2.6019314E-2,-3.240644E1,-2.2085857E1,3.947882E1,4.6688515E1,-2.328188E1,4.9323544E-2,1.265808E0,4.228158E-3,-2.3849078E-2,-1.0016054E-2,-1.572875E-2,5.2742984E-2,-1.2253511E-2,-6.563579E-3,-1.3590675E-2,-4.216234E-3,-3.4969117E-4,1.3523477E-2,-1.3150148E-2,6.039479E-3,2.5445644E-2,3.9053842E-2,-1.0317091E-2,2.2314994E-2,-6.485494E-3,1.7053992E-2,-8.79505E-3,-6.170467E-3,1.5901538E-2,1.8774861E-2,-5.891582E-4,9.88187E-3,2.6243035E-2],"split_indices":[4,4,5,7,3,0,7,4,3,2,4,5,2,3,5,5,7,0,4,3,4,4,3,0,7,7,3,0,7,0,4,0,0,0,0,0,0,0,0,0,0,0,0,0,0,0,0,0,0,0,0,0,0,0,0,0,0],"split_type":[0,0,0,0,0,0,0,0,0,0,0,0,0,0,0,0,0,0,0,0,0,0,0,0,0,0,0,0,0,0,0,0,0,0,0,0,0,0,0,0,0,0,0,0,0,0,0,0,0,0,0,0,0,0,0,0,0],"sum_hessian":[9.947327E3,6.092811E3,3.8545164E3,6.974627E2,5.395348E3,1.1721674E3,2.682349E3,6.760434E2,2.1419323E1,5.0235576E3,3.717908E2,4.1789246E1,1.130378E3,2.502613E3,1.7973602E2,7.005982E1,6.059836E2,3.778232E0,1.764109E1,1.0478607E3,3.975697E3,8.086879E1,2.90922E2,3.322218E1,8.567067E0,1.3235522E2,9.980228E2,3.554552E2,2.1471577E3,1.5631731E1,1.641043E2,1.1470518E0,6.891277E1,3.9981125E2,2.0617235E2,1.4142077E1,3.4990134E0,8.8720795E2,1.6065277E2,1.6667987E3,2.3088982E3,1.820911E1,6.265968E1,2.3655907E2,5.4362926E1,1.2102803E0,7.3567867E0,2.6669125E1,1.05686104E2,9.60293E2,3.7729797E1,4.4903694E1,3.1055148E2,6.1835365E1,2.0853225E3,1.08117004E2,5.5987297E1],"tree_param":{"num_deleted":"0","num_feature":"8","num_nodes":"57","size_leaf_vector":"1"}},{"base_weights":[-3.1197237E-4,-1.0732367E-1,3.0936036E-2,-4.5586675E-2,-2.3158726E-1,4.8418622E-2,-1.4218126E-1,1.4578862E-1,-1.19629525E-1,2.7931216E-1,-2.4776188E-1,2.7128735E-1,4.0326253E-2,-1.0058641E-1,-3.5549983E-1,4.0679052E-1,7.074055E-2,-4.7615603E-1,-1.0598457E-1,-3.0766683E-2,4.2709213E-1,-1.0073941E-2,-2.693706E-1,4.2833418E-1,6.835154E-2,4.3446306E-2,-4.3858257E-1,-1.8882936E-1,2.9689295E-3,-4.024323E-1,2.8482644E-2,-6.0350588E-3,2.0715095E-2,4.3451595E-3,-9.122403E-3,2.5089548E-3,-3.0552823E-2,1.1514865E-2,-4.8467107E-3,2.2491882E-2,-3.0166889E-3,-1.3402377E-2,7.218328E-3,-2.6329607E-3,-1.2199283E-2,2.2670295E-2,9.241274E-3,1.8153463E-2,3.280733E-4,2.5529254E-3,-7.8697054E-4,1.0417556E-2,-2.3918577E-2,-5.69565E-3,-2.0786429E-2,1.6819633E-3,-2.6909497E-2,2.4997534E-2,-1.7798604E-2],"categories":[],"categories_nodes":[],"categories_segments":[],"categories_sizes":[],"default_left":[0,0,0,0,0,0,0,0,0,0,0,0,0,0,0,0,0,0,0,0,0,0,0,0,0,0,0,0,0,0,0,0,0,0,0,0,0,0,0,0,0,0,0,0,0,0,0,0,0,0,0,0,0,0,0,0,0,0,0],"id":21,"left_children":[1,3,5,7,9,11,13,15,17,19,21,23,25,27,29,31,33,35,37,-1,39,41,43,45,47,49,51,53,55,57,-1,-1,-1,-1,-1,-1,-1,-1,-1,-1,-1,-1,-1,-1,-1,-1,-1,-1,-1,-1,-1,-1,-1,-1,-1,-1,-1,-1,-1],"loss_changes":[4.2132473E1,2.1835815E1,2.9522066E1,2.6993137E1,7.877884E0,1.596545E1,7.903389E0,1.0382589E1,6.6298447E0,4.894438E0,4.7044563E0,9.857029E0,1.2793396E1,6.855479E0,7.581894E0,7.418659E0,4.7120895E0,7.8501034E0,7.9515953E0,0E0,1.8408833E0,4.853991E0,6.0692215E0,4.6398773E0,3.1617374E0,1.0927162E1,6.330901E0,6.148653E0,9.168082E0,6.4005737E0,0E0,0E0,0E0,0E0,0E0,0E0,0E0,0E0,0E0,0E0,0E0,0E0,0E0,0E0,0E0,0E0,0E0,0E0,0E0,0E0,0E0,0E0,0E0,0E0,0E0,0E0,0E0,0E0,0E0],"parents":[2147483647,0,0,1,1,2,2,3,3,4,4,5,5,6,6,7,7,8,8,9,9,10,10,11,11,12,12,13,13,14,14,15,15,16,16,17,17,18,18,20,20,21,21,22,22,23,23,24,24,25,25,26,26,27,27,28,28,29,29],"right_children":[2,4,6,8,10,12,14,16,18,20,22,24,26,28,30,32,34,36,38,-1,40,42,44,46,48,50,52,54,56,58,-1,-1,-1,-1,-1,-1,-1,-1,-1,-1,-1,-1,-1,-1,-1,-1,-1,-1,-1,-1,-1,-1,-1,-1,-1,-1,-1,-1,-1],"split_conditions":[-6.250979E0,-7.6578083E0,3.0142141E1,2.0745079E1,1.2931821E1,1.1279392E1,6.101006E1,-2.8858553E1,-3.4984024E1,4.5539767E-1,4.4434676E-1,8.36363E-1,5.252447E1,2.7275572E1,6.0582027E1,-1.2361624E1,6.2216216E-1,8.7304556E-1,-2.4294428E1,-3.0766683E-2,1.5300705E0,2.0009268E1,1.6970701E1,3.455405E-2,-1.7454342E1,7.577847E-1,-2.6248274E0,1.4504107E1,4.2818886E1,4.373901E-1,2.8482644E-2,-6.0350588E-3,2.0715095E-2,4.3451595E-3,-9.122403E-3,2.5089548E-3,-3.0552823E-2,1.1514865E-2,-4.8467107E-3,2.2491882E-2,-3.0166889E-3,-1.3402377E-2,7.218328E-3,-2.6329607E-3,-1.2199283E-2,2.2670295E-2,9.241274E-3,1.8153463E-2,3.280733E-4,2.5529254E-3,-7.8697054E-4,1.0417556E-2,-2.3918577E-2,-5.69565E-3,-2.0786429E-2,1.6819633E-3,-2.6909497E-2,2.4997534E-2,-1.7798604E-2],"split_indices":[5,7,7,3,3,3,7,7,5,2,2,2,3,3,3,5,6,2,5,0,2,3,3,6,7,6,5,5,5,2,0,0,0,0,0,0,0,0,0,0,0,0,0,0,0,0,0,0,0,0,0,0,0,0,0,0,0,0,0],"split_type":[0,0,0,0,0,0,0,0,0,0,0,0,0,0,0,0,0,0,0,0,0,0,0,0,0,0,0,0,0,0,0,0,0,0,0,0,0,0,0,0,0,0,0,0,0,0,0,0,0,0,0,0,0,0,0,0,0,0,0],"sum_hessian":[1.2597797E4,2.8466719E3,9.751125E3,1.9027225E3,9.439492E2,8.857367E3,8.937582E2,5.3052606E2,1.3721964E3,2.8468239E1,9.1548096E2,3.0920325E2,8.548164E3,7.4915283E2,1.446053E2,1.17492096E2,4.13034E2,4.9331333E1,1.3228651E3,2.9973836E0,2.5470856E1,7.641462E1,8.3906635E2,1.7368341E2,1.3551984E2,8.493737E3,5.442675E1,4.0403647E2,3.451164E2,1.3911266E2,5.49265E0,1.9457138E1,9.803496E1,3.671191E2,4.5914886E1,1.7441067E1,3.1890266E1,4.843701E1,1.2744281E3,1.99769E1,5.493954E0,2.796202E1,4.8452602E1,1.2536407E2,7.137023E2,1.0097143E2,7.2711975E1,1.7408407E1,1.1811143E2,6.420905E3,2.0728328E3,9.987821E0,4.443893E1,3.5555795E2,4.847852E1,3.2713403E2,1.7982355E1,4.985914E0,1.3412674E2],"tree_param":{"num_deleted":"0","num_feature":"8","num_nodes":"59","size_leaf_vector":"1"}},{"base_weights":[-1.7356168E-3,1.04852E0,-6.8179956E-3,6.4839673E-1,5.1870026E-2,6.7688026E-2,-4.8881717E-2,-1.2123886E-2,1.003735E0,-9.870098E-2,1.1260518E-1,-1.6040361E-1,-6.3564717E-3,-1.7497266E-2,2.4578941E-1,1.1762444E0,3.184964E-1,-1.9969085E-1,-2.9715165E-2,4.8680734E-2,2.1726047E-1,-1.4925674E-1,-5.2272594E-1,4.9024064E-2,-7.2180025E-2,-3.0304992E-3,1.7974196E-2,4.9130246E-3,5.241869E-2,2.9382013E-2,-1.3836466E-2,-1.7567242E-2,-6.279484E-3,-1.5713465E-3,2.978947E-2,5.424061E-4,1.5674658E-2,9.469374E-3,-9.299425E-3,-8.5478E-3,-3.4921078E-3,-2.429186E-2,-1.1221371E-2,-2.9238692E-4,5.737052E-3,-2.0693634E-2,-2.4696644E-3],"categories":[],"categories_nodes":[],"categories_segments":[],"categories_sizes":[],"default_left":[0,0,0,0,0,0,0,0,0,0,0,0,0,0,0,0,0,0,0,0,0,0,0,0,0,0,0,0,0,0,0,0,0,0,0,0,0,0,0,0,0,0,0,0,0,0,0],"id":22,"left_children":[1,3,5,7,-1,9,11,13,15,17,19,21,23,-1,25,27,29,31,33,35,37,39,41,43,45,-1,-1,-1,-1,-1,-1,-1,-1,-1,-1,-1,-1,-1,-1,-1,-1,-1,-1,-1,-1,-1,-1],"loss_changes":[4.5518856E1,3.2382011E0,2.6599195E1,4.1720266E0,0E0,2.2900467E1,2.572511E1,8.9594144E-1,9.890337E-1,4.533375E0,1.6126368E1,5.9697647E0,1.4323028E1,0E0,3.6882696E-1,1.0895939E0,1.2745053E0,2.6337147E0,2.906637E0,1.8058676E1,8.063293E0,5.7865906E0,7.3687744E-1,1.1349199E1,8.310208E0,0E0,0E0,0E0,0E0,0E0,0E0,0E0,0E0,0E0,0E0,0E0,0E0,0E0,0E0,0E0,0E0,0E0,0E0,0E0,0E0,0E0,0E0],"parents":[2147483647,0,0,1,1,2,2,3,3,5,5,6,6,7,7,8,8,9,9,10,10,11,11,12,12,14,14,15,15,16,16,17,17,18,18,19,19,20,20,21,21,22,22,23,23,24,24],"right_children":[2,4,6,8,-1,10,12,14,16,18,20,22,24,-1,26,28,30,32,34,36,38,40,42,44,46,-1,-1,-1,-1,-1,-1,-1,-1,-1,-1,-1,-1,-1,-1,-1,-1,-1,-1,-1,-1,-1,-1],"split_conditions":[-3.4984024E1,1.071929E0,-1.6188363E0,5.4526474E1,5.1870026E-2,1.6899683E1,9.017169E-1,5.073133E1,6.0582027E1,-1.3435304E1,-7.6578083E0,2.6892797E1,6.5679946E0,-1.7497266E-2,9.5448375E-1,8.0406743E-1,9.043648E-1,3.3913315E1,1.2493477E0,-1.7321786E0,2.9242546E1,8.398446E-1,3.2669744E0,1.0523082E0,1.1878817E1,-3.0304992E-3,1.7974196E-2,4.9130246E-3,5.241869E-2,2.9382013E-2,-1.3836466E-2,-1.7567242E-2,-6.279484E-3,-1.5713465E-3,2.978947E-2,5.424061E-4,1.5674658E-2,9.469374E-3,-9.299425E-3,-8.5478E-3,-3.4921078E-3,-2.429186E-2,-1.1221371E-2,-2.9238692E-4,5.737052E-3,-2.0693634E-2,-2.4696644E-3],"split_indices":[5,4,1,3,0,3,4,3,3,7,7,7,7,0,4,4,4,0,4,5,7,4,1,4,3,0,0,0,0,0,0,0,0,0,0,0,0,0,0,0,0,0,0,0,0,0,0],"split_type":[0,0,0,0,0,0,0,0,0,0,0,0,0,0,0,0,0,0,0,0,0,0,0,0,0,0,0,0,0,0,0,0,0,0,0,0,0,0,0,0,0,0,0,0,0,0,0],"sum_hessian":[8.52531E3,4.0068127E1,8.485241E3,1.6723528E1,2.3344599E1,3.0616455E3,5.423596E3,6.1875944E0,1.05359335E1,6.5055646E2,2.4110889E3,1.4964374E3,3.927159E3,2.07304E0,4.1145544E0,7.84452E0,2.691413E0,2.632639E2,3.872926E2,1.4977278E3,9.1336115E2,1.4531433E3,4.329408E1,2.1329011E3,1.7942577E3,1.8384162E0,2.2761383E0,1.1029949E0,6.741525E0,1.5901107E0,1.1013024E0,3.843413E1,2.2482976E2,3.835036E2,3.7889826E0,1.3596272E3,1.3810059E2,8.7590814E2,3.7452972E1,7.1109045E2,7.4205286E2,3.0971634E1,1.2322443E1,1.3363613E3,7.9653986E2,3.9996323E1,1.7542614E3],"tree_param":{"num_deleted":"0","num_feature":"8","num_nodes":"47","size_leaf_vector":"1"}},{"base_weights":[-1.5329539E-4,-7.993015E-2,1.4142856E-1,-3.0380234E-1,-5.196246E-2,3.0291453E-1,6.614715E-2,-3.34913E-1,6.593914E-1,-1.7361848E-1,-2.7133351E-2,2.7244282E-1,1.1400265E0,3.1899172E-1,1.881102E-2,-5.9150434E-1,-3.0510896E-1,-2.2348907E-2,1.0596888E0,-4.0294966E-1,-1.4920315E-1,-3.0033505E-2,8.337969E-1,-4.4329432E-1,3.0270356E-1,1.186202E0,3.309799E-1,-1.14300035E-1,3.814378E-1,-1.6571166E-2,4.13348E-1,-1.1897904E-2,-2.4626745E-2,2.384276E-2,-1.2399909E-2,4.9714454E-2,1.9289192E-3,1.2214388E-2,-1.9684806E-2,-5.175374E-3,-1.22808395E-2,-5.7007227E-4,-7.7139386E-3,1.6569499E-2,5.4694485E-2,-2.5759796E-2,-1.2023413E-3,-3.5235318E-3,1.40820285E-2,3.7135288E-2,5.3267155E-2,3.6552332E-2,-1.6020792E-2,-6.950321E-3,3.443351E-2,1.7248986E-2,-9.674387E-3,2.1054016E-2,-1.0409835E-3,4.0681336E-2,1.4087864E-2],"categories":[],"categories_nodes":[],"categories_segments":[],"categories_sizes":[],"default_left":[0,0,0,0,0,0,0,0,0,0,0,0,0,0,0,0,0,0,0,0,0,0,0,0,0,0,0,0,0,0,0,0,0,0,0,0,0,0,0,0,0,0,0,0,0,0,0,0,0,0,0,0,0,0,0,0,0,0,0,0,0],"id":23,"left_children":[1,3,5,7,9,11,13,15,17,19,21,23,25,27,29,31,33,-1,35,37,39,41,43,45,47,49,51,53,55,57,59,-1,-1,-1,-1,-1,-1,-1,-1,-1,-1,-1,-1,-1,-1,-1,-1,-1,-1,-1,-1,-1,-1,-1,-1,-1,-1,-1,-1,-1,-1],"loss_changes":[1.1288884E2,4.0009468E1,4.376941E1,2.1487808E1,1.7164093E1,2.8896385E1,2.9413298E1,5.0822754E0,1.15841875E1,5.333185E0,1.1814211E1,2.409095E1,1.0980377E0,1.0529629E1,2.8923765E1,3.1817627E-1,2.9102058E0,0E0,3.147585E0,5.966913E0,2.6881046E0,1.2091276E1,2.990058E0,3.7355003E0,2.050782E1,1.6494751E-1,1.8758278E0,3.024635E0,1.0622936E1,9.775417E0,5.936758E0,0E0,0E0,0E0,0E0,0E0,0E0,0E0,0E0,0E0,0E0,0E0,0E0,0E0,0E0,0E0,0E0,0E0,0E0,0E0,0E0,0E0,0E0,0E0,0E0,0E0,0E0,0E0,0E0,0E0,0E0],"parents":[2147483647,0,0,1,1,2,2,3,3,4,4,5,5,6,6,7,7,8,8,9,9,10,10,11,11,12,12,13,13,14,14,15,15,16,16,18,18,19,19,20,20,21,21,22,22,23,23,24,24,25,25,26,26,27,27,28,28,29,29,30,30],"right_children":[2,4,6,8,10,12,14,16,18,20,22,24,26,28,30,32,34,-1,36,38,40,42,44,46,48,50,52,54,56,58,60,-1,-1,-1,-1,-1,-1,-1,-1,-1,-1,-1,-1,-1,-1,-1,-1,-1,-1,-1,-1,-1,-1,-1,-1,-1,-1,-1,-1,-1,-1],"split_conditions":[1.0182815E0,7.7983165E-1,-2.1737847E0,1.5170507E1,5.0983787E-1,3.469818E1,1.682264E1,6.3709146E-1,1.3538101E1,1.972619E-1,7.843968E1,2.3510948E1,1.7759317E0,4.7416588E1,5.288435E1,-1.18667E1,-5.120759E1,-2.2348907E-2,7.736261E-1,8.260834E-1,1.556109E1,1.7759317E0,2.0158234E1,-2.4294428E1,5.240114E-1,4.179331E1,1.1537408E0,1.2124485E0,2.2528484E0,-2.725147E1,3.8111646E0,-1.1897904E-2,-2.4626745E-2,2.384276E-2,-1.2399909E-2,4.9714454E-2,1.9289192E-3,1.2214388E-2,-1.9684806E-2,-5.175374E-3,-1.22808395E-2,-5.7007227E-4,-7.7139386E-3,1.6569499E-2,5.4694485E-2,-2.5759796E-2,-1.2023413E-3,-3.5235318E-3,1.40820285E-2,3.7135288E-2,5.3267155E-2,3.6552332E-2,-1.6020792E-2,-6.950321E-3,3.443351E-2,1.7248986E-2,-9.674387E-3,2.1054016E-2,-1.0409835E-3,4.0681336E-2,1.4087864E-2],"split_indices":[4,4,5,7,2,7,3,4,3,2,0,0,2,0,7,5,7,0,4,4,7,2,5,5,2,7,4,4,2,7,5,0,0,0,0,0,0,0,0,0,0,0,0,0,0,0,0,0,0,0,0,0,0,0,0,0,0,0,0,0,0],"split_type":[0,0,0,0,0,0,0,0,0,0,0,0,0,0,0,0,0,0,0,0,0,0,0,0,0,0,0,0,0,0,0,0,0,0,0,0,0,0,0,0,0,0,0,0,0,0,0,0,0,0,0,0,0,0,0,0,0,0,0,0,0],"sum_hessian":[9.992624E3,6.391598E3,3.6010261E3,7.0871375E2,5.682885E3,1.1440034E3,2.4570227E3,6.871708E2,2.1542944E1,9.622286E2,4.720656E3,1.1051022E3,3.8901333E1,3.865481E2,2.0704746E3,6.9549805E1,6.17621E2,5.2305355E0,1.6312408E1,9.109326E1,8.711353E2,4.705769E3,1.4886866E1,4.4273792E1,1.0608284E3,3.6359947E1,2.5413837E0,4.8587288E1,3.3796082E2,1.9009543E3,1.6952011E2,6.2919655E0,6.325784E1,2.679968E0,6.1494104E2,1.3617549E1,2.694859E0,9.9145355E0,8.117873E1,7.755602E2,9.557515E1,4.290935E3,4.1483392E2,9.328177E0,5.558688E0,2.9424475E1,1.4849318E1,1.1884914E2,9.419792E2,1.5778433E1,2.0581514E1,1.2757186E0,1.265665E0,4.656957E1,2.0177183E0,3.132478E2,2.4713E1,3.1597424E1,1.8693569E3,1.415461E1,1.5536551E2],"tree_param":{"num_deleted":"0","num_feature":"8","num_nodes":"61","size_leaf_vector":"1"}},{"base_weights":[-2.380526E-3,8.337381E-2,-1.6518144E-1,2.1772338E-1,4.968124E-2,-3.4701192E-1,-9.954065E-2,3.002457E-1,3.1038364E-2,-7.984871E-2,7.862836E-2,-2.7773505E-1,-4.1357046E-1,-2.8811643E-1,-5.7801865E-2,2.3334073E-1,4.1731083E-1,1.2003661E-2,3.0537903E-2,1.12503916E-1,-1.506279E-1,8.339269E-2,-4.2406157E-1,-2.8954968E-1,7.119175E-1,-1.5856767E-1,-4.6876112E-1,7.956787E-2,-3.2334247E-1,2.7174143E-2,-1.17789164E-1,-6.4366832E-3,1.1062317E-2,1.4968222E-2,2.7090313E-2,-1.3098053E-2,1.6133153E-3,8.810744E-3,-2.3184037E-3,-7.366984E-3,1.4338404E-2,2.8422775E-2,3.1920357E-3,5.628238E-3,-2.4845006E-2,-1.3984718E-2,-6.19834E-3,7.700218E-3,3.2739867E-2,7.208475E-3,-8.917259E-3,1.22893E-3,-1.9394137E-2,8.871905E-3,-3.425197E-2,-1.4683279E-2,-2.4609638E-3,-3.8044273E-3,3.3888202E-3,-4.0852632E-3,-1.3984827E-2],"categories":[],"categories_nodes":[],"categories_segments":[],"categories_sizes":[],"default_left":[0,0,0,0,0,0,0,0,0,0,0,0,0,0,0,0,0,0,0,0,0,0,0,0,0,0,0,0,0,0,0,0,0,0,0,0,0,0,0,0,0,0,0,0,0,0,0,0,0,0,0,0,0,0,0,0,0,0,0,0,0],"id":24,"left_children":[1,3,5,7,9,11,13,15,17,19,21,23,25,27,29,31,33,35,-1,37,39,41,43,45,47,49,51,53,55,57,59,-1,-1,-1,-1,-1,-1,-1,-1,-1,-1,-1,-1,-1,-1,-1,-1,-1,-1,-1,-1,-1,-1,-1,-1,-1,-1,-1,-1,-1,-1],"loss_changes":[1.761752E2,3.740345E1,5.192974E1,2.5516869E1,2.4788805E1,5.2081146E0,2.5173012E1,8.901115E0,7.0873013E0,1.646033E1,1.2974823E1,6.8556023E0,8.182953E0,7.5344543E0,1.3366822E1,1.2539803E1,4.414131E0,4.794052E0,0E0,5.9912834E0,1.5151714E1,1.2001621E1,5.751091E0,4.495083E0,2.2984838E-1,2.3493705E0,3.8876343E0,7.0433836E0,6.0382156E0,7.647916E0,5.5432987E0,0E0,0E0,0E0,0E0,0E0,0E0,0E0,0E0,0E0,0E0,0E0,0E0,0E0,0E0,0E0,0E0,0E0,0E0,0E0,0E0,0E0,0E0,0E0,0E0,0E0,0E0,0E0,0E0,0E0,0E0],"parents":[2147483647,0,0,1,1,2,2,3,3,4,4,5,5,6,6,7,7,8,8,9,9,10,10,11,11,12,12,13,13,14,14,15,15,16,16,17,17,19,19,20,20,21,21,22,22,23,23,24,24,25,25,26,26,27,27,28,28,29,29,30,30],"right_children":[2,4,6,8,10,12,14,16,18,20,22,24,26,28,30,32,34,36,-1,38,40,42,44,46,48,50,52,54,56,58,60,-1,-1,-1,-1,-1,-1,-1,-1,-1,-1,-1,-1,-1,-1,-1,-1,-1,-1,-1,-1,-1,-1,-1,-1,-1,-1,-1,-1,-1,-1],"split_conditions":[1.0212102E0,8.1817627E-1,-3.3952823E0,2.591866E1,-7.657387E0,1.3784784E-1,1.734443E1,4.7416588E1,6.4151596E1,2.1196018E1,4.773418E1,6.0919243E-1,3.5023167E1,-2.8250632E0,1.0972282E0,-1.5470948E0,5.743671E0,-9.019377E0,3.0537903E-2,9.4052255E-1,4.2663628E1,-2.633761E1,-4.268226E0,-3.615972E0,1.041657E0,1.0400091E0,1.3405961E1,5.502797E1,6.204946E1,2.2192257E1,8.28787E0,-6.4366832E-3,1.1062317E-2,1.4968222E-2,2.7090313E-2,-1.3098053E-2,1.6133153E-3,8.810744E-3,-2.3184037E-3,-7.366984E-3,1.4338404E-2,2.8422775E-2,3.1920357E-3,5.628238E-3,-2.4845006E-2,-1.3984718E-2,-6.19834E-3,7.700218E-3,3.2739867E-2,7.208475E-3,-8.917259E-3,1.22893E-3,-1.9394137E-2,8.871905E-3,-3.425197E-2,-1.4683279E-2,-2.4609638E-3,-3.8044273E-3,3.3888202E-3,-4.0852632E-3,-1.3984827E-2],"split_indices":[4,4,5,3,5,6,3,0,0,3,3,1,0,6,4,6,5,1,0,4,0,6,5,1,4,4,3,0,0,3,6,0,0,0,0,0,0,0,0,0,0,0,0,0,0,0,0,0,0,0,0,0,0,0,0,0,0,0,0,0,0],"split_type":[0,0,0,0,0,0,0,0,0,0,0,0,0,0,0,0,0,0,0,0,0,0,0,0,0,0,0,0,0,0,0,0,0,0,0,0,0,0,0,0,0,0,0,0,0,0,0,0,0,0,0,0,0,0,0,0,0,0,0,0,0],"sum_hessian":[1.2617214E4,8.264454E3,4.35276E3,1.6559336E3,6.6085205E3,1.1534158E3,3.1993442E3,1.147905E3,5.080286E2,1.2067788E3,5.4017417E3,5.677014E2,5.857143E2,5.787319E2,2.6206123E3,7.3234766E2,4.155574E2,4.9615045E2,1.1878145E1,3.2444998E2,8.8232886E2,5.351853E3,4.988898E1,5.617031E2,5.998269E0,1.049014E2,4.808129E2,5.0487907E1,5.2824396E2,1.0846626E3,1.5359497E3,7.207795E1,6.602697E2,3.5854227E2,5.7015144E1,3.740355E1,4.587469E2,1.9860365E2,1.2584632E2,8.283804E2,5.3948498E1,2.935433E1,5.3224985E3,1.2978808E1,3.691017E1,3.872674E2,1.7443575E2,1.4990225E0,4.4992466E0,1.646066E1,8.8440735E1,1.4978864E1,4.6583405E2,4.4489548E1,5.9983597E0,4.5228323E2,7.5960724E1,3.4688544E2,7.377771E2,1.4401261E3,9.5823616E1],"tree_param":{"num_deleted":"0","num_feature":"8","num_nodes":"61","size_leaf_vector":"1"}},{"base_weights":[2.5964733E-3,1.0889658E0,-3.0650215E-3,1.1588731E0,5.501114E-1,8.76191E-2,-3.7496965E-2,4.9109474E-2,5.795296E-1,-1.6837688E-2,3.873998E-2,-2.503667E-2,1.5511009E-1,-1.2170285E-1,-1.7398914E-2,-1.3829595E-2,3.443503E-2,-1.1511515E-1,9.967386E-2,1.4755216E-1,1.4606223E0,-3.1300464E-1,-9.241225E-2,-6.7436076E-3,-2.1553124E-1,1.7791424E-2,-5.691594E-3,9.259662E-3,-1.5775175E-3,6.2290328E-3,-2.1951668E-2,2.391344E-2,6.490266E-2,1.382494E-2,-1.3251741E-2,6.304251E-3,-4.966473E-3,-4.3361937E-3,1.03958E-4,-2.326196E-3,-1.1686028E-2],"categories":[],"categories_nodes":[],"categories_segments":[],"categories_sizes":[],"default_left":[0,0,0,0,0,0,0,0,0,0,0,0,0,0,0,0,0,0,0,0,0,0,0,0,0,0,0,0,0,0,0,0,0,0,0,0,0,0,0,0,0],"id":25,"left_children":[1,3,5,7,9,11,13,-1,15,-1,-1,17,19,21,23,-1,-1,25,27,29,31,33,35,37,39,-1,-1,-1,-1,-1,-1,-1,-1,-1,-1,-1,-1,-1,-1,-1,-1],"loss_changes":[5.2316204E1,1.0236778E0,2.6426554E1,8.097496E-1,3.238506E0,1.7713018E1,1.037933E1,0E0,1.8452369E0,0E0,0E0,9.823753E0,1.4157566E1,6.593254E0,1.045602E1,0E0,0E0,7.7867107E0,6.7362204E0,8.335066E0,1.8579292E-1,1.9997082E0,8.16648E0,4.4658084E0,3.0308332E0,0E0,0E0,0E0,0E0,0E0,0E0,0E0,0E0,0E0,0E0,0E0,0E0,0E0,0E0,0E0,0E0],"parents":[2147483647,0,0,1,1,2,2,3,3,4,4,5,5,6,6,8,8,11,11,12,12,13,13,14,14,17,17,18,18,19,19,20,20,21,21,22,22,23,23,24,24],"right_children":[2,4,6,8,10,12,14,-1,16,-1,-1,18,20,22,24,-1,-1,26,28,30,32,34,36,38,40,-1,-1,-1,-1,-1,-1,-1,-1,-1,-1,-1,-1,-1,-1,-1,-1],"split_conditions":[-3.4984024E1,-1.89137E1,-2.4955723E0,2.6049683E1,9.1076845E-1,2.0903122E1,1.5587093E1,4.9109474E-2,4.661684E1,-1.6837688E-2,3.873998E-2,-7.6578083E0,9.448005E0,-1.980205E1,9.189573E0,-1.3829595E-2,3.443503E-2,-4.397119E1,-5.6681986E0,1.4701631E1,1.0013495E1,-4.917153E1,-1.4491097E1,-3.1913195E0,2.8046083E1,1.7791424E-2,-5.691594E-3,9.259662E-3,-1.5775175E-3,6.2290328E-3,-2.1951668E-2,2.391344E-2,6.490266E-2,1.382494E-2,-1.3251741E-2,6.304251E-3,-4.966473E-3,-4.3361937E-3,1.03958E-4,-2.326196E-3,-1.1686028E-2],"split_indices":[5,1,1,6,6,3,3,0,3,0,0,7,5,7,1,0,0,7,5,6,5,7,7,6,3,0,0,0,0,0,0,0,0,0,0,0,0,0,0,0,0],"split_type":[0,0,0,0,0,0,0,0,0,0,0,0,0,0,0,0,0,0,0,0,0,0,0,0,0,0,0,0,0,0,0,0,0,0,0,0,0,0,0,0,0],"sum_hessian":[8.504502E3,4.30985E1,8.461403E3,3.7130783E1,5.9677143E0,2.3281533E3,6.13325E3,3.2185825E1,4.9449596E0,1.7951571E0,4.172557E0,8.7246545E2,1.4556879E3,1.1808258E3,4.9524243E3,1.0996473E0,3.8453126E0,5.0661447E2,3.6585095E2,1.4484156E3,7.2722054E0,1.5550572E2,1.0253201E3,4.7006626E3,2.5176166E2,2.2738962E1,4.8387552E2,1.8750932E2,1.7834164E2,1.4323788E3,1.6036839E1,1.8907149E0,5.38149E0,3.7178783E0,1.5178784E2,1.1508621E2,9.102338E2,3.947356E2,4.3059272E3,8.301268E1,1.6874898E2],"tree_param":{"num_deleted":"0","num_feature":"8","num_nodes":"41","size_leaf_vector":"1"}},{"base_weights":[3.3205666E-3,-7.925751E-2,1.4634839E-1,-2.7952728E-1,-5.409306E-2,2.93294E-1,6.088188E-2,-6.0239935E-1,-2.4272051E-1,-1.8413179E-1,-2.7645731E-2,-3.8357708E-1,3.1924114E-1,3.1298402E-1,2.5568847E-2,-2.531798E-1,-2.5113394E-2,-1.4708868E-1,-3.203396E-1,-4.31226E-1,-1.5750603E-1,-2.9662542E-2,4.9027238E-2,-6.095077E-1,2.4088511E-2,-5.1356226E-2,3.661471E-1,-2.904522E-1,3.799966E-1,1.1051517E-2,6.61955E-1,2.4153717E-2,-2.1564502E-2,-2.1788916E-2,-4.5073573E-3,-1.398998E-2,1.1789848E-3,-1.9570148E-2,2.8989723E-2,-2.9668978E-3,-8.325681E-3,-1.986472E-3,2.9978286E-3,-2.5478868E-2,-5.300265E-3,-1.7018616E-2,1.806869E-2,1.1377028E-2,-8.6568305E-3,8.206805E-3,1.8336184E-2,3.86954E-2,-1.5237351E-2,1.778138E-2,-1.3561336E-2,-7.747405E-3,1.521646E-3,3.3903323E-2,-7.420917E-3],"categories":[],"categories_nodes":[],"categories_segments":[],"categories_sizes":[],"default_left":[0,0,0,0,0,0,0,0,0,0,0,0,0,0,0,0,0,0,0,0,0,0,0,0,0,0,0,0,0,0,0,0,0,0,0,0,0,0,0,0,0,0,0,0,0,0,0,0,0,0,0,0,0,0,0,0,0,0,0],"id":26,"left_children":[1,3,5,7,9,11,13,15,17,19,21,23,25,27,29,31,-1,33,35,37,39,41,-1,43,45,47,49,51,53,55,57,-1,-1,-1,-1,-1,-1,-1,-1,-1,-1,-1,-1,-1,-1,-1,-1,-1,-1,-1,-1,-1,-1,-1,-1,-1,-1,-1,-1],"loss_changes":[1.17614075E2,3.1801105E1,4.575837E1,8.225681E0,1.9287561E1,2.3658577E1,2.0519424E1,4.7539902E-1,4.6594124E0,6.1683846E0,1.1822553E1,4.613373E0,2.2463638E1,1.1562851E1,1.8687925E1,1.9243014E0,0E0,3.850111E0,3.6022835E0,6.500988E0,3.601963E0,9.74502E0,0E0,3.3694744E-1,3.7998033E0,8.150335E0,1.6929123E1,3.6547313E0,1.1999592E1,1.0945508E1,7.254698E0,0E0,0E0,0E0,0E0,0E0,0E0,0E0,0E0,0E0,0E0,0E0,0E0,0E0,0E0,0E0,0E0,0E0,0E0,0E0,0E0,0E0,0E0,0E0,0E0,0E0,0E0,0E0,0E0],"parents":[2147483647,0,0,1,1,2,2,3,3,4,4,5,5,6,6,7,7,8,8,9,9,10,10,11,11,12,12,13,13,14,14,15,15,17,17,18,18,19,19,20,20,21,21,23,23,24,24,25,25,26,26,27,27,28,28,29,29,30,30],"right_children":[2,4,6,8,10,12,14,16,18,20,22,24,26,28,30,32,-1,34,36,38,40,42,-1,44,46,48,50,52,54,56,58,-1,-1,-1,-1,-1,-1,-1,-1,-1,-1,-1,-1,-1,-1,-1,-1,-1,-1,-1,-1,-1,-1,-1,-1,-1,-1,-1,-1],"split_conditions":[1.0166379E0,7.7983165E-1,-1.0122813E0,6.3709146E-1,5.0983787E-1,2.3510948E1,1.6084328E1,-1.18667E1,-1.8174538E-2,1.972619E-1,8.143058E1,-2.4294428E1,5.240114E-1,-2.4947464E0,4.2818886E1,-8.409033E-1,-2.5113394E-2,1.1498375E1,5.6700787E1,2.430666E0,-3.5469922E-1,3.1032377E1,4.9027238E-2,2.072256E1,3.3397858E1,-9.29461E0,-1.743972E-1,1.0733703E1,2.145546E0,5.0137325E1,1.560863E0,2.4153717E-2,-2.1564502E-2,-2.1788916E-2,-4.5073573E-3,-1.398998E-2,1.1789848E-3,-1.9570148E-2,2.8989723E-2,-2.9668978E-3,-8.325681E-3,-1.986472E-3,2.9978286E-3,-2.5478868E-2,-5.300265E-3,-1.7018616E-2,1.806869E-2,1.1377028E-2,-8.6568305E-3,