{"learner":{"attributes":{"best_iteration":"35","best_score":"0.6853696059346706","scikit_learn":"{\"_estimator_type\": \"classifier\"}"},"feature_names":["Feature_RSI","Feature_EMA_Dist","Feature_Volume_Ratio","Feature_Delivery_Ratio","Feature_ADX_14","Feature_ATR_Ratio","Feature_ROC_20","Feature_MACD_Hist_Accel","Feature_Close_Strength","Feature_Relative_Strength"],"feature_types":["float","float","float","float","float","float","float","float","float","float"],"gradient_booster":{"model":{"cats":{"enc":[],"feature_segments":[],"sorted_idx":[]},"gbtree_model_param":{"num_parallel_tree":"1","num_trees":"56"},"iteration_indptr":[0,1,2,3,4,5,6,7,8,9,10,11,12,13,14,15,16,17,18,19,20,21,22,23,24,25,26,27,28,29,30,31,32,33,34,35,36,37,38,39,40,41,42,43,44,45,46,47,48,49,50,51,52,53,54,55,56],"tree_info":[0,0,0,0,0,0,0,0,0,0,0,0,0,0,0,0,0,0,0,0,0,0,0,0,0,0,0,0,0,0,0,0,0,0,0,0,0,0,0,0,0,0,0,0,0,0,0,0,0,0,0,0,0,0,0,0],"trees":[{"base_weights":[-1.0740828E-2,4.6099183E-1,-1.8166618E-1,-1.4684717E-1,6.2459224E-1,-2.300233E-1,9.354943E-1,-1.545336E-2,3.475862E-2,8.109312E-3,3.497803E-2,4.352386E-2,-1.0821952E-2,2.3608744E-2,5.612641E-2],"categories":[],"categories_nodes":[],"categories_segments":[],"categories_sizes":[],"default_left":[0,0,0,0,0,0,0,0,0,0,0,0,0,0,0],"id":0,"left_children":[1,3,5,7,9,11,13,-1,-1,-1,-1,-1,-1,-1,-1],"loss_changes":[3.2778244E2,1.0761076E2,1.614165E2,5.631419E1,8.963962E1,1.5311935E2,1.9194756E1,0E0,0E0,0E0,0E0,0E0,0E0,0E0,0E0],"parents":[2147483647,0,0,1,1,2,2,3,3,4,4,5,5,6,6],"right_children":[2,4,6,8,10,12,14,-1,-1,-1,-1,-1,-1,-1,-1],"split_conditions":[-3.9157116E0,8.3505756E-1,8.967224E0,4.5321144E1,2.3801376E1,-4.4279175E1,2.6069004E1,-1.545336E-2,3.475862E-2,8.109312E-3,3.497803E-2,4.352386E-2,-1.0821952E-2,2.3608744E-2,5.612641E-2],"split_indices":[1,5,1,4,4,9,6,0,0,0,0,0,0,0,0],"split_type":[0,0,0,0,0,0,0,0,0,0,0,0,0,0,0],"sum_hessian":[4.0631736E3,1.0802158E3,2.9829578E3,2.2910487E2,8.5111096E2,2.8599565E3,1.2300121E2,1.8589755E2,4.3207317E1,3.1726096E2,5.3385E2,8.453536E1,2.7754214E3,7.2060974E1,5.0940243E1],"tree_param":{"num_deleted":"0","num_feature":"10","num_nodes":"15","size_leaf_vector":"1"}},{"base_weights":[-1.1285668E-2,5.032679E-1,-1.7696364E-1,-2.8772593E-1,6.983652E-1,-3.0758062E-1,2.7959573E-1,-1.440924E-2,6.435849E-2,3.7347894E-2,1.3065995E-2,3.6463764E-2,-1.3990205E-2,3.203502E-2,8.904E-4],"categories":[],"categories_nodes":[],"categories_segments":[],"categories_sizes":[],"default_left":[0,0,0,0,0,0,0,0,0,0,0,0,0,0,0],"id":1,"left_children":[1,3,5,7,9,11,13,-1,-1,-1,-1,-1,-1,-1,-1],"loss_changes":[3.4989426E2,1.5446913E2,1.8522806E2,2.7875849E1,6.9866E1,1.2446652E2,9.269495E1,0E0,0E0,0E0,0E0,0E0,0E0,0E0,0E0],"parents":[2147483647,0,0,1,1,2,2,3,3,4,4,5,5,6,6],"right_children":[2,4,6,8,10,12,14,-1,-1,-1,-1,-1,-1,-1,-1],"split_conditions":[-8.708756E0,8.3119535E-1,1.0522668E0,1.7052985E0,-1.8931154E1,-4.4279175E1,-4.2397013E-1,-1.440924E-2,6.435849E-2,3.7347894E-2,1.3065995E-2,3.6463764E-2,-1.3990205E-2,3.203502E-2,8.904E-4],"split_indices":[6,5,5,9,9,9,6,0,0,0,0,0,0,0,0],"split_type":[0,0,0,0,0,0,0,0,0,0,0,0,0,0,0],"sum_hessian":[4.102278E3,9.986592E2,3.1036184E3,1.9748999E2,8.011692E2,2.4134744E3,6.9014404E2,1.9099872E2,6.4912734E0,4.8965677E2,3.1151245E2,8.000773E1,2.3334666E3,2.2739745E2,4.627466E2],"tree_param":{"num_deleted":"0","num_feature":"10","num_nodes":"15","size_leaf_vector":"1"}},{"base_weights":[2.6337357E-2,5.0766087E-1,-1.0234167E-1,2.8512946E-3,6.837079E-1,-2.2615227E-1,2.5302517E-1,2.2462862E-2,-1.42296E-2,3.7220117E-2,1.1907515E-2,3.8719226E-2,-1.0865034E-2,2.8488437E-2,7.411357E-4],"categories":[],"categories_nodes":[],"categories_segments":[],"categories_sizes":[],"default_left":[0,0,0,0,0,0,0,0,0,0,0,0,0,0,0],"id":2,"left_children":[1,3,5,7,9,11,13,-1,-1,-1,-1,-1,-1,-1,-1],"loss_changes":[2.552475E2,7.725624E1,1.4313744E2,4.5436512E1,6.112796E1,1.3125116E2,9.051325E1,0E0,0E0,0E0,0E0,0E0,0E0,0E0,0E0],"parents":[2147483647,0,0,1,1,2,2,3,3,4,4,5,5,6,6],"right_children":[2,4,6,8,10,12,14,-1,-1,-1,-1,-1,-1,-1,-1],"split_conditions":[-9.49307E0,8.545797E-1,1.0269074E0,-6.20113E-2,-1.9223677E1,-4.4279175E1,-1.61203E0,2.2462862E-2,-1.42296E-2,3.7220117E-2,1.1907515E-2,3.8719226E-2,-1.0865034E-2,2.8488437E-2,7.411357E-4],"split_indices":[6,5,5,7,9,9,6,0,0,0,0,0,0,0,0],"split_type":[0,0,0,0,0,0,0,0,0,0,0,0,0,0,0],"sum_hessian":[4.1192944E3,8.6833704E2,3.2509573E3,2.2478607E2,6.43551E2,2.4112397E3,8.397177E2,8.765108E1,1.37135E2,3.9170856E2,2.5184244E2,8.7709435E1,2.3235303E3,2.8317477E2,5.5654297E2],"tree_param":{"num_deleted":"0","num_feature":"10","num_nodes":"15","size_leaf_vector":"1"}},{"base_weights":[-7.3680785E-3,-2.3714063E-1,3.0939382E-1,-3.7070978E-1,2.2736333E-1,4.824299E-1,-2.8744927E-2,6.953772E-3,-1.7557403E-2,2.5999354E-2,-1.5240788E-2,7.503842E-3,2.763956E-2,-1.0075868E-2,3.505126E-2],"categories":[],"categories_nodes":[],"categories_segments":[],"categories_sizes":[],"default_left":[0,0,0,0,0,0,0,0,0,0,0,0,0,0,0],"id":3,"left_children":[1,3,5,7,9,11,13,-1,-1,-1,-1,-1,-1,-1,-1],"loss_changes":[2.9799316E2,1.4730971E2,1.00727875E2,6.856178E1,1.3666653E2,6.98887E1,1.1808714E2,0E0,0E0,0E0,0E0,0E0,0E0,0E0,0E0],"parents":[2147483647,0,0,1,1,2,2,3,3,4,4,5,5,6,6],"right_children":[2,4,6,8,10,12,14,-1,-1,-1,-1,-1,-1,-1,-1],"split_conditions":[2.55626E1,1.0269074E0,1.4322438E0,3.258181E1,-4.2397013E-1,8.8140315E-1,4.2637787E1,6.953772E-3,-1.7557403E-2,2.5999354E-2,-1.5240788E-2,7.503842E-3,2.763956E-2,-1.0075868E-2,3.505126E-2],"split_indices":[4,5,6,0,6,5,4,0,0,0,0,0,0,0,0],"split_type":[0,0,0,0,0,0,0,0,0,0,0,0,0,0,0],"sum_hessian":[4.0922498E3,2.3719426E3,1.7203069E3,1.8423678E3,5.2957495E2,1.1376893E3,5.8261755E2,2.0495227E2,1.6374155E3,3.124556E2,2.1711937E2,4.7213937E2,6.6555E2,4.679557E2,1.1466186E2],"tree_param":{"num_deleted":"0","num_feature":"10","num_nodes":"15","size_leaf_vector":"1"}},{"base_weights":[2.8328728E-2,-2.1379884E-1,3.1460598E-1,1.0775043E-1,-2.8937083E-1,5.1105624E-1,-3.7751015E-2,8.7358365E-3,-3.1797208E-2,-1.6789448E-2,2.8029415E-3,4.2071722E-2,1.7457983E-2,-1.2974748E-2,2.5301456E-2],"categories":[],"categories_nodes":[],"categories_segments":[],"categories_sizes":[],"default_left":[0,0,0,0,0,0,0,0,0,0,0,0,0,0,0],"id":4,"left_children":[1,3,5,7,9,11,13,-1,-1,-1,-1,-1,-1,-1,-1],"loss_changes":[2.8600473E2,5.4354233E1,1.3089108E2,4.2735867E1,8.48613E1,4.8514496E1,1.3040323E2,0E0,0E0,0E0,0E0,0E0,0E0,0E0,0E0],"parents":[2147483647,0,0,1,1,2,2,3,3,4,4,5,5,6,6],"right_children":[2,4,6,8,10,12,14,-1,-1,-1,-1,-1,-1,-1,-1],"split_conditions":[2.476413E1,-3.962809E0,-7.167657E-2,1.4065814E0,3.1125793E-1,-8.68614E0,6.0740294E0,8.7358365E-3,-3.1797208E-2,-1.6789448E-2,2.8029415E-3,4.2071722E-2,1.7457983E-2,-1.2974748E-2,2.5301456E-2],"split_indices":[4,1,1,2,7,1,1,0,0,0,0,0,0,0,0],"split_type":[0,0,0,0,0,0,0,0,0,0,0,0,0,0,0],"sum_hessian":[4.124153E3,2.2345056E3,1.8896471E3,4.251444E2,1.8093613E3,1.2129425E3,6.767045E2,3.79398E2,4.5746403E1,1.3276675E3,4.8169373E2,1.4547383E2,1.0674686E3,4.7437564E2,2.0232892E2],"tree_param":{"num_deleted":"0","num_feature":"10","num_nodes":"15","size_leaf_vector":"1"}},{"base_weights":[-3.041745E-2,-2.493127E-1,2.6921526E-1,-3.689588E-1,1.8756352E-1,4.6440148E-1,-7.664935E-2,8.989731E-5,-1.966542E-2,-1.473579E-2,1.7366527E-2,2.550567E-2,7.379549E-3,-9.463514E-3,3.170481E-2],"categories":[],"categories_nodes":[],"categories_segments":[],"categories_sizes":[],"default_left":[0,0,0,0,0,0,0,0,0,0,0,0,0,0,0],"id":5,"left_children":[1,3,5,7,9,11,13,-1,-1,-1,-1,-1,-1,-1,-1],"loss_changes":[2.6643915E2,1.22765976E2,1.1580782E2,8.392946E1,6.9438194E1,5.3049637E1,8.6320564E1,0E0,0E0,0E0,0E0,0E0,0E0,0E0,0E0],"parents":[2147483647,0,0,1,1,2,2,3,3,4,4,5,5,6,6],"right_children":[2,4,6,8,10,12,14,-1,-1,-1,-1,-1,-1,-1,-1],"split_conditions":[2.55626E1,1.031675E0,-1.07275195E-1,-3.4387279E0,7.076168E-1,-1.8772537E1,8.967224E0,8.989731E-5,-1.966542E-2,-1.473579E-2,1.7366527E-2,2.550567E-2,7.379549E-3,-9.463514E-3,3.170481E-2],"split_indices":[4,5,1,1,2,9,1,0,0,0,0,0,0,0,0],"split_type":[0,0,0,0,0,0,0,0,0,0,0,0,0,0,0],"sum_hessian":[4.060281E3,2.3463408E3,1.7139403E3,1.8420258E3,5.0431512E2,1.0954104E3,6.1852985E2,4.5778882E2,1.3842369E3,1.5480768E2,3.4950745E2,6.75846E2,4.1956445E2,5.230253E2,9.5504555E1],"tree_param":{"num_deleted":"0","num_feature":"10","num_nodes":"15","size_leaf_vector":"1"}},{"base_weights":[3.2468453E-2,-1.7584129E-1,3.161796E-1,-3.1929287E-1,1.0139166E-1,4.963195E-1,-7.746651E-3,9.363362E-3,-1.8912941E-2,1.1546401E-2,-1.2259853E-2,3.9894838E-2,1.6990887E-2,-2.5123095E-2,1.0322125E-2],"categories":[],"categories_nodes":[],"categories_segments":[],"categories_sizes":[],"default_left":[0,0,0,0,0,0,0,0,0,0,0,0,0,0,0],"id":6,"left_children":[1,3,5,7,9,11,13,-1,-1,-1,-1,-1,-1,-1,-1],"loss_changes":[2.4408737E2,9.47478E1,1.0203467E2,1.3347563E2,6.2179726E1,3.9858765E1,1.0335725E2,0E0,0E0,0E0,0E0,0E0,0E0,0E0,0E0],"parents":[2147483647,0,0,1,1,2,2,3,3,4,4,5,5,6,6],"right_children":[2,4,6,8,10,12,14,-1,-1,-1,-1,-1,-1,-1,-1],"split_conditions":[2.55626E1,-5.1933374E0,6.534168E-1,-4.3418474E0,2.308714E0,-8.68614E0,2.984519E1,9.363362E-3,-1.8912941E-2,1.1546401E-2,-1.2259853E-2,3.9894838E-2,1.6990887E-2,-2.5123095E-2,1.0322125E-2],"split_indices":[4,9,6,1,6,1,4,0,0,0,0,0,0,0,0],"split_type":[0,0,0,0,0,0,0,0,0,0,0,0,0,0,0],"sum_hessian":[4.128148E3,2.3806094E3,1.7475388E3,1.5687319E3,8.118774E2,1.1226726E3,6.2486615E2,3.405932E2,1.2281387E3,5.566172E2,2.5526021E2,1.3866324E2,9.840094E2,1.8702325E2,4.3784293E2],"tree_param":{"num_deleted":"0","num_feature":"10","num_nodes":"15","size_leaf_vector":"1"}},{"base_weights":[2.6042467E-2,4.3028027E-1,-1.26182E-1,-1.4131537E-1,5.546074E-1,-2.5630298E-1,2.306259E-1,-5.8984093E-2,-1.605257E-3,2.8653601E-2,1.0666824E-2,3.6296777E-2,-1.19902E-2,5.5928953E-2,6.6381725E-3],"categories":[],"categories_nodes":[],"categories_segments":[],"categories_sizes":[],"default_left":[0,0,0,0,0,0,0,0,0,0,0,0,0,0,0],"id":7,"left_children":[1,3,5,7,9,11,13,-1,-1,-1,-1,-1,-1,-1,-1],"loss_changes":[2.5462807E2,8.0520355E1,1.396275E2,2.7329823E1,4.3114716E1,1.11682724E2,6.0466503E1,0E0,0E0,0E0,0E0,0E0,0E0,0E0,0E0],"parents":[2147483647,0,0,1,1,2,2,3,3,4,4,5,5,6,6],"right_children":[2,4,6,8,10,12,14,-1,-1,-1,-1,-1,-1,-1,-1],"split_conditions":[-3.9157116E0,8.1705004E-1,1.0269074E0,2.463483E-1,-1.6558088E1,-4.4279175E1,-3.334396E1,-5.8984093E-2,-1.605257E-3,2.8653601E-2,1.0666824E-2,3.6296777E-2,-1.19902E-2,5.5928953E-2,6.6381725E-3],"split_indices":[1,5,5,5,9,9,9,0,0,0,0,0,0,0,0],"split_type":[0,0,0,0,0,0,0,0,0,0,0,0,0,0,0],"sum_hessian":[4.1360645E3,1.1309521E3,3.0051125E3,2.0202101E2,9.289311E2,2.202269E3,8.028435E2,1.329261E1,1.887284E2,5.938696E2,3.350615E2,7.855458E1,2.1237144E3,4.1052387E1,7.617911E2],"tree_param":{"num_deleted":"0","num_feature":"10","num_nodes":"15","size_leaf_vector":"1"}},{"base_weights":[-1.2852985E-2,-2.4769013E-1,2.61538E-1,-3.6979765E-1,7.386603E-2,6.741853E-1,1.24225706E-1,-1.7675113E-2,1.5348375E-2,1.1051504E-2,-1.8489683E-2,-5.2517124E-2,2.8952377E-2,2.9381146E-3,4.7424514E-2],"categories":[],"categories_nodes":[],"categories_segments":[],"categories_sizes":[],"default_left":[0,0,0,0,0,0,0,0,0,0,0,0,0,0,0],"id":8,"left_children":[1,3,5,7,9,11,13,-1,-1,-1,-1,-1,-1,-1,-1],"loss_changes":[2.6313776E2,8.642415E1,1.0662367E2,8.679584E1,6.593797E1,4.729416E1,7.61272E1,0E0,0E0,0E0,0E0,0E0,0E0,0E0,0E0],"parents":[2147483647,0,0,1,1,2,2,3,3,4,4,5,5,6,6],"right_children":[2,4,6,8,10,12,14,-1,-1,-1,-1,-1,-1,-1,-1],"split_conditions":[2.476413E1,-2.104065E0,-5.447077E0,1.1028198E0,3.314394E0,2.463483E-1,2.6069004E1,-1.7675113E-2,1.5348375E-2,1.1051504E-2,-1.8489683E-2,-5.2517124E-2,2.8952377E-2,2.9381146E-3,4.7424514E-2],"split_indices":[4,9,1,5,6,5,6,0,0,0,0,0,0,0,0],"split_type":[0,0,0,0,0,0,0,0,0,0,0,0,0,0,0],"sum_hessian":[4.0816265E3,2.199384E3,1.8822424E3,1.5939489E3,6.054352E2,4.6897653E2,1.4132659E3,1.4551622E3,1.3878662E2,4.398449E2,1.6559026E2,1.080614E1,4.5817038E2,1.3497672E3,6.3498672E1],"tree_param":{"num_deleted":"0","num_feature":"10","num_nodes":"15","size_leaf_vector":"1"}},{"base_weights":[2.6290929E-2,4.2990273E-1,-8.022815E-2,-7.046896E-2,5.962941E-1,-1.7426904E-1,2.665349E-1,1.5656443E-2,-1.788236E-2,3.3502374E-2,8.957531E-3,3.3655472E-2,-8.3527E-3,2.8342947E-2,1.4510533E-3],"categories":[],"categories_nodes":[],"categories_segments":[],"categories_sizes":[],"default_left":[0,0,0,0,0,0,0,0,0,0,0,0,0,0,0],"id":9,"left_children":[1,3,5,7,9,11,13,-1,-1,-1,-1,-1,-1,-1,-1],"loss_changes":[1.7692885E2,7.1585724E1,1.06232376E2,3.7630238E1,5.775444E1,9.0080414E1,7.0721924E1,0E0,0E0,0E0,0E0,0E0,0E0,0E0,0E0],"parents":[2147483647,0,0,1,1,2,2,3,3,4,4,5,5,6,6],"right_children":[2,4,6,8,10,12,14,-1,-1,-1,-1,-1,-1,-1,-1],"split_conditions":[-9.49307E0,8.510484E-1,1.0544764E0,-2.3021339E-2,-1.9223677E1,-4.4279175E1,-4.2397013E-1,1.5656443E-2,-1.788236E-2,3.3502374E-2,8.957531E-3,3.3655472E-2,-8.3527E-3,2.8342947E-2,1.4510533E-3],"split_indices":[6,5,5,7,9,9,6,0,0,0,0,0,0,0,0],"split_type":[0,0,0,0,0,0,0,0,0,0,0,0,0,0,0],"sum_hessian":[4.1135537E3,8.5830634E2,3.2552476E3,2.1433504E2,6.439713E2,2.5611658E3,6.940816E2,9.624866E1,1.1808638E2,3.9001474E2,2.5395654E2,8.348614E1,2.4776797E3,2.3700809E2,4.5707352E2],"tree_param":{"num_deleted":"0","num_feature":"10","num_nodes":"15","size_leaf_vector":"1"}},{"base_weights":[1.9423933E-3,-1.2427102E-1,3.4826717E-1,2.2180209E-1,-2.1870092E-1,2.3383345E-1,7.526303E-1,-3.999015E-2,1.2139019E-2,-1.4034791E-2,5.5532167E-3,1.8082717E-2,-1.8825687E-2,-7.037601E-2,3.265329E-2],"categories":[],"categories_nodes":[],"categories_segments":[],"categories_sizes":[],"default_left":[0,0,0,0,0,0,0,0,0,0,0,0,0,0,0],"id":10,"left_children":[1,3,5,7,9,11,13,-1,-1,-1,-1,-1,-1,-1,-1],"loss_changes":[1.7786993E2,9.7511375E1,5.0116974E1,6.413762E1,1.10792E2,1.3067601E2,3.9727463E1,0E0,0E0,0E0,0E0,0E0,0E0,0E0,0E0],"parents":[2147483647,0,0,1,1,2,2,3,3,4,4,5,5,6,6],"right_children":[2,4,6,8,10,12,14,-1,-1,-1,-1,-1,-1,-1,-1],"split_conditions":[3.0123428E1,-4.0740786E0,1.0907878E0,7.613268E-1,3.1809947E-1,-9.376944E0,4.1834322E-1,-3.999015E-2,1.2139019E-2,-1.4034791E-2,5.5532167E-3,1.8082717E-2,-1.8825687E-2,-7.037601E-2,3.265329E-2],"split_indices":[4,1,5,5,7,9,3,0,0,0,0,0,0,0,0],"split_type":[0,0,0,0,0,0,0,0,0,0,0,0,0,0,0],"sum_hessian":[4.0672517E3,2.981372E3,1.0858798E3,6.3882263E2,2.3425493E3,8.475918E2,2.3828801E2,3.933056E1,5.9949207E2,1.7103147E3,6.322347E2,6.473974E2,2.0019435E2,5.234909E0,2.330531E2],"tree_param":{"num_deleted":"0","num_feature":"10","num_nodes":"15","size_leaf_vector":"1"}},{"base_weights":[-1.9960145E-2,4.7265846E-1,-1.164895E-1,7.068673E-2,6.3654524E-1,-1.4708854E-1,7.416137E-1,1.49743045E-2,-2.229838E-2,-4.9845234E-2,2.7263833E-2,-6.1108156E-5,-1.1868191E-2,-6.140936E-2,3.21983E-2],"categories":[],"categories_nodes":[],"categories_segments":[],"categories_sizes":[],"default_left":[0,0,0,0,0,0,0,0,0,0,0,0,0,0,0],"id":11,"left_children":[1,3,5,7,9,11,13,-1,-1,-1,-1,-1,-1,-1,-1],"loss_changes":[1.9140405E2,4.3402084E1,8.8476746E1,3.685847E1,4.0574905E1,7.078824E1,1.7971962E1,0E0,0E0,0E0,0E0,0E0,0E0,0E0,0E0],"parents":[2147483647,0,0,1,1,2,2,3,3,4,4,5,5,6,6],"right_children":[2,4,6,8,10,12,14,-1,-1,-1,-1,-1,-1,-1,-1],"split_conditions":[-5.447077E0,2.3801376E1,8.967224E0,-1.5215134E1,2.463483E-1,-1.8237976E0,-7.2598135E-1,1.49743045E-2,-2.229838E-2,-4.9845234E-2,2.7263833E-2,-6.1108156E-5,-1.1868191E-2,-6.140936E-2,3.21983E-2],"split_indices":[1,4,1,9,5,6,7,0,0,0,0,0,0,0,0],"split_type":[0,0,0,0,0,0,0,0,0,0,0,0,0,0,0],"sum_hessian":[4.0229814E3,6.5850977E2,3.3644717E3,1.9113544E2,4.6737433E2,3.249429E3,1.15042595E2,1.2911845E2,6.2016975E1,1.029941E1,4.5707492E2,1.6475482E3,1.6018809E3,2.4849892E0,1.125576E2],"tree_param":{"num_deleted":"0","num_feature":"10","num_nodes":"15","size_leaf_vector":"1"}},{"base_weights":[-2.5662486E-3,3.8169786E-1,-1.13855034E-1,7.993292E-1,2.8223515E-1,9.3823135E-1,-1.4723213E-1,3.611141E-2,4.8757023E-3,2.4337649E-4,1.6403794E-2,-6.082089E-2,5.2727297E-2,-1.0191135E-2,7.286996E-3],"categories":[],"categories_nodes":[],"categories_segments":[],"categories_sizes":[],"default_left":[0,0,0,0,0,0,0,0,0,0,0,0,0,0,0],"id":12,"left_children":[1,3,5,7,9,11,13,-1,-1,-1,-1,-1,-1,-1,-1],"loss_changes":[1.7408342E2,3.7748856E1,1.109825E2,1.2175758E1,2.6122124E1,9.280644E1,1.0846419E2,0E0,0E0,0E0,0E0,0E0,0E0,0E0,0E0],"parents":[2147483647,0,0,1,1,2,2,3,3,4,4,5,5,6,6],"right_children":[2,4,6,8,10,12,14,-1,-1,-1,-1,-1,-1,-1,-1],"split_conditions":[-9.134487E0,-8.68614E0,-4.4279175E1,2.8425732E1,2.4286232E1,4.5679935E1,3.1125793E-1,3.611141E-2,4.8757023E-3,2.4337649E-4,1.6403794E-2,-6.082089E-2,5.2727297E-2,-1.0191135E-2,7.286996E-3],"split_indices":[6,1,9,0,4,0,7,0,0,0,0,0,0,0,0],"split_type":[0,0,0,0,0,0,0,0,0,0,0,0,0,0,0],"sum_hessian":[4.0687502E3,9.1319385E2,3.1555564E3,1.7429878E2,7.388951E2,9.619711E1,3.0593591E3,1.5091835E2,2.3380434E1,2.3417426E2,5.047208E2,1.2473868E1,8.372325E1,2.3065374E3,7.5282184E2],"tree_param":{"num_deleted":"0","num_feature":"10","num_nodes":"15","size_leaf_vector":"1"}},{"base_weights":[5.214937E-3,-1.8747641E-1,2.3435381E-1,-2.9463905E-1,2.4277659E-1,3.8573524E-1,-6.351304E-2,1.927063E-3,-1.578271E-2,2.3074418E-2,-7.703677E-3,-2.9363558E-3,2.1284094E-2,-1.1573527E-2,3.1087702E-2],"categories":[],"categories_nodes":[],"categories_segments":[],"categories_sizes":[],"default_left":[0,0,0,0,0,0,0,0,0,0,0,0,0,0,0],"id":13,"left_children":[1,3,5,7,9,11,13,-1,-1,-1,-1,-1,-1,-1,-1],"loss_changes":[1.8025389E2,1.0231958E2,8.411377E1,6.0855255E1,6.450896E1,8.314342E1,1.1969003E2,0E0,0E0,0E0,0E0,0E0,0E0,0E0,0E0],"parents":[2147483647,0,0,1,1,2,2,3,3,4,4,5,5,6,6],"right_children":[2,4,6,8,10,12,14,-1,-1,-1,-1,-1,-1,-1,-1],"split_conditions":[2.476413E1,1.0393249E0,1.5331076E0,-7.2128577E0,-4.2397013E-1,8.339629E-1,4.156923E1,1.927063E-3,-1.578271E-2,2.3074418E-2,-7.703677E-3,-2.9363558E-3,2.1284094E-2,-1.1573527E-2,3.1087702E-2],"split_indices":[4,5,6,6,6,5,4,0,0,0,0,0,0,0,0],"split_type":[0,0,0,0,0,0,0,0,0,0,0,0,0,0,0],"sum_hessian":[4.080481E3,2.2166228E3,1.8638582E3,1.7748724E3,4.417503E2,1.2356056E3,6.282526E2,4.0071085E2,1.3741616E3,2.4976552E2,1.9198477E2,2.9879703E2,9.3680853E2,4.957446E2,1.32508E2],"tree_param":{"num_deleted":"0","num_feature":"10","num_nodes":"15","size_leaf_vector":"1"}},{"base_weights":[-3.265863E-3,3.107492E-1,-1.1951076E-1,-4.9378553E-1,3.759489E-1,-1.5879503E-1,7.924385E-1,1.2301051E-2,-4.5117598E-2,2.0277416E-2,8.9526764E-4,3.55276E-2,-7.7700918E-3,-6.0388524E-2,3.410266E-2],"categories":[],"categories_nodes":[],"categories_segments":[],"categories_sizes":[],"default_left":[0,0,0,0,0,0,0,0,0,0,0,0,0,0,0],"id":14,"left_children":[1,3,5,7,9,11,13,-1,-1,-1,-1,-1,-1,-1,-1],"loss_changes":[1.4870374E2,5.7919693E1,1.0663902E2,4.249385E1,4.7166748E1,1.0601752E2,1.8306633E1,0E0,0E0,0E0,0E0,0E0,0E0,0E0,0E0],"parents":[2147483647,0,0,1,1,2,2,3,3,4,4,5,5,6,6],"right_children":[2,4,6,8,10,12,14,-1,-1,-1,-1,-1,-1,-1,-1],"split_conditions":[-3.9157116E0,7.5858617E-1,8.967224E0,-6.307414E0,-1.4308563E1,-4.4279175E1,-8.1582046E-1,1.2301051E-2,-4.5117598E-2,2.0277416E-2,8.9526764E-4,3.55276E-2,-7.7700918E-3,-6.0388524E-2,3.410266E-2],"split_indices":[1,5,1,1,9,9,7,0,0,0,0,0,0,0,0],"split_type":[0,0,0,0,0,0,0,0,0,0,0,0,0,0,0],"sum_hessian":[4.0717622E3,1.0996307E3,2.9721313E3,8.194112E1,1.01768964E3,2.8501794E3,1.2195201E2,3.642715E1,4.5513966E1,7.422672E2,2.7542242E2,9.257477E1,2.7576047E3,2.4904559E0,1.19461555E2],"tree_param":{"num_deleted":"0","num_feature":"10","num_nodes":"15","size_leaf_vector":"1"}},{"base_weights":[1.2722015E-2,-9.6049346E-2,3.1189814E-1,4.0223245E-2,-2.7633893E-1,6.993603E-1,1.9538076E-1,-2.0478548E-2,8.788802E-3,5.3637985E-2,-1.3191901E-2,-6.35316E-2,2.9903416E-2,-4.426515E-2,1.0533871E-2],"categories":[],"categories_nodes":[],"categories_segments":[],"categories_sizes":[],"default_left":[0,0,0,0,0,0,0,0,0,0,0,0,0,0,0],"id":15,"left_children":[1,3,5,7,9,11,13,-1,-1,-1,-1,-1,-1,-1,-1],"loss_changes":[1.3245503E2,7.335127E1,4.885853E1,1.6870572E2,1.11554016E2,2.8825104E1,7.424809E1,0E0,0E0,0E0,0E0,0E0,0E0,0E0,0E0],"parents":[2147483647,0,0,1,1,2,2,3,3,4,4,5,5,6,6],"right_children":[2,4,6,8,10,12,14,-1,-1,-1,-1,-1,-1,-1,-1],"split_conditions":[3.0123428E1,-1.8237976E0,-6.107087E0,8.3119535E-1,-4.4279175E1,2.463483E-1,3.0314518E1,-2.0478548E-2,8.788802E-3,5.3637985E-2,-1.3191901E-2,-6.35316E-2,2.9903416E-2,-4.426515E-2,1.0533871E-2],"split_indices":[4,6,1,5,9,5,0,0,0,0,0,0,0,0,0],"split_type":[0,0,0,0,0,0,0,0,0,0,0,0,0,0,0],"sum_hessian":[4.0683845E3,2.984126E3,1.0842587E3,1.6999722E3,1.2841538E3,2.4951836E2,8.347403E2,4.1658313E2,1.283389E3,4.0318226E1,1.2438356E3,4.492099E0,2.4502626E2,4.0654236E1,7.9408606E2],"tree_param":{"num_deleted":"0","num_feature":"10","num_nodes":"15","size_leaf_vector":"1"}},{"base_weights":[1.036734E-3,-1.4890064E-1,2.1045317E-1,-2.6211306E-1,1.442494E-1,-7.305881E-2,3.7489274E-1,-5.0191395E-2,-9.4764745E-3,-1.8595632E-2,1.1014078E-2,1.2064278E-3,-3.7300542E-2,-1.1806412E-2,1.843157E-2],"categories":[],"categories_nodes":[],"categories_segments":[],"categories_sizes":[],"default_left":[0,0,0,0,0,0,0,0,0,0,0,0,0,0,0],"id":16,"left_children":[1,3,5,7,9,11,13,-1,-1,-1,-1,-1,-1,-1,-1],"loss_changes":[1.27074295E2,7.831053E1,7.8750435E1,4.2274353E1,5.265246E1,5.509244E1,6.165593E1,0E0,0E0,0E0,0E0,0E0,0E0,0E0,0E0],"parents":[2147483647,0,0,1,1,2,2,3,3,4,4,5,5,6,6],"right_children":[2,4,6,8,10,12,14,-1,-1,-1,-1,-1,-1,-1,-1],"split_conditions":[2.55626E1,9.998969E-1,8.927119E-1,6.5041786E-1,5.1790226E-1,1.9308368E0,-7.705646E-1,-5.0191395E-2,-9.4764745E-3,-1.8595632E-2,1.1014078E-2,1.2064278E-3,-3.7300542E-2,-1.1806412E-2,1.843157E-2],"split_indices":[4,5,5,5,2,1,7,0,0,0,0,0,0,0,0],"split_type":[0,0,0,0,0,0,0,0,0,0,0,0,0,0,0],"sum_hessian":[4.045038E3,2.3574482E3,1.68759E3,1.7007404E3,6.567078E2,6.197053E2,1.0678846E3,4.0900105E1,1.6598402E3,1.1585699E2,5.408508E2,5.54121E2,6.5584366E1,1.21064064E2,9.4682056E2],"tree_param":{"num_deleted":"0","num_feature":"10","num_nodes":"15","size_leaf_vector":"1"}},{"base_weights":[-2.3750244E-3,-1.0711431E-1,2.7492198E-1,4.8477855E-2,-3.1943294E-1,1.5372272E-1,7.010854E-1,-2.2158992E-2,6.828921E-3,1.7647129E-2,-1.5663542E-2,4.0669928E-4,1.7905768E-2,4.722151E-2,1.709112E-2],"categories":[],"categories_nodes":[],"categories_segments":[],"categories_sizes":[],"default_left":[0,0,0,0,0,0,0,0,0,0,0,0,0,0,0],"id":17,"left_children":[1,3,5,7,9,11,13,-1,-1,-1,-1,-1,-1,-1,-1],"loss_changes":[1.17059616E2,9.665757E1,5.6965714E1,1.2449273E2,6.8079765E1,3.634974E1,3.1578583E1,0E0,0E0,0E0,0E0,0E0,0E0,0E0,0E0],"parents":[2147483647,0,0,1,1,2,2,3,3,4,4,5,5,6,6],"right_children":[2,4,6,8,10,12,14,-1,-1,-1,-1,-1,-1,-1,-1],"split_conditions":[2.984519E1,-1.8237976E0,1.0907878E0,8.00824E-1,7.383524E-1,1.117474E0,2.423872E0,-2.2158992E-2,6.828921E-3,1.7647129E-2,-1.5663542E-2,4.0669928E-4,1.7905768E-2,4.722151E-2,1.709112E-2],"split_indices":[4,6,5,5,5,2,6,0,0,0,0,0,0,0,0],"split_type":[0,0,0,0,0,0,0,0,0,0,0,0,0,0,0],"sum_hessian":[4.0284246E3,2.924435E3,1.1039896E3,1.6881155E3,1.2363196E3,8.605992E2,2.4339047E2,2.8416287E2,1.4039526E3,1.06678566E2,1.129641E3,5.7889404E2,2.817051E2,8.7267876E1,1.561226E2],"tree_param":{"num_deleted":"0","num_feature":"10","num_nodes":"15","size_leaf_vector":"1"}},{"base_weights":[7.460691E-3,-1.04815185E-1,3.1086E-1,-1.9740118E-1,1.9097605E-1,6.42541E-1,2.147872E-1,6.6654105E-3,-1.3359743E-2,1.3627369E-3,2.0668672E-2,2.6709227E-2,-6.9657184E-2,-3.8764466E-2,1.083559E-2],"categories":[],"categories_nodes":[],"categories_segments":[],"categories_sizes":[],"default_left":[0,0,0,0,0,0,0,0,0,0,0,0,0,0,0],"id":18,"left_children":[1,3,5,7,9,11,13,-1,-1,-1,-1,-1,-1,-1,-1],"loss_changes":[1.3962228E2,8.19694E1,3.514003E1,1.1337863E2,3.646102E1,1.606453E1,5.7379723E1,0E0,0E0,0E0,0E0,0E0,0E0,0E0,0E0],"parents":[2147483647,0,0,1,1,2,2,3,3,4,4,5,5,6,6],"right_children":[2,4,6,8,10,12,14,-1,-1,-1,-1,-1,-1,-1,-1],"split_conditions":[3.0123428E1,3.1125793E-1,-6.107087E0,-3.962809E0,1.0178477E0,1.250863E0,3.0010958E1,6.6654105E-3,-1.3359743E-2,1.3627369E-3,2.0668672E-2,2.6709227E-2,-6.9657184E-2,-3.8764466E-2,1.083559E-2],"split_indices":[4,7,1,1,5,5,0,0,0,0,0,0,0,0,0],"split_type":[0,0,0,0,0,0,0,0,0,0,0,0,0,0,0],"sum_hessian":[4.0968145E3,2.9907227E3,1.1060916E3,2.278012E3,7.127108E2,2.4714886E2,8.5894275E2,6.214765E2,1.6565354E3,4.81756E2,2.3095477E2,2.4527711E2,1.8717594E0,3.8125675E1,8.208171E2],"tree_param":{"num_deleted":"0","num_feature":"10","num_nodes":"15","size_leaf_vector":"1"}},{"base_weights":[1.5911998E-2,3.3966032E-1,-1.03975736E-1,7.3088837E-1,2.64106E-1,-2.2021252E-1,1.9464302E-1,8.790045E-3,3.4323163E-2,5.1144413E-3,2.2947924E-2,4.5755625E-2,-1.09043205E-2,2.3436287E-2,2.1517947E-3],"categories":[],"categories_nodes":[],"categories_segments":[],"categories_sizes":[],"default_left":[0,0,0,0,0,0,0,0,0,0,0,0,0,0,0],"id":19,"left_children":[1,3,5,7,9,11,13,-1,-1,-1,-1,-1,-1,-1,-1],"loss_changes":[1.5788988E2,3.2301086E1,1.0308818E2,1.1342537E1,3.8856125E1,1.5307697E2,4.5836784E1,0E0,0E0,0E0,0E0,0E0,0E0,0E0,0E0],"parents":[2147483647,0,0,1,1,2,2,3,3,4,4,5,5,6,6],"right_children":[2,4,6,8,10,12,14,-1,-1,-1,-1,-1,-1,-1,-1],"split_conditions":[-3.9157116E0,-8.68614E0,3.2754406E-1,2.4869312E1,3.5469765E1,-4.4279175E1,-1.277214E0,8.790045E-3,3.4323163E-2,5.1144413E-3,2.2947924E-2,4.5755625E-2,-1.09043205E-2,2.3436287E-2,2.1517947E-3],"split_indices":[1,1,7,4,0,9,1,0,0,0,0,0,0,0,0],"split_type":[0,0,0,0,0,0,0,0,0,0,0,0,0,0,0],"sum_hessian":[4.0660068E3,1.098298E3,2.967709E3,1.7636874E2,9.2192926E2,2.136387E3,8.31322E2,3.5686066E1,1.4068266E2,6.4117474E2,2.8075452E2,7.82532E1,2.0581338E3,2.1921143E2,6.121106E2],"tree_param":{"num_deleted":"0","num_feature":"10","num_nodes":"15","size_leaf_vector":"1"}},{"base_weights":[1.5737494E-2,-1.3215405E-1,2.0563358E-1,-2.4451974E-1,2.3231281E-1,-2.6601547E-2,3.4260622E-1,-2.671414E-2,-7.756065E-3,-1.0069797E-2,1.737133E-2,3.4970082E-3,-4.2692326E-2,2.2555415E-2,4.830653E-3],"categories":[],"categories_nodes":[],"categories_segments":[],"categories_sizes":[],"default_left":[0,0,0,0,0,0,0,0,0,0,0,0,0,0,0],"id":20,"left_children":[1,3,5,7,9,11,13,-1,-1,-1,-1,-1,-1,-1,-1],"loss_changes":[1.1392693E2,9.345607E1,5.6505455E1,3.7234566E1,5.2701214E1,7.839444E1,5.4775284E1,0E0,0E0,0E0,0E0,0E0,0E0,0E0,0E0],"parents":[2147483647,0,0,1,1,2,2,3,3,4,4,5,5,6,6],"right_children":[2,4,6,8,10,12,14,-1,-1,-1,-1,-1,-1,-1,-1],"split_conditions":[2.511997E1,1.0217063E0,8.927119E-1,1.31166725E1,6.9039434E-1,1.9308368E0,-1.0483258E0,-2.671414E-2,-7.756065E-3,-1.0069797E-2,1.737133E-2,3.4970082E-3,-4.2692326E-2,2.2555415E-2,4.830653E-3],"split_indices":[4,5,5,4,2,1,1,0,0,0,0,0,0,0,0],"split_type":[0,0,0,0,0,0,0,0,0,0,0,0,0,0,0],"sum_hessian":[4.054678E3,2.2796135E3,1.7750646E3,1.7426736E3,5.369399E2,6.588313E2,1.1162333E3,1.8481543E2,1.5578582E3,1.5800548E2,3.789344E2,5.9459906E2,6.423224E1,5.580509E2,5.581823E2],"tree_param":{"num_deleted":"0","num_feature":"10","num_nodes":"15","size_leaf_vector":"1"}},{"base_weights":[-5.570439E-4,2.6478577E-1,-9.731131E-2,-5.948072E-1,3.336282E-1,-1.378744E-1,7.9233205E-1,-4.1095402E-2,1.3663577E-2,3.9499994E-2,1.1544691E-2,3.5313576E-2,-6.6502444E-3,3.8666487E-2,-1.2344468E-2],"categories":[],"categories_nodes":[],"categories_segments":[],"categories_sizes":[],"default_left":[0,0,0,0,0,0,0,0,0,0,0,0,0,0,0],"id":21,"left_children":[1,3,5,7,9,11,13,-1,-1,-1,-1,-1,-1,-1,-1],"loss_changes":[1.0403251E2,6.427307E1,1.07266174E2,3.3017628E1,2.9238365E1,8.244356E1,2.5178856E1,0E0,0E0,0E0,0E0,0E0,0E0,0E0,0E0],"parents":[2147483647,0,0,1,1,2,2,3,3,4,4,5,5,6,6],"right_children":[2,4,6,8,10,12,14,-1,-1,-1,-1,-1,-1,-1,-1],"split_conditions":[-3.9157116E0,7.613268E-1,8.967224E0,1.1720327E0,-1.1314895E1,-4.56337E1,3.514192E0,-4.1095402E-2,1.3663577E-2,3.9499994E-2,1.1544691E-2,3.5313576E-2,-6.6502444E-3,3.8666487E-2,-1.2344468E-2],"split_indices":[1,5,1,2,1,9,2,0,0,0,0,0,0,0,0],"split_type":[0,0,0,0,0,0,0,0,0,0,0,0,0,0,0],"sum_hessian":[4.0502036E3,1.0817719E3,2.9684316E3,7.9645645E1,1.00212616E3,2.8397969E3,1.2863487E2,5.441221E1,2.5233438E1,6.3192505E1,9.3893365E2,7.601201E1,2.763785E3,1.11155754E2,1.7479113E1],"tree_param":{"num_deleted":"0","num_feature":"10","num_nodes":"15","size_leaf_vector":"1"}},{"base_weights":[-1.3877604E-4,6.939591E-1,-3.157397E-2,9.532329E-2,8.1137675E-1,-4.9671527E-2,1.0288242E0,2.8465698E-2,-6.3493095E-2,4.7632102E-2,2.6321286E-2,-4.931668E-3,7.067947E-3,-2.3104312E-2,4.6393536E-2],"categories":[],"categories_nodes":[],"categories_segments":[],"categories_sizes":[],"default_left":[0,0,0,0,0,0,0,0,0,0,0,0,0,0,0],"id":22,"left_children":[1,3,5,7,9,11,13,-1,-1,-1,-1,-1,-1,-1,-1],"loss_changes":[8.790022E1,1.2191612E1,7.4012505E1,3.1987152E1,7.6990128E0,6.3189045E1,1.4290894E1,0E0,0E0,0E0,0E0,0E0,0E0,0E0,0E0],"parents":[2147483647,0,0,1,1,2,2,3,3,4,4,5,5,6,6],"right_children":[2,4,6,8,10,12,14,-1,-1,-1,-1,-1,-1,-1,-1],"split_conditions":[-8.68614E0,-3.8261524E1,2.6069004E1,1.0085157E0,-1.1314895E1,3.2754406E-1,-8.1582046E-1,2.8465698E-2,-6.3493095E-2,4.7632102E-2,2.6321286E-2,-4.931668E-3,7.067947E-3,-2.3104312E-2,4.6393536E-2],"split_indices":[1,9,6,3,1,7,7,0,0,0,0,0,0,0,0],"split_type":[0,0,0,0,0,0,0,0,0,0,0,0,0,0,0],"sum_hessian":[4.0265862E3,1.7354686E2,3.8530393E3,2.8755117E1,1.4479175E2,3.789321E3,6.3718273E1,2.1468672E1,7.2864466E0,3.972738E1,1.0506436E2,2.8597334E3,9.295877E2,4.547713E0,5.9170563E1],"tree_param":{"num_deleted":"0","num_feature":"10","num_nodes":"15","size_leaf_vector":"1"}},{"base_weights":[8.014808E-3,-8.38333E-2,2.62588E-1,-1.5662278E-1,3.5589245E-1,3.632803E-1,-1.4194804E-1,1.532542E-3,-1.1157129E-2,2.4238428E-2,-2.7042383E-2,8.156672E-3,2.749576E-2,-1.8511957E-2,3.724015E-2],"categories":[],"categories_nodes":[],"categories_segments":[],"categories_sizes":[],"default_left":[0,0,0,0,0,0,0,0,0,0,0,0,0,0,0],"id":23,"left_children":[1,3,5,7,9,11,13,-1,-1,-1,-1,-1,-1,-1,-1],"loss_changes":[9.476122E1,9.5382774E1,4.3820297E1,6.094995E1,1.0964399E2,4.4313522E1,7.440131E1,0E0,0E0,0E0,0E0,0E0,0E0,0E0,0E0],"parents":[2147483647,0,0,1,1,2,2,3,3,4,4,5,5,6,6],"right_children":[2,4,6,8,10,12,14,-1,-1,-1,-1,-1,-1,-1,-1],"split_conditions":[3.0321297E1,7.615855E0,-1.490041E-2,-5.2191286E0,7.054062E0,9.740032E-1,3.2940613E1,1.532542E-3,-1.1157129E-2,2.4238428E-2,-2.7042383E-2,8.156672E-3,2.749576E-2,-1.8511957E-2,3.724015E-2],"split_indices":[4,9,9,6,6,5,9,0,0,0,0,0,0,0,0],"split_type":[0,0,0,0,0,0,0,0,0,0,0,0,0,0,0],"sum_hessian":[4.0507898E3,2.97728E3,1.0735098E3,2.554987E3,4.2229294E2,8.5964026E2,2.1386949E2,9.852826E2,1.5697043E3,3.4025363E2,8.203932E1,5.7737823E2,2.8226202E2,1.6507487E2,4.879461E1],"tree_param":{"num_deleted":"0","num_feature":"10","num_nodes":"15","size_leaf_vector":"1"}},{"base_weights":[-7.832088E-3,2.5020283E-1,-1.0216706E-1,-4.600206E-1,3.214878E-1,7.966812E-1,-1.2843844E-1,-4.8082307E-2,-3.5239535E-3,1.9779297E-2,-3.8384853E-4,4.6420746E-2,-8.234463E-2,-8.65878E-3,6.529764E-3],"categories":[],"categories_nodes":[],"categories_segments":[],"categories_sizes":[],"default_left":[0,0,0,0,0,0,0,0,0,0,0,0,0,0,0],"id":24,"left_children":[1,3,5,7,9,11,13,-1,-1,-1,-1,-1,-1,-1,-1],"loss_changes":[9.789873E1,5.4660408E1,6.964735E1,2.711234E1,5.6083282E1,8.941742E1,7.35311E1,0E0,0E0,0E0,0E0,0E0,0E0,0E0,0E0],"parents":[2147483647,0,0,1,1,2,2,3,3,4,4,5,5,6,6],"right_children":[2,4,6,8,10,12,14,-1,-1,-1,-1,-1,-1,-1,-1],"split_conditions":[-3.9157116E0,7.7301335E-1,-4.4279175E1,2.6639122E1,-1.6668669E1,3.5520893E-1,4.2610025E-1,-4.8082307E-2,-3.5239535E-3,1.9779297E-2,-3.8384853E-4,4.6420746E-2,-8.234463E-2,-8.65878E-3,6.529764E-3],"split_indices":[1,5,9,4,9,7,7,0,0,0,0,0,0,0,0],"split_type":[0,0,0,0,0,0,0,0,0,0,0,0,0,0,0],"sum_hessian":[4.0197996E3,1.0757213E3,2.9440781E3,9.7624054E1,9.780972E2,8.277261E1,2.8613057E3,3.1848906E1,6.577515E1,6.4210016E2,3.3599707E2,7.394384E1,8.828771E0,2.1981516E3,6.6315393E2],"tree_param":{"num_deleted":"0","num_feature":"10","num_nodes":"15","size_leaf_vector":"1"}},{"base_weights":[1.5333595E-2,-1.3285343E-1,2.1642515E-1,-4.1123906E-1,-4.7991112E-2,3.2980236E-1,-6.444257E-3,-4.0948935E-2,4.2715098E-4,6.0956064E-3,-1.0785303E-2,4.4099363E-3,2.0361716E-2,-4.9654557E-3,3.872608E-2],"categories":[],"categories_nodes":[],"categories_segments":[],"categories_sizes":[],"default_left":[0,0,0,0,0,0,0,0,0,0,0,0,0,0,0],"id":25,"left_children":[1,3,5,7,9,11,13,-1,-1,-1,-1,-1,-1,-1,-1],"loss_changes":[1.205694E2,5.5013954E1,4.3377213E1,1.4061441E2,7.938143E1,4.4719467E1,6.6622894E1,0E0,0E0,0E0,0E0,0E0,0E0,0E0,0E0],"parents":[2147483647,0,0,1,1,2,2,3,3,4,4,5,5,6,6],"right_children":[2,4,6,8,10,12,14,-1,-1,-1,-1,-1,-1,-1,-1],"split_conditions":[2.55626E1,-2.0933678E1,1.4322438E0,8.2099426E-1,-1.8237976E0,8.909912E-1,2.6069004E1,-4.0948935E-2,4.2715098E-4,6.0956064E-3,-1.0785303E-2,4.4099363E-3,2.0361716E-2,-4.9654557E-3,3.872608E-2],"split_indices":[4,9,6,5,6,5,6,0,0,0,0,0,0,0,0],"split_type":[0,0,0,0,0,0,0,0,0,0,0,0,0,0,0],"sum_hessian":[4.0441023E3,2.3285227E3,1.7155797E3,5.430931E2,1.7854296E3,1.1367944E3,5.787852E2,2.2093811E2,3.2215497E2,9.378511E2,8.475784E2,5.116649E2,6.251296E2,5.1720074E2,6.158448E1],"tree_param":{"num_deleted":"0","num_feature":"10","num_nodes":"15","size_leaf_vector":"1"}},{"base_weights":[-1.6331824E-2,-1.5614854E-1,1.5526761E-1,-2.4528506E-1,1.7079856E-1,2.8619456E-1,-1.1628351E-1,3.4917753E-2,-1.1065527E-2,-6.178843E-3,2.2610743E-2,8.731112E-3,2.7234068E-2,-1.1426919E-2,2.4544874E-2],"categories":[],"categories_nodes":[],"categories_segments":[],"categories_sizes":[],"default_left":[0,0,0,0,0,0,0,0,0,0,0,0,0,0,0],"id":26,"left_children":[1,3,5,7,9,11,13,-1,-1,-1,-1,-1,-1,-1,-1],"loss_changes":[9.604445E1,6.4324554E1,6.393426E1,6.1023033E1,6.079375E1,3.2362846E1,7.25513E1,0E0,0E0,0E0,0E0,0E0,0E0,0E0,0E0],"parents":[2147483647,0,0,1,1,2,2,3,3,4,4,5,5,6,6],"right_children":[2,4,6,8,10,12,14,-1,-1,-1,-1,-1,-1,-1,-1],"split_conditions":[2.476413E1,8.5603434E-1,1.5331076E0,-4.56337E1,9.916501E-1,7.989324E-1,4.2191772E1,3.4917753E-2,-1.1065527E-2,-6.178843E-3,2.2610743E-2,8.731112E-3,2.7234068E-2,-1.1426919E-2,2.4544874E-2],"split_indices":[4,9,6,9,2,8,4,0,0,0,0,0,0,0,0],"split_type":[0,0,0,0,0,0,0,0,0,0,0,0,0,0,0],"sum_hessian":[4.0010981E3,2.2047722E3,1.796326E3,1.7326456E3,4.721264E2,1.211941E3,5.84385E2,4.6523216E1,1.6861224E3,2.590933E2,2.1303311E2,1.0353246E3,1.766165E2,4.7480533E2,1.09579666E2],"tree_param":{"num_deleted":"0","num_feature":"10","num_nodes":"15","size_leaf_vector":"1"}},{"base_weights":[3.3940874E-2,-4.6784453E-2,2.4576636E-1,-1.6079313E-1,1.7638683E-1,1.8310134E-1,7.1946883E-1,-6.091263E-4,-1.769646E-2,1.138301E-2,-1.7430251E-2,1.197087E-2,-2.0106638E-2,-6.299065E-2,3.1014277E-2],"categories":[],"categories_nodes":[],"categories_segments":[],"categories_sizes":[],"default_left":[0,0,0,0,0,0,0,0,0,0,0,0,0,0,0],"id":27,"left_children":[1,3,5,7,9,11,13,-1,-1,-1,-1,-1,-1,-1,-1],"loss_changes":[7.000457E1,7.545821E1,3.3400917E1,8.045275E1,6.654165E1,7.973633E1,1.809945E1,0E0,0E0,0E0,0E0,0E0,0E0,0E0,0E0],"parents":[2147483647,0,0,1,1,2,2,3,3,4,4,5,5,6,6],"right_children":[2,4,6,8,10,12,14,-1,-1,-1,-1,-1,-1,-1,-1],"split_conditions":[2.984519E1,-5.1933374E0,7.140214E0,-1.8237976E0,7.054062E0,3.8026252E-1,3.3265895E-1,-6.091263E-4,-1.769646E-2,1.138301E-2,-1.7430251E-2,1.197087E-2,-2.0106638E-2,-6.299065E-2,3.1014277E-2],"split_indices":[4,9,1,6,6,9,2,0,0,0,0,0,0,0,0],"split_type":[0,0,0,0,0,0,0,0,0,0,0,0,0,0,0],"sum_hessian":[4.0922385E3,2.9636064E3,1.1286321E3,1.9617246E3,1.0018818E3,9.9799603E2,1.3063608E2,1.2939515E3,6.67773E2,8.518614E2,1.500204E2,8.539061E2,1.440899E2,2.4603508E0,1.2817574E2],"tree_param":{"num_deleted":"0","num_feature":"10","num_nodes":"15","size_leaf_vector":"1"}},{"base_weights":[2.1190614E-2,-1.2550879E-1,1.9668522E-1,-2.2988375E-1,2.9609486E-1,3.297606E-1,1.3276543E-2,-3.746798E-3,-1.55252265E-2,2.2030992E-2,-8.409851E-3,7.494873E-4,1.7437058E-2,-1.9129254E-3,5.2943215E-2],"categories":[],"categories_nodes":[],"categories_segments":[],"categories_sizes":[],"default_left":[0,0,0,0,0,0,0,0,0,0,0,0,0,0,0],"id":28,"left_children":[1,3,5,7,9,11,13,-1,-1,-1,-1,-1,-1,-1,-1],"loss_changes":[1.0398954E2,9.688736E1,4.4882034E1,3.7990685E1,5.647464E1,3.5182358E1,6.205575E1,0E0,0E0,0E0,0E0,0E0,0E0,0E0,0E0],"parents":[2147483647,0,0,1,1,2,2,3,3,4,4,5,5,6,6],"right_children":[2,4,6,8,10,12,14,-1,-1,-1,-1,-1,-1,-1,-1],"split_conditions":[2.476413E1,1.0449185E0,-9.1346544E-1,8.847157E-1,1.7864923E0,8.339629E-1,5.5981445E1,-3.746798E-3,-1.55252265E-2,2.2030992E-2,-8.409851E-3,7.494873E-4,1.7437058E-2,-1.9129254E-3,5.2943215E-2],"split_indices":[4,5,1,5,6,5,4,0,0,0,0,0,0,0,0],"split_type":[0,0,0,0,0,0,0,0,0,0,0,0,0,0,0],"sum_hessian":[4.037261E3,2.1991953E3,1.8380657E3,1.7631525E3,4.3604285E2,1.0647324E3,7.7333325E2,9.48396E2,8.147565E2,2.9006027E2,1.4598256E2,2.7125122E2,7.9348126E2,7.397998E2,3.353348E1],"tree_param":{"num_deleted":"0","num_feature":"10","num_nodes":"15","size_leaf_vector":"1"}},{"base_weights":[1.3321231E-2,-8.395481E-2,2.725479E-1,-1.973587E-2,-3.4511834E-1,2.895233E-1,-1.4485202E0,-5.3945977E-2,-1.5257028E-4,-1.847615E-2,1.6292827E-2,8.7480545E-3,2.9874738E-2,-7.812835E-2,4.075896E-2],"categories":[],"categories_nodes":[],"categories_segments":[],"categories_sizes":[],"default_left":[0,0,0,0,0,0,0,0,0,0,0,0,0,0,0],"id":29,"left_children":[1,3,5,7,9,11,13,-1,-1,-1,-1,-1,-1,-1,-1],"loss_changes":[1.01640724E2,4.915074E1,3.255146E1,4.979293E1,5.101555E1,3.513887E1,1.5574751E1,0E0,0E0,0E0,0E0,0E0,0E0,0E0,0E0],"parents":[2147483647,0,0,1,1,2,2,3,3,4,4,5,5,6,6],"right_children":[2,4,6,8,10,12,14,-1,-1,-1,-1,-1,-1,-1,-1],"split_conditions":[3.0123428E1,2.9655612E0,3.7650998E0,1.8302932E-1,2.4086764E0,6.5740085E0,7.989324E-1,-5.3945977E-2,-1.5257028E-4,-1.847615E-2,1.6292827E-2,8.7480545E-3,2.9874738E-2,-7.812835E-2,4.075896E-2],"split_indices":[4,6,2,2,2,1,8,0,0,0,0,0,0,0,0],"split_type":[0,0,0,0,0,0,0,0,0,0,0,0,0,0,0],"sum_hessian":[4.0288086E3,2.9299915E3,1.0988171E3,2.3525784E3,5.774129E2,1.0889087E3,9.908457E0,2.6861372E1,2.325717E3,5.0016833E2,7.7244576E1,9.441769E2,1.4473178E2,8.3989935E0,1.5094634E0],"tree_param":{"num_deleted":"0","num_feature":"10","num_nodes":"15","size_leaf_vector":"1"}},{"base_weights":[7.092133E-3,-8.162543E-2,2.3983349E-1,-1.4377894E-1,2.990372E-1,1.3704094E-1,5.877932E-1,3.331585E-4,-1.2126375E-2,4.6029344E-2,4.120647E-3,1.2294332E-2,-1.5600966E-2,-1.906687E-2,2.6641158E-2],"categories":[],"categories_nodes":[],"categories_segments":[],"categories_sizes":[],"default_left":[0,0,0,0,0,0,0,0,0,0,0,0,0,0,0],"id":30,"left_children":[1,3,5,7,9,11,13,-1,-1,-1,-1,-1,-1,-1,-1],"loss_changes":[8.333797E1,6.91819E1,3.976055E1,6.091931E1,6.841292E1,7.7425865E1,2.1446579E1,0E0,0E0,0E0,0E0,0E0,0E0,0E0,0E0],"parents":[2147483647,0,0,1,1,2,2,3,3,4,4,5,5,6,6],"right_children":[2,4,6,8,10,12,14,-1,-1,-1,-1,-1,-1,-1,-1],"split_conditions":[2.984519E1,7.615855E0,1.0907878E0,-1.5741115E0,8.659225E-1,-9.376944E0,3.9562917E-1,3.331585E-4,-1.2126375E-2,4.6029344E-2,4.120647E-3,1.2294332E-2,-1.5600966E-2,-1.906687E-2,2.6641158E-2],"split_indices":[4,9,5,1,5,9,2,0,0,0,0,0,0,0,0],"split_type":[0,0,0,0,0,0,0,0,0,0,0,0,0,0,0],"sum_hessian":[4.034131E3,2.9212449E3,1.1128861E3,2.5117551E3,4.094899E2,8.601721E2,2.5271399E2,1.2856843E3,1.2260707E3,7.570163E1,3.3378827E2,6.504127E2,2.0975941E2,1.695356E1,2.3576044E2],"tree_param":{"num_deleted":"0","num_feature":"10","num_nodes":"15","size_leaf_vector":"1"}},{"base_weights":[9.0387035E-3,-6.7063905E-2,2.3879515E-1,1.7411064E-1,-1.6538964E-1,5.049387E-2,5.846967E-1,-2.3466658E-2,9.370766E-3,4.0908232E-2,-8.229594E-3,3.5226112E-3,-5.6136407E-2,3.1336773E-2,-4.7180466E-3],"categories":[],"categories_nodes":[],"categories_segments":[],"categories_sizes":[],"default_left":[0,0,0,0,0,0,0,0,0,0,0,0,0,0,0],"id":31,"left_children":[1,3,5,7,9,11,13,-1,-1,-1,-1,-1,-1,-1,-1],"loss_changes":[7.046787E1,7.182182E1,6.5284164E1,4.0289375E1,1.0333815E2,3.5651485E1,4.9434135E1,0E0,0E0,0E0,0E0,0E0,0E0,0E0,0E0],"parents":[2147483647,0,0,1,1,2,2,3,3,4,4,5,5,6,6],"right_children":[2,4,6,8,10,12,14,-1,-1,-1,-1,-1,-1,-1,-1],"split_conditions":[3.1809947E-1,-4.0233808E0,1.0178477E0,7.5858617E-1,-4.4279175E1,3.514192E0,6.730477E0,-2.3466658E-2,9.370766E-3,4.0908232E-2,-8.229594E-3,3.5226112E-3,-5.6136407E-2,3.1336773E-2,-4.7180466E-3],"split_indices":[7,1,5,5,9,2,6,0,0,0,0,0,0,0,0],"split_type":[0,0,0,0,0,0,0,0,0,0,0,0,0,0,0],"sum_hessian":[4.0282593E3,3.026496E3,1.00176324E3,8.7630756E2,2.1501885E3,6.4939355E2,3.5236972E2,6.3574844E1,8.1273267E2,6.98266E1,2.0803618E3,6.3395056E2,1.5442959E1,2.7459415E2,7.777556E1],"tree_param":{"num_deleted":"0","num_feature":"10","num_nodes":"15","size_leaf_vector":"1"}},{"base_weights":[2.622978E-3,-9.777519E-2,1.8281387E-1,4.327516E-1,-1.4559752E-1,4.5825633E-1,-5.1210903E-2,-6.610676E-2,1.9108873E-2,-2.9296137E-2,-4.4091404E-3,-5.2251015E-2,1.9235194E-2,-1.1416851E-2,1.811704E-2],"categories":[],"categories_nodes":[],"categories_segments":[],"categories_sizes":[],"default_left":[0,0,0,0,0,0,0,0,0,0,0,0,0,0,0],"id":32,"left_children":[1,3,5,7,9,11,13,-1,-1,-1,-1,-1,-1,-1,-1],"loss_changes":[7.248575E1,6.534552E1,9.243799E1,2.0766602E1,4.8923218E1,2.6921677E1,9.175563E1,0E0,0E0,0E0,0E0,0E0,0E0,0E0,0E0],"parents":[2147483647,0,0,1,1,2,2,3,3,4,4,5,5,6,6],"right_children":[2,4,6,8,10,12,14,-1,-1,-1,-1,-1,-1,-1,-1],"split_conditions":[9.7571665E-1,-7.069176E0,-2.4273448E0,1.4708569E1,1.2659993E1,6.6176474E-2,3.2592587E1,-6.610676E-2,1.9108873E-2,-2.9296137E-2,-4.4091404E-3,-5.2251015E-2,1.9235194E-2,-1.1416851E-2,1.811704E-2],"split_indices":[5,1,6,4,4,8,4,0,0,0,0,0,0,0,0],"split_type":[0,0,0,0,0,0,0,0,0,0,0,0,0,0,0],"sum_hessian":[4.0047776E3,2.5721133E3,1.4326643E3,2.120164E2,2.360097E3,6.5765704E2,7.750073E2,3.7207875E0,2.0829561E2,1.3304495E2,2.227052E3,7.6069803E0,6.5005005E2,5.2946423E2,2.4554305E2],"tree_param":{"num_deleted":"0","num_feature":"10","num_nodes":"15","size_leaf_vector":"1"}},{"base_weights":[-2.2923991E-2,-1.1309294E-1,2.1019736E-1,-1.7825644E-1,2.76525E-1,1.7462662E-1,9.678379E-1,-1.0914826E-3,-1.309672E-2,1.87745E-2,-9.176918E-3,1.1276135E-2,-1.4721884E-2,4.911398E-2,2.9281091E-3],"categories":[],"categories_nodes":[],"categories_segments":[],"categories_sizes":[],"default_left":[0,0,0,0,0,0,0,0,0,0,0,0,0,0,0],"id":33,"left_children":[1,3,5,7,9,11,13,-1,-1,-1,-1,-1,-1,-1,-1],"loss_changes":[8.321827E1,7.252411E1,2.9589676E1,5.507612E1,4.0052345E1,6.1575912E1,1.13775215E1,0E0,0E0,0E0,0E0,0E0,0E0,0E0,0E0],"parents":[2147483647,0,0,1,1,2,2,3,3,4,4,5,5,6,6],"right_children":[2,4,6,8,10,12,14,-1,-1,-1,-1,-1,-1,-1,-1],"split_conditions":[2.984519E1,7.615855E0,3.2940613E1,4.3944683E1,5.7357662E1,-1.490041E-2,7.167863E1,-1.0914826E-3,-1.309672E-2,1.87745E-2,-9.176918E-3,1.1276135E-2,-1.4721884E-2,4.911398E-2,2.9281091E-3],"split_indices":[4,9,9,0,0,9,0,0,0,0,0,0,0,0,0],"split_type":[0,0,0,0,0,0,0,0,0,0,0,0,0,0,0],"sum_hessian":[3.9568154E3,2.8535908E3,1.1032247E3,2.445178E3,4.0841284E2,1.0549271E3,4.8297676E1,1.2158127E3,1.2293652E3,2.9575922E2,1.1265365E2,8.812086E2,1.7371846E2,3.7133076E1,1.11646E1],"tree_param":{"num_deleted":"0","num_feature":"10","num_nodes":"15","size_leaf_vector":"1"}},{"base_weights":[-1.2573437E-2,-1.291586E-1,1.1921829E-1,-1.8685162E-1,8.298827E-2,2.3681809E-1,-7.363E-2,-5.575578E-3,-3.3354487E-2,-1.0488538E-2,1.4060788E-2,5.4475223E-3,1.8040668E-2,-4.779333E-2,1.0958797E-3],"categories":[],"categories_nodes":[],"categories_segments":[],"categories_sizes":[],"default_left":[0,0,0,0,0,0,0,0,0,0,0,0,0,0,0],"id":34,"left_children":[1,3,5,7,9,11,13,-1,-1,-1,-1,-1,-1,-1,-1],"loss_changes":[6.084546E1,2.5732662E1,4.2173767E1,5.0621754E1,4.179996E1,2.4832924E1,7.987817E1,0E0,0E0,0E0,0E0,0E0,0E0,0E0,0E0],"parents":[2147483647,0,0,1,1,2,2,3,3,4,4,5,5,6,6],"right_children":[2,4,6,8,10,12,14,-1,-1,-1,-1,-1,-1,-1,-1],"split_conditions":[2.4286232E1,3.1809947E-1,-3.2994485E-1,1.546219E0,1.0691811E0,4.03403E1,-7.705646E-1,-5.575578E-3,-3.3354487E-2,-1.0488538E-2,1.4060788E-2,5.4475223E-3,1.8040668E-2,-4.779333E-2,1.0958797E-3],"split_indices":[4,7,1,2,2,0,7,0,0,0,0,0,0,0,0],"split_type":[0,0,0,0,0,0,0,0,0,0,0,0,0,0,0],"sum_hessian":[3.9580122E3,2.100179E3,1.8578334E3,1.6512448E3,4.4893423E2,1.1539321E3,7.0390125E2,1.5395265E3,1.1171818E2,1.9643599E2,2.5249826E2,7.8620874E2,3.6772333E2,5.728808E1,6.466132E2],"tree_param":{"num_deleted":"0","num_feature":"10","num_nodes":"15","size_leaf_vector":"1"}},{"base_weights":[-5.4482818E-3,3.6006948E-1,-4.717757E-2,4.9175307E-1,5.4308794E-2,-6.945065E-2,6.576326E-1,2.043592E-2,-7.423597E-2,1.4709351E-2,-2.4108224E-2,-1.8593202E-3,-3.411416E-2,4.9796965E-2,8.133664E-4],"categories":[],"categories_nodes":[],"categories_segments":[],"categories_sizes":[],"default_left":[0,0,0,0,0,0,0,0,0,0,0,0,0,0,0],"id":35,"left_children":[1,3,5,7,9,11,13,-1,-1,-1,-1,-1,-1,-1,-1],"loss_changes":[6.119235E1,1.6525112E1,5.6570152E1,1.3857124E1,2.5936094E1,6.2778732E1,4.129398E1,0E0,0E0,0E0,0E0,0E0,0E0,0E0,0E0],"parents":[2147483647,0,0,1,1,2,2,3,3,4,4,5,5,6,6],"right_children":[2,4,6,8,10,12,14,-1,-1,-1,-1,-1,-1,-1,-1],"split_conditions":[-6.537621E0,-1.9733656E1,3.2940613E1,2.3525174E0,3.3636364E-1,2.0437931E1,3.8977182E0,2.043592E-2,-7.423597E-2,1.4709351E-2,-2.4108224E-2,-1.8593202E-3,-3.411416E-2,4.9796965E-2,8.133664E-4],"split_indices":[1,9,9,7,8,9,6,0,0,0,0,0,0,0,0],"split_type":[0,0,0,0,0,0,0,0,0,0,0,0,0,0,0],"sum_hessian":[4.0097634E3,4.1008585E2,3.5996777E3,2.8621277E2,1.2387309E2,3.490281E3,1.09396736E2,2.8467365E2,1.5391101E0,8.416361E1,3.9709476E1,3.3918975E3,9.8383545E1,5.643582E1,5.296091E1],"tree_param":{"num_deleted":"0","num_feature":"10","num_nodes":"15","size_leaf_vector":"1"}},{"base_weights":[-7.9618255E-3,-7.20976E-2,2.3505709E-1,4.5779034E-1,-9.876402E-2,-7.281575E-2,2.5893694E-1,-6.2470786E-2,2.0066852E-2,-6.5580435E-2,-3.6147686E-3,3.4203562E-3,1.9144816E-2],"categories":[],"categories_nodes":[],"categories_segments":[],"categories_sizes":[],"default_left":[0,0,0,0,0,0,0,0,0,0,0,0,0],"id":36,"left_children":[1,3,5,7,9,-1,11,-1,-1,-1,-1,-1,-1],"loss_changes":[6.216782E1,4.4635864E1,4.1351395E1,1.4198612E1,3.8723404E1,0E0,3.1359406E1,0E0,0E0,0E0,0E0,0E0,0E0],"parents":[2147483647,0,0,1,1,2,2,3,3,4,4,6,6],"right_children":[2,4,6,8,10,-1,12,-1,-1,-1,-1,-1,-1],"split_conditions":[3.2592587E1,-1.4500363E1,2.463483E-1,1.8302932E-1,1.8408509E-1,-7.281575E-2,9.7103155E-1,-6.2470786E-2,2.0066852E-2,-6.5580435E-2,-3.6147686E-3,3.4203562E-3,1.9144816E-2],"split_indices":[4,6,5,2,5,0,5,0,0,0,0,0,0],"split_type":[0,0,0,0,0,0,0,0,0,0,0,0,0],"sum_hessian":[3.9865562E3,3.1546953E3,8.318608E2,1.5037758E2,3.0043176E3,8.68943E0,8.231714E2,2.462306E0,1.4791527E2,1.522748E1,2.98909E3,4.6079123E2,3.6238013E2],"tree_param":{"num_deleted":"0","num_feature":"10","num_nodes":"13","size_leaf_vector":"1"}},{"base_weights":[1.0544167E-2,-4.3380164E-2,3.0182838E-1,-1.3752097E-1,1.4273499E-1,4.489466E-1,-4.8949663E-2,-2.2666572E-4,-1.6100878E-2,1.0155708E-2,-8.439707E-3,-4.6735693E-2,2.0007396E-2,-7.428448E-2,3.7609586E-3],"categories":[],"categories_nodes":[],"categories_segments":[],"categories_sizes":[],"default_left":[0,0,0,0,0,0,0,0,0,0,0,0,0,0,0],"id":37,"left_children":[1,3,5,7,9,11,13,-1,-1,-1,-1,-1,-1,-1,-1],"loss_changes":[6.2954292E1,5.9276764E1,3.2330902E1,7.849384E1,4.4742508E1,3.714473E1,4.8231586E1,0E0,0E0,0E0,0E0,0E0,0E0,0E0,0E0],"parents":[2147483647,0,0,1,1,2,2,3,3,4,4,5,5,6,6],"right_children":[2,4,6,8,10,12,14,-1,-1,-1,-1,-1,-1,-1,-1],"split_conditions":[3.5545994E1,-5.1933374E0,-7.741226E0,-1.8237976E0,5.9070687E0,1.9316565E1,3.76883E-1,-2.2666572E-4,-1.6100878E-2,1.0155708E-2,-8.439707E-3,-4.6735693E-2,2.0007396E-2,-7.428448E-2,3.7609586E-3],"split_indices":[4,9,9,6,6,0,2,0,0,0,0,0,0,0,0],"split_type":[0,0,0,0,0,0,0,0,0,0,0,0,0,0,0],"sum_hessian":[4.0061287E3,3.3810576E3,6.2507117E2,2.2454995E3,1.135558E3,4.401782E2,1.8489299E2,1.5001191E3,7.4538043E2,8.64252E2,2.7130594E2,1.2847377E1,4.273308E2,1.2669892E1,1.722231E2],"tree_param":{"num_deleted":"0","num_feature":"10","num_nodes":"15","size_leaf_vector":"1"}},{"base_weights":[4.27549E-3,-1.28387455E-2,8.180702E-1,2.0216061E-1,-8.650862E-2,9.959109E-1,-1.4834456E-1,4.5469827E-3,1.8064925E-2,-2.8550173E-3,-5.9227455E-2,4.2204004E-2,-5.1065315E-2,5.012299E-2,-4.564147E-2],"categories":[],"categories_nodes":[],"categories_segments":[],"categories_sizes":[],"default_left":[0,0,0,0,0,0,0,0,0,0,0,0,0,0,0],"id":38,"left_children":[1,3,5,7,9,11,13,-1,-1,-1,-1,-1,-1,-1,-1],"loss_changes":[5.5632877E1,6.198656E1,1.4288002E1,2.1995571E1,6.1388954E1,1.0711121E1,2.0429716E1,0E0,0E0,0E0,0E0,0E0,0E0,0E0,0E0],"parents":[2147483647,0,0,1,1,2,2,3,3,4,4,5,5,6,6],"right_children":[2,4,6,8,10,12,14,-1,-1,-1,-1,-1,-1,-1,-1],"split_conditions":[1.0465038E1,-4.0740786E0,3.259644E0,3.5045105E1,3.7650998E0,2.3525174E0,6.687345E1,4.5469827E-3,1.8064925E-2,-2.8550173E-3,-5.9227455E-2,4.2204004E-2,-5.1065315E-2,5.012299E-2,-4.564147E-2],"split_indices":[1,1,2,4,2,7,0,0,0,0,0,0,0,0,0],"split_type":[0,0,0,0,0,0,0,0,0,0,0,0,0,0,0],"sum_hessian":[3.992716E3,3.9114421E3,8.127405E1,9.97775E2,2.913667E3,6.861662E1,1.2657425E1,7.3759924E2,2.6017578E2,2.8834202E3,3.0247044E1,6.739696E1,1.2196592E0,5.1395035E0,7.5179214E0],"tree_param":{"num_deleted":"0","num_feature":"10","num_nodes":"15","size_leaf_vector":"1"}},{"base_weights":[1.3472957E-2,-8.0186094E-4,9.323737E-1,-3.7513074E-1,2.2826178E-2,-6.1439376E-2,1.0638342E0,-3.8754366E-2,1.3800171E-2,4.470996E-3,-3.950231E-3,-1.1239774E-2,4.623809E-2],"categories":[],"categories_nodes":[],"categories_segments":[],"categories_sizes":[],"default_left":[0,0,0,0,0,0,0,0,0,0,0,0,0],"id":39,"left_children":[1,3,5,7,9,-1,11,-1,-1,-1,-1,-1,-1],"loss_changes":[5.1972374E1,3.4524887E1,2.1301296E1,9.942758E1,3.9719326E1,0E0,7.526825E0,0E0,0E0,0E0,0E0,0E0,0E0],"parents":[2147483647,0,0,1,1,2,2,3,3,4,4,6,6],"right_children":[2,4,6,8,10,-1,12,-1,-1,-1,-1,-1,-1],"split_conditions":[2.6069004E1,1.3223889E1,3.3909744E-1,-6.624732E0,-1.8237976E0,-6.1439376E-2,-1.1270267E0,-3.8754366E-2,1.3800171E-2,4.470996E-3,-3.950231E-3,-1.1239774E-2,4.623809E-2],"split_indices":[6,4,2,9,6,0,7,0,0,0,0,0,0],"split_type":[0,0,0,0,0,0,0,0,0,0,0,0,0],"sum_hessian":[3.9611152E3,3.9015056E3,5.9609463E1,2.3076224E2,3.6707434E3,2.473929E0,5.7135536E1,1.2629261E2,1.0446962E2,2.1199094E3,1.5508341E3,3.5313377E0,5.36042E1],"tree_param":{"num_deleted":"0","num_feature":"10","num_nodes":"13","size_leaf_vector":"1"}},{"base_weights":[1.5345301E-2,3.0507314E-1,-3.6433402E-2,4.1520804E-1,3.3954706E-2,-1.1809268E-1,1.7565978E-1,-4.1837897E-2,1.7906329E-2,-1.9659553E-2,1.4804416E-2,3.864936E-2,-6.0515576E-3,5.833098E-4,1.9122671E-2],"categories":[],"categories_nodes":[],"categories_segments":[],"categories_sizes":[],"default_left":[0,0,0,0,0,0,0,0,0,0,0,0,0,0,0],"id":40,"left_children":[1,3,5,7,9,11,13,-1,-1,-1,-1,-1,-1,-1,-1],"loss_changes":[6.0304813E1,1.8184704E1,5.9090847E1,2.101426E1,3.1472565E1,8.8807785E1,4.619591E1,0E0,0E0,0E0,0E0,0E0,0E0,0E0,0E0],"parents":[2147483647,0,0,1,1,2,2,3,3,4,4,5,5,6,6],"right_children":[2,4,6,8,10,12,14,-1,-1,-1,-1,-1,-1,-1,-1],"split_conditions":[-5.6054387E0,-1.6668669E1,3.1125793E-1,2.463483E-1,2.3993782E1,-4.4279175E1,1.0178477E0,-4.1837897E-2,1.7906329E-2,-1.9659553E-2,1.4804416E-2,3.864936E-2,-6.0515576E-3,5.833098E-4,1.9122671E-2],"split_indices":[1,9,7,5,4,9,5,0,0,0,0,0,0,0,0],"split_type":[0,0,0,0,0,0,0,0,0,0,0,0,0,0,0],"sum_hessian":[4.018116E3,6.0847894E2,3.4096372E3,4.3232608E2,1.7615285E2,2.4621233E3,9.4751373E2,8.714181E0,4.236119E2,6.854632E1,1.0760654E2,7.230301E1,2.3898203E3,6.1890326E2,3.286105E2],"tree_param":{"num_deleted":"0","num_feature":"10","num_nodes":"15","size_leaf_vector":"1"}},{"base_weights":[-3.720839E-3,-2.2523879E-1,6.0684007E-2,-3.7210867E-1,1.487679E-1,2.1256779E-1,-8.6384885E-2,-1.8787066E-2,3.6812022E-3,1.21171065E-2,-5.704202E-2,1.2183792E-3,1.6367195E-2,-5.6121545E-3,2.329343E-2],"categories":[],"categories_nodes":[],"categories_segments":[],"categories_sizes":[],"default_left":[0,0,0,0,0,0,0,0,0,0,0,0,0,0,0],"id":41,"left_children":[1,3,5,7,9,11,13,-1,-1,-1,-1,-1,-1,-1,-1],"loss_changes":[5.690789E1,4.9409683E1,6.904931E1,2.9271614E1,6.2110733E1,5.443184E1,5.671913E1,0E0,0E0,0E0,0E0,0E0,0E0,0E0,0E0],"parents":[2147483647,0,0,1,1,2,2,3,3,4,4,5,5,6,6],"right_children":[2,4,6,8,10,12,14,-1,-1,-1,-1,-1,-1,-1,-1],"split_conditions":[8.3119535E-1,-9.37835E-2,-3.1296358E0,4.674614E1,6.1165874E1,9.551828E-1,8.967224E0,-1.8787066E-2,3.6812022E-3,1.21171065E-2,-5.704202E-2,1.2183792E-3,1.6367195E-2,-5.6121545E-3,2.329343E-2],"split_indices":[5,6,6,0,0,5,1,0,0,0,0,0,0,0,0],"split_type":[0,0,0,0,0,0,0,0,0,0,0,0,0,0,0],"sum_hessian":[3.9868672E3,8.9748956E2,3.0893774E3,6.4443097E2,2.5305861E2,1.5195911E3,1.5697865E3,5.32484E2,1.1194697E2,2.3123093E2,2.1827671E1,7.8949286E2,7.3009827E2,1.4533898E3,1.1639669E2],"tree_param":{"num_deleted":"0","num_feature":"10","num_nodes":"15","size_leaf_vector":"1"}},{"base_weights":[-4.3599242E-3,-6.592808E-2,3.5625577E-3,2.2498614E-1,-5.3637665E-2,9.50194E-3,-8.409636E-2,2.7824668E-2,-2.9084699E-3],"categories":[],"categories_nodes":[],"categories_segments":[],"categories_sizes":[],"default_left":[0,0,0,0,0,0,0,0,0],"id":42,"left_children":[1,-1,3,5,7,-1,-1,-1,-1],"loss_changes":[5.1652622E1,0E0,5.0011494E1,2.420044E1,4.4897617E1,0E0,0E0,0E0,0E0],"parents":[2147483647,0,0,2,2,3,3,4,4],"right_children":[2,-1,4,6,8,-1,-1,-1,-1],"split_conditions":[1.8408509E-1,-6.592808E-2,-9.49307E0,1.273855E0,-4.4279175E1,9.50194E-3,-8.409636E-2,2.7824668E-2,-2.9084699E-3],"split_indices":[5,0,6,5,9,0,0,0,0],"split_type":[0,0,0,0,0,0,0,0,0],"sum_hessian":[3.9647166E3,1.8023222E1,3.9466934E3,8.0963635E2,3.1370571E3,8.061828E2,3.4535182E0,7.6998245E1,3.0600588E3],"tree_param":{"num_deleted":"0","num_feature":"10","num_nodes":"9","size_leaf_vector":"1"}},{"base_weights":[-4.797848E-3,-6.379918E-2,2.5873245E-3,6.5445346E-1,-1.7887887E-2,-3.0619614E-3,4.6818033E-2,-9.329969E-3,1.7383738E-3],"categories":[],"categories_nodes":[],"categories_segments":[],"categories_sizes":[],"default_left":[0,0,0,0,0,0,0,0,0],"id":43,"left_children":[1,-1,3,5,7,-1,-1,-1,-1],"loss_changes":[4.658553E1,0E0,5.272128E1,4.546324E1,5.060942E1,0E0,0E0,0E0,0E0],"parents":[2147483647,0,0,2,2,3,3,4,4],"right_children":[2,-1,4,6,8,-1,-1,-1,-1],"split_conditions":[1.8408509E-1,-6.379918E-2,-4.4279175E1,-3.666189E0,8.3505756E-1,-3.0619614E-3,4.6818033E-2,-9.329969E-3,1.7383738E-3],"split_indices":[5,0,9,6,5,0,0,0,0],"split_type":[0,0,0,0,0,0,0,0,0],"sum_hessian":[3.9654792E3,1.7337711E1,3.9481414E3,1.1929216E2,3.8288494E3,4.9714428E1,6.957773E1,8.482477E2,2.9806016E3],"tree_param":{"num_deleted":"0","num_feature":"10","num_nodes":"9","size_leaf_vector":"1"}},{"base_weights":[-2.1255158E-2,9.760683E-2,-1.3784604E-1,-7.917756E-2,4.0928543E-1,-1.8266037E-1,5.661751E-1,-5.009571E-2,-1.5460355E-3,5.8103846E-3,2.2958748E-2,-8.782625E-3,1.1855437E-2,-6.62696E-2,2.6888655E-2],"categories":[],"categories_nodes":[],"categories_segments":[],"categories_sizes":[],"default_left":[0,0,0,0,0,0,0,0,0,0,0,0,0,0,0],"id":44,"left_children":[1,3,5,7,9,11,13,-1,-1,-1,-1,-1,-1,-1,-1],"loss_changes":[5.469903E1,1.077302E2,6.296673E1,5.9290775E1,3.0682106E1,3.319611E1,2.9278748E1,0E0,0E0,0E0,0E0,0E0,0E0,0E0,0E0],"parents":[2147483647,0,0,1,1,2,2,3,3,4,4,5,5,6,6],"right_children":[2,4,6,8,10,12,14,-1,-1,-1,-1,-1,-1,-1,-1],"split_conditions":[-3.3154466E0,9.551828E-1,4.318563E1,1.2659993E1,-4.7457688E-2,1.1044574E0,2.513727E-1,-5.009571E-2,-1.5460355E-3,5.8103846E-3,2.2958748E-2,-8.782625E-3,1.1855437E-2,-6.62696E-2,2.6888655E-2],"split_indices":[6,5,4,4,7,7,2,0,0,0,0,0,0,0,0],"split_type":[0,0,0,0,0,0,0,0,0,0,0,0,0,0,0],"sum_hessian":[3.9450742E3,1.9535912E3,1.991483E3,1.247024E3,7.065672E2,1.8729983E3,1.1848481E2,4.0639507E1,1.2063845E3,2.72142E2,4.344252E2,1.7395283E3,1.334699E2,4.7289796E0,1.1375583E2],"tree_param":{"num_deleted":"0","num_feature":"10","num_nodes":"15","size_leaf_vector":"1"}},{"base_weights":[-1.5109082E-2,-4.0102642E-2,5.327922E-1,-6.219132E-2,-3.2582436E-2,-6.667568E-2,5.9808683E-1,2.7112722E-2,-2.1818378E-3,-4.683691E-2,2.6631474E-2],"categories":[],"categories_nodes":[],"categories_segments":[],"categories_sizes":[],"default_left":[0,0,0,0,0,0,0,0,0,0,0],"id":45,"left_children":[1,3,5,-1,7,-1,9,-1,-1,-1,-1],"loss_changes":[5.3769897E1,4.271763E1,2.5600899E1,0E0,5.83471E1,0E0,2.0791954E1,0E0,0E0,0E0,0E0],"parents":[2147483647,0,0,1,1,2,2,4,4,6,6],"right_children":[2,4,6,-1,8,-1,10,-1,-1,-1,-1],"split_conditions":[4.6526775E1,1.8408509E-1,5.7082456E-1,-6.219132E-2,-4.4279175E1,-6.667568E-2,-1.0833145E0,2.7112722E-2,-2.1818378E-3,-4.683691E-2,2.6631474E-2],"split_indices":[4,5,5,0,9,0,7,0,0,0,0],"split_type":[0,0,0,0,0,0,0,0,0,0,0],"sum_hessian":[3.9239685E3,3.7536648E3,1.7030374E2,1.7527958E1,3.7361367E3,4.202391E0,1.6610135E2,1.1115079E2,3.624986E3,5.521742E0,1.6057962E2],"tree_param":{"num_deleted":"0","num_feature":"10","num_nodes":"11","size_leaf_vector":"1"}},{"base_weights":[1.4024601E-2,5.259204E-1,-7.997437E-3,5.612859E-1,-8.1366755E-2,-5.998435E-2,2.3928368E-1,8.774106E-3,2.9168244E-2,-1.9818798E-3,-3.731053E-2,-2.909402E-2,1.0721238E-2],"categories":[],"categories_nodes":[],"categories_segments":[],"categories_sizes":[],"default_left":[0,0,0,0,0,0,0,0,0,0,0,0,0],"id":46,"left_children":[1,3,5,7,-1,9,11,-1,-1,-1,-1,-1,-1],"loss_changes":[4.4603294E1,1.5917332E1,4.8788734E1,9.127678E0,0E0,2.851934E1,1.8515213E1,0E0,0E0,0E0,0E0,0E0,0E0],"parents":[2147483647,0,0,1,1,2,2,3,3,5,5,6,6],"right_children":[2,4,6,8,-1,10,12,-1,-1,-1,-1,-1,-1],"split_conditions":[-8.68614E0,1.770085E0,7.647059E-1,9.783137E-1,-8.1366755E-2,3.7650998E0,1.2659993E1,8.774106E-3,2.9168244E-2,-1.9818798E-3,-3.731053E-2,-2.909402E-2,1.0721238E-2],"split_indices":[1,7,8,2,0,2,4,0,0,0,0,0,0],"split_type":[0,0,0,0,0,0,0,0,0,0,0,0,0],"sum_hessian":[3.955279E3,1.6219612E2,3.793083E3,1.6075616E2,1.4399561E0,3.1347988E3,6.5828406E2,5.370462E1,1.0705155E2,3.0987979E3,3.6000996E1,1.8309847E1,6.399742E2],"tree_param":{"num_deleted":"0","num_feature":"10","num_nodes":"13","size_leaf_vector":"1"}},{"base_weights":[1.1477551E-2,-7.065734E-3,6.256443E-1,2.0286764E-1,-7.2431415E-2,7.2063243E-1,-5.907673E-1,5.570351E-3,2.4206396E-2,-6.23293E-3,4.160385E-3,2.0238437E-2,5.0158653E-2,4.8261095E-2,-7.4724E-2],"categories":[],"categories_nodes":[],"categories_segments":[],"categories_sizes":[],"default_left":[0,0,0,0,0,0,0,0,0,0,0,0,0,0,0],"id":47,"left_children":[1,3,5,7,9,11,13,-1,-1,-1,-1,-1,-1,-1,-1],"loss_changes":[4.5395153E1,5.3117565E1,1.3923656E1,2.3434544E1,4.3446728E1,1.1823257E1,2.2941076E1,0E0,0E0,0E0,0E0,0E0,0E0,0E0,0E0],"parents":[2147483647,0,0,1,1,2,2,3,3,4,4,5,5,6,6],"right_children":[2,4,6,8,10,12,14,-1,-1,-1,-1,-1,-1,-1,-1],"split_conditions":[8.967224E0,-4.3418474E0,2.3525174E0,3.710607E1,6.333333E-1,1.4119837E1,2.0110855E1,5.570351E-3,2.4206396E-2,-6.23293E-3,4.160385E-3,2.0238437E-2,5.0158653E-2,4.8261095E-2,-7.4724E-2],"split_indices":[1,1,7,0,8,1,4,0,0,0,0,0,0,0,0],"split_type":[0,0,0,0,0,0,0,0,0,0,0,0,0,0,0],"sum_hessian":[3.984604E3,3.868784E3,1.158201E2,9.1808594E2,2.950698E3,1.07809006E2,8.011094E0,7.9390326E2,1.2418268E2,2.0037682E3,9.469297E2,7.825812E1,2.9550888E1,3.351183E0,4.659911E0],"tree_param":{"num_deleted":"0","num_feature":"10","num_nodes":"15","size_leaf_vector":"1"}},{"base_weights":[2.0485612E-2,3.0151674E-1,-1.9272117E-2,4.6947417E-1,-3.4987826E-2,-7.055955E-1,-2.5923696E-4,-3.9095152E-2,2.0534499E-2,-7.317131E-2,1.3588377E-3,-5.1081154E-2,-5.854725E-3,2.7621618E-2,-6.7967287E-4],"categories":[],"categories_nodes":[],"categories_segments":[],"categories_sizes":[],"default_left":[0,0,0,0,0,0,0,0,0,0,0,0,0,0,0],"id":48,"left_children":[1,3,5,7,9,11,13,-1,-1,-1,-1,-1,-1,-1,-1],"loss_changes":[4.447716E1,2.7900085E1,4.551259E1,2.1403687E1,2.0501503E1,2.9857277E1,3.9252033E1,0E0,0E0,0E0,0E0,0E0,0E0,0E0,0E0],"parents":[2147483647,0,0,1,1,2,2,3,3,4,4,5,5,6,6],"right_children":[2,4,6,8,10,12,14,-1,-1,-1,-1,-1,-1,-1,-1],"split_conditions":[-6.107087E0,-2.0333162E1,3.0314518E1,2.463483E-1,7.930495E-1,3.7579617E-1,-4.56337E1,-3.9095152E-2,2.0534499E-2,-7.317131E-2,1.3588377E-3,-5.1081154E-2,-5.854725E-3,2.7621618E-2,-6.7967287E-4],"split_indices":[1,9,0,5,5,8,9,0,0,0,0,0,0,0,0],"split_type":[0,0,0,0,0,0,0,0,0,0,0,0,0,0,0],"sum_hessian":[3.9791953E3,4.92355E2,3.4868403E3,3.2816495E2,1.6419006E2,9.301704E1,3.3938232E3,9.035172E0,3.1912976E2,5.131894E0,1.5905818E2,4.5371586E1,4.7645454E1,7.930893E1,3.3145142E3],"tree_param":{"num_deleted":"0","num_feature":"10","num_nodes":"15","size_leaf_vector":"1"}},{"base_weights":[-1.6723294E-3,-4.4444382E-2,2.6802105E-1,-6.51866E-2,6.62279E-1,3.929801E-1,-1.5193714E-2,7.23195E-3,-4.6041566E-3,5.0869793E-2,5.150774E-4,1.1074094E-2,3.161278E-2,4.08987E-2,-5.5181724E-3],"categories":[],"categories_nodes":[],"categories_segments":[],"categories_sizes":[],"default_left":[0,0,0,0,0,0,0,0,0,0,0,0,0,0,0],"id":49,"left_children":[1,3,5,7,9,11,13,-1,-1,-1,-1,-1,-1,-1,-1],"loss_changes":[4.558602E1,5.0043175E1,1.915046E1,4.0719673E1,3.851115E1,1.7102146E1,2.1359562E1,0E0,0E0,0E0,0E0,0E0,0E0,0E0,0E0],"parents":[2147483647,0,0,1,1,2,2,3,3,4,4,5,5,6,6],"right_children":[2,4,6,8,10,12,14,-1,-1,-1,-1,-1,-1,-1,-1],"split_conditions":[8.021978E-1,3.2940613E1,2.1020043E0,-5.447077E0,3.8977182E0,1.8434523E-1,-2.8343117E1,7.23195E-3,-4.6041566E-3,5.0869793E-2,5.150774E-4,1.1074094E-2,3.161278E-2,4.08987E-2,-5.5181724E-3],"split_indices":[8,9,6,1,6,9,9,0,0,0,0,0,0,0,0],"split_type":[0,0,0,0,0,0,0,0,0,0,0,0,0,0,0],"sum_hessian":[3.9498252E3,3.4098716E3,5.399538E2,3.3135278E3,9.634375E1,3.7438245E2,1.6557132E2,5.585335E2,2.7549941E3,4.9205708E1,4.713804E1,2.910237E2,8.335875E1,1.6740402E1,1.4883092E2],"tree_param":{"num_deleted":"0","num_feature":"10","num_nodes":"15","size_leaf_vector":"1"}},{"base_weights":[3.4553774E-3,-6.015029E-2,1.0415812E-2,5.791004E-1,-7.813035E-3,3.3625983E-2,-3.4065466E-2,6.8011438E-3,-2.880286E-3],"categories":[],"categories_nodes":[],"categories_segments":[],"categories_sizes":[],"default_left":[0,0,0,0,0,0,0,0,0],"id":50,"left_children":[1,-1,3,5,7,-1,-1,-1,-1],"loss_changes":[4.149383E1,0E0,4.0812767E1,4.6473495E1,4.356901E1,0E0,0E0,0E0,0E0],"parents":[2147483647,0,0,2,2,3,3,4,4],"right_children":[2,-1,4,6,8,-1,-1,-1,-1],"split_conditions":[1.8408509E-1,-6.015029E-2,-4.4279175E1,4.7002852E-1,-3.9157116E0,3.3625983E-2,-3.4065466E-2,6.8011438E-3,-2.880286E-3],"split_indices":[5,0,9,7,1,0,0,0,0],"split_type":[0,0,0,0,0,0,0,0,0],"sum_hessian":[3.952745E3,1.7181671E1,3.9355635E3,1.2127839E2,3.8142852E3,1.0288305E2,1.839534E1,1.0112094E3,2.8030757E3],"tree_param":{"num_deleted":"0","num_feature":"10","num_nodes":"9","size_leaf_vector":"1"}},{"base_weights":[2.657299E-3,-2.687344E-2,3.8486865E-1,-3.930906E-2,8.1794995E-1,-1.2144403E0,4.5386907E-1,2.0667128E-3,-6.809502E-3,-2.6869385E-2,4.3173127E-2,-9.385573E-2,2.92012E-2,2.2167988E-2,-1.8036213E-2],"categories":[],"categories_nodes":[],"categories_segments":[],"categories_sizes":[],"default_left":[0,0,0,0,0,0,0,0,0,0,0,0,0,0,0],"id":51,"left_children":[1,3,5,7,9,11,13,-1,-1,-1,-1,-1,-1,-1,-1],"loss_changes":[4.441484E1,3.840922E1,3.1695793E1,4.290044E1,2.1375645E1,2.8004074E1,2.4875954E1,0E0,0E0,0E0,0E0,0E0,0E0,0E0,0E0],"parents":[2147483647,0,0,1,1,2,2,3,3,4,4,5,5,6,6],"right_children":[2,4,6,8,10,12,14,-1,-1,-1,-1,-1,-1,-1,-1],"split_conditions":[1.1044574E0,1.0465038E1,-3.720782E1,-1.61203E0,4.5005E0,5.2709576E1,3.7650998E0,2.0667128E-3,-6.809502E-3,-2.6869385E-2,4.3173127E-2,-9.385573E-2,2.92012E-2,2.2167988E-2,-1.8036213E-2],"split_indices":[7,1,9,6,9,4,2,0,0,0,0,0,0,0,0],"split_type":[0,0,0,0,0,0,0,0,0,0,0,0,0,0,0],"sum_hessian":[3.933133E3,3.6519062E3,2.81227E2,3.5998704E3,5.203584E1,1.0944819E1,2.7028217E2,2.1243508E3,1.4755194E3,7.5329556E0,4.4502884E1,6.7870874E0,4.1577325E0,2.4365112E2,2.6631048E1],"tree_param":{"num_deleted":"0","num_feature":"10","num_nodes":"15","size_leaf_vector":"1"}},{"base_weights":[1.4131451E-2,-6.9455475E-2,1.8121523E-1,-9.893818E-2,5.3986716E-1,4.2643875E-1,-3.3166375E-2,-5.86162E-3,1.0255984E-2,-6.412821E-2,2.5529407E-2,5.616357E-3,2.3873229E-2,4.9271315E-2,-4.1297213E-3],"categories":[],"categories_nodes":[],"categories_segments":[],"categories_sizes":[],"default_left":[0,0,0,0,0,0,0,0,0,0,0,0,0,0,0],"id":52,"left_children":[1,3,5,7,9,11,13,-1,-1,-1,-1,-1,-1,-1,-1],"loss_changes":[5.5822575E1,4.7916702E1,7.008121E1,4.303878E1,2.697842E1,3.0218674E1,6.324534E1,0E0,0E0,0E0,0E0,0E0,0E0,0E0,0E0],"parents":[2147483647,0,0,1,1,2,2,3,3,4,4,5,5,6,6],"right_children":[2,4,6,8,10,12,14,-1,-1,-1,-1,-1,-1,-1,-1],"split_conditions":[9.861302E-1,4.6526775E1,-1.9965338E0,8.021978E-1,5.7082456E-1,-4.7457688E-2,-3.1984352E1,-5.86162E-3,1.0255984E-2,-6.412821E-2,2.5529407E-2,5.616357E-3,2.3873229E-2,4.9271315E-2,-4.1297213E-3],"split_indices":[5,4,6,8,5,7,9,0,0,0,0,0,0,0,0],"split_type":[0,0,0,0,0,0,0,0,0,0,0,0,0,0,0],"sum_hessian":[3.9951272E3,2.663329E3,1.3317981E3,2.5412078E3,1.2212133E2,6.207524E2,7.110457E2,2.241514E3,2.9969373E2,4.6880565E0,1.1743327E2,2.3242105E2,3.883313E2,3.6453224E1,6.745925E2],"tree_param":{"num_deleted":"0","num_feature":"10","num_nodes":"15","size_leaf_vector":"1"}},{"base_weights":[-1.182784E-2,-8.6150065E-2,1.3805756E-1,1.1352212E-1,-2.0844574E-1,8.359677E-1,7.807596E-2,-3.547944E-2,6.086205E-3,-9.271158E-3,3.973203E-2,4.0914778E-2,-2.2469023E-2,2.0620644E-3,4.6952542E-2],"categories":[],"categories_nodes":[],"categories_segments":[],"categories_sizes":[],"default_left":[0,0,0,0,0,0,0,0,0,0,0,0,0,0,0],"id":53,"left_children":[1,3,5,7,9,11,13,-1,-1,-1,-1,-1,-1,-1,-1],"loss_changes":[4.4213238E1,6.481185E1,5.501172E1,3.9113342E1,4.6378258E1,2.7748917E1,3.5184E1,0E0,0E0,0E0,0E0,0E0,0E0,0E0,0E0],"parents":[2147483647,0,0,1,1,2,2,3,3,4,4,5,5,6,6],"right_children":[2,4,6,8,10,12,14,-1,-1,-1,-1,-1,-1,-1,-1],"split_conditions":[9.861302E-1,-9.6807286E-2,-2.8343117E1,7.1608925E-1,7.06475E1,1.1319903E0,5.5981445E1,-3.547944E-2,6.086205E-3,-9.271158E-3,3.973203E-2,4.0914778E-2,-2.2469023E-2,2.0620644E-3,4.6952542E-2],"split_indices":[5,7,9,3,0,5,4,0,0,0,0,0,0,0,0],"split_type":[0,0,0,0,0,0,0,0,0,0,0,0,0,0,0],"sum_hessian":[3.9668699E3,2.6521829E3,1.3146871E3,1.0074274E3,1.6447554E3,1.0302402E2,1.2116631E3,3.6637558E1,9.7078986E2,1.6142207E3,3.0534739E1,9.110895E1,1.1915063E1,1.1840481E3,2.7615019E1],"tree_param":{"num_deleted":"0","num_feature":"10","num_nodes":"15","size_leaf_vector":"1"}},{"base_weights":[-9.09798E-3,-2.6026616E-2,5.87881E-1,-6.957946E-3,-7.5365376E-1,1.2713946E0,1.7792134E-1,-1.7844866E-3,1.4243416E-2,-4.1995183E-2,2.9310519E-2,-1.3379016E-2,5.7145137E-2,-5.2288555E-2,2.0690726E-2],"categories":[],"categories_nodes":[],"categories_segments":[],"categories_sizes":[],"default_left":[0,0,0,0,0,0,0,0,0,0,0,0,0,0,0],"id":54,"left_children":[1,3,5,7,9,11,13,-1,-1,-1,-1,-1,-1,-1,-1],"loss_changes":[3.9734676E1,5.303622E1,3.0154545E1,5.0953804E1,4.3751144E1,1.0700348E1,3.5417526E1,0E0,0E0,0E0,0E0,0E0,0E0,0E0,0E0],"parents":[2147483647,0,0,1,1,2,2,3,3,4,4,5,5,6,6],"right_children":[2,4,6,8,10,12,14,-1,-1,-1,-1,-1,-1,-1,-1],"split_conditions":[3.2940613E1,2.0437931E1,5.3576153E1,7.615855E0,1.0465038E1,-1.391993E0,2.0396883E1,-1.7844866E-3,1.4243416E-2,-4.1995183E-2,2.9310519E-2,-1.3379016E-2,5.7145137E-2,-5.2288555E-2,2.0690726E-2],"split_indices":[9,9,0,9,1,7,4,0,0,0,0,0,0,0,0],"split_type":[0,0,0,0,0,0,0,0,0,0,0,0,0,0,0],"sum_hessian":[3.9292612E3,3.821841E3,1.074202E2,3.725225E3,9.6616104E1,3.948566E1,6.793453E1,3.375954E3,3.4927094E2,8.080607E1,1.5810037E1,3.4208076E0,3.6064854E1,1.2105081E1,5.5829453E1],"tree_param":{"num_deleted":"0","num_feature":"10","num_nodes":"15","size_leaf_vector":"1"}},{"base_weights":[-6.9270623E-3,-8.8025555E-2,1.545636E-1,7.529318E-2,-1.8421902E-1,4.5199195E-1,-9.950414E-2,-2.1631422E-2,5.569216E-3,-1.7958423E-2,-3.129343E-3,1.589542E-2,5.8512613E-2,-6.7523574E-3,3.0769413E-2],"categories":[],"categories_nodes":[],"categories_segments":[],"categories_sizes":[],"default_left":[0,0,0,0,0,0,0,0,0,0,0,0,0,0,0],"id":55,"left_children":[1,3,5,7,9,11,13,-1,-1,-1,-1,-1,-1,-1,-1],"loss_changes":[5.151054E1,4.114631E1,9.940561E1,3.833117E1,4.6205746E1,3.2864204E1,4.2874023E1,0E0,0E0,0E0,0E0,0E0,0E0,0E0,0E0],"parents":[2147483647,0,0,1,1,2,2,3,3,4,4,5,5,6,6],"right_children":[2,4,6,8,10,12,14,-1,-1,-1,-1,-1,-1,-1,-1],"split_conditions":[9.861302E-1,-9.6807286E-2,-2.4273448E0,7.984849E-1,3.788661E-2,2.667722E1,2.6069004E1,-2.1631422E-2,5.569216E-3,-1.7958423E-2,-3.129343E-3,1.589542E-2,5.8512613E-2,-6.7523574E-3,3.0769413E-2],"split_indices":[5,7,6,3,7,9,6,0,0,0,0,0,0,0,0],"split_type":[0,0,0,0,0,0,0,0,0,0,0,0,0,0,0],"sum_hessian":[3.9310693E3,2.6172004E3,1.3138688E3,9.70199E2,1.6470015E3,6.04925E2,7.0894385E2,9.05199E1,8.796791E2,4.699285E2,1.177073E3,5.7524255E2,2.9682453E1,6.5731165E2,5.1632183E1],"tree_param":{"num_deleted":"0","num_feature":"10","num_nodes":"15","size_leaf_vector":"1"}}]},"name":"gbtree"},"learner_model_param":{"base_score":"[5E-1]","boost_from_average":"1","num_class":"0","num_feature":"10","num_target":"1"},"objective":{"name":"binary:logistic","reg_loss_param":{"scale_pos_weight":"6.24146318"}}},"version":[3,2,0]}