{"learner":{"attributes":{"scikit_learn":"{\"_estimator_type\": \"classifier\"}"},"feature_names":["Feature_RSI","Feature_EMA_Dist","Feature_Volume_Ratio","Feature_ADX_14","Feature_ATR_Ratio","Feature_ROC_20","Feature_MACD_Hist_Accel","Feature_Relative_Strength"],"feature_types":["float","float","float","float","float","float","float","float"],"gradient_booster":{"model":{"cats":{"enc":[],"feature_segments":[],"sorted_idx":[]},"gbtree_model_param":{"num_parallel_tree":"1","num_trees":"35"},"iteration_indptr":[0,1,2,3,4,5,6,7,8,9,10,11,12,13,14,15,16,17,18,19,20,21,22,23,24,25,26,27,28,29,30,31,32,33,34,35],"tree_info":[0,0,0,0,0,0,0,0,0,0,0,0,0,0,0,0,0,0,0,0,0,0,0,0,0,0,0,0,0,0,0,0,0,0,0],"trees":[{"base_weights":[-3.3153905E-4,8.7807554E-1,-1.2144207E-1,1.1648107E0,6.125792E-1,-2.6141864E-1,1.0208525E-1,2.4810681E-2,5.7266258E-2,1.8562727E-2,4.803733E-2,-1.6899588E-2,-6.928655E-3,2.844192E-3,4.6723664E-2],"categories":[],"categories_nodes":[],"categories_segments":[],"categories_sizes":[],"default_left":[0,0,0,0,0,0,0,0,0,0,0,0,0,0,0],"id":0,"left_children":[1,3,5,7,9,11,13,-1,-1,-1,-1,-1,-1,-1,-1],"loss_changes":[1.2130148E3,1.04463135E2,3.1355707E2,9.54693E1,6.2308167E1,8.7471954E1,1.27375305E2,0E0,0E0,0E0,0E0,0E0,0E0,0E0,0E0],"parents":[2147483647,0,0,1,1,2,2,3,3,4,4,5,5,6,6],"right_children":[2,4,6,8,10,12,14,-1,-1,-1,-1,-1,-1,-1,-1],"split_conditions":[-9.958299E0,-1.3587278E1,1.6965778E0,2.546466E1,-1.2048316E0,1.7883522E1,2.70977E1,2.4810681E-2,5.7266258E-2,1.8562727E-2,4.803733E-2,-1.6899588E-2,-6.928655E-3,2.844192E-3,4.6723664E-2],"split_indices":[5,5,7,0,7,3,5,0,0,0,0,0,0,0,0],"split_type":[0,0,0,0,0,0,0,0,0,0,0,0,0,0,0],"sum_hessian":[1.140019E4,1.3805922E3,1.0019599E4,6.621187E2,7.1847345E2,6.1611885E3,3.8584097E3,2.1884766E2,4.4327103E2,5.7509735E2,1.4337608E2,2.178719E3,3.9824697E3,3.7504792E3,1.0793033E2],"tree_param":{"num_deleted":"0","num_feature":"8","num_nodes":"15","size_leaf_vector":"1"}},{"base_weights":[-7.160246E-3,8.5802716E-1,-1.2812488E-1,2.1515977E-1,1.1055998E0,-3.290709E-1,1.6626643E-1,-9.48699E-3,1.6814461E-2,1.8958174E-2,4.7780786E-2,-1.652184E-2,-1.0248746E-3,2.0267077E-2,1.2064337E-3],"categories":[],"categories_nodes":[],"categories_segments":[],"categories_sizes":[],"default_left":[0,0,0,0,0,0,0,0,0,0,0,0,0,0,0],"id":1,"left_children":[1,3,5,7,9,11,13,-1,-1,-1,-1,-1,-1,-1,-1],"loss_changes":[1.1961414E3,2.2288953E2,5.9322906E2,3.6394867E1,5.6268433E1,1.5185614E2,1.8848245E2,0E0,0E0,0E0,0E0,0E0,0E0,0E0,0E0],"parents":[2147483647,0,0,1,1,2,2,3,3,4,4,5,5,6,6],"right_children":[2,4,6,8,10,12,14,-1,-1,-1,-1,-1,-1,-1,-1],"split_conditions":[-9.958299E0,9.054184E-1,1.0009804E0,6.774848E-1,5.480373E-1,3.36571E0,-1.5489467E0,-9.48699E-3,1.6814461E-2,1.8958174E-2,4.7780786E-2,-1.652184E-2,-1.0248746E-3,2.0267077E-2,1.2064337E-3],"split_indices":[5,4,4,2,2,7,5,0,0,0,0,0,0,0,0],"split_type":[0,0,0,0,0,0,0,0,0,0,0,0,0,0,0],"sum_hessian":[1.1427099E4,1.4009379E3,1.0026161E4,3.900281E2,1.0109098E3,5.958727E3,4.0674338E3,1.2167006E2,2.6835803E2,1.2553042E2,8.853794E2,4.666876E3,1.2918508E3,1.1609889E3,2.906445E3],"tree_param":{"num_deleted":"0","num_feature":"8","num_nodes":"15","size_leaf_vector":"1"}},{"base_weights":[-4.37398E-3,-2.240982E-1,3.0845487E-1,2.74752E-1,-3.3613452E-1,1.0915058E0,2.1898142E-1,-4.985066E-3,1.8243395E-2,-1.7180987E-2,-8.3822635E-4,3.674721E-2,6.1001606E-2,2.4481758E-2,4.767769E-3],"categories":[],"categories_nodes":[],"categories_segments":[],"categories_sizes":[],"default_left":[0,0,0,0,0,0,0,0,0,0,0,0,0,0,0],"id":2,"left_children":[1,3,5,7,9,11,13,-1,-1,-1,-1,-1,-1,-1,-1],"loss_changes":[7.84837E2,3.7495044E2,3.298222E2,8.918026E1,1.612193E2,3.477594E1,1.6580464E2,0E0,0E0,0E0,0E0,0E0,0E0,0E0,0E0],"parents":[2147483647,0,0,1,1,2,2,3,3,4,4,5,5,6,6],"right_children":[2,4,6,8,10,12,14,-1,-1,-1,-1,-1,-1,-1,-1],"split_conditions":[1.0009804E0,-3.8441286E0,-1.7500069E1,8.350506E-1,3.36571E0,3.1845982E1,-2.6811497E0,-4.985066E-3,1.8243395E-2,-1.7180987E-2,-8.3822635E-4,3.674721E-2,6.1001606E-2,2.4481758E-2,4.767769E-3],"split_indices":[4,1,7,4,7,3,1,0,0,0,0,0,0,0,0],"split_type":[0,0,0,0,0,0,0,0,0,0,0,0,0,0,0],"sum_hessian":[1.1416117E4,6.7061475E3,4.7099697E3,1.2296382E3,5.4765093E3,4.818378E2,4.228132E3,3.8406424E2,8.455739E2,4.2244165E3,1.2520927E3,3.4673383E2,1.3510396E2,8.550296E2,3.3731023E3],"tree_param":{"num_deleted":"0","num_feature":"8","num_nodes":"15","size_leaf_vector":"1"}},{"base_weights":[-7.4645057E-3,7.336132E-1,-1.178652E-1,2.7485576E-1,9.592292E-1,-3.112857E-1,1.6017354E-1,8.0805905E-3,5.118391E-2,1.9666078E-2,4.456757E-2,-1.551503E-2,-1.4500843E-3,1.8993782E-2,1.0137067E-3],"categories":[],"categories_nodes":[],"categories_segments":[],"categories_sizes":[],"default_left":[0,0,0,0,0,0,0,0,0,0,0,0,0,0,0],"id":3,"left_children":[1,3,5,7,9,11,13,-1,-1,-1,-1,-1,-1,-1,-1],"loss_changes":[9.3396515E2,1.52932E2,5.343564E2,3.555499E1,7.131116E1,1.23417786E2,1.7295267E2,0E0,0E0,0E0,0E0,0E0,0E0,0E0,0E0],"parents":[2147483647,0,0,1,1,2,2,3,3,4,4,5,5,6,6],"right_children":[2,4,6,8,10,12,14,-1,-1,-1,-1,-1,-1,-1,-1],"split_conditions":[-9.804152E0,9.231345E-1,1.0009804E0,-1.7624737E0,-2.3428205E-1,3.36571E0,-1.2490466E0,8.0805905E-3,5.118391E-2,1.9666078E-2,4.456757E-2,-1.551503E-2,-1.4500843E-3,1.8993782E-2,1.0137067E-3],"split_indices":[5,4,4,7,6,7,5,0,0,0,0,0,0,0,0],"split_type":[0,0,0,0,0,0,0,0,0,0,0,0,0,0,0],"sum_hessian":[1.1413447E4,1.4791089E3,9.934339E3,4.883461E2,9.907628E2,5.858614E3,4.0757246E3,4.564554E2,3.1890686E1,2.4765628E2,7.431065E2,4.5821797E3,1.2764341E3,1.2217823E3,2.8539424E3],"tree_param":{"num_deleted":"0","num_feature":"8","num_nodes":"15","size_leaf_vector":"1"}},{"base_weights":[1.2666856E-2,-1.9141015E-1,2.9710525E-1,2.3389237E-1,-3.113675E-1,7.947657E-1,1.6742934E-1,-3.8341745E-3,1.5730696E-2,-1.4299322E-2,4.3004585E-4,1.2816431E-2,4.2570595E-2,-5.4796884E-4,1.6462227E-2],"categories":[],"categories_nodes":[],"categories_segments":[],"categories_sizes":[],"default_left":[0,0,0,0,0,0,0,0,0,0,0,0,0,0,0],"id":4,"left_children":[1,3,5,7,9,11,13,-1,-1,-1,-1,-1,-1,-1,-1],"loss_changes":[6.6340607E2,3.395686E2,3.079755E2,7.700441E1,7.711249E1,1.257876E2,1.6753497E2,0E0,0E0,0E0,0E0,0E0,0E0,0E0,0E0],"parents":[2147483647,0,0,1,1,2,2,3,3,4,4,5,5,6,6],"right_children":[2,4,6,8,10,12,14,-1,-1,-1,-1,-1,-1,-1,-1],"split_conditions":[1.0009804E0,-3.428517E0,-3.428517E0,8.388668E-1,3.3404918E0,-3.9100206E-1,1.313019E-1,-3.8341745E-3,1.5730696E-2,-1.4299322E-2,4.3004585E-4,1.2816431E-2,4.2570595E-2,-5.4796884E-4,1.6462227E-2],"split_indices":[4,1,1,4,1,6,6,0,0,0,0,0,0,0,0],"split_type":[0,0,0,0,0,0,0,0,0,0,0,0,0,0,0],"sum_hessian":[1.1426728E4,6.6534097E3,4.773318E3,1.4635433E3,5.189866E3,9.8562646E2,3.7876914E3,4.7700958E2,9.8653375E2,4.539821E3,6.5004553E2,3.5788666E2,6.277398E2,2.1749443E3,1.6127471E3],"tree_param":{"num_deleted":"0","num_feature":"8","num_nodes":"15","size_leaf_vector":"1"}},{"base_weights":[-5.469804E-3,6.9681895E-1,-1.0910513E-1,9.869664E-1,4.803753E-1,-2.3447162E-1,8.049692E-2,2.3223111E-2,5.047685E-2,1.0935649E-2,2.9789593E-2,-1.1076856E-2,1.9063008E-3,2.0927347E-3,3.2138985E-2],"categories":[],"categories_nodes":[],"categories_segments":[],"categories_sizes":[],"default_left":[0,0,0,0,0,0,0,0,0,0,0,0,0,0,0],"id":5,"left_children":[1,3,5,7,9,11,13,-1,-1,-1,-1,-1,-1,-1,-1],"loss_changes":[8.304638E2,9.167157E1,2.3636105E2,6.921039E1,4.5887604E1,7.169928E1,8.059904E1,0E0,0E0,0E0,0E0,0E0,0E0,0E0,0E0],"parents":[2147483647,0,0,1,1,2,2,3,3,4,4,5,5,6,6],"right_children":[2,4,6,8,10,12,14,-1,-1,-1,-1,-1,-1,-1,-1],"split_conditions":[-9.958299E0,-1.4325259E1,1.2645868E0,2.6792536E1,3.5490963E1,5.639638E-1,2.4650978E1,2.3223111E-2,5.047685E-2,1.0935649E-2,2.9789593E-2,-1.1076856E-2,1.9063008E-3,2.0927347E-3,3.2138985E-2],"split_indices":[5,5,7,0,0,6,5,0,0,0,0,0,0,0,0],"split_type":[0,0,0,0,0,0,0,0,0,0,0,0,0,0,0],"sum_hessian":[1.1408259E4,1.4662739E3,9.941985E3,6.2495215E2,8.413217E2,5.9846484E3,3.957337E3,2.53454E2,3.7149817E2,4.730117E2,3.6831003E2,5.201967E3,7.8268164E2,3.8099153E3,1.4742168E2],"tree_param":{"num_deleted":"0","num_feature":"8","num_nodes":"15","size_leaf_vector":"1"}},{"base_weights":[-4.6733255E-3,6.3307184E-1,-1.1106872E-1,1.4691138E-1,8.189772E-1,-2.824255E-1,1.3707225E-1,-3.5290103E-3,1.5830701E-2,1.1894587E-2,3.58044E-2,-1.4670359E-2,-6.1339315E-4,1.6398072E-2,1.1094789E-3],"categories":[],"categories_nodes":[],"categories_segments":[],"categories_sizes":[],"default_left":[0,0,0,0,0,0,0,0,0,0,0,0,0,0,0],"id":6,"left_children":[1,3,5,7,9,11,13,-1,-1,-1,-1,-1,-1,-1,-1],"loss_changes":[7.7294275E2,1.4708282E2,4.15153E2,2.6469185E1,4.651288E1,1.3007721E2,1.1898788E2,0E0,0E0,0E0,0E0,0E0,0E0,0E0,0E0],"parents":[2147483647,0,0,1,1,2,2,3,3,4,4,5,5,6,6],"right_children":[2,4,6,8,10,12,14,-1,-1,-1,-1,-1,-1,-1,-1],"split_conditions":[-9.469192E0,9.018625E-1,1.0046681E0,8.634955E-1,5.480373E-1,2.408595E0,-1.4855733E0,-3.5290103E-3,1.5830701E-2,1.1894587E-2,3.58044E-2,-1.4670359E-2,-6.1339315E-4,1.6398072E-2,1.1094789E-3],"split_indices":[5,4,4,2,2,7,5,0,0,0,0,0,0,0,0],"split_type":[0,0,0,0,0,0,0,0,0,0,0,0,0,0,0],"sum_hessian":[1.138937E4,1.6277164E3,9.761654E3,4.5075043E2,1.176966E3,5.7741235E3,3.98753E3,2.320957E2,2.1865472E2,1.5053093E2,1.026435E3,4.3881875E3,1.3859365E3,1.1398749E3,2.8476553E3],"tree_param":{"num_deleted":"0","num_feature":"8","num_nodes":"15","size_leaf_vector":"1"}},{"base_weights":[-1.4483085E-3,6.1710304E-1,-1.0322016E-1,8.613847E-1,4.1521695E-1,-2.1552E-1,6.6617936E-2,1.4354727E-2,4.178904E-2,2.4939436E-3,2.3082634E-2,-9.831432E-3,7.0707058E-3,1.8251481E-3,4.6759713E-2],"categories":[],"categories_nodes":[],"categories_segments":[],"categories_sizes":[],"default_left":[0,0,0,0,0,0,0,0,0,0,0,0,0,0,0],"id":7,"left_children":[1,3,5,7,9,11,13,-1,-1,-1,-1,-1,-1,-1,-1],"loss_changes":[7.17308E2,7.9038574E1,1.8663696E2,6.6654724E1,5.041484E1,6.9979034E1,9.007861E1,0E0,0E0,0E0,0E0,0E0,0E0,0E0,0E0],"parents":[2147483647,0,0,1,1,2,2,3,3,4,4,5,5,6,6],"right_children":[2,4,6,8,10,12,14,-1,-1,-1,-1,-1,-1,-1,-1],"split_conditions":[-9.469192E0,-1.3587278E1,1.6965778E0,2.3986746E1,3.145574E1,9.113225E-1,1.2904968E1,1.4354727E-2,4.178904E-2,2.4939436E-3,2.3082634E-2,-9.831432E-3,7.0707058E-3,1.8251481E-3,4.6759713E-2],"split_indices":[5,5,7,0,0,6,1,0,0,0,0,0,0,0,0],"split_type":[0,0,0,0,0,0,0,0,0,0,0,0,0,0,0],"sum_hessian":[1.1392672E4,1.6089137E3,9.783758E3,7.26538E2,8.8237573E2,5.8893506E3,3.8944075E3,1.950064E2,5.315316E2,2.7789194E2,6.0448376E2,5.467866E3,4.2148404E2,3.8226653E3,7.17422E1],"tree_param":{"num_deleted":"0","num_feature":"8","num_nodes":"15","size_leaf_vector":"1"}},{"base_weights":[-6.494983E-4,-1.9228587E-1,2.597941E-1,2.269174E-1,-2.81495E-1,8.6809355E-1,1.7770605E-1,-4.07695E-3,1.4907362E-2,-1.4626999E-2,-2.8934728E-6,-3.0081422E-4,3.8211066E-2,2.715695E-3,1.7560672E-2],"categories":[],"categories_nodes":[],"categories_segments":[],"categories_sizes":[],"default_left":[0,0,0,0,0,0,0,0,0,0,0,0,0,0,0],"id":8,"left_children":[1,3,5,7,9,11,13,-1,-1,-1,-1,-1,-1,-1,-1],"loss_changes":[5.685417E2,2.4547998E2,2.4096442E2,5.52604E1,1.2819803E2,4.3816956E1,1.2209392E2,0E0,0E0,0E0,0E0,0E0,0E0,0E0,0E0],"parents":[2147483647,0,0,1,1,2,2,3,3,4,4,5,5,6,6],"right_children":[2,4,6,8,10,12,14,-1,-1,-1,-1,-1,-1,-1,-1],"split_conditions":[1.0009804E0,-4.033744E0,-1.6478634E1,8.350506E-1,3.36571E0,-1.0368981E0,1.1458936E0,-4.07695E-3,1.4907362E-2,-1.4626999E-2,-2.8934728E-6,-3.0081422E-4,3.8211066E-2,2.715695E-3,1.7560672E-2],"split_indices":[4,1,7,4,7,6,4,0,0,0,0,0,0,0,0],"split_type":[0,0,0,0,0,0,0,0,0,0,0,0,0,0,0],"sum_hessian":[1.1389231E4,6.561495E3,4.827736E3,1.1510492E3,5.4104463E3,5.728861E2,4.25485E3,3.5361502E2,7.974342E2,4.164461E3,1.2459854E3,5.1958675E1,5.209274E2,2.9967502E3,1.2580996E3],"tree_param":{"num_deleted":"0","num_feature":"8","num_nodes":"15","size_leaf_vector":"1"}},{"base_weights":[2.4910297E-3,5.636137E-1,-9.217372E-2,1.574485E-1,7.66748E-1,-2.6171017E-1,1.4895889E-1,-7.890359E-3,1.4319333E-2,1.507803E-2,3.4813292E-2,-1.1480902E-2,1.7600885E-2,1.6127424E-2,1.5983877E-3],"categories":[],"categories_nodes":[],"categories_segments":[],"categories_sizes":[],"default_left":[0,0,0,0,0,0,0,0,0,0,0,0,0,0,0],"id":9,"left_children":[1,3,5,7,9,11,13,-1,-1,-1,-1,-1,-1,-1,-1],"loss_changes":[6.0517786E2,1.3556927E2,3.9856046E2,3.9161026E1,4.3927185E1,1.0180463E2,1.1152039E2,0E0,0E0,0E0,0E0,0E0,0E0,0E0,0E0],"parents":[2147483647,0,0,1,1,2,2,3,3,4,4,5,5,6,6],"right_children":[2,4,6,8,10,12,14,-1,-1,-1,-1,-1,-1,-1,-1],"split_conditions":[-9.469192E0,9.231345E-1,1.0046681E0,7.3353153E-1,-3.1015277E-1,1.4068773E1,-1.2490466E0,-7.890359E-3,1.4319333E-2,1.507803E-2,3.4813292E-2,-1.1480902E-2,1.7600885E-2,1.6127424E-2,1.5983877E-3],"split_indices":[5,4,4,2,6,5,5,0,0,0,0,0,0,0,0],"split_type":[0,0,0,0,0,0,0,0,0,0,0,0,0,0,0],"sum_hessian":[1.1390991E4,1.6436063E3,9.747385E3,5.485535E2,1.0950529E3,5.723323E3,4.0240618E3,1.98125E2,3.5042856E2,2.3087772E2,8.641751E2,5.524634E3,1.986896E2,1.2067567E3,2.8173052E3],"tree_param":{"num_deleted":"0","num_feature":"8","num_nodes":"15","size_leaf_vector":"1"}},{"base_weights":[4.463897E-3,5.0835097E-1,-9.554726E-2,-1.434448E-1,6.321472E-1,-2.5685713E-1,1.3211973E-1,6.704945E-2,-7.590739E-3,1.2352091E-2,2.996569E-2,-1.2789923E-2,2.20131E-5,1.5692132E-2,1.1538949E-3],"categories":[],"categories_nodes":[],"categories_segments":[],"categories_sizes":[],"default_left":[0,0,0,0,0,0,0,0,0,0,0,0,0,0,0],"id":10,"left_children":[1,3,5,7,9,11,13,-1,-1,-1,-1,-1,-1,-1,-1],"loss_changes":[5.72758E2,1.5196802E2,3.483084E2,2.5711617E1,5.9614807E1,8.986154E1,1.0567889E2,0E0,0E0,0E0,0E0,0E0,0E0,0E0,0E0],"parents":[2147483647,0,0,1,1,2,2,3,3,4,4,5,5,6,6],"right_children":[2,4,6,8,10,12,14,-1,-1,-1,-1,-1,-1,-1,-1],"split_conditions":[-8.708756E0,8.350506E-1,1.0046681E0,6.842956E-2,7.189044E-1,5.969807E0,-1.2490466E0,6.704945E-2,-7.590739E-3,1.2352091E-2,2.996569E-2,-1.2789923E-2,2.20131E-5,1.5692132E-2,1.1538949E-3],"split_indices":[5,4,4,4,2,7,5,0,0,0,0,0,0,0,0],"split_type":[0,0,0,0,0,0,0,0,0,0,0,0,0,0,0],"sum_hessian":[1.1363562E4,1.8812352E3,9.482326E3,3.002483E2,1.5809869E3,5.5499023E3,3.932424E3,6.580203E0,2.936681E2,4.2102332E2,1.1599636E3,4.459978E3,1.0899242E3,1.1165635E3,2.8158606E3],"tree_param":{"num_deleted":"0","num_feature":"8","num_nodes":"15","size_leaf_vector":"1"}},{"base_weights":[6.9018435E-3,-1.5880065E-1,2.2827642E-1,-2.5169414E-1,1.135995E-1,8.215274E-1,1.4666818E-1,-1.3607689E-2,-1.9597218E-3,-8.080359E-3,7.4856016E-3,4.356074E-3,3.6271136E-2,1.7157303E-3,1.5674952E-2],"categories":[],"categories_nodes":[],"categories_segments":[],"categories_sizes":[],"default_left":[0,0,0,0,0,0,0,0,0,0,0,0,0,0,0],"id":11,"left_children":[1,3,5,7,9,11,13,-1,-1,-1,-1,-1,-1,-1,-1],"loss_changes":[4.160206E2,1.6415657E2,2.3492993E2,8.675403E1,3.833704E1,3.555536E1,1.0861586E2,0E0,0E0,0E0,0E0,0E0,0E0,0E0,0E0],"parents":[2147483647,0,0,1,1,2,2,3,3,4,4,5,5,6,6],"right_children":[2,4,6,8,10,12,14,-1,-1,-1,-1,-1,-1,-1,-1],"split_conditions":[1.0009804E0,2.7578524E1,-1.6478634E1,-2.3309531E0,5.480373E-1,-8.557777E-1,1.1458936E0,-1.3607689E-2,-1.9597218E-3,-8.080359E-3,7.4856016E-3,4.356074E-3,3.6271136E-2,1.7157303E-3,1.5674952E-2],"split_indices":[4,3,7,7,2,6,4,0,0,0,0,0,0,0,0],"split_type":[0,0,0,0,0,0,0,0,0,0,0,0,0,0,0],"sum_hessian":[1.13391875E4,6.4851953E3,4.853992E3,4.8360786E3,1.6491165E3,5.8587897E2,4.268113E3,3.3658782E3,1.4702006E3,3.1131635E2,1.3378E3,6.2842934E1,5.23036E2,2.999747E3,1.2683658E3],"tree_param":{"num_deleted":"0","num_feature":"8","num_nodes":"15","size_leaf_vector":"1"}},{"base_weights":[-4.7214966E-5,6.16368E-1,-6.935338E-2,1.7728469E-1,7.272779E-1,-2.1422331E-1,1.3516457E-1,-8.594596E-3,1.938145E-2,9.335656E-3,3.272458E-2,-1.0884239E-2,1.4239361E-3,1.7106699E-2,1.1806048E-3],"categories":[],"categories_nodes":[],"categories_segments":[],"categories_sizes":[],"default_left":[0,0,0,0,0,0,0,0,0,0,0,0,0,0,0],"id":12,"left_children":[1,3,5,7,9,11,13,-1,-1,-1,-1,-1,-1,-1,-1],"loss_changes":[4.855887E2,5.5816498E1,3.0276123E2,2.8176428E1,4.094043E1,8.650238E1,1.309296E2,0E0,0E0,0E0,0E0,0E0,0E0,0E0,0E0],"parents":[2147483647,0,0,1,1,2,2,3,3,4,4,5,5,6,6],"right_children":[2,4,6,8,10,12,14,-1,-1,-1,-1,-1,-1,-1,-1],"split_conditions":[-1.1496063E1,6.3552254E-1,1.0046681E0,9.513272E-1,-5.07696E-1,5.969807E0,-2.8449502E0,-8.594596E-3,1.938145E-2,9.335656E-3,3.272458E-2,-1.0884239E-2,1.4239361E-3,1.7106699E-2,1.1806048E-3],"split_indices":[5,2,4,4,6,7,5,0,0,0,0,0,0,0,0],"split_type":[0,0,0,0,0,0,0,0,0,0,0,0,0,0,0],"sum_hessian":[1.1364411E4,1.1478082E3,1.0216604E4,2.3198735E2,9.158209E2,5.9803706E3,4.2362324E3,1.02045685E2,1.2994167E2,1.4282718E2,7.729937E2,4.8553228E3,1.1250479E3,1.1232727E3,3.11296E3],"tree_param":{"num_deleted":"0","num_feature":"8","num_nodes":"15","size_leaf_vector":"1"}},{"base_weights":[-3.6830665E-3,4.896564E-1,-8.927618E-2,1.0885296E-1,6.2999296E-1,-2.0488375E-1,1.5690027E-1,1.6004551E-2,-2.6660103E-3,3.2686196E-2,1.7984206E-2,-8.7437965E-3,2.535577E-2,1.3411913E-2,-6.3051004E-4],"categories":[],"categories_nodes":[],"categories_segments":[],"categories_sizes":[],"default_left":[0,0,0,0,0,0,0,0,0,0,0,0,0,0,0],"id":13,"left_children":[1,3,5,7,9,11,13,-1,-1,-1,-1,-1,-1,-1,-1],"loss_changes":[4.7806396E2,8.938217E1,2.7460043E2,2.312918E1,4.091925E1,7.564157E1,9.498317E1,0E0,0E0,0E0,0E0,0E0,0E0,0E0,0E0],"parents":[2147483647,0,0,1,1,2,2,3,3,4,4,5,5,6,6],"right_children":[2,4,6,8,10,12,14,-1,-1,-1,-1,-1,-1,-1,-1],"split_conditions":[-9.469192E0,9.018625E-1,1.0401204E0,-6.4896984E0,-1.3587278E1,1.9440527E1,2.4277943E1,1.6004551E-2,-2.6660103E-3,3.2686196E-2,1.7984206E-2,-8.7437965E-3,2.535577E-2,1.3411913E-2,-6.3051004E-4],"split_indices":[5,4,4,1,5,5,3,0,0,0,0,0,0,0,0],"split_type":[0,0,0,0,0,0,0,0,0,0,0,0,0,0,0],"sum_hessian":[1.1319396E4,1.6728344E3,9.646562E3,4.5095178E2,1.2218826E3,6.5641304E3,3.0824314E3,1.690766E2,2.8187518E2,5.979488E2,6.239338E2,6.4592827E3,1.04847755E2,1.5155768E3,1.5668545E3],"tree_param":{"num_deleted":"0","num_feature":"8","num_nodes":"15","size_leaf_vector":"1"}},{"base_weights":[8.5542083E-4,4.795606E-1,-8.607659E-2,-9.702277E-2,5.886404E-1,-2.3095459E-1,1.07645735E-1,6.821937E-2,-5.56439E-3,5.567406E-3,2.6320495E-2,-1.1683189E-2,9.950692E-4,1.3977926E-2,1.4263857E-4],"categories":[],"categories_nodes":[],"categories_segments":[],"categories_sizes":[],"default_left":[0,0,0,0,0,0,0,0,0,0,0,0,0,0,0],"id":14,"left_children":[1,3,5,7,9,11,13,-1,-1,-1,-1,-1,-1,-1,-1],"loss_changes":[4.7332877E2,1.0999899E2,2.7018903E2,2.1399092E1,4.574588E1,8.613376E1,1.0367032E2,0E0,0E0,0E0,0E0,0E0,0E0,0E0,0E0],"parents":[2147483647,0,0,1,1,2,2,3,3,4,4,5,5,6,6],"right_children":[2,4,6,8,10,12,14,-1,-1,-1,-1,-1,-1,-1,-1],"split_conditions":[-9.303913E0,8.411902E-1,1.0009804E0,6.842956E-2,-5.632079E-1,5.969807E0,-1.2490466E0,6.821937E-2,-5.56439E-3,5.567406E-3,2.6320495E-2,-1.1683189E-2,9.950692E-4,1.3977926E-2,1.4263857E-4],"split_indices":[5,4,4,4,6,7,5,0,0,0,0,0,0,0,0],"split_type":[0,0,0,0,0,0,0,0,0,0,0,0,0,0,0],"sum_hessian":[1.1372057E4,1.7470616E3,9.624994E3,2.779515E2,1.4691101E3,5.5066074E3,4.118387E3,5.4400816E0,2.7251144E2,1.9683568E2,1.2722744E3,4.444542E3,1.0620657E3,1.2385587E3,2.8798284E3],"tree_param":{"num_deleted":"0","num_feature":"8","num_nodes":"15","size_leaf_vector":"1"}},{"base_weights":[-4.3567468E-4,3.5111824E-1,-8.460089E-2,-4.095634E-2,4.3235388E-1,-2.3131394E-1,1.0510971E-1,5.9214905E-2,-2.8944723E-3,9.005815E-3,2.3272535E-2,-1.33501245E-2,-2.0857689E-3,-2.1336616E-3,1.128747E-2],"categories":[],"categories_nodes":[],"categories_segments":[],"categories_sizes":[],"default_left":[0,0,0,0,0,0,0,0,0,0,0,0,0,0,0],"id":15,"left_children":[1,3,5,7,9,11,13,-1,-1,-1,-1,-1,-1,-1,-1],"loss_changes":[3.3566843E2,6.981317E1,2.5478441E2,1.8120485E1,5.608844E1,9.47225E1,1.1203261E2,0E0,0E0,0E0,0E0,0E0,0E0,0E0,0E0],"parents":[2147483647,0,0,1,1,2,2,3,3,4,4,5,5,6,6],"right_children":[2,4,6,8,10,12,14,-1,-1,-1,-1,-1,-1,-1,-1],"split_conditions":[-3.8441286E0,8.350506E-1,1.0009804E0,6.842956E-2,-2.2738165E-1,-3.0580904E0,6.7899406E-2,5.9214905E-2,-2.8944723E-3,9.005815E-3,2.3272535E-2,-1.33501245E-2,-2.0857689E-3,-2.1336616E-3,1.128747E-2],"split_indices":[1,4,4,4,6,7,6,0,0,0,0,0,0,0,0],"split_type":[0,0,0,0,0,0,0,0,0,0,0,0,0,0,0],"sum_hessian":[1.1342512E4,2.1903513E3,9.15216E3,3.7602164E2,1.8143297E3,5.160815E3,3.9913455E3,6.67221E0,3.6934943E2,7.613339E2,1.0529958E3,3.2829475E3,1.8778672E3,2.1068252E3,1.8845203E3],"tree_param":{"num_deleted":"0","num_feature":"8","num_nodes":"15","size_leaf_vector":"1"}},{"base_weights":[-1.5767012E-3,-2.1340609E-1,1.2119862E-1,2.688104E-1,-2.6649985E-1,5.7379854E-1,4.940056E-2,-8.360539E-3,1.4673616E-2,-1.3251919E-2,7.406113E-3,1.2665485E-2,2.902862E-2,-1.9192629E-3,1.0845767E-2],"categories":[],"categories_nodes":[],"categories_segments":[],"categories_sizes":[],"default_left":[0,0,0,0,0,0,0,0,0,0,0,0,0,0,0],"id":16,"left_children":[1,3,5,7,9,11,13,-1,-1,-1,-1,-1,-1,-1,-1],"loss_changes":[2.9457693E2,1.06477554E2,2.3298634E2,1.9408335E1,1.0964407E2,3.812137E1,1.3367775E2,0E0,0E0,0E0,0E0,0E0,0E0,0E0,0E0],"parents":[2147483647,0,0,1,1,2,2,3,3,4,4,5,5,6,6],"right_children":[2,4,6,8,10,12,14,-1,-1,-1,-1,-1,-1,-1,-1],"split_conditions":[9.231345E-1,-5.455761E0,-1.7291162E1,5.8452654E-1,5.969807E0,9.862033E-1,1.1060879E0,-8.360539E-3,1.4673616E-2,-1.3251919E-2,7.406113E-3,1.2665485E-2,2.902862E-2,-1.9192629E-3,1.0845767E-2],"split_indices":[4,1,7,2,7,4,4,0,0,0,0,0,0,0,0],"split_type":[0,0,0,0,0,0,0,0,0,0,0,0,0,0,0],"sum_hessian":[1.1324655E4,4.155045E3,7.1696104E3,4.1170755E2,3.7433374E3,9.8067145E2,6.188939E3,6.989394E1,3.418136E2,3.2739006E3,4.6943665E2,3.6533148E2,6.1533997E2,4.300911E3,1.8880278E3],"tree_param":{"num_deleted":"0","num_feature":"8","num_nodes":"15","size_leaf_vector":"1"}},{"base_weights":[3.318114E-3,4.4689992E-1,-7.044269E-2,1.6319965E-1,6.282474E-1,-1.7793706E-1,1.5413962E-1,-2.9200688E-3,1.2601653E-2,1.1338823E-2,2.9001212E-2,-7.425448E-3,5.4834347E-2,1.427219E-2,5.3448544E-4],"categories":[],"categories_nodes":[],"categories_segments":[],"categories_sizes":[],"default_left":[0,0,0,0,0,0,0,0,0,0,0,0,0,0,0],"id":17,"left_children":[1,3,5,7,9,11,13,-1,-1,-1,-1,-1,-1,-1,-1],"loss_changes":[3.6973044E2,8.278787E1,2.33935E2,2.2604513E1,3.257959E1,7.8397095E1,8.9493935E1,0E0,0E0,0E0,0E0,0E0,0E0,0E0,0E0],"parents":[2147483647,0,0,1,1,2,2,3,3,4,4,5,5,6,6],"right_children":[2,4,6,8,10,12,14,-1,-1,-1,-1,-1,-1,-1,-1],"split_conditions":[-9.804152E0,9.4960433E-1,1.0419925E0,8.411902E-1,-3.020596E-1,2.70977E1,2.2251997E1,-2.9200688E-3,1.2601653E-2,1.1338823E-2,2.9001212E-2,-7.425448E-3,5.4834347E-2,1.427219E-2,5.3448544E-4],"split_indices":[5,4,4,4,6,5,3,0,0,0,0,0,0,0,0],"split_type":[0,0,0,0,0,0,0,0,0,0,0,0,0,0,0],"sum_hessian":[1.12982295E4,1.6101388E3,9.688091E3,6.286218E2,9.81517E2,6.5521626E3,3.1359277E3,2.4618358E2,3.8243823E2,2.1599417E2,7.655228E2,6.5206284E3,3.1534277E1,1.284791E3,1.8511367E3],"tree_param":{"num_deleted":"0","num_feature":"8","num_nodes":"15","size_leaf_vector":"1"}},{"base_weights":[2.347152E-3,3.274E-1,-7.198337E-2,-5.6417316E-2,4.061584E-1,-2.2798152E-1,7.952403E-2,5.4510973E-2,-3.2316565E-3,5.030215E-3,2.0046653E-2,-1.3237784E-2,-1.2106509E-3,2.6590828E-2,1.5061407E-3],"categories":[],"categories_nodes":[],"categories_segments":[],"categories_sizes":[],"default_left":[0,0,0,0,0,0,0,0,0,0,0,0,0,0,0],"id":18,"left_children":[1,3,5,7,9,11,13,-1,-1,-1,-1,-1,-1,-1,-1],"loss_changes":[2.7442712E2,6.3923462E1,2.1850452E2,1.2590389E1,4.6667145E1,9.271527E1,1.149103E2,0E0,0E0,0E0,0E0,0E0,0E0,0E0,0E0],"parents":[2147483647,0,0,1,1,2,2,3,3,4,4,5,5,6,6],"right_children":[2,4,6,8,10,12,14,-1,-1,-1,-1,-1,-1,-1,-1],"split_conditions":[-4.033744E0,8.350506E-1,9.7284603E-1,6.842956E-2,-5.632079E-1,-3.5941978E0,-1.7291162E1,5.4510973E-2,-3.2316565E-3,5.030215E-3,2.0046653E-2,-1.3237784E-2,-1.2106509E-3,2.6590828E-2,1.5061407E-3],"split_indices":[1,4,4,4,6,7,7,0,0,0,0,0,0,0,0],"split_type":[0,0,0,0,0,0,0,0,0,0,0,0,0,0,0],"sum_hessian":[1.135613E4,2.1128923E3,9.243237E3,3.597905E2,1.7531017E3,4.553877E3,4.689361E3,5.147786E0,3.5464273E2,4.442582E2,1.3088435E3,2.9940227E3,1.5598542E3,3.1209964E2,4.377261E3],"tree_param":{"num_deleted":"0","num_feature":"8","num_nodes":"15","size_leaf_vector":"1"}},{"base_weights":[-2.8262408E-3,3.3708927E-1,-8.725543E-2,-3.693026E-2,4.59031E-1,-1.5493277E-1,2.0787884E-1,-3.0773852E-3,6.532671E-2,4.1847075E-3,2.1738745E-2,-6.796921E-3,2.3611784E-2,1.6844718E-2,-6.5365597E-4],"categories":[],"categories_nodes":[],"categories_segments":[],"categories_sizes":[],"default_left":[0,0,0,0,0,0,0,0,0,0,0,0,0,0,0],"id":19,"left_children":[1,3,5,7,9,11,13,-1,-1,-1,-1,-1,-1,-1,-1],"loss_changes":[3.2400833E2,1.0246727E2,1.8066904E2,3.7087013E1,5.063974E1,8.228938E1,8.068526E1,0E0,0E0,0E0,0E0,0E0,0E0,0E0,0E0],"parents":[2147483647,0,0,1,1,2,2,3,3,4,4,5,5,6,6],"right_children":[2,4,6,8,10,12,14,-1,-1,-1,-1,-1,-1,-1,-1],"split_conditions":[-7.8306346E0,8.80915E-1,1.1060879E0,4.1202607E0,-3.9100206E-1,2.0404863E1,2.671875E1,-3.0773852E-3,6.532671E-2,4.1847075E-3,2.1738745E-2,-6.796921E-3,2.3611784E-2,1.6844718E-2,-6.5365597E-4],"split_indices":[5,4,4,7,6,5,3,0,0,0,0,0,0,0,0],"split_type":[0,0,0,0,0,0,0,0,0,0,0,0,0,0,0],"sum_hessian":[1.1287938E4,2.2452947E3,9.042644E3,5.522208E2,1.693074E3,7.3562544E3,1.6863898E3,5.402344E2,1.1986466E1,3.261887E2,1.3668853E3,7.2119575E3,1.4429683E2,8.639107E2,8.224791E2],"tree_param":{"num_deleted":"0","num_feature":"8","num_nodes":"15","size_leaf_vector":"1"}},{"base_weights":[-1.510586E-3,3.2734582E-1,-8.39203E-2,2.7837982E-2,4.519734E-1,-1.5095405E-1,2.0327854E-1,-1.1090524E-2,7.0478753E-3,6.5534054E-3,2.1148374E-2,-6.6764704E-3,2.525531E-2,7.3040538E-3,4.367938E-2],"categories":[],"categories_nodes":[],"categories_segments":[],"categories_sizes":[],"default_left":[0,0,0,0,0,0,0,0,0,0,0,0,0,0,0],"id":20,"left_children":[1,3,5,7,9,11,13,-1,-1,-1,-1,-1,-1,-1,-1],"loss_changes":[3.063033E2,8.452405E1,1.7402133E2,3.021949E1,3.52731E1,9.15887E1,3.123555E1,0E0,0E0,0E0,0E0,0E0,0E0,0E0,0E0],"parents":[2147483647,0,0,1,1,2,2,3,3,4,4,5,5,6,6],"right_children":[2,4,6,8,10,12,14,-1,-1,-1,-1,-1,-1,-1,-1],"split_conditions":[-7.8306346E0,9.054184E-1,1.1060879E0,6.8110174E-1,6.6637063E-1,2.0404863E1,1.5306194E1,-1.1090524E-2,7.0478753E-3,6.5534054E-3,2.1148374E-2,-6.6764704E-3,2.525531E-2,7.3040538E-3,4.367938E-2],"split_indices":[5,4,4,2,2,5,1,0,0,0,0,0,0,0,0],"split_type":[0,0,0,0,0,0,0,0,0,0,0,0,0,0,0],"sum_hessian":[1.130029E4,2.2637622E3,9.036527E3,6.655414E2,1.5982208E3,7.3268706E3,1.7096567E3,2.1746149E2,4.480799E2,3.3677783E2,1.2614429E3,7.1811797E3,1.4569135E2,1.6719613E3,3.7695454E1],"tree_param":{"num_deleted":"0","num_feature":"8","num_nodes":"15","size_leaf_vector":"1"}},{"base_weights":[-2.2605048E-3,3.0276358E-1,-7.879897E-2,-1.666118E-2,4.1092306E-1,-1.09972775E-1,2.9695693E-1,2.365961E-3,-1.3594601E-2,9.980542E-3,2.710519E-2,-5.3451275E-3,6.13662E-3,3.6780618E-2,8.4617995E-3],"categories":[],"categories_nodes":[],"categories_segments":[],"categories_sizes":[],"default_left":[0,0,0,0,0,0,0,0,0,0,0,0,0,0,0],"id":21,"left_children":[1,3,5,7,9,11,13,-1,-1,-1,-1,-1,-1,-1,-1],"loss_changes":[2.6383154E2,7.832466E1,1.05854614E2,1.4093583E1,7.273419E1,5.1999924E1,3.6619987E1,0E0,0E0,0E0,0E0,0E0,0E0,0E0,0E0],"parents":[2147483647,0,0,1,1,2,2,3,3,4,4,5,5,6,6],"right_children":[2,4,6,8,10,12,14,-1,-1,-1,-1,-1,-1,-1,-1],"split_conditions":[-7.8306346E0,6.8110174E-1,6.584424E0,-2.6811497E0,3.5490963E1,9.113225E-1,6.3419365E1,2.365961E-3,-1.3594601E-2,9.980542E-3,2.710519E-2,-5.3451275E-3,6.13662E-3,3.6780618E-2,8.4617995E-3],"split_indices":[5,2,1,1,0,6,0,0,0,0,0,0,0,0,0],"split_type":[0,0,0,0,0,0,0,0,0,0,0,0,0,0,0],"sum_hessian":[1.1298873E4,2.2658728E3,9.033E3,5.733774E2,1.6924954E3,8.341659E3,6.913411E2,4.6510098E2,1.082764E2,1.055592E3,6.369033E2,7.654671E3,6.869882E2,8.222756E1,6.091135E2],"tree_param":{"num_deleted":"0","num_feature":"8","num_nodes":"15","size_leaf_vector":"1"}},{"base_weights":[3.2794238E-3,-1.17507495E-1,1.5803307E-1,-1.9737156E-1,1.130248E-1,5.8804095E-1,9.754969E-2,-1.11819515E-2,-1.029007E-3,8.434355E-3,-3.8807543E-3,-4.056891E-3,2.6049815E-2,-1.1118806E-3,9.262299E-3],"categories":[],"categories_nodes":[],"categories_segments":[],"categories_sizes":[],"default_left":[0,0,0,0,0,0,0,0,0,0,0,0,0,0,0],"id":22,"left_children":[1,3,5,7,9,11,13,-1,-1,-1,-1,-1,-1,-1,-1],"loss_changes":[2.1062529E2,1.165393E2,1.2841086E2,6.629703E1,3.3494667E1,2.660019E1,7.276626E1,0E0,0E0,0E0,0E0,0E0,0E0,0E0,0E0],"parents":[2147483647,0,0,1,1,2,2,3,3,4,4,5,5,6,6],"right_children":[2,4,6,8,10,12,14,-1,-1,-1,-1,-1,-1,-1,-1],"split_conditions":[1.0009804E0,2.7578524E1,-1.6478634E1,-3.0580904E0,5.151619E1,-1.0727788E0,2.2329671E-2,-1.11819515E-2,-1.029007E-3,8.434355E-3,-3.8807543E-3,-4.056891E-3,2.6049815E-2,-1.1118806E-3,9.262299E-3],"split_indices":[4,3,7,7,0,6,6,0,0,0,0,0,0,0,0],"split_type":[0,0,0,0,0,0,0,0,0,0,0,0,0,0,0],"sum_hessian":[1.1266081E4,6.3275776E3,4.938503E3,4.6996177E3,1.6279602E3,6.079004E2,4.3306025E3,3.1776572E3,1.5219603E3,1.1106417E3,5.173184E2,5.0997E1,5.569034E2,2.2380205E3,2.092582E3],"tree_param":{"num_deleted":"0","num_feature":"8","num_nodes":"15","size_leaf_vector":"1"}},{"base_weights":[2.3028727E-3,3.6385497E-1,-6.328319E-2,2.0426497E-1,5.496323E-1,-1.8084964E-1,8.9083664E-2,-5.626372E-3,1.1846628E-2,4.1372143E-3,2.4413561E-2,-9.342401E-3,1.449914E-3,-1.5116617E-3,9.278776E-3],"categories":[],"categories_nodes":[],"categories_segments":[],"categories_sizes":[],"default_left":[0,0,0,0,0,0,0,0,0,0,0,0,0,0,0],"id":23,"left_children":[1,3,5,7,9,11,13,-1,-1,-1,-1,-1,-1,-1,-1],"loss_changes":[2.6731924E2,5.1208054E1,1.7094896E2,2.9607258E1,2.1587097E1,6.164856E1,7.536414E1,0E0,0E0,0E0,0E0,0E0,0E0,0E0,0E0],"parents":[2147483647,0,0,1,1,2,2,3,3,4,4,5,5,6,6],"right_children":[2,4,6,8,10,12,14,-1,-1,-1,-1,-1,-1,-1,-1],"split_conditions":[-9.469192E0,1.0009804E0,1.0009804E0,6.239547E-1,-7.423704E-1,5.969807E0,2.2329671E-2,-5.626372E-3,1.1846628E-2,4.1372143E-3,2.4413561E-2,-9.342401E-3,1.449914E-3,-1.5116617E-3,9.278776E-3],"split_indices":[5,4,4,2,6,7,6,0,0,0,0,0,0,0,0],"split_type":[0,0,0,0,0,0,0,0,0,0,0,0,0,0,0],"sum_hessian":[1.1271244E4,1.7299749E3,9.541269E3,9.317041E2,7.982707E2,5.38557E3,4.155699E3,1.9590349E2,7.358006E2,9.59237E1,7.02347E2,4.3333696E3,1.0522003E3,2.2015613E3,1.954138E3],"tree_param":{"num_deleted":"0","num_feature":"8","num_nodes":"15","size_leaf_vector":"1"}},{"base_weights":[-3.4370567E-3,4.2456147E-1,-5.4823864E-2,-5.0152466E-2,5.110782E-1,-1.1513577E-1,2.1002239E-1,2.3155995E-2,-8.682327E-3,3.3793878E-3,2.357158E-2,-1.2197549E-2,-2.717412E-3,1.6861167E-2,-6.479504E-4],"categories":[],"categories_nodes":[],"categories_segments":[],"categories_sizes":[],"default_left":[0,0,0,0,0,0,0,0,0,0,0,0,0,0,0],"id":24,"left_children":[1,3,5,7,9,11,13,-1,-1,-1,-1,-1,-1,-1,-1],"loss_changes":[2.4814458E2,4.9697433E1,1.6092667E2,1.9795948E1,3.4084473E1,7.3489624E1,8.9422585E1,0E0,0E0,0E0,0E0,0E0,0E0,0E0,0E0],"parents":[2147483647,0,0,1,1,2,2,3,3,4,4,5,5,6,6],"right_children":[2,4,6,8,10,12,14,-1,-1,-1,-1,-1,-1,-1,-1],"split_conditions":[-1.1496063E1,5.6805855E-1,1.1060879E0,1.9674707E1,-5.07696E-1,8.3024085E-1,2.671875E1,2.3155995E-2,-8.682327E-3,3.3793878E-3,2.357158E-2,-1.2197549E-2,-2.717412E-3,1.6861167E-2,-6.479504E-4],"split_indices":[5,2,4,3,6,4,3,0,0,0,0,0,0,0,0],"split_type":[0,0,0,0,0,0,0,0,0,0,0,0,0,0,0],"sum_hessian":[1.1280585E4,1.2084226E3,1.0072163E4,1.8634961E2,1.022073E3,8.20439E3,1.867773E3,3.8558342E1,1.4779128E2,1.5867601E2,8.6339703E2,1.6328594E3,6.5715303E3,9.648332E2,9.029397E2],"tree_param":{"num_deleted":"0","num_feature":"8","num_nodes":"15","size_leaf_vector":"1"}},{"base_weights":[-8.886366E-4,2.8214738E-1,-7.330599E-2,2.5085779E-2,3.9225423E-1,-1.828768E-1,1.8088698E-2,-7.0460366E-5,5.8351144E-2,4.2446107E-3,1.9974658E-2,3.495692E-3,-9.631968E-3,1.3034874E-4,3.547017E-2],"categories":[],"categories_nodes":[],"categories_segments":[],"categories_sizes":[],"default_left":[0,0,0,0,0,0,0,0,0,0,0,0,0,0,0],"id":25,"left_children":[1,3,5,7,9,11,13,-1,-1,-1,-1,-1,-1,-1,-1],"loss_changes":[2.3151764E2,6.5124725E1,9.007208E1,2.6605978E1,4.9324554E1,6.405499E1,6.318088E1,0E0,0E0,0E0,0E0,0E0,0E0,0E0,0E0],"parents":[2147483647,0,0,1,1,2,2,3,3,4,4,5,5,6,6],"right_children":[2,4,6,8,10,12,14,-1,-1,-1,-1,-1,-1,-1,-1],"split_conditions":[-7.8306346E0,7.3353153E-1,-3.920414E0,3.0450773E1,-2.2738165E-1,-2.3865072E1,1.2904968E1,-7.0460366E-5,5.8351144E-2,4.2446107E-3,1.9974658E-2,3.495692E-3,-9.631968E-3,1.3034874E-4,3.547017E-2],"split_indices":[5,2,7,7,6,7,1,0,0,0,0,0,0,0,0],"split_type":[0,0,0,0,0,0,0,0,0,0,0,0,0,0,0],"sum_hessian":[1.1293343E4,2.3002292E3,8.993113E3,6.9016345E2,1.6100659E3,4.0894148E3,4.9036987E3,6.7845746E2,1.1706002E1,4.3908575E2,1.1709801E3,7.2164954E2,3.3677654E3,4.822374E3,8.132449E1],"tree_param":{"num_deleted":"0","num_feature":"8","num_nodes":"15","size_leaf_vector":"1"}},{"base_weights":[4.9172626E-3,2.5604755E-1,-7.1916685E-2,9.793414E-2,4.8262596E-1,-1.3648634E-1,1.6622967E-1,-6.818218E-3,7.334092E-3,6.557156E-3,2.2478988E-2,-5.8306907E-3,4.236915E-2,9.025791E-3,-1.767049E-2],"categories":[],"categories_nodes":[],"categories_segments":[],"categories_sizes":[],"default_left":[0,0,0,0,0,0,0,0,0,0,0,0,0,0,0],"id":26,"left_children":[1,3,5,7,9,11,13,-1,-1,-1,-1,-1,-1,-1,-1],"loss_changes":[2.166836E2,9.420398E1,1.3225006E2,3.558397E1,2.7246155E1,7.5232285E1,6.637373E1,0E0,0E0,0E0,0E0,0E0,0E0,0E0,0E0],"parents":[2147483647,0,0,1,1,2,2,3,3,4,4,5,5,6,6],"right_children":[2,4,6,8,10,12,14,-1,-1,-1,-1,-1,-1,-1,-1],"split_conditions":[-6.8887286E0,1.0086259E0,1.0955179E0,8.191162E-1,-4.122395E-1,2.70977E1,4.9365864E1,-6.818218E-3,7.334092E-3,6.557156E-3,2.2478988E-2,-5.8306907E-3,4.236915E-2,9.025791E-3,-1.767049E-2],"split_indices":[5,4,4,4,6,5,3,0,0,0,0,0,0,0,0],"split_type":[0,0,0,0,0,0,0,0,0,0,0,0,0,0,0],"sum_hessian":[1.1227893E4,2.6298726E3,8.59802E3,1.5498038E3,1.0800686E3,6.7643887E3,1.8336311E3,3.7392157E2,1.1758823E3,2.1591835E2,8.6415027E2,6.7131606E3,5.12283E1,1.6709672E3,1.6266394E2],"tree_param":{"num_deleted":"0","num_feature":"8","num_nodes":"15","size_leaf_vector":"1"}},{"base_weights":[6.220574E-3,3.793629E-1,-3.6463436E-2,1.7132129E-1,5.4475504E-1,-1.8358909E-1,5.121815E-2,9.34869E-3,-1.7323948E-2,3.2200217E-2,1.5135538E-2,-7.726374E-3,5.825792E-2,9.2385085E-3,-9.2801097E-4],"categories":[],"categories_nodes":[],"categories_segments":[],"categories_sizes":[],"default_left":[0,0,0,0,0,0,0,0,0,0,0,0,0,0,0],"id":27,"left_children":[1,3,5,7,9,11,13,-1,-1,-1,-1,-1,-1,-1,-1],"loss_changes":[1.7905551E2,3.9613525E1,1.3015005E2,1.9431362E1,2.7510773E1,5.9412437E1,8.456887E1,0E0,0E0,0E0,0E0,0E0,0E0,0E0,0E0],"parents":[2147483647,0,0,1,1,2,2,3,3,4,4,5,5,6,6],"right_children":[2,4,6,8,10,12,14,-1,-1,-1,-1,-1,-1,-1,-1],"split_conditions":[-1.1710447E1,2.9700151E1,9.26567E-1,-6.331324E0,-1.5143126E1,2.2951422E1,-2.8449502E0,9.34869E-3,-1.7323948E-2,3.2200217E-2,1.5135538E-2,-7.726374E-3,5.825792E-2,9.2385085E-3,-9.2801097E-4],"split_indices":[5,0,4,1,5,5,5,0,0,0,0,0,0,0,0],"split_type":[0,0,0,0,0,0,0,0,0,0,0,0,0,0,0],"sum_hessian":[1.1240244E4,1.1529861E3,1.0087258E4,5.1155402E2,6.414321E2,3.7663699E3,6.320888E3,4.642423E2,4.731171E1,2.486404E2,3.9279172E2,3.745396E3,2.0973654E1,1.8501277E3,4.4707603E3],"tree_param":{"num_deleted":"0","num_feature":"8","num_nodes":"15","size_leaf_vector":"1"}},{"base_weights":[3.401416E-3,2.3079251E-1,-7.302205E-2,-1.4449826E-2,3.096707E-1,-1.0506698E-1,2.830382E-1,-3.712791E-3,1.2598117E-2,6.907656E-3,1.9619275E-2,-8.1768995E-3,-7.5330114E-4,3.59378E-2,7.9016E-3],"categories":[],"categories_nodes":[],"categories_segments":[],"categories_sizes":[],"default_left":[0,0,0,0,0,0,0,0,0,0,0,0,0,0,0],"id":28,"left_children":[1,3,5,7,9,11,13,-1,-1,-1,-1,-1,-1,-1,-1],"loss_changes":[1.9518596E2,5.4658035E1,9.5947235E1,1.7803688E1,5.286264E1,6.608115E1,3.6357887E1,0E0,0E0,0E0,0E0,0E0,0E0,0E0,0E0],"parents":[2147483647,0,0,1,1,2,2,3,3,4,4,5,5,6,6],"right_children":[2,4,6,8,10,12,14,-1,-1,-1,-1,-1,-1,-1,-1],"split_conditions":[-6.4787855E0,6.6637063E-1,6.584424E0,1.4804697E0,3.5490963E1,-3.920414E0,6.3177364E1,-3.712791E-3,1.2598117E-2,6.907656E-3,1.9619275E-2,-8.1768995E-3,-7.5330114E-4,3.59378E-2,7.9016E-3],"split_indices":[5,2,1,7,0,7,0,0,0,0,0,0,0,0,0],"split_type":[0,0,0,0,0,0,0,0,0,0,0,0,0,0,0],"sum_hessian":[1.1229806E4,2.8243096E3,8.405496E3,6.8752466E2,2.136785E3,7.712121E3,6.9337524E2,5.5596924E2,1.3155537E2,1.216865E3,9.1991986E2,3.5828035E3,4.129318E3,8.341985E1,6.099554E2],"tree_param":{"num_deleted":"0","num_feature":"8","num_nodes":"15","size_leaf_vector":"1"}},{"base_weights":[4.663968E-3,-9.8825686E-2,1.3911851E-1,-1.6819958E-1,9.74061E-2,3.383566E-1,1.1942799E-3,2.7054795E-3,-8.851043E-3,3.58025E-3,6.659689E-2,3.732506E-3,1.6973238E-2,-3.7299336E-3,8.947061E-3],"categories":[],"categories_nodes":[],"categories_segments":[],"categories_sizes":[],"default_left":[0,0,0,0,0,0,0,0,0,0,0,0,0,0,0],"id":29,"left_children":[1,3,5,7,9,11,13,-1,-1,-1,-1,-1,-1,-1,-1],"loss_changes":[1.5664864E2,8.661717E1,1.3455084E2,5.8849945E1,2.0434093E1,4.2158035E1,6.083746E1,0E0,0E0,0E0,0E0,0E0,0E0,0E0,0E0],"parents":[2147483647,0,0,1,1,2,2,3,3,4,4,5,5,6,6],"right_children":[2,4,6,8,10,12,14,-1,-1,-1,-1,-1,-1,-1,-1],"split_conditions":[1.0046681E0,2.7578524E1,-1.4855733E0,-3.4834402E0,8.094904E1,-3.020596E-1,1.1495162E0,2.7054795E-3,-8.851043E-3,3.58025E-3,6.659689E-2,3.732506E-3,1.6973238E-2,-3.7299336E-3,8.947061E-3],"split_indices":[4,3,5,1,0,6,4,0,0,0,0,0,0,0,0],"split_type":[0,0,0,0,0,0,0,0,0,0,0,0,0,0,0],"sum_hessian":[1.1255829E4,6.3604536E3,4.895376E3,4.6992637E3,1.6611897E3,2.001975E3,2.8934011E3,8.632558E2,3.836008E3,1.6539116E3,7.278152E0,5.205083E2,1.4814667E3,2.0315844E3,8.6181665E2],"tree_param":{"num_deleted":"0","num_feature":"8","num_nodes":"15","size_leaf_vector":"1"}},{"base_weights":[2.717171E-5,3.5893604E-1,-3.5602834E-2,-5.8776468E-2,4.3825912E-1,-1.0971542E-1,7.795681E-2,-1.3304006E-2,1.8990869E-2,3.131124E-2,1.1715291E-2,-6.1944243E-3,3.899531E-3,1.3436399E-2,5.284679E-4],"categories":[],"categories_nodes":[],"categories_segments":[],"categories_sizes":[],"default_left":[0,0,0,0,0,0,0,0,0,0,0,0,0,0,0],"id":30,"left_children":[1,3,5,7,9,11,13,-1,-1,-1,-1,-1,-1,-1,-1],"loss_changes":[1.4335052E2,3.3568817E1,8.583272E1,2.3890543E1,4.2388214E1,5.7739037E1,6.72617E1,0E0,0E0,0E0,0E0,0E0,0E0,0E0,0E0],"parents":[2147483647,0,0,1,1,2,2,3,3,4,4,5,5,6,6],"right_children":[2,4,6,8,10,12,14,-1,-1,-1,-1,-1,-1,-1,-1],"split_conditions":[-1.244488E1,2.171212E1,1.6965778E0,-2.7853325E1,-1.7369564E1,3.0366684E1,-2.7714932E0,-1.3304006E-2,1.8990869E-2,3.131124E-2,1.1715291E-2,-6.1944243E-3,3.899531E-3,1.3436399E-2,5.284679E-4],"split_indices":[5,0,7,7,5,3,5,0,0,0,0,0,0,0,0],"split_type":[0,0,0,0,0,0,0,0,0,0,0,0,0,0,0],"sum_hessian":[1.1207836E4,1.0113376E3,1.0196499E4,1.614431E2,8.498945E2,6.1698774E3,4.0266213E3,1.0693786E2,5.4505238E1,2.5090404E2,5.989904E2,5.0662944E3,1.1035831E3,8.0704755E2,3.2195737E3],"tree_param":{"num_deleted":"0","num_feature":"8","num_nodes":"15","size_leaf_vector":"1"}},{"base_weights":[7.8913785E-4,1.9104926E-1,-5.5724125E-2,1.3854335E-1,7.203277E-1,-7.379034E-2,4.7339523E-1,1.0594049E-2,-4.2150507E-4,3.4631234E-2,8.04883E-3,-5.68444E-3,1.3584476E-3,2.802389E-2,2.5897212E-3],"categories":[],"categories_nodes":[],"categories_segments":[],"categories_sizes":[],"default_left":[0,0,0,0,0,0,0,0,0,0,0,0,0,0,0],"id":31,"left_children":[1,3,5,7,9,11,13,-1,-1,-1,-1,-1,-1,-1,-1],"loss_changes":[1.20722E2,7.13552E1,8.278324E1,4.407296E1,1.732911E1,6.163276E1,2.6503258E1,0E0,0E0,0E0,0E0,0E0,0E0,0E0,0E0],"parents":[2147483647,0,0,1,1,2,2,3,3,4,4,5,5,6,6],"right_children":[2,4,6,8,10,12,14,-1,-1,-1,-1,-1,-1,-1,-1],"split_conditions":[-3.428517E0,4.0254612E1,9.343296E0,-5.5717325E0,2.8569025E1,3.36571E0,2.1709297E0,1.0594049E-2,-4.2150507E-4,3.4631234E-2,8.04883E-3,-5.68444E-3,1.3584476E-3,2.802389E-2,2.5897212E-3],"split_indices":[1,0,1,1,3,7,2,0,0,0,0,0,0,0,0],"split_type":[0,0,0,0,0,0,0,0,0,0,0,0,0,0,0],"sum_hessian":[1.1225645E4,2.5702256E3,8.655419E3,2.3394111E3,2.3081442E2,8.370479E3,2.8494058E2,1.2660132E3,1.0733978E3,1.797741E2,5.1040333E1,5.122317E3,3.2481619E3,1.826671E2,1.02273476E2],"tree_param":{"num_deleted":"0","num_feature":"8","num_nodes":"15","size_leaf_vector":"1"}},{"base_weights":[3.6679825E-3,2.0152599E-1,-6.585693E-2,-1.3324705E-1,2.7166384E-1,-1.2689364E-1,1.5134367E-1,2.14678E-2,-8.033369E-3,1.8493261E-2,7.6440815E-3,-5.7163695E-3,1.9292938E-2,7.0192087E-3,-4.398701E-2],"categories":[],"categories_nodes":[],"categories_segments":[],"categories_sizes":[],"default_left":[0,0,0,0,0,0,0,0,0,0,0,0,0,0,0],"id":32,"left_children":[1,3,5,7,9,11,13,-1,-1,-1,-1,-1,-1,-1,-1],"loss_changes":[1.5403932E2,6.840319E1,1.0987213E2,2.2975117E1,3.6894485E1,6.3187485E1,5.509434E1,0E0,0E0,0E0,0E0,0E0,0E0,0E0,0E0],"parents":[2147483647,0,0,1,1,2,2,3,3,4,4,5,5,6,6],"right_children":[2,4,6,8,10,12,14,-1,-1,-1,-1,-1,-1,-1,-1],"split_conditions":[-6.2747755E0,8.350506E-1,1.0955179E0,-5.1954082E1,-1.3587278E1,1.9440527E1,8.533736E1,2.14678E-2,-8.033369E-3,1.8493261E-2,7.6440815E-3,-5.7163695E-3,1.9292938E-2,7.0192087E-3,-4.398701E-2],"split_indices":[5,4,4,7,5,5,3,0,0,0,0,0,0,0,0],"split_type":[0,0,0,0,0,0,0,0,0,0,0,0,0,0,0],"sum_hessian":[1.1195959E4,2.91068E3,8.285278E3,5.0402628E2,2.4066538E3,6.4680684E3,1.8172106E3,4.5552902E1,4.5847336E2,7.134274E2,1.6932263E3,6.303132E3,1.6493648E2,1.7836573E3,3.355328E1],"tree_param":{"num_deleted":"0","num_feature":"8","num_nodes":"15","size_leaf_vector":"1"}},{"base_weights":[1.5002438E-3,-5.4602124E-2,2.0834662E-1,1.3430108E-1,-1.1343165E-1,2.6130942E-1,-3.3816016E-1,3.9536012E-3,2.436618E-2,-4.88079E-3,4.6988E-2,-3.3268612E-2,1.1343416E-2,-1.9270016E-2,5.3280517E-2],"categories":[],"categories_nodes":[],"categories_segments":[],"categories_sizes":[],"default_left":[0,0,0,0,0,0,0,0,0,0,0,0,0,0,0],"id":33,"left_children":[1,3,5,7,9,11,13,-1,-1,-1,-1,-1,-1,-1,-1],"loss_changes":[1.301246E2,9.8041595E1,6.933623E1,3.5219597E1,7.455774E1,5.33546E1,5.1437172E1,0E0,0E0,0E0,0E0,0E0,0E0,0E0,0E0],"parents":[2147483647,0,0,1,1,2,2,3,3,4,4,5,5,6,6],"right_children":[2,4,6,8,10,12,14,-1,-1,-1,-1,-1,-1,-1,-1],"split_conditions":[1.0955179E0,-3.428517E0,4.9365864E1,4.0254612E1,1.1526479E1,7.6186786E0,5.0783615E1,3.9536012E-3,2.436618E-2,-4.88079E-3,4.6988E-2,-3.3268612E-2,1.1343416E-2,-1.9270016E-2,5.3280517E-2],"split_indices":[4,1,3,0,1,3,7,0,0,0,0,0,0,0,0],"split_type":[0,0,0,0,0,0,0,0,0,0,0,0,0,0,0],"sum_hessian":[1.1211239E4,8.819805E3,2.3914348E3,2.09415E3,6.725655E3,2.180629E3,2.1080614E2,1.9497545E3,1.4439536E2,6.6820103E3,4.3644386E1,4.2828102E1,2.1378008E3,1.9477246E2,1.6033669E1],"tree_param":{"num_deleted":"0","num_feature":"8","num_nodes":"15","size_leaf_vector":"1"}},{"base_weights":[4.5738807E-3,-1.3381079E-1,8.337311E-2,-1.8220213E-1,2.997881E-1,3.6480156E-1,2.2930564E-2,3.4405125E-4,-1.134513E-2,1.0193221E-2,7.4636474E-2,-9.712419E-3,1.6544765E-2,-1.438778E-3,7.9296995E-3],"categories":[],"categories_nodes":[],"categories_segments":[],"categories_sizes":[],"default_left":[0,0,0,0,0,0,0,0,0,0,0,0,0,0,0],"id":34,"left_children":[1,3,5,7,9,11,13,-1,-1,-1,-1,-1,-1,-1,-1],"loss_changes":[1.2211681E2,8.530908E1,1.2136809E2,7.075153E1,2.8273418E1,3.7518692E1,6.0671707E1,0E0,0E0,0E0,0E0,0E0,0E0,0E0,0E0],"parents":[2147483647,0,0,1,1,2,2,3,3,4,4,5,5,6,6],"right_children":[2,4,6,8,10,12,14,-1,-1,-1,-1,-1,-1,-1,-1],"split_conditions":[9.26567E-1,8.407916E0,-1.4703865E1,-2.5493455E0,7.2817825E1,-1.0727788E0,1.1325138E0,3.4405125E-4,-1.134513E-2,1.0193221E-2,7.4636474E-2,-9.712419E-3,1.6544765E-2,-1.438778E-3,7.9296995E-3],"split_indices":[4,7,7,1,7,6,4,0,0,0,0,0,0,0,0],"split_type":[0,0,0,0,0,0,0,0,0,0,0,0,0,0,0],"sum_hessian":[1.1196623E4,4.0621348E3,7.134489E3,3.654822E3,4.0731274E2,1.2604822E3,5.8740063E3,1.2688218E3,2.3860002E3,3.9707687E2,1.0235869E1,9.344442E1,1.1670377E3,4.3973965E3,1.4766102E3],"tree_param":{"num_deleted":"0","num_feature":"8","num_nodes":"15","size_leaf_vector":"1"}}]},"name":"gbtree"},"learner_model_param":{"base_score":"[2.7446383E-1]","boost_from_average":"1","num_class":"0","num_feature":"8","num_target":"1"},"objective":{"name":"binary:logistic","reg_loss_param":{"scale_pos_weight":"1"}}},"version":[3,2,0]}