{"learner":{"attributes":{"best_iteration":"0","best_score":"0.6934493125211733","scikit_learn":"{\"_estimator_type\": \"classifier\"}"},"feature_names":["Feature_RSI","Feature_EMA_Dist","Feature_Volume_Ratio","Feature_Delivery_Ratio","Feature_ADX_14","Feature_ATR_Ratio","Feature_ROC_20","Feature_MACD_Hist_Accel","Feature_Close_Strength","Feature_Relative_Strength"],"feature_types":["float","float","float","float","float","float","float","float","float","float"],"gradient_booster":{"model":{"cats":{"enc":[],"feature_segments":[],"sorted_idx":[]},"gbtree_model_param":{"num_parallel_tree":"1","num_trees":"21"},"iteration_indptr":[0,1,2,3,4,5,6,7,8,9,10,11,12,13,14,15,16,17,18,19,20,21],"tree_info":[0,0,0,0,0,0,0,0,0,0,0,0,0,0,0,0,0,0,0,0,0],"trees":[{"base_weights":[8.6857955E-4,-1.5864462E-1,2.256528E-1,3.0911312E-1,-3.5010484E-1,2.0683946E-1,1.306579E0,2.7731985E-3,1.8896243E-2,-1.7112266E-2,9.646062E-3,3.0130372E-4,1.0871204E-2,-5.7142857E-2,5.505026E-2],"categories":[],"categories_nodes":[],"categories_segments":[],"categories_sizes":[],"default_left":[0,0,0,0,0,0,0,0,0,0,0,0,0,0,0],"id":0,"left_children":[1,3,5,7,9,11,13,-1,-1,-1,-1,-1,-1,-1,-1],"loss_changes":[6.126515E2,8.9516187E2,1.439552E2,1.1364215E2,3.2592285E2,9.023801E1,2.5052505E1,0E0,0E0,0E0,0E0,0E0,0E0,0E0,0E0],"parents":[2147483647,0,0,1,1,2,2,3,3,4,4,5,5,6,6],"right_children":[2,4,6,8,10,12,14,-1,-1,-1,-1,-1,-1,-1,-1],"split_conditions":[-3.1080093E0,-3.823205E0,2.8758379E1,2.4274271E1,3.2997696E1,6.222673E-1,9.01372E0,2.7731985E-3,1.8896243E-2,-1.7112266E-2,9.646062E-3,3.0130372E-4,1.0871204E-2,-5.7142857E-2,5.505026E-2],"split_indices":[9,1,6,4,4,2,9,0,0,0,0,0,0,0,0],"split_type":[0,0,0,0,0,0,0,0,0,0,0,0,0,0,0],"sum_hessian":[1.708442E4,9.993234E3,7.0911855E3,2.9022102E3,7.091024E3,6.9710474E3,1.2013853E2,1.1763115E3,1.7258987E3,6.267621E3,8.23403E2,1.7134572E3,5.25759E3,2.5E0,1.1763853E2],"tree_param":{"num_deleted":"0","num_feature":"10","num_nodes":"15","size_leaf_vector":"1"}},{"base_weights":[-3.769603E-4,-1.5807123E-1,2.2224082E-1,2.8369316E-1,-3.2780814E-1,1.9577976E-1,9.298815E-1,-4.249783E-3,1.5389235E-2,2.102773E-2,-1.5019516E-2,2.398684E-2,6.565888E-3,7.0622656E-3,5.0483033E-2],"categories":[],"categories_nodes":[],"categories_segments":[],"categories_sizes":[],"default_left":[0,0,0,0,0,0,0,0,0,0,0,0,0,0,0],"id":1,"left_children":[1,3,5,7,9,11,13,-1,-1,-1,-1,-1,-1,-1,-1],"loss_changes":[6.0126556E2,7.518497E2,1.32798E2,1.09701706E2,2.9495825E2,8.738025E1,6.377121E1,0E0,0E0,0E0,0E0,0E0,0E0,0E0,0E0],"parents":[2147483647,0,0,1,1,2,2,3,3,4,4,5,5,6,6],"right_children":[2,4,6,8,10,12,14,-1,-1,-1,-1,-1,-1,-1,-1],"split_conditions":[-3.1080093E0,-3.9306486E0,9.8345995E0,8.1939113E-1,-4.1222332E1,-8.67362E0,1.9158773E1,-4.249783E-3,1.5389235E-2,2.102773E-2,-1.5019516E-2,2.398684E-2,6.565888E-3,7.0622656E-3,5.0483033E-2],"split_indices":[9,1,1,5,9,6,6,0,0,0,0,0,0,0,0],"split_type":[0,0,0,0,0,0,0,0,0,0,0,0,0,0,0],"sum_hessian":[1.7125365E4,1.0024598E4,7.100768E3,2.782382E3,7.242216E3,6.846048E3,2.5472E2,5.72575E2,2.2098071E3,3.826414E2,6.859574E3,4.9593155E2,6.350116E3,7.841898E1,1.7630101E2],"tree_param":{"num_deleted":"0","num_feature":"10","num_nodes":"15","size_leaf_vector":"1"}},{"base_weights":[8.031949E-3,-1.4231719E-1,2.2228183E-1,3.559584E-1,-2.7557412E-1,2.0443314E-1,1.2381455E0,1.901424E-2,5.1291967E-3,-4.4816923E-3,-1.6962674E-2,2.5550725E-2,7.1660834E-3,-5.4538306E-2,5.193816E-2],"categories":[],"categories_nodes":[],"categories_segments":[],"categories_sizes":[],"default_left":[0,0,0,0,0,0,0,0,0,0,0,0,0,0,0],"id":2,"left_children":[1,3,5,7,9,11,13,-1,-1,-1,-1,-1,-1,-1,-1],"loss_changes":[5.523049E2,6.690936E2,1.2794559E2,5.7756653E1,1.9300525E2,7.6194E1,2.0893723E1,0E0,0E0,0E0,0E0,0E0,0E0,0E0,0E0],"parents":[2147483647,0,0,1,1,2,2,3,3,4,4,5,5,6,6],"right_children":[2,4,6,8,10,12,14,-1,-1,-1,-1,-1,-1,-1,-1],"split_conditions":[-3.1080093E0,-9.49307E0,2.8758379E1,-1.8868301E1,-1.5488523E1,-9.6514015E0,9.01372E0,1.901424E-2,5.1291967E-3,-4.4816923E-3,-1.6962674E-2,2.5550725E-2,7.1660834E-3,-5.4538306E-2,5.193816E-2],"split_indices":[9,6,6,9,9,6,9,0,0,0,0,0,0,0,0],"split_type":[0,0,0,0,0,0,0,0,0,0,0,0,0,0,0],"sum_hessian":[1.71438E4,1.0074436E4,7.069366E3,2.1254102E3,7.9490254E3,6.948483E3,1.2088334E2,1.39364E3,7.317702E2,3.7837822E3,4.165243E3,3.808647E2,6.567618E3,2.2491896E0,1.18634155E2],"tree_param":{"num_deleted":"0","num_feature":"10","num_nodes":"15","size_leaf_vector":"1"}},{"base_weights":[1.0479559E-2,-1.336953E-1,2.1392933E-1,-3.3007085E-1,1.8340228E-1,1.9884822E-1,1.1577294E0,3.0286246E-4,-1.8325217E-2,1.9213032E-2,-1.0641889E-3,2.4265975E-2,6.7272084E-3,-2.608198E-2,4.9600337E-2],"categories":[],"categories_nodes":[],"categories_segments":[],"categories_sizes":[],"default_left":[0,0,0,0,0,0,0,0,0,0,0,0,0,0,0],"id":3,"left_children":[1,3,5,7,9,11,13,-1,-1,-1,-1,-1,-1,-1,-1],"loss_changes":[5.0278595E2,6.2475165E2,1.009574E2,2.678921E2,2.3929243E2,8.7424225E1,1.7427017E1,0E0,0E0,0E0,0E0,0E0,0E0,0E0,0E0],"parents":[2147483647,0,0,1,1,2,2,3,3,4,4,5,5,6,6],"right_children":[2,4,6,8,10,12,14,-1,-1,-1,-1,-1,-1,-1,-1],"split_conditions":[-3.1080093E0,2.5206331E1,2.8758379E1,-6.1676054E0,-2.2117447E1,-8.795617E0,1.1154337E0,3.0286246E-4,-1.8325217E-2,1.9213032E-2,-1.0641889E-3,2.4265975E-2,6.7272084E-3,-2.608198E-2,4.9600337E-2],"split_indices":[9,4,6,6,9,6,5,0,0,0,0,0,0,0,0],"split_type":[0,0,0,0,0,0,0,0,0,0,0,0,0,0,0],"sum_hessian":[1.7139035E4,1.0030941E4,7.108093E3,6.1946265E3,3.836315E3,6.9974897E3,1.1060312E2,1.7036683E3,4.490958E3,1.5887438E3,2.247571E3,4.8811423E2,6.5093755E3,4.5086117E0,1.0609451E2],"tree_param":{"num_deleted":"0","num_feature":"10","num_nodes":"15","size_leaf_vector":"1"}},{"base_weights":[1.2069577E-2,-6.369329E-2,3.44896E-1,2.3110448E-1,-1.4764577E-1,-6.0850984E-1,3.8025075E-1,-1.116193E-2,1.2630507E-2,-8.009039E-3,4.4153803E-3,-1.2005459E-2,-6.787814E-2,1.3340842E-2,4.6464697E-2],"categories":[],"categories_nodes":[],"categories_segments":[],"categories_sizes":[],"default_left":[0,0,0,0,0,0,0,0,0,0,0,0,0,0,0],"id":4,"left_children":[1,3,5,7,9,11,13,-1,-1,-1,-1,-1,-1,-1,-1],"loss_changes":[4.333155E2,3.4646994E2,1.07636444E2,1.3410812E2,1.4784903E2,3.7861584E1,1.1181961E2,0E0,0E0,0E0,0E0,0E0,0E0,0E0,0E0],"parents":[2147483647,0,0,1,1,2,2,3,3,4,4,5,5,6,6],"right_children":[2,4,6,8,10,12,14,-1,-1,-1,-1,-1,-1,-1,-1],"split_conditions":[3.2997696E1,-3.3851173E0,3.130842E-1,1.6545334E1,3.025913E0,5.8445057E1,2.3214378E1,-1.116193E-2,1.2630507E-2,-8.009039E-3,4.4153803E-3,-1.2005459E-2,-6.787814E-2,1.3340842E-2,4.6464697E-2],"split_indices":[4,1,2,4,1,0,6,0,0,0,0,0,0,0,0],"split_type":[0,0,0,0,0,0,0,0,0,0,0,0,0,0,0],"sum_hessian":[1.7182357E4,1.3996969E4,3.1853882E3,3.1021318E3,1.0894837E4,1.13319176E2,3.072069E3,4.4119327E2,2.6609385E3,9.050743E3,1.8440938E3,8.929597E1,2.402321E1,2.9000579E3,1.7201135E2],"tree_param":{"num_deleted":"0","num_feature":"10","num_nodes":"15","size_leaf_vector":"1"}},{"base_weights":[4.8333737E-3,-9.404948E-2,2.655833E-1,-2.0725003E-1,2.8086665E-1,-1.5382697E-1,3.1362197E-1,3.4724656E-3,-1.1997088E-2,2.3254255E-2,7.1509713E-3,1.7602643E-2,-2.2085099E-2,-1.6802946E-3,1.4497256E-2],"categories":[],"categories_nodes":[],"categories_segments":[],"categories_sizes":[],"default_left":[0,0,0,0,0,0,0,0,0,0,0,0,0,0,0],"id":5,"left_children":[1,3,5,7,9,11,13,-1,-1,-1,-1,-1,-1,-1,-1],"loss_changes":[4.4202158E2,5.2758813E2,9.501892E1,2.60229E2,8.8341644E1,1.1498868E2,7.343268E1,0E0,0E0,0E0,0E0,0E0,0E0,0E0,0E0],"parents":[2147483647,0,0,1,1,2,2,3,3,4,4,5,5,6,6],"right_children":[2,4,6,8,10,12,14,-1,-1,-1,-1,-1,-1,-1,-1],"split_conditions":[4.8925953E0,2.9753302E1,4.7146738E-1,-3.4340534E0,-6.0746856E0,2.2207829E1,1.540937E1,3.4724656E-3,-1.1997088E-2,2.3254255E-2,7.1509713E-3,1.7602643E-2,-2.2085099E-2,-1.6802946E-3,1.4497256E-2],"split_indices":[9,4,2,1,1,4,4,0,0,0,0,0,0,0,0],"split_type":[0,0,0,0,0,0,0,0,0,0,0,0,0,0,0],"sum_hessian":[1.714148E4,1.2428808E4,4.7126733E3,9.546751E3,2.882057E3,4.840844E2,4.228589E3,2.287776E3,7.258975E3,7.296817E2,2.1523752E3,1.9428598E2,2.8979843E2,5.103413E2,3.7182478E3],"tree_param":{"num_deleted":"0","num_feature":"10","num_nodes":"15","size_leaf_vector":"1"}},{"base_weights":[-3.7401784E-3,-1.418407E-1,1.9159673E-1,2.4449334E-1,-2.9136565E-1,1.7634398E-1,1.0878206E0,-4.728514E-2,1.0845878E-2,-1.6919568E-2,-3.1640305E-4,2.6590701E-2,6.3186036E-3,-5.5300057E-2,4.5917347E-2],"categories":[],"categories_nodes":[],"categories_segments":[],"categories_sizes":[],"default_left":[0,0,0,0,0,0,0,0,0,0,0,0,0,0,0],"id":6,"left_children":[1,3,5,7,9,11,13,-1,-1,-1,-1,-1,-1,-1,-1],"loss_changes":[4.5863412E2,5.7542206E2,9.606531E1,1.0601915E2,2.679226E2,6.205771E1,1.9056519E1,0E0,0E0,0E0,0E0,0E0,0E0,0E0,0E0],"parents":[2147483647,0,0,1,1,2,2,3,3,4,4,5,5,6,6],"right_children":[2,4,6,8,10,12,14,-1,-1,-1,-1,-1,-1,-1,-1],"split_conditions":[-3.1080093E0,-3.9306486E0,2.8758379E1,1.3139372E1,2.5206331E1,-1.16412115E1,7.401798E0,-4.728514E-2,1.0845878E-2,-1.6919568E-2,-3.1640305E-4,2.6590701E-2,6.3186036E-3,-5.5300057E-2,4.5917347E-2],"split_indices":[9,1,6,0,4,6,9,0,0,0,0,0,0,0,0],"split_type":[0,0,0,0,0,0,0,0,0,0,0,0,0,0,0],"sum_hessian":[1.6999475E4,9.958925E3,7.0405493E3,2.7787402E3,7.1801846E3,6.9239087E3,1.1664062E2,5.0168053E1,2.728572E3,4.9029775E3,2.2772068E3,2.4981593E2,6.674093E3,2.248324E0,1.1439229E2],"tree_param":{"num_deleted":"0","num_feature":"10","num_nodes":"15","size_leaf_vector":"1"}},{"base_weights":[8.417669E-3,-1.1663568E-1,1.7813846E-1,2.5335366E-1,-2.6251817E-1,1.5656047E-1,7.8924406E-1,-4.3587547E-2,1.10846115E-2,1.556913E-2,-1.2459216E-2,1.4514141E-2,4.6936567E-3,1.3142075E-2,4.252507E-2],"categories":[],"categories_nodes":[],"categories_segments":[],"categories_sizes":[],"default_left":[0,0,0,0,0,0,0,0,0,0,0,0,0,0,0],"id":7,"left_children":[1,3,5,7,9,11,13,-1,-1,-1,-1,-1,-1,-1,-1],"loss_changes":[3.6365744E2,5.3254486E2,9.57269E1,8.934828E1,2.2592276E2,5.6771408E1,3.0899506E1,0E0,0E0,0E0,0E0,0E0,0E0,0E0,0E0],"parents":[2147483647,0,0,1,1,2,2,3,3,4,4,5,5,6,6],"right_children":[2,4,6,8,10,12,14,-1,-1,-1,-1,-1,-1,-1,-1],"split_conditions":[-3.6288388E0,-3.9306486E0,9.8345995E0,1.3139372E1,-3.7842392E1,-2.6659546E0,2.5704346E1,-4.3587547E-2,1.10846115E-2,1.556913E-2,-1.2459216E-2,1.4514141E-2,4.6936567E-3,1.3142075E-2,4.252507E-2],"split_indices":[9,1,1,0,9,1,9,0,0,0,0,0,0,0,0],"split_type":[0,0,0,0,0,0,0,0,0,0,0,0,0,0,0],"sum_hessian":[1.7132154E4,9.864284E3,7.26787E3,2.7892954E3,7.074989E3,7.021209E3,2.4666104E2,4.7711494E1,2.7415837E3,4.9388132E2,6.5811074E3,1.1202766E3,5.9009326E3,9.278651E1,1.5387453E2],"tree_param":{"num_deleted":"0","num_feature":"10","num_nodes":"15","size_leaf_vector":"1"}},{"base_weights":[4.2927465E-3,3.6202228E-1,-5.741292E-2,-3.0767241E-2,4.5024347E-1,-2.4558386E-1,1.4416113E-1,-4.951953E-2,1.7683115E-3,6.3082664E-3,2.1587964E-2,-2.1335648E-2,-4.61469E-3,5.113151E-3,4.2097516E-2],"categories":[],"categories_nodes":[],"categories_segments":[],"categories_sizes":[],"default_left":[0,0,0,0,0,0,0,0,0,0,0,0,0,0,0],"id":8,"left_children":[1,3,5,7,9,11,13,-1,-1,-1,-1,-1,-1,-1,-1],"loss_changes":[3.7763058E2,8.722662E1,5.5347E2,4.19195E1,5.3699036E1,2.8276672E2,1.04375336E2,0E0,0E0,0E0,0E0,0E0,0E0,0E0,0E0],"parents":[2147483647,0,0,1,1,2,2,3,3,4,4,5,5,6,6],"right_children":[2,4,6,8,10,12,14,-1,-1,-1,-1,-1,-1,-1,-1],"split_conditions":[-9.49307E0,8.3148205E-1,-4.1331005E0,-1.4877123E1,2.2766127E1,1.757877E1,2.8758379E1,-4.951953E-2,1.7683115E-3,6.3082664E-3,2.1587964E-2,-2.1335648E-2,-4.61469E-3,5.113151E-3,4.2097516E-2],"split_indices":[6,5,9,1,4,4,6,0,0,0,0,0,0,0,0],"split_type":[0,0,0,0,0,0,0,0,0,0,0,0,0,0,0],"sum_hessian":[1.710559E4,2.5157915E3,1.4589799E4,4.6153564E2,2.0542559E3,7.545654E3,7.044145E3,2.6080748E1,4.354549E2,4.817161E2,1.5725397E3,2.3495454E3,5.1961084E3,6.9208374E3,1.2330771E2],"tree_param":{"num_deleted":"0","num_feature":"10","num_nodes":"15","size_leaf_vector":"1"}},{"base_weights":[-6.206454E-3,-9.610878E-2,1.9924271E-1,2.812837E-1,-1.8357724E-1,1.8335445E-1,9.99494E-1,-3.486489E-3,1.4329094E-2,-1.0907527E-2,3.3198847E-4,1.4856098E-2,4.988579E-3,-1.9976513E-2,4.4606317E-2],"categories":[],"categories_nodes":[],"categories_segments":[],"categories_sizes":[],"default_left":[0,0,0,0,0,0,0,0,0,0,0,0,0,0,0],"id":9,"left_children":[1,3,5,7,9,11,13,-1,-1,-1,-1,-1,-1,-1,-1],"loss_changes":[3.1475125E2,3.9134317E2,6.576865E1,6.3273514E1,1.6455566E2,5.6052505E1,1.8024864E1,0E0,0E0,0E0,0E0,0E0,0E0,0E0,0E0],"parents":[2147483647,0,0,1,1,2,2,3,3,4,4,5,5,6,6],"right_children":[2,4,6,8,10,12,14,-1,-1,-1,-1,-1,-1,-1,-1],"split_conditions":[2.8807552E0,-9.49307E0,2.8758379E1,8.176393E-1,9.550943E-1,-2.396187E0,1.1193422E0,-3.486489E-3,1.4329094E-2,-1.0907527E-2,3.3198847E-4,1.4856098E-2,4.988579E-3,-1.9976513E-2,4.4606317E-2],"split_indices":[9,6,6,5,5,6,5,0,0,0,0,0,0,0,0],"split_type":[0,0,0,0,0,0,0,0,0,0,0,0,0,0,0],"sum_hessian":[1.703885E4,1.1852747E4,5.1861016E3,2.2298018E3,9.622945E3,5.086346E3,9.975562E1,3.8518842E2,1.8446134E3,6.5708906E3,3.0520552E3,1.2078026E3,3.8785435E3,6.908569E0,9.284705E1],"tree_param":{"num_deleted":"0","num_feature":"10","num_nodes":"15","size_leaf_vector":"1"}},{"base_weights":[1.272768E-2,-5.319978E-2,3.0297703E-1,-1.8781504E-1,1.2972878E-1,2.5923042E-2,4.057214E-1,5.035501E-3,-1.2757907E-2,-7.949471E-3,6.075363E-3,1.7783228E-2,-8.882688E-3,1.3733068E-2,2.6525585E-2],"categories":[],"categories_nodes":[],"categories_segments":[],"categories_sizes":[],"default_left":[0,0,0,0,0,0,0,0,0,0,0,0,0,0,0],"id":10,"left_children":[1,3,5,7,9,11,13,-1,-1,-1,-1,-1,-1,-1,-1],"loss_changes":[3.2736942E2,3.4333484E2,9.0130554E1,3.3044025E2,4.3044495E1,8.915001E1,3.6873352E1,0E0,0E0,0E0,0E0,0E0,0E0,0E0,0E0],"parents":[2147483647,0,0,1,1,2,2,3,3,4,4,5,5,6,6],"right_children":[2,4,6,8,10,12,14,-1,-1,-1,-1,-1,-1,-1,-1],"split_conditions":[3.2997696E1,-4.1331005E0,6.3779503E-1,-3.3851173E0,1.2717009E1,-1.2540068E1,2.1283016E1,5.035501E-3,-1.2757907E-2,-7.949471E-3,6.075363E-3,1.7783228E-2,-8.882688E-3,1.3733068E-2,2.6525585E-2],"split_indices":[4,9,2,1,4,9,9,0,0,0,0,0,0,0,0],"split_type":[0,0,0,0,0,0,0,0,0,0,0,0,0,0,0],"sum_hessian":[1.7106209E4,1.3940557E4,3.1656519E3,8.030769E3,5.9097876E3,8.567218E2,2.30893E3,2.3673962E3,5.6633726E3,3.7292865E2,5.536859E3,3.1840204E2,5.3831976E2,1.8603419E3,4.4858807E2],"tree_param":{"num_deleted":"0","num_feature":"10","num_nodes":"15","size_leaf_vector":"1"}},{"base_weights":[5.836902E-3,-3.3332694E-1,6.760716E-2,-5.522206E-1,-5.6993265E-2,3.0295634E-1,2.1616616E-3,3.8121727E-3,-2.9626431E-2,-5.4956816E-2,-1.8675641E-4,4.1579823E-3,1.6770411E-2,-7.229895E-3,7.125086E-3],"categories":[],"categories_nodes":[],"categories_segments":[],"categories_sizes":[],"default_left":[0,0,0,0,0,0,0,0,0,0,0,0,0,0,0],"id":11,"left_children":[1,3,5,7,9,11,13,-1,-1,-1,-1,-1,-1,-1,-1],"loss_changes":[3.5634015E2,1.5847598E2,2.2161603E2,1.7847586E2,7.9884026E1,7.241348E1,3.6240366E2,0E0,0E0,0E0,0E0,0E0,0E0,0E0,0E0],"parents":[2147483647,0,0,1,1,2,2,3,3,4,4,5,5,6,6],"right_children":[2,4,6,8,10,12,14,-1,-1,-1,-1,-1,-1,-1,-1],"split_conditions":[1.5331924E1,-5.387866E0,-3.9939373E0,-2.365101E1,7.587936E-1,2.4274271E1,-3.9656386E0,3.8121727E-3,-2.9626431E-2,-5.4956816E-2,-1.8675641E-4,4.1579823E-3,1.6770411E-2,-7.229895E-3,7.125086E-3],"split_indices":[4,9,1,9,5,4,9,0,0,0,0,0,0,0,0],"split_type":[0,0,0,0,0,0,0,0,0,0,0,0,0,0,0],"sum_hessian":[1.7006807E4,2.619491E3,1.4387315E4,1.461102E3,1.1583889E3,3.129535E3,1.125778E4,3.2946768E2,1.1316344E3,4.330129E1,1.1150876E3,1.1550431E3,1.974492E3,5.5199688E3,5.737812E3],"tree_param":{"num_deleted":"0","num_feature":"10","num_nodes":"15","size_leaf_vector":"1"}},{"base_weights":[-7.1160453E-3,-9.8190635E-2,2.1619809E-1,-1.91042E-1,2.1013896E-1,1.9664326E-1,9.9457735E-1,2.0674986E-3,-1.0856367E-2,1.859806E-2,4.3238057E-3,-6.0854754E-3,9.472697E-3,-1.6843587E-4,4.4366773E-2],"categories":[],"categories_nodes":[],"categories_segments":[],"categories_sizes":[],"default_left":[0,0,0,0,0,0,0,0,0,0,0,0,0,0,0],"id":12,"left_children":[1,3,5,7,9,11,13,-1,-1,-1,-1,-1,-1,-1,-1],"loss_changes":[3.4618094E2,3.4617114E2,7.485707E1,1.8128894E2,7.272206E1,6.745097E1,1.3806885E1,0E0,0E0,0E0,0E0,0E0,0E0,0E0,0E0],"parents":[2147483647,0,0,1,1,2,2,3,3,4,4,5,5,6,6],"right_children":[2,4,6,8,10,12,14,-1,-1,-1,-1,-1,-1,-1,-1],"split_conditions":[3.9951496E0,2.9753302E1,2.8758379E1,-3.3851173E0,-5.600925E0,4.7146738E-1,2.2078423E1,2.0674986E-3,-1.0856367E-2,1.859806E-2,4.3238057E-3,-6.0854754E-3,9.472697E-3,-1.6843587E-4,4.4366773E-2],"split_indices":[9,4,6,1,1,2,9,0,0,0,0,0,0,0,0],"split_type":[0,0,0,0,0,0,0,0,0,0,0,0,0,0,0],"sum_hessian":[1.7019139E4,1.2089299E4,4.9298394E3,9.291583E3,2.7977166E3,4.8102466E3,1.1959272E2,2.3112805E3,6.9803022E3,7.989959E2,1.9987208E3,4.9655103E2,4.313696E3,1.2407935E1,1.0718479E2],"tree_param":{"num_deleted":"0","num_feature":"10","num_nodes":"15","size_leaf_vector":"1"}},{"base_weights":[1.4615231E-3,-2.95641E-1,5.7798546E-2,-5.367879E-1,-1.5039177E-1,-9.335412E-3,2.2334003E-1,-1.7677583E-2,-4.3938942E-2,3.739925E-2,-7.397405E-3,-6.362944E-3,2.408681E-3,3.561213E-3,1.4778326E-2],"categories":[],"categories_nodes":[],"categories_segments":[],"categories_sizes":[],"default_left":[0,0,0,0,0,0,0,0,0,0,0,0,0,0,0],"id":13,"left_children":[1,3,5,7,9,11,13,-1,-1,-1,-1,-1,-1,-1,-1],"loss_changes":[2.8424255E2,9.473128E1,1.5864787E2,5.370285E1,6.3562405E1,1.0579399E2,8.079976E1,0E0,0E0,0E0,0E0,0E0,0E0,0E0,0E0],"parents":[2147483647,0,0,1,1,2,2,3,3,4,4,5,5,6,6],"right_children":[2,4,6,8,10,12,14,-1,-1,-1,-1,-1,-1,-1,-1],"split_conditions":[1.540937E1,4.491958E1,3.0383177E1,-1.4883271E0,-6.259121E0,8.811308E-1,8.9440346E-1,-1.7677583E-2,-4.3938942E-2,3.739925E-2,-7.397405E-3,-6.362944E-3,2.408681E-3,3.561213E-3,1.4778326E-2],"split_indices":[4,0,4,1,6,5,2,0,0,0,0,0,0,0,0],"split_type":[0,0,0,0,0,0,0,0,0,0,0,0,0,0,0],"sum_hessian":[1.697998E4,2.7058723E3,1.4274108E4,1.0161446E3,1.6897277E3,1.0156265E4,4.1178438E3,8.708726E2,1.4527197E2,5.1314934E1,1.6384127E3,3.2208552E3,6.935409E3,2.1464587E3,1.9713851E3],"tree_param":{"num_deleted":"0","num_feature":"10","num_nodes":"15","size_leaf_vector":"1"}},{"base_weights":[-4.5617097E-3,-1.2799835E-1,1.5129036E-1,1.09431066E-1,-3.0499685E-1,9.0690866E-2,2.859342E-1,-2.2999035E-2,6.0675656E-3,2.1557555E-2,-1.40921455E-2,4.0488783E-3,-3.4784336E-2,3.393272E-2,8.71911E-3],"categories":[],"categories_nodes":[],"categories_segments":[],"categories_sizes":[],"default_left":[0,0,0,0,0,0,0,0,0,0,0,0,0,0,0],"id":14,"left_children":[1,3,5,7,9,11,13,-1,-1,-1,-1,-1,-1,-1,-1],"loss_changes":[3.2762637E2,3.9941174E2,6.138829E1,1.1749689E2,2.1757013E2,5.2596176E1,8.908058E1,0E0,0E0,0E0,0E0,0E0,0E0,0E0,0E0],"parents":[2147483647,0,0,1,1,2,2,3,3,4,4,5,5,6,6],"right_children":[2,4,6,8,10,12,14,-1,-1,-1,-1,-1,-1,-1,-1],"split_conditions":[-4.1331005E0,-2.583679E0,1.657289E1,1.4219527E1,-4.1222332E1,4.8425125E1,9.1381556E-1,-2.2999035E-2,6.0675656E-3,2.1557555E-2,-1.40921455E-2,4.0488783E-3,-3.4784336E-2,3.393272E-2,8.71911E-3],"split_indices":[9,1,9,4,9,4,5,0,0,0,0,0,0,0,0],"split_type":[0,0,0,0,0,0,0,0,0,0,0,0,0,0,0],"sum_hessian":[1.702829E4,9.502432E3,7.525857E3,4.0585674E3,5.4438643E3,5.1911406E3,2.3347163E3,2.3528653E2,3.823281E3,2.8840652E2,5.1554575E3,5.1357144E3,5.5426094E1,2.5046582E2,2.0842505E3],"tree_param":{"num_deleted":"0","num_feature":"10","num_nodes":"15","size_leaf_vector":"1"}},{"base_weights":[1.2934287E-3,-5.724153E-2,2.5956884E-1,-1.6581401E-1,1.05222635E-1,-5.1597826E-2,3.4430668E-1,1.100035E-3,-1.3177429E-2,8.709429E-5,6.9762925E-3,-5.3521216E-2,3.7745864E-4,1.2469651E-2,3.754171E-2],"categories":[],"categories_nodes":[],"categories_segments":[],"categories_sizes":[],"default_left":[0,0,0,0,0,0,0,0,0,0,0,0,0,0,0],"id":15,"left_children":[1,3,5,7,9,11,13,-1,-1,-1,-1,-1,-1,-1,-1],"loss_changes":[2.5753003E2,2.4497519E2,8.300586E1,2.6332056E2,3.9663143E1,5.2973305E1,4.7579926E1,0E0,0E0,0E0,0E0,0E0,0E0,0E0,0E0],"parents":[2147483647,0,0,1,1,2,2,3,3,4,4,5,5,6,6],"right_children":[2,4,6,8,10,12,14,-1,-1,-1,-1,-1,-1,-1,-1],"split_conditions":[3.2997696E1,-3.1080093E0,5.811166E-1,-1.6641077E1,-5.374942E-2,1.8489198E-1,2.3214378E1,1.100035E-3,-1.3177429E-2,8.709429E-5,6.9762925E-3,-5.3521216E-2,3.7745864E-4,1.2469651E-2,3.754171E-2],"split_indices":[4,9,2,9,7,2,6,0,0,0,0,0,0,0,0],"split_type":[0,0,0,0,0,0,0,0,0,0,0,0,0,0,0],"sum_hessian":[1.7032523E4,1.3886172E4,3.1463523E3,8.3236045E3,5.562567E3,6.7351654E2,2.4728357E3,3.8159678E3,4.5076367E3,2.2348945E3,3.3276726E3,2.955962E1,6.439569E2,2.3458052E3,1.2703046E2],"tree_param":{"num_deleted":"0","num_feature":"10","num_nodes":"15","size_leaf_vector":"1"}},{"base_weights":[-8.670708E-3,-6.475735E-2,2.3861831E-1,-2.8505751E-1,-4.951899E-3,-4.0904112E-2,3.1817174E-1,-1.7302616E-2,-5.8939145E-3,9.729927E-3,-3.1096106E-3,-4.3773625E-2,3.0296278E-4,1.7477188E-2,7.8550335E-3],"categories":[],"categories_nodes":[],"categories_segments":[],"categories_sizes":[],"default_left":[0,0,0,0,0,0,0,0,0,0,0,0,0,0,0],"id":16,"left_children":[1,3,5,7,9,11,13,-1,-1,-1,-1,-1,-1,-1,-1],"loss_changes":[2.3498846E2,1.8195114E2,6.966565E1,5.983235E1,1.962646E2,3.5493195E1,3.5184418E1,0E0,0E0,0E0,0E0,0E0,0E0,0E0,0E0],"parents":[2147483647,0,0,1,1,2,2,3,3,4,4,5,5,6,6],"right_children":[2,4,6,8,10,12,14,-1,-1,-1,-1,-1,-1,-1,-1],"split_conditions":[3.2997696E1,8.348696E-1,5.886826E-1,4.399871E1,-3.3851173E0,1.8489198E-1,9.7506166E-1,-1.7302616E-2,-5.8939145E-3,9.729927E-3,-3.1096106E-3,-4.3773625E-2,3.0296278E-4,1.7477188E-2,7.8550335E-3],"split_indices":[4,5,2,0,1,2,3,0,0,0,0,0,0,0,0],"split_type":[0,0,0,0,0,0,0,0,0,0,0,0,0,0,0],"sum_hessian":[1.6940572E4,1.3809281E4,3.13129E3,2.9476204E3,1.0861661E4,6.9384656E2,2.4374436E3,1.4221458E3,1.5254747E3,2.462494E3,8.399167E3,2.9576296E1,6.6427026E2,1.232803E3,1.2046405E3],"tree_param":{"num_deleted":"0","num_feature":"10","num_nodes":"15","size_leaf_vector":"1"}},{"base_weights":[-3.3094615E-3,2.4918921E-1,-5.28755E-2,-1.0923234E-1,3.3472824E-1,-2.5233492E-1,-9.654874E-3,5.3543067E-3,-1.8840553E-2,2.5013653E-3,1.702134E-2,-2.0104216E-2,-4.680292E-3,-4.3543175E-2,-7.661705E-5],"categories":[],"categories_nodes":[],"categories_segments":[],"categories_sizes":[],"default_left":[0,0,0,0,0,0,0,0,0,0,0,0,0,0,0],"id":17,"left_children":[1,3,5,7,9,11,13,-1,-1,-1,-1,-1,-1,-1,-1],"loss_changes":[2.116853E2,8.5128876E1,1.2188263E2,4.7158318E1,5.536183E1,8.522197E1,9.704114E1,0E0,0E0,0E0,0E0,0E0,0E0,0E0,0E0],"parents":[2147483647,0,0,1,1,2,2,3,3,4,4,5,5,6,6],"right_children":[2,4,6,8,10,12,14,-1,-1,-1,-1,-1,-1,-1,-1],"split_conditions":[-8.931006E0,8.3148205E-1,1.5331924E1,9.470334E-2,2.2766127E1,4.491958E1,1.5746298E-1,5.3543067E-3,-1.8840553E-2,2.5013653E-3,1.702134E-2,-2.0104216E-2,-4.680292E-3,-4.3543175E-2,-7.661705E-5],"split_indices":[6,5,4,7,4,0,2,0,0,0,0,0,0,0,0],"split_type":[0,0,0,0,0,0,0,0,0,0,0,0,0,0,0],"sum_hessian":[1.691199E4,2.774441E3,1.4137549E4,5.345053E2,2.2399355E3,2.5169954E3,1.1620554E4,3.2007138E2,2.1443393E2,5.6074817E2,1.6791874E3,8.8239984E2,1.6345956E3,8.176936E1,1.1538784E4],"tree_param":{"num_deleted":"0","num_feature":"10","num_nodes":"15","size_leaf_vector":"1"}},{"base_weights":[1.3493806E-2,-2.5297326E-1,6.150103E-2,-9.504354E-1,-2.1197233E-1,2.3184237E-1,6.2154554E-4,3.3834998E-2,-6.586223E-2,4.3710645E-2,-9.144291E-3,-6.4399033E-3,1.23254405E-2,-5.2458275E-2,3.749319E-4],"categories":[],"categories_nodes":[],"categories_segments":[],"categories_sizes":[],"default_left":[0,0,0,0,0,0,0,0,0,0,0,0,0,0,0],"id":18,"left_children":[1,3,5,7,9,11,13,-1,-1,-1,-1,-1,-1,-1,-1],"loss_changes":[2.1927487E2,7.462863E1,1.5061945E2,1.8270776E2,5.3919067E1,1.1466377E2,1.228917E2,0E0,0E0,0E0,0E0,0E0,0E0,0E0,0E0],"parents":[2147483647,0,0,1,1,2,2,3,3,4,4,5,5,6,6],"right_children":[2,4,6,8,10,12,14,-1,-1,-1,-1,-1,-1,-1,-1],"split_conditions":[1.5331924E1,7.149522E-1,-3.3851173E0,3.884366E-1,2.4727002E-1,8.104701E-1,1.5746298E-1,3.3834998E-2,-6.586223E-2,4.3710645E-2,-9.144291E-3,-6.4399033E-3,1.23254405E-2,-5.2458275E-2,3.749319E-4],"split_indices":[4,5,1,5,2,5,2,0,0,0,0,0,0,0,0],"split_type":[0,0,0,0,0,0,0,0,0,0,0,0,0,0,0],"sum_hessian":[1.7138889E4,2.615748E3,1.4523141E4,1.4399998E2,2.471748E3,3.8231433E3,1.0699997E4,4.0158215E1,1.0384176E2,3.030283E1,2.4414453E3,6.215646E2,3.2015786E3,6.9911354E1,1.0630086E4],"tree_param":{"num_deleted":"0","num_feature":"10","num_nodes":"15","size_leaf_vector":"1"}},{"base_weights":[1.9415987E-3,-5.477303E-2,2.5139692E-1,-1.5889436E-1,1.13036916E-1,2.2124444E-1,7.823596E-1,3.8854878E-3,-1.0441143E-2,5.9155556E-3,-4.211384E-3,1.3263188E-2,4.405446E-3,1.7900083E-2,5.0503172E-2],"categories":[],"categories_nodes":[],"categories_segments":[],"categories_sizes":[],"default_left":[0,0,0,0,0,0,0,0,0,0,0,0,0,0,0],"id":19,"left_children":[1,3,5,7,9,11,13,-1,-1,-1,-1,-1,-1,-1,-1],"loss_changes":[2.4036182E2,2.4187912E2,5.0211426E1,2.234099E2,4.0348625E1,3.6488113E1,2.6566086E1,0E0,0E0,0E0,0E0,0E0,0E0,0E0,0E0],"parents":[2147483647,0,0,1,1,2,2,3,3,4,4,5,5,6,6],"right_children":[2,4,6,8,10,12,14,-1,-1,-1,-1,-1,-1,-1,-1],"split_conditions":[3.2997696E1,-2.3334632E0,2.3214378E1,-3.3851173E0,2.842296E1,-7.984627E0,4.899127E1,3.8854878E-3,-1.0441143E-2,5.9155556E-3,-4.211384E-3,1.3263188E-2,4.405446E-3,1.7900083E-2,5.0503172E-2],"split_indices":[4,9,6,1,4,9,9,0,0,0,0,0,0,0,0],"split_type":[0,0,0,0,0,0,0,0,0,0,0,0,0,0,0],"sum_hessian":[1.698741E4,1.3841314E4,3.1460955E3,8.541566E3,5.2997476E3,2.9783752E3,1.6772029E2,2.4357195E3,6.1058477E3,4.5704604E3,7.2928754E2,1.4933905E3,1.4849847E3,9.995412E1,6.776618E1],"tree_param":{"num_deleted":"0","num_feature":"10","num_nodes":"15","size_leaf_vector":"1"}},{"base_weights":[-2.6945441E-3,-1.6977279E-1,5.622013E-2,-5.214718E-1,-9.763783E-2,2.2402151E-1,1.6901689E-3,-4.32232E-2,-9.190737E-3,1.10424645E-2,-5.4884776E-3,-1.0059438E-2,1.0981055E-2,-3.1876918E-2,8.350677E-4],"categories":[],"categories_nodes":[],"categories_segments":[],"categories_sizes":[],"default_left":[0,0,0,0,0,0,0,0,0,0,0,0,0,0,0],"id":20,"left_children":[1,3,5,7,9,11,13,-1,-1,-1,-1,-1,-1,-1,-1],"loss_changes":[1.6672618E2,1.1197167E2,1.145819E2,1.22281876E2,5.4243404E1,7.3827286E1,1.4484732E2,0E0,0E0,0E0,0E0,0E0,0E0,0E0,0E0],"parents":[2147483647,0,0,1,1,2,2,3,3,4,4,5,5,6,6],"right_children":[2,4,6,8,10,12,14,-1,-1,-1,-1,-1,-1,-1,-1],"split_conditions":[1.757877E1,7.9822695E-1,-3.823205E0,4.327461E1,4.3884698E-1,7.620224E-1,2.4727002E-1,-4.32232E-2,-9.190737E-3,1.10424645E-2,-5.4884776E-3,-1.0059438E-2,1.0981055E-2,-3.1876918E-2,8.350677E-4],"split_indices":[4,5,1,0,2,5,2,0,0,0,0,0,0,0,0],"split_type":[0,0,0,0,0,0,0,0,0,0,0,0,0,0,0],"sum_hessian":[1.6935965E4,4.4145894E3,1.2521375E4,7.502865E2,3.6643027E3,3.070285E3,9.45109E3,2.563108E2,4.939757E2,3.503129E2,3.3139897E3,2.9441013E2,2.775875E3,2.2078247E2,9.230307E3],"tree_param":{"num_deleted":"0","num_feature":"10","num_nodes":"15","size_leaf_vector":"1"}}]},"name":"gbtree"},"learner_model_param":{"base_score":"[5E-1]","boost_from_average":"1","num_class":"0","num_feature":"10","num_target":"1"},"objective":{"name":"binary:logistic","reg_loss_param":{"scale_pos_weight":"6.13160181"}}},"version":[3,2,0]}