{"learner":{"attributes":{"scikit_learn":"{\"_estimator_type\": \"classifier\"}"},"feature_names":["Feature_RSI","Feature_EMA_Dist","Feature_Volume_Ratio","Feature_ADX_14","Feature_ATR_Ratio","Feature_ROC_20","Feature_MACD_Hist_Accel","Feature_Relative_Strength"],"feature_types":["float","float","float","float","float","float","float","float"],"gradient_booster":{"model":{"cats":{"enc":[],"feature_segments":[],"sorted_idx":[]},"gbtree_model_param":{"num_parallel_tree":"1","num_trees":"45"},"iteration_indptr":[0,3,6,9,12,15,18,21,24,27,30,33,36,39,42,45],"tree_info":[0,1,2,0,1,2,0,1,2,0,1,2,0,1,2,0,1,2,0,1,2,0,1,2,0,1,2,0,1,2,0,1,2,0,1,2,0,1,2,0,1,2,0,1,2],"trees":[{"base_weights":[1.0945385E-3,-9.421867E-1,4.871446E-3,-9.8564124E-1,-6.480097E-2,4.018272E-2,-4.6094753E-2,-4.001746E-2,1.7967641E-2,-2.7047094E-2,1.8312352E-2,-4.7932738E-3,1.8532481E-3,-1.6255412E-3,-6.299866E-3],"categories":[],"categories_nodes":[],"categories_segments":[],"categories_sizes":[],"default_left":[0,0,0,0,0,0,0,0,0,0,0,0,0,0,0],"id":0,"left_children":[1,3,5,7,9,11,13,-1,-1,-1,-1,-1,-1,-1,-1],"loss_changes":[1.5483214E2,6.544098E0,7.790246E1,3.9536133E0,3.2648027E0,2.5163013E1,1.0762138E1,0E0,0E0,0E0,0E0,0E0,0E0,0E0,0E0],"parents":[2147483647,0,0,1,1,2,2,3,3,4,4,5,5,6,6],"right_children":[2,4,6,8,10,12,14,-1,-1,-1,-1,-1,-1,-1,-1],"split_conditions":[-2.3896437E1,2.2227615E1,1.3100886E-1,-2.4283926E1,7.2993746E0,-1.3852515E1,8.726547E0,-4.001746E-2,1.7967641E-2,-2.7047094E-2,1.8312352E-2,-4.7932738E-3,1.8532481E-3,-1.6255412E-3,-6.299866E-3],"split_indices":[1,0,6,7,6,5,1,0,0,0,0,0,0,0,0],"split_type":[0,0,0,0,0,0,0,0,0,0,0,0,0,0,0],"sum_hessian":[4.3457094E4,1.7231784E2,4.3284773E4,1.6406859E2,8.249258E0,2.5569492E4,1.7715281E4,1.6269371E2,1.3748764E0,3.666337E0,4.582921E0,9.4545667E2,2.4624035E4,1.688944E4,8.258424E2],"tree_param":{"num_deleted":"0","num_feature":"8","num_nodes":"15","size_leaf_vector":"1"}},{"base_weights":[6.7083472E-3,5.8636494E0,-1.7304864E-2,6.29663E0,1.2386302E0,-7.576086E-2,1.9601776E-1,1.7333324E-1,2.8604475E-1,-6.3859156E-6,8.9539364E-2,9.5489554E-2,-3.1478528E-3,1.50921475E-2,4.3042484E-3],"categories":[],"categories_nodes":[],"categories_segments":[],"categories_sizes":[],"default_left":[0,0,0,0,0,0,0,0,0,0,0,0,0,0,0],"id":1,"left_children":[1,3,5,7,9,11,13,-1,-1,-1,-1,-1,-1,-1,-1],"loss_changes":[1.2159159E3,6.2892212E1,1.0738551E2,2.2752686E1,5.285186E0,4.9056248E1,2.9646767E1,0E0,0E0,0E0,0E0,0E0,0E0,0E0,0E0],"parents":[2147483647,0,0,1,1,2,2,3,3,4,4,5,5,6,6],"right_children":[2,4,6,8,10,12,14,-1,-1,-1,-1,-1,-1,-1,-1],"split_conditions":[-2.3896437E1,-4.1109657E1,2.638451E0,1.0237975E0,1.188269E0,-4.452939E1,2.1851704E1,1.7333324E-1,2.8604475E-1,-6.3859156E-6,8.9539364E-2,9.5489554E-2,-3.1478528E-3,1.50921475E-2,4.3042484E-3],"split_indices":[1,7,1,2,2,5,3,0,0,0,0,0,0,0,0],"split_type":[0,0,0,0,0,0,0,0,0,0,0,0,0,0,0],"sum_hessian":[8.643626E3,3.4300823E1,8.609325E3,3.1034077E1,3.266745E0,6.7580786E3,1.8512462E3,1.1252122E1,1.9781956E1,1.9056013E0,1.3611437E0,7.0779476E0,6.7510005E3,6.057997E2,1.2454465E3],"tree_param":{"num_deleted":"0","num_feature":"8","num_nodes":"15","size_leaf_vector":"1"}},{"base_weights":[5.496314E-4,-3.902793E-2,6.427199E-2,2.4623021E-2,-7.6769546E-2,8.0359094E-2,-4.2062934E-2,-4.425473E-3,1.8777605E-3,-4.4491664E-3,-1.6908821E-3,3.2715488E-4,4.0789763E-3,-2.0490842E-2,-1.2915671E-3],"categories":[],"categories_nodes":[],"categories_segments":[],"categories_sizes":[],"default_left":[0,0,0,0,0,0,0,0,0,0,0,0,0,0,0],"id":2,"left_children":[1,3,5,7,9,11,13,-1,-1,-1,-1,-1,-1,-1,-1],"loss_changes":[1.022038E2,6.005613E1,2.656343E1,2.8101578E1,1.8651436E1,2.1040947E1,9.36307E0,0E0,0E0,0E0,0E0,0E0,0E0,0E0,0E0],"parents":[2147483647,0,0,1,1,2,2,3,3,4,4,5,5,6,6],"right_children":[2,4,6,8,10,12,14,-1,-1,-1,-1,-1,-1,-1,-1],"split_conditions":[1.009636E0,4.26874E1,1.7562371E0,7.742997E-1,9.118191E-1,5.8427525E-1,-4.1109657E1,-4.425473E-3,1.8777605E-3,-4.4491664E-3,-1.6908821E-3,3.2715488E-4,4.0789763E-3,-2.0490842E-2,-1.2915671E-3],"split_indices":[4,0,2,4,4,2,7,0,0,0,0,0,0,0,0],"split_type":[0,0,0,0,0,0,0,0,0,0,0,0,0,0,0],"sum_hessian":[4.0523305E4,2.4997746E4,1.5525558E4,9.3051045E3,1.5692641E4,1.3485604E4,2.0399539E3,1.3174879E3,7.9876167E3,7.849517E3,7.8431235E3,3.1080952E3,1.0377509E4,4.0492188E1,1.9994617E3],"tree_param":{"num_deleted":"0","num_feature":"8","num_nodes":"15","size_leaf_vector":"1"}},{"base_weights":[1.3400214E-3,5.123677E-2,-6.475876E-2,-3.789157E-2,7.3726445E-2,6.78745E-3,-1.5077847E-1,-2.489772E-2,-1.2927557E-3,4.230218E-3,1.1087613E-3,-4.46828E-2,4.7403554E-4,-4.0291775E-2,-5.7493844E-3],"categories":[],"categories_nodes":[],"categories_segments":[],"categories_sizes":[],"default_left":[0,0,0,0,0,0,0,0,0,0,0,0,0,0,0],"id":3,"left_children":[1,3,5,7,9,11,13,-1,-1,-1,-1,-1,-1,-1,-1],"loss_changes":[1.4359837E2,4.9734657E1,1.15266624E2,1.626642E1,2.9191238E1,5.820321E1,5.1163467E1,0E0,0E0,0E0,0E0,0E0,0E0,0E0,0E0],"parents":[2147483647,0,0,1,1,2,2,3,3,4,4,5,5,6,6],"right_children":[2,4,6,8,10,12,14,-1,-1,-1,-1,-1,-1,-1,-1],"split_conditions":[9.921676E-1,-3.3991935E0,7.3623724E-2,-2.3896437E1,9.118191E-1,-4.452939E1,-2.3896437E1,-2.489772E-2,-1.2927557E-3,4.230218E-3,1.1087613E-3,-4.46828E-2,4.7403554E-4,-4.0291775E-2,-5.7493844E-3],"split_indices":[4,1,6,1,4,5,1,0,0,0,0,0,0,0,0],"split_type":[0,0,0,0,0,0,0,0,0,0,0,0,0,0,0],"sum_hessian":[4.3537535E4,2.4809514E4,1.872802E4,4.9986772E3,1.9810836E4,1.0224661E4,8.503358E3,4.615834E1,4.952519E3,1.1678977E4,8.13186E3,4.4874653E1,1.0179786E4,6.8201614E1,8.435157E3],"tree_param":{"num_deleted":"0","num_feature":"8","num_nodes":"15","size_leaf_vector":"1"}},{"base_weights":[2.2602591E-3,4.4793153E0,-1.992092E-2,3.44045E0,5.2289786E0,-8.400827E-2,1.967201E-1,1.0183607E-1,2.0863183E-1,1.432388E-1,2.4238734E-1,-8.526875E-3,-1.8226322E-3,1.575232E-2,3.983613E-3],"categories":[],"categories_nodes":[],"categories_segments":[],"categories_sizes":[],"default_left":[0,0,0,0,0,0,0,0,0,0,0,0,0,0,0],"id":4,"left_children":[1,3,5,7,9,11,13,-1,-1,-1,-1,-1,-1,-1,-1],"loss_changes":[8.582387E2,1.5191956E1,1.1941612E2,1.9726013E1,9.547241E0,3.294682E1,3.7549225E1,0E0,0E0,0E0,0E0,0E0,0E0,0E0,0E0],"parents":[2147483647,0,0,1,1,2,2,3,3,4,4,5,5,6,6],"right_children":[2,4,6,8,10,12,14,-1,-1,-1,-1,-1,-1,-1,-1],"split_conditions":[-2.3896437E1,1.2434827E0,2.476755E0,1.8404106E1,1.3140842E0,3.741983E1,2.1690289E1,1.0183607E-1,2.0863183E-1,1.432388E-1,2.4238734E-1,-8.526875E-3,-1.8226322E-3,1.575232E-2,3.983613E-3],"split_indices":[1,2,1,0,4,0,3,0,0,0,0,0,0,0,0],"split_type":[0,0,0,0,0,0,0,0,0,0,0,0,0,0,0],"sum_hessian":[8.640436E3,4.1606598E1,8.598829E3,1.9782213E1,2.1824385E1,6.636279E3,1.9625504E3,1.477269E1,5.009523E0,9.093951E0,1.27304325E1,1.5210677E3,5.115211E3,6.468863E2,1.3156642E3],"tree_param":{"num_deleted":"0","num_feature":"8","num_nodes":"15","size_leaf_vector":"1"}},{"base_weights":[-1.3388749E-3,5.298823E-2,-3.350873E-2,-3.30537E-3,7.479387E-2,-8.270523E-2,7.531414E-3,-1.6850835E-3,4.4018542E-3,-1.1179824E-2,3.2019168E-3,8.0349576E-4,-3.852463E-3,-1.9506199E-4,3.4690606E-3],"categories":[],"categories_nodes":[],"categories_segments":[],"categories_sizes":[],"default_left":[0,0,0,0,0,0,0,0,0,0,0,0,0,0,0],"id":5,"left_children":[1,3,5,7,9,11,13,-1,-1,-1,-1,-1,-1,-1,-1],"loss_changes":[7.077191E1,1.8487465E1,5.1352184E1,1.8512981E1,2.0229782E1,1.618061E1,1.3627083E1,0E0,0E0,0E0,0E0,0E0,0E0,0E0,0E0],"parents":[2147483647,0,0,1,1,2,2,3,3,4,4,5,5,6,6],"right_children":[2,4,6,8,10,12,14,-1,-1,-1,-1,-1,-1,-1,-1],"split_conditions":[-3.121951E0,1.8348322E1,-1.195721E0,6.658766E-1,-4.452939E1,-2.5059595E1,3.443349E1,-1.6850835E-3,4.4018542E-3,-1.1179824E-2,3.2019168E-3,8.0349576E-4,-3.852463E-3,-1.9506199E-4,3.4690606E-3],"split_indices":[5,3,7,7,5,7,7,0,0,0,0,0,0,0,0],"split_type":[0,0,0,0,0,0,0,0,0,0,0,0,0,0,0],"sum_hessian":[4.049241E4,1.5059651E4,2.5432758E4,4.2049556E3,1.0854696E4,1.1566502E4,1.3866257E4,3.1326768E3,1.0722789E3,1.5785826E2,1.0696838E4,1.3519993E3,1.0214503E4,1.1988834E4,1.8774227E3],"tree_param":{"num_deleted":"0","num_feature":"8","num_nodes":"15","size_leaf_vector":"1"}},{"base_weights":[-2.4794953E-4,4.763729E-2,-7.7112556E-2,-6.971395E-3,7.2491094E-2,-9.182149E-1,-7.043248E-2,-5.519372E-3,3.2913536E-4,4.5088227E-3,1.0635831E-3,-3.8136635E-2,1.45770125E-2,-3.5861672E-3,7.431528E-4],"categories":[],"categories_nodes":[],"categories_segments":[],"categories_sizes":[],"default_left":[0,0,0,0,0,0,0,0,0,0,0,0,0,0,0],"id":6,"left_children":[1,3,5,7,9,11,13,-1,-1,-1,-1,-1,-1,-1,-1],"loss_changes":[1.6024826E2,3.6409294E1,9.3833534E1,1.671131E1,3.403975E1,6.289139E0,2.8371498E1,0E0,0E0,0E0,0E0,0E0,0E0,0E0,0E0],"parents":[2147483647,0,0,1,1,2,2,3,3,4,4,5,5,6,6],"right_children":[2,4,6,8,10,12,14,-1,-1,-1,-1,-1,-1,-1,-1],"split_conditions":[1.009636E0,-2.278204E0,-4.452939E1,-1.4669273E1,9.118191E-1,2.7135492E1,1.5171173E0,-5.519372E-3,3.2913536E-4,4.5088227E-3,1.0635831E-3,-3.8136635E-2,1.45770125E-2,-3.5861672E-3,7.431528E-4],"split_indices":[4,1,5,5,4,0,2,0,0,0,0,0,0,0,0],"split_type":[0,0,0,0,0,0,0,0,0,0,0,0,0,0,0],"sum_hessian":[4.3535676E4,2.6824738E4,1.671094E4,8.390306E3,1.8434432E4,1.3059822E2,1.6580342E4,8.713882E2,7.518918E3,9.823428E3,8.611004E3,1.2735962E2,3.2385962E0,1.3635739E4,2.944602E3],"tree_param":{"num_deleted":"0","num_feature":"8","num_nodes":"15","size_leaf_vector":"1"}},{"base_weights":[-7.76082E-3,3.763663E0,-3.0074485E-2,3.9327953E0,6.544596E-1,-8.785658E-2,1.6703299E-1,1.6055457E-1,4.4934515E-2,8.00197E-4,4.7857393E-2,7.6788306E-2,-3.6202834E-3,1.3908156E-2,3.0568661E-3],"categories":[],"categories_nodes":[],"categories_segments":[],"categories_sizes":[],"default_left":[0,0,0,0,0,0,0,0,0,0,0,0,0,0,0],"id":7,"left_children":[1,3,5,7,9,11,13,-1,-1,-1,-1,-1,-1,-1,-1],"loss_changes":[7.265679E2,2.4130371E1,9.776474E1,6.414612E0,1.289427E0,3.54931E1,3.1830765E1,0E0,0E0,0E0,0E0,0E0,0E0,0E0,0E0],"parents":[2147483647,0,0,1,1,2,2,3,3,4,4,5,5,6,6],"right_children":[2,4,6,8,10,12,14,-1,-1,-1,-1,-1,-1,-1,-1],"split_conditions":[-2.3896437E1,-3.7828674E1,2.5304275E0,1.0169924E0,2.0883507E1,-4.452939E1,2.1776241E1,1.6055457E-1,4.4934515E-2,8.00197E-4,4.7857393E-2,7.6788306E-2,-3.6202834E-3,1.3908156E-2,3.0568661E-3],"split_indices":[1,7,1,5,0,5,3,0,0,0,0,0,0,0,0],"split_type":[0,0,0,0,0,0,0,0,0,0,0,0,0,0,0],"sum_hessian":[8.631415E3,4.978129E1,8.581634E3,4.6961807E1,2.8194811E0,6.636652E3,1.9449818E3,4.5227993E1,1.7338167E0,1.7766203E0,1.0428609E0,7.796894E0,6.628855E3,6.486982E2,1.2962836E3],"tree_param":{"num_deleted":"0","num_feature":"8","num_nodes":"15","size_leaf_vector":"1"}},{"base_weights":[1.9597285E-3,-3.3191316E-2,5.8299087E-2,1.5585534E-2,-7.444E-2,-1.5138631E-2,1.4477012E-1,-4.069739E-3,1.4100259E-3,-4.6144677E-3,-1.4331014E-3,-2.7634043E-3,3.7783346E-4,7.880849E-3,2.0294136E-3],"categories":[],"categories_nodes":[],"categories_segments":[],"categories_sizes":[],"default_left":[0,0,0,0,0,0,0,0,0,0,0,0,0,0,0],"id":8,"left_children":[1,3,5,7,9,11,13,-1,-1,-1,-1,-1,-1,-1,-1],"loss_changes":[8.052824E1,5.0381252E1,9.921098E1,2.6477165E1,2.1433144E1,1.1206101E1,3.5243103E1,0E0,0E0,0E0,0E0,0E0,0E0,0E0,0E0],"parents":[2147483647,0,0,1,1,2,2,3,3,4,4,5,5,6,6],"right_children":[2,4,6,8,10,12,14,-1,-1,-1,-1,-1,-1,-1,-1],"split_conditions":[1.009636E0,4.5090824E1,7.3623724E-2,7.781439E-1,9.118191E-1,-3.4734597E0,5.945705E1,-4.069739E-3,1.4100259E-3,-4.6144677E-3,-1.4331014E-3,-2.7634043E-3,3.7783346E-4,7.880849E-3,2.0294136E-3],"split_indices":[4,0,6,4,4,7,0,0,0,0,0,0,0,0,0],"split_type":[0,0,0,0,0,0,0,0,0,0,0,0,0,0,0],"sum_hessian":[4.06609E4,2.5039043E4,1.5621856E4,1.1472893E4,1.356615E4,8.448001E3,7.173855E3,1.6463018E3,9.826591E3,6.585168E3,6.9809824E3,2.6441187E3,5.803883E3,4.610758E3,2.563097E3],"tree_param":{"num_deleted":"0","num_feature":"8","num_nodes":"15","size_leaf_vector":"1"}},{"base_weights":[8.003022E-4,4.9609214E-2,-6.365725E-2,-2.520328E-2,7.214924E-2,1.0141293E-3,-1.4078975E-1,-2.5668174E-2,-7.8576524E-4,5.767538E-3,2.1590632E-3,-4.1475162E-2,2.1593846E-4,-7.339751E-3,-4.5608374E-4],"categories":[],"categories_nodes":[],"categories_segments":[],"categories_sizes":[],"default_left":[0,0,0,0,0,0,0,0,0,0,0,0,0,0,0],"id":9,"left_children":[1,3,5,7,9,11,13,-1,-1,-1,-1,-1,-1,-1,-1],"loss_changes":[1.3715846E2,4.1837856E1,9.371257E1,1.9676565E1,2.4952087E1,4.651013E1,4.7338516E1,0E0,0E0,0E0,0E0,0E0,0E0,0E0,0E0],"parents":[2147483647,0,0,1,1,2,2,3,3,4,4,5,5,6,6],"right_children":[2,4,6,8,10,12,14,-1,-1,-1,-1,-1,-1,-1,-1],"split_conditions":[9.921676E-1,-3.083711E0,7.3623724E-2,-2.3896437E1,8.172037E-1,-4.452939E1,1.5171173E0,-2.5668174E-2,-7.8576524E-4,5.767538E-3,2.1590632E-3,-4.1475162E-2,2.1593846E-4,-7.339751E-3,-4.5608374E-4],"split_indices":[4,1,6,1,4,5,2,0,0,0,0,0,0,0,0],"split_type":[0,0,0,0,0,0,0,0,0,0,0,0,0,0,0],"sum_hessian":[4.3594305E4,2.4808729E4,1.8785578E4,5.743937E3,1.9064793E4,1.0218724E4,8.566854E3,5.0309032E1,5.693628E3,3.839095E3,1.5225697E4,4.1994366E1,1.01767295E4,6.4407E3,2.1261533E3],"tree_param":{"num_deleted":"0","num_feature":"8","num_nodes":"15","size_leaf_vector":"1"}},{"base_weights":[-2.8932781E-3,3.270519E0,-2.3773966E-2,1.660868E0,3.7971783E0,-1.3227013E-1,5.734601E-2,8.4175035E-2,2.0691853E-3,1.563346E-1,1.9856742E-2,-5.6835995E-3,5.3693656E-2,-6.3355654E-3,3.626715E-3],"categories":[],"categories_nodes":[],"categories_segments":[],"categories_sizes":[],"default_left":[0,0,0,0,0,0,0,0,0,0,0,0,0,0,0],"id":10,"left_children":[1,3,5,7,9,11,13,-1,-1,-1,-1,-1,-1,-1,-1],"loss_changes":[5.892883E2,4.001953E1,7.540492E1,1.0774097E1,1.2885742E1,5.3265152E1,3.5256714E1,0E0,0E0,0E0,0E0,0E0,0E0,0E0,0E0],"parents":[2147483647,0,0,1,1,2,2,3,3,4,4,5,5,6,6],"right_children":[2,4,6,8,10,12,14,-1,-1,-1,-1,-1,-1,-1,-1],"split_conditions":[-4.452939E1,1.0400711E0,4.6477566E1,2.2227615E1,-3.4887093E1,6.134682E1,8.5799724E-1,8.4175035E-2,2.0691853E-3,1.563346E-1,1.9856742E-2,-5.6835995E-3,5.3693656E-2,-6.3355654E-3,3.626715E-3],"split_indices":[5,4,0,0,7,3,4,0,0,0,0,0,0,0,0],"split_type":[0,0,0,0,0,0,0,0,0,0,0,0,0,0,0],"sum_hessian":[8.619352E3,5.3646824E1,8.565705E3,1.42493925E1,3.9397434E1,3.6642378E3,4.901467E3,1.0929311E1,3.3200822E0,3.7935486E1,1.4619467E0,3.6408958E3,2.3342134E1,6.552755E2,4.2461914E3],"tree_param":{"num_deleted":"0","num_feature":"8","num_nodes":"15","size_leaf_vector":"1"}},{"base_weights":[6.116287E-4,-3.4248494E-2,4.6682715E-2,2.6790952E-2,-7.262426E-2,-2.0999275E-2,1.2717591E-1,-3.62135E-3,1.9382777E-3,-5.933245E-3,-2.0419345E-3,-3.0273828E-3,3.0473166E-4,6.777193E-3,-1.8679287E-3],"categories":[],"categories_nodes":[],"categories_segments":[],"categories_sizes":[],"default_left":[0,0,0,0,0,0,0,0,0,0,0,0,0,0,0],"id":11,"left_children":[1,3,5,7,9,11,13,-1,-1,-1,-1,-1,-1,-1,-1],"loss_changes":[6.487212E1,5.386377E1,9.478902E1,2.256866E1,2.3053703E1,1.4793017E1,5.8395523E1,0E0,0E0,0E0,0E0,0E0,0E0,0E0,0E0],"parents":[2147483647,0,0,1,1,2,2,3,3,4,4,5,5,6,6],"right_children":[2,4,6,8,10,12,14,-1,-1,-1,-1,-1,-1,-1,-1],"split_conditions":[9.921676E-1,4.2817066E1,7.3623724E-2,7.781439E-1,5.678723E-1,-2.8014245E0,1.7028861E0,-3.62135E-3,1.9382777E-3,-5.933245E-3,-2.0419345E-3,-3.0273828E-3,3.0473166E-4,6.777193E-3,-1.8679287E-3],"split_indices":[4,0,6,4,2,7,2,0,0,0,0,0,0,0,0],"split_type":[0,0,0,0,0,0,0,0,0,0,0,0,0,0,0],"sum_hessian":[4.0390504E4,2.2992938E4,1.7397566E4,8.875735E3,1.4117201E4,9.451281E3,7.946286E3,1.383062E3,7.492674E3,3.1296858E3,1.0987516E4,3.2462944E3,6.204987E3,6.3927754E3,1.5535105E3],"tree_param":{"num_deleted":"0","num_feature":"8","num_nodes":"15","size_leaf_vector":"1"}},{"base_weights":[-8.322071E-4,4.2838402E-2,-6.486573E-2,-2.1002578E-2,6.384485E-2,2.1095346E-3,-1.4644742E-1,-7.5246656E-4,-4.261455E-2,3.871302E-3,8.8570744E-4,-3.5139192E-2,3.2801184E-4,-7.4677044E-3,5.04913E-4],"categories":[],"categories_nodes":[],"categories_segments":[],"categories_sizes":[],"default_left":[0,0,0,0,0,0,0,0,0,0,0,0,0,0,0],"id":12,"left_children":[1,3,5,7,9,11,13,-1,-1,-1,-1,-1,-1,-1,-1],"loss_changes":[1.21934E2,3.476741E1,9.660364E1,1.4667337E1,2.679087E1,5.208754E1,5.1030518E1,0E0,0E0,0E0,0E0,0E0,0E0,0E0,0E0],"parents":[2147483647,0,0,1,1,2,2,3,3,4,4,5,5,6,6],"right_children":[2,4,6,8,10,12,14,-1,-1,-1,-1,-1,-1,-1,-1],"split_conditions":[1.0021842E0,-2.8898585E0,9.138139E-2,1.1034537E1,9.118191E-1,-4.1109657E1,1.7028861E0,-7.5246656E-4,-4.261455E-2,3.871302E-3,8.8570744E-4,-3.5139192E-2,3.2801184E-4,-7.4677044E-3,5.04913E-4],"split_indices":[4,1,6,5,4,7,2,0,0,0,0,0,0,0,0],"split_type":[0,0,0,0,0,0,0,0,0,0,0,0,0,0,0],"sum_hessian":[4.3602188E4,2.592308E4,1.7679107E4,6.4180127E3,1.9505068E4,9.709212E3,7.9698955E3,6.405593E3,1.2419967E1,1.0896973E4,8.608096E3,6.5710396E1,9.643502E3,6.3604995E3,1.6093964E3],"tree_param":{"num_deleted":"0","num_feature":"8","num_nodes":"15","size_leaf_vector":"1"}},{"base_weights":[-1.7635347E-3,2.8699913E0,-2.2727087E-2,2.359E0,1.4153154E-1,-7.965583E-2,1.7262761E-1,3.287011E-2,1.06298216E-1,7.1214505E-2,-3.2954367E-3,4.1644233E-3,1.5774459E-2],"categories":[],"categories_nodes":[],"categories_segments":[],"categories_sizes":[],"default_left":[0,0,0,0,0,0,0,0,0,0,0,0,0],"id":13,"left_children":[1,3,5,7,-1,9,11,-1,-1,-1,-1,-1,-1],"loss_changes":[5.1809766E2,1.2951294E1,9.502866E1,1.5408325E1,0E0,3.37444E1,2.9253094E1,0E0,0E0,0E0,0E0,0E0,0E0],"parents":[2147483647,0,0,1,1,2,2,3,3,5,5,6,6],"right_children":[2,4,6,8,-1,10,12,-1,-1,-1,-1,-1,-1],"split_conditions":[-2.3896437E1,1.5526919E0,2.5854437E0,3.815111E1,1.4153154E-1,-4.452939E1,1.5686122E0,3.287011E-2,1.06298216E-1,7.1214505E-2,-3.2954367E-3,4.1644233E-3,1.5774459E-2],"split_indices":[1,2,1,3,0,5,6,0,0,0,0,0,0],"split_type":[0,0,0,0,0,0,0,0,0,0,0,0,0],"sum_hessian":[8.603877E3,6.136747E1,8.54251E3,3.7343704E1,2.4023767E1,6.615318E3,1.927192E3,6.6817155E0,3.0661987E1,8.741249E0,6.6065767E3,1.4733792E3,4.5381293E2],"tree_param":{"num_deleted":"0","num_feature":"8","num_nodes":"13","size_leaf_vector":"1"}},{"base_weights":[-1.0160379E-3,-3.4339383E-2,5.2070413E-2,6.320655E-3,-8.843408E-2,-1.2927456E-2,1.2897542E-1,-2.3839006E-3,1.1829701E-3,-4.6843467E-3,-1.6800971E-3,-7.016744E-4,1.5450637E-2,7.6448205E-3,1.122355E-3],"categories":[],"categories_nodes":[],"categories_segments":[],"categories_sizes":[],"default_left":[0,0,0,0,0,0,0,0,0,0,0,0,0,0,0],"id":14,"left_children":[1,3,5,7,9,11,13,-1,-1,-1,-1,-1,-1,-1,-1],"loss_changes":[7.185872E1,5.489016E1,7.8306175E1,2.1841387E1,1.4252754E1,1.5646957E1,4.4994965E1,0E0,0E0,0E0,0E0,0E0,0E0,0E0,0E0],"parents":[2147483647,0,0,1,1,2,2,3,3,4,4,5,5,6,6],"right_children":[2,4,6,8,10,12,14,-1,-1,-1,-1,-1,-1,-1,-1],"split_conditions":[1.009636E0,-5.592601E-1,7.3623724E-2,8.3098245E-1,2.0518248E0,3.6005585E1,3.7592301E0,-2.3839006E-3,1.1829701E-3,-4.6843467E-3,-1.6800971E-3,-7.016744E-4,1.5450637E-2,7.6448205E-3,1.122355E-3],"split_indices":[4,5,6,4,7,5,5,0,0,0,0,0,0,0,0],"split_type":[0,0,0,0,0,0,0,0,0,0,0,0,0,0,0],"sum_hessian":[4.0618668E4,2.4954574E4,1.5664094E4,1.4246865E4,1.0707709E4,8.489688E3,7.174405E3,3.7147915E3,1.0532074E4,6.618703E3,4.0890059E3,8.39362E3,9.606847E1,4.4395845E3,2.73482E3],"tree_param":{"num_deleted":"0","num_feature":"8","num_nodes":"15","size_leaf_vector":"1"}},{"base_weights":[6.5997936E-4,4.5515534E-2,-5.8121007E-2,-3.351465E-2,6.0049884E-2,8.088644E-3,-1.3686948E-1,1.9965495E-3,-3.202367E-3,6.6010007E-3,1.6293734E-3,-2.9827118E-2,5.3775014E-4,-1.1885156E-2,-4.3745637E-3],"categories":[],"categories_nodes":[],"categories_segments":[],"categories_sizes":[],"default_left":[0,0,0,0,0,0,0,0,0,0,0,0,0,0,0],"id":15,"left_children":[1,3,5,7,9,11,13,-1,-1,-1,-1,-1,-1,-1,-1],"loss_changes":[1.14907295E2,2.8394726E1,9.834816E1,1.4916746E1,4.2328423E1,4.1375946E1,3.7944504E1,0E0,0E0,0E0,0E0,0E0,0E0,0E0,0E0],"parents":[2147483647,0,0,1,1,2,2,3,3,4,4,5,5,6,6],"right_children":[2,4,6,8,10,12,14,-1,-1,-1,-1,-1,-1,-1,-1],"split_conditions":[9.921676E-1,-2.3924353E1,7.3623724E-2,2.0398932E1,8.172037E-1,-4.1109657E1,-1.495825E1,1.9965495E-3,-3.202367E-3,6.6010007E-3,1.6293734E-3,-2.9827118E-2,5.3775014E-4,-1.1885156E-2,-4.3745637E-3],"split_indices":[4,7,6,3,4,7,7,0,0,0,0,0,0,0,0],"split_type":[0,0,0,0,0,0,0,0,0,0,0,0,0,0,0],"sum_hessian":[4.3578727E4,2.4717285E4,1.8861443E4,3.8393896E3,2.0877895E4,1.0246963E4,8.61448E3,1.3748956E3,2.464494E3,3.243383E3,1.7634512E4,7.131041E1,1.0175652E4,1.2604857E3,7.353995E3],"tree_param":{"num_deleted":"0","num_feature":"8","num_nodes":"15","size_leaf_vector":"1"}},{"base_weights":[-2.205013E-3,2.578842E0,-2.26473E-2,2.7032504E0,-1.4341138E-1,-8.009101E-2,1.6298606E-1,9.5432654E-2,1.3572982E-1,-1.4078755E-2,9.219345E-3,-8.272575E-3,-1.7155559E-3,1.2669278E-2,3.3453067E-3],"categories":[],"categories_nodes":[],"categories_segments":[],"categories_sizes":[],"default_left":[0,0,0,0,0,0,0,0,0,0,0,0,0,0,0],"id":16,"left_children":[1,3,5,7,9,11,13,-1,-1,-1,-1,-1,-1,-1,-1],"loss_changes":[4.54507E2,2.3312317E1,9.114741E1,6.093384E0,3.8585463E-1,3.0763767E1,2.4618122E1,0E0,0E0,0E0,0E0,0E0,0E0,0E0,0E0],"parents":[2147483647,0,0,1,1,2,2,3,3,4,4,5,5,6,6],"right_children":[2,4,6,8,10,12,14,-1,-1,-1,-1,-1,-1,-1,-1],"split_conditions":[-2.3896437E1,-3.4887093E1,2.476755E0,1.9252914E0,-2.5059595E1,3.741983E1,2.1851704E1,9.5432654E-2,1.3572982E-1,-1.4078755E-2,9.219345E-3,-8.272575E-3,-1.7155559E-3,1.2669278E-2,3.3453067E-3],"split_indices":[1,7,1,2,7,0,3,0,0,0,0,0,0,0,0],"split_type":[0,0,0,0,0,0,0,0,0,0,0,0,0,0,0],"sum_hessian":[8.612098E3,6.668972E1,8.545408E3,6.378183E1,2.9078865E0,6.526401E3,2.0190073E3,4.6737736E1,1.7044096E1,1.9043103E0,1.0035762E0,1.4801007E3,5.0463003E3,6.8630707E2,1.3327002E3],"tree_param":{"num_deleted":"0","num_feature":"8","num_nodes":"15","size_leaf_vector":"1"}},{"base_weights":[3.3486343E-4,-3.2468446E-2,5.2478738E-2,5.987936E-3,-8.297218E-2,-1.1068038E-2,1.2922472E-1,-1.999085E-3,1.3945957E-3,7.940086E-3,-3.4551683E-3,-1.0236701E-3,2.9712215E-3,7.2623715E-3,1.7073931E-3],"categories":[],"categories_nodes":[],"categories_segments":[],"categories_sizes":[],"default_left":[0,0,0,0,0,0,0,0,0,0,0,0,0,0,0],"id":17,"left_children":[1,3,5,7,9,11,13,-1,-1,-1,-1,-1,-1,-1,-1],"loss_changes":[6.920233E1,4.8233696E1,7.619488E1,2.278834E1,1.0312584E1,1.0597114E1,3.204287E1,0E0,0E0,0E0,0E0,0E0,0E0,0E0,0E0],"parents":[2147483647,0,0,1,1,2,2,3,3,4,4,5,5,6,6],"right_children":[2,4,6,8,10,12,14,-1,-1,-1,-1,-1,-1,-1,-1],"split_conditions":[1.009636E0,-6.299467E-1,9.138139E-2,1.7595318E1,5.4340523E-1,3.713416E1,3.7592301E0,-1.999085E-3,1.3945957E-3,7.940086E-3,-3.4551683E-3,-1.0236701E-3,2.9712215E-3,7.2623715E-3,1.7073931E-3],"split_indices":[4,5,6,3,4,3,5,0,0,0,0,0,0,0,0],"split_type":[0,0,0,0,0,0,0,0,0,0,0,0,0,0,0],"sum_hessian":[4.0455574E4,2.483343E4,1.5622143E4,1.4098738E4,1.0734691E4,8.546432E3,7.0757114E3,4.798419E3,9.300319E3,1.27696365E2,1.0606995E4,7.3041826E3,1.2422483E3,4.408559E3,2.6671526E3],"tree_param":{"num_deleted":"0","num_feature":"8","num_nodes":"15","size_leaf_vector":"1"}},{"base_weights":[6.7410583E-4,-7.5324315E-1,3.7869238E-3,-6.030912E-1,-9.965052E-1,4.5297552E-2,-4.6065252E-2,-2.4835194E-2,1.8920464E-2,-4.020758E-2,-1.3965445E-2,-1.0410576E-3,2.5354521E-3,4.7040693E-4,-4.7696903E-3],"categories":[],"categories_nodes":[],"categories_segments":[],"categories_sizes":[],"default_left":[0,0,0,0,0,0,0,0,0,0,0,0,0,0,0],"id":18,"left_children":[1,3,5,7,9,11,13,-1,-1,-1,-1,-1,-1,-1,-1],"loss_changes":[1.0244671E2,5.955429E0,8.996686E1,2.466793E0,2.558899E-2,3.0606987E1,8.3585434E1,0E0,0E0,0E0,0E0,0E0,0E0,0E0,0E0],"parents":[2147483647,0,0,1,1,2,2,3,3,4,4,5,5,6,6],"right_children":[2,4,6,8,10,12,14,-1,-1,-1,-1,-1,-1,-1,-1],"split_conditions":[-2.3896437E1,1.4694341E0,9.836711E-1,-2.4283926E1,-2.5462236E1,-3.3991935E0,1.0396632E-1,-2.4835194E-2,1.8920464E-2,-4.020758E-2,-1.3965445E-2,-1.0410576E-3,2.5354521E-3,4.7040693E-4,-4.7696903E-3],"split_indices":[1,2,4,7,7,1,6,0,0,0,0,0,0,0,0],"split_type":[0,0,0,0,0,0,0,0,0,0,0,0,0,0,0],"sum_hessian":[4.365144E4,1.7849866E2,4.347294E4,1.1252346E2,6.5975204E1,2.372109E4,1.9751852E4,1.1110978E2,1.413682E0,6.4556465E1,1.418738E0,4.7988345E3,1.8922254E4,1.1033711E4,8.718142E3],"tree_param":{"num_deleted":"0","num_feature":"8","num_nodes":"15","size_leaf_vector":"1"}},{"base_weights":[6.600823E-3,2.3615482E0,-1.5200919E-2,2.4579248E0,6.5127425E-2,-7.1051165E-2,1.7307352E-1,1.1132906E-1,8.015123E-2,1.796534E-2,-1.3331747E-2,-3.0817364E-3,3.2450512E-2,2.1346377E-3,1.2176916E-2],"categories":[],"categories_nodes":[],"categories_segments":[],"categories_sizes":[],"default_left":[0,0,0,0,0,0,0,0,0,0,0,0,0,0,0],"id":19,"left_children":[1,3,5,7,9,11,13,-1,-1,-1,-1,-1,-1,-1,-1],"loss_changes":[4.4227853E2,1.7328491E1,8.976616E1,5.622589E0,7.937959E-1,3.4870266E1,3.0692661E1,0E0,0E0,0E0,0E0,0E0,0E0,0E0,0E0],"parents":[2147483647,0,0,1,1,2,2,3,3,4,4,5,5,6,6],"right_children":[2,4,6,8,10,12,14,-1,-1,-1,-1,-1,-1,-1,-1],"split_conditions":[-2.3896437E1,-3.7828674E1,2.5854437E0,-5.5626083E1,-4.452939E1,5.6279213E1,3.330466E-1,1.1132906E-1,8.015123E-2,1.796534E-2,-1.3331747E-2,-3.0817364E-3,3.2450512E-2,2.1346377E-3,1.2176916E-2],"split_indices":[1,7,1,7,5,3,6,0,0,0,0,0,0,0,0],"split_type":[0,0,0,0,0,0,0,0,0,0,0,0,0,0,0],"sum_hessian":[8.61267E3,7.801894E1,8.53465E3,7.480901E1,3.209928E0,6.582594E3,1.9520563E3,4.059935E1,3.4209663E1,1.5697188E0,1.6402091E0,6.5390967E3,4.349769E1,1.0220235E3,9.3003284E2],"tree_param":{"num_deleted":"0","num_feature":"8","num_nodes":"15","size_leaf_vector":"1"}},{"base_weights":[1.5736455E-3,-2.8396634E-2,4.9127705E-2,1.08487215E-2,-8.099095E-2,-2.2059526E-2,1.21159606E-1,-2.1771549E-3,1.3464261E-3,-5.6247027E-3,-1.9210106E-3,-1.1933744E-3,5.3747627E-3,6.50824E-3,-2.6832023E-4],"categories":[],"categories_nodes":[],"categories_segments":[],"categories_sizes":[],"default_left":[0,0,0,0,0,0,0,0,0,0,0,0,0,0,0],"id":20,"left_children":[1,3,5,7,9,11,13,-1,-1,-1,-1,-1,-1,-1,-1],"loss_changes":[5.7807583E1,5.135599E1,8.040818E1,2.1220503E1,2.0892044E1,9.596617E0,4.1407013E1,0E0,0E0,0E0,0E0,0E0,0E0,0E0,0E0],"parents":[2147483647,0,0,1,1,2,2,3,3,4,4,5,5,6,6],"right_children":[2,4,6,8,10,12,14,-1,-1,-1,-1,-1,-1,-1,-1],"split_conditions":[1.009636E0,-5.592601E-1,9.480988E-3,8.3098245E-1,6.914206E-1,7.090917E1,1.5003692E0,-2.1771549E-3,1.3464261E-3,-5.6247027E-3,-1.9210106E-3,-1.1933744E-3,5.3747627E-3,6.50824E-3,-2.6832023E-4],"split_indices":[4,5,6,4,2,0,2,0,0,0,0,0,0,0,0],"split_type":[0,0,0,0,0,0,0,0,0,0,0,0,0,0,0],"sum_hessian":[4.0558816E4,2.4879354E4,1.5679461E4,1.4248247E4,1.0631106E4,7.8863164E3,7.793145E3,3.6894104E3,1.0558836E4,3.7838357E3,6.847271E3,7.5136797E3,3.7263666E2,5.8817803E3,1.9113646E3],"tree_param":{"num_deleted":"0","num_feature":"8","num_nodes":"15","size_leaf_vector":"1"}},{"base_weights":[-8.642548E-4,-7.317497E-1,2.2856938E-3,-6.187126E-1,-9.008466E-1,2.8844478E-2,-5.205464E-2,-2.5995858E-2,5.6180325E-3,-3.6768436E-2,-5.759686E-3,-6.319327E-3,1.3735448E-3,-2.9507752E-3,2.9136476E-3],"categories":[],"categories_nodes":[],"categories_segments":[],"categories_sizes":[],"default_left":[0,0,0,0,0,0,0,0,0,0,0,0,0,0,0],"id":21,"left_children":[1,3,5,7,9,11,13,-1,-1,-1,-1,-1,-1,-1,-1],"loss_changes":[1.0043207E2,3.020813E0,6.268961E1,2.8230095E0,8.796234E-1,2.9954514E1,3.8680576E1,0E0,0E0,0E0,0E0,0E0,0E0,0E0,0E0],"parents":[2147483647,0,0,1,1,2,2,3,3,4,4,5,5,6,6],"right_children":[2,4,6,8,10,12,14,-1,-1,-1,-1,-1,-1,-1,-1],"split_conditions":[-2.3896437E1,1.4847081E0,3.2182616E-1,2.2227615E1,2.3395437E1,-1.5109999E1,1.7285591E0,-2.5995858E-2,5.6180325E-3,-3.6768436E-2,-5.759686E-3,-6.319327E-3,1.3735448E-3,-2.9507752E-3,2.9136476E-3],"split_indices":[1,2,6,0,0,5,2,0,0,0,0,0,0,0,0],"split_type":[0,0,0,0,0,0,0,0,0,0,0,0,0,0,0],"sum_hessian":[4.3621684E4,1.862001E2,4.3435484E4,1.1439127E2,7.180883E1,2.9176143E4,1.4259342E4,1.1001611E2,4.3751564E0,6.989829E1,1.9105312E0,8.326946E2,2.8343447E4,1.2147715E4,2.111627E3],"tree_param":{"num_deleted":"0","num_feature":"8","num_nodes":"15","size_leaf_vector":"1"}},{"base_weights":[-1.5980906E-3,1.8215802E0,-1.5811816E-2,2.003314E0,-2.1158762E-2,1.0130719E0,-2.3398582E-2,-1.4595089E-2,8.347186E-2,-1.7513134E-2,4.7412317E-2,1.9380825E-2,1.12698704E-1,-5.0841426E-3,2.066388E-3],"categories":[],"categories_nodes":[],"categories_segments":[],"categories_sizes":[],"default_left":[0,0,0,0,0,0,0,0,0,0,0,0,0,0,0],"id":22,"left_children":[1,3,5,7,9,11,13,-1,-1,-1,-1,-1,-1,-1,-1],"loss_changes":[2.2353143E2,2.2388779E1,6.683441E1,1.2771515E1,4.0276017E0,5.840695E1,6.614909E1,0E0,0E0,0E0,0E0,0E0,0E0,0E0,0E0],"parents":[2147483647,0,0,1,1,2,2,3,3,4,4,5,5,6,6],"right_children":[2,4,6,8,10,12,14,-1,-1,-1,-1,-1,-1,-1,-1],"split_conditions":[1.4876385E1,-3.7828674E1,-5.149838E1,4.7569785E-1,-2.0818419E1,1.0565112E0,4.6477566E1,-1.4595089E-2,8.347186E-2,-1.7513134E-2,4.7412317E-2,1.9380825E-2,1.12698704E-1,-5.0841426E-3,2.066388E-3],"split_indices":[0,7,7,2,7,4,0,0,0,0,0,0,0,0,0],"split_type":[0,0,0,0,0,0,0,0,0,0,0,0,0,0,0],"sum_hessian":[8.623731E3,6.5727936E1,8.558004E3,5.974832E1,5.9796185E0,6.167284E1,8.496331E3,1.9197232E0,5.7828598E1,4.9181633E0,1.0614554E0,4.86814E1,1.2991439E1,3.5671082E3,4.929222E3],"tree_param":{"num_deleted":"0","num_feature":"8","num_nodes":"15","size_leaf_vector":"1"}},{"base_weights":[-1.3561662E-3,-3.061419E-2,4.4886798E-2,8.585474E-3,-7.8985974E-2,-1.2007115E-2,1.1302482E-1,-2.3161604E-3,1.276654E-3,-5.0928365E-3,-1.9490955E-3,-2.6358645E-3,5.088964E-4,6.256892E-3,-5.863957E-4],"categories":[],"categories_nodes":[],"categories_segments":[],"categories_sizes":[],"default_left":[0,0,0,0,0,0,0,0,0,0,0,0,0,0,0],"id":23,"left_children":[1,3,5,7,9,11,13,-1,-1,-1,-1,-1,-1,-1,-1],"loss_changes":[5.4851578E1,4.7083828E1,6.0905453E1,2.1279964E1,1.6250206E1,1.1411886E1,3.9615982E1,0E0,0E0,0E0,0E0,0E0,0E0,0E0,0E0],"parents":[2147483647,0,0,1,1,2,2,3,3,4,4,5,5,6,6],"right_children":[2,4,6,8,10,12,14,-1,-1,-1,-1,-1,-1,-1,-1],"split_conditions":[1.009636E0,-8.3771354E-1,9.138139E-2,8.3098245E-1,7.1726227E-1,-3.4734597E0,1.5003692E0,-2.3161604E-3,1.276654E-3,-5.0928365E-3,-1.9490955E-3,-2.6358645E-3,5.088964E-4,6.256892E-3,-5.863957E-4],"split_indices":[4,5,6,4,2,7,2,0,0,0,0,0,0,0,0],"split_type":[0,0,0,0,0,0,0,0,0,0,0,0,0,0,0],"sum_hessian":[4.0539363E4,2.482982E4,1.5709542E4,1.3715686E4,1.1114134E4,8.561599E3,7.1479434E3,3.56227E3,1.0153415E4,4.277717E3,6.836417E3,2.6925176E3,5.869081E3,5.3345957E3,1.8133475E3],"tree_param":{"num_deleted":"0","num_feature":"8","num_nodes":"15","size_leaf_vector":"1"}},{"base_weights":[1.5417502E-3,3.9244972E-2,-5.9423044E-2,1.6078652E-3,7.114178E-2,4.5799196E-4,-1.2867448E-1,3.0691335E-3,-1.0666815E-3,5.510559E-3,1.8059022E-3,-2.8672788E-2,2.2464759E-4,-6.740837E-3,2.4685598E-5],"categories":[],"categories_nodes":[],"categories_segments":[],"categories_sizes":[],"default_left":[0,0,0,0,0,0,0,0,0,0,0,0,0,0,0],"id":24,"left_children":[1,3,5,7,9,11,13,-1,-1,-1,-1,-1,-1,-1,-1],"loss_changes":[1.001744E2,3.2326855E1,6.9058945E1,2.6241058E1,2.5235329E1,3.3050766E1,3.978475E1,0E0,0E0,0E0,0E0,0E0,0E0,0E0,0E0],"parents":[2147483647,0,0,1,1,2,2,3,3,4,4,5,5,6,6],"right_children":[2,4,6,8,10,12,14,-1,-1,-1,-1,-1,-1,-1,-1],"split_conditions":[1.0112795E0,-2.2918158E0,7.3623724E-2,8.352322E-1,6.278162E-1,-4.1109657E1,1.5526919E0,3.0691335E-3,-1.0666815E-3,5.510559E-3,1.8059022E-3,-2.8672788E-2,2.2464759E-4,-6.740837E-3,2.4685598E-5],"split_indices":[4,5,6,4,2,7,2,0,0,0,0,0,0,0,0],"split_type":[0,0,0,0,0,0,0,0,0,0,0,0,0,0,0],"sum_hessian":[4.3579184E4,2.6926838E4,1.6652346E4,1.2352443E4,1.45743955E4,8.930889E3,7.721458E3,3.3774788E3,8.974965E3,4.089322E3,1.0485073E4,6.278152E1,8.868106E3,5.9021636E3,1.8192943E3],"tree_param":{"num_deleted":"0","num_feature":"8","num_nodes":"15","size_leaf_vector":"1"}},{"base_weights":[1.9186271E-4,1.8926009E0,-1.9508177E-2,1.9466052E0,1.4058483E-1,-7.163055E-2,1.5367053E-1,7.911935E-2,2.9990047E-3,2.6679268E-2,-1.3313243E-2,-3.0772411E-3,2.7476817E-2,1.23755485E-2,3.0742437E-3],"categories":[],"categories_nodes":[],"categories_segments":[],"categories_sizes":[],"default_left":[0,0,0,0,0,0,0,0,0,0,0,0,0,0,0],"id":25,"left_children":[1,3,5,7,9,11,13,-1,-1,-1,-1,-1,-1,-1,-1],"loss_changes":[3.2212088E2,8.149139E0,7.720051E1,4.9188843E0,1.1539606E0,2.6483978E1,2.364373E1,0E0,0E0,0E0,0E0,0E0,0E0,0E0,0E0],"parents":[2147483647,0,0,1,1,2,2,3,3,4,4,5,5,6,6],"right_children":[2,4,6,8,10,12,14,-1,-1,-1,-1,-1,-1,-1,-1],"split_conditions":[-2.3896437E1,-3.4887093E1,2.5854437E0,4.1741285E0,-7.154805E-1,5.6279213E1,2.1690289E1,7.911935E-2,2.9990047E-3,2.6679268E-2,-1.3313243E-2,-3.0772411E-3,2.7476817E-2,1.23755485E-2,3.0742437E-3],"split_indices":[1,7,1,5,6,3,3,0,0,0,0,0,0,0,0],"split_type":[0,0,0,0,0,0,0,0,0,0,0,0,0,0,0],"sum_hessian":[8.638466E3,8.802072E1,8.550445E3,8.528095E1,2.739771E0,6.5727896E3,1.9776558E3,8.381888E1,1.462075E0,1.1036919E0,1.636079E0,6.5280728E3,4.471722E1,6.522953E2,1.3253605E3],"tree_param":{"num_deleted":"0","num_feature":"8","num_nodes":"15","size_leaf_vector":"1"}},{"base_weights":[-9.791201E-4,-3.0948848E-2,5.049331E-2,1.6621788E-3,-7.980401E-2,-4.448507E-3,1.1421193E-1,-4.393485E-3,6.659607E-4,-3.4648255E-3,7.18792E-3,-2.5505486E-3,8.8966335E-4,6.7460304E-3,9.927731E-4],"categories":[],"categories_nodes":[],"categories_segments":[],"categories_sizes":[],"default_left":[0,0,0,0,0,0,0,0,0,0,0,0,0,0,0],"id":26,"left_children":[1,3,5,7,9,11,13,-1,-1,-1,-1,-1,-1,-1,-1],"loss_changes":[6.2445312E1,4.0760895E1,5.2149456E1,2.5641382E1,1.8131714E1,1.266641E1,3.3560753E1,0E0,0E0,0E0,0E0,0E0,0E0,0E0,0E0],"parents":[2147483647,0,0,1,1,2,2,3,3,4,4,5,5,6,6],"right_children":[2,4,6,8,10,12,14,-1,-1,-1,-1,-1,-1,-1,-1],"split_conditions":[1.0170496E0,-4.863813E-2,7.3623724E-2,7.781439E-1,3.869302E1,-3.4734597E0,3.7592301E0,-4.393485E-3,6.659607E-4,-3.4648255E-3,7.18792E-3,-2.5505486E-3,8.8966335E-4,6.7460304E-3,9.927731E-4],"split_indices":[4,5,6,4,7,7,5,0,0,0,0,0,0,0,0],"split_type":[0,0,0,0,0,0,0,0,0,0,0,0,0,0,0],"sum_hessian":[4.0478164E4,2.5582941E4,1.4895222E4,1.5342635E4,1.0240307E4,7.998978E3,6.896243E3,1.8171377E3,1.3525497E4,9.978848E3,2.6145932E2,2.4818982E3,5.51708E3,4.28553E3,2.6107134E3],"tree_param":{"num_deleted":"0","num_feature":"8","num_nodes":"15","size_leaf_vector":"1"}},{"base_weights":[-1.4318369E-3,3.8339306E-2,-5.3373534E-2,-1.1310943E-1,4.7220666E-2,3.7595397E-3,-1.1987751E-1,-1.0130811E-4,-5.5778613E-3,4.024831E-3,1.3294201E-3,-3.1637408E-2,2.992659E-4,-2.7387079E-2,-4.5881704E-3],"categories":[],"categories_nodes":[],"categories_segments":[],"categories_sizes":[],"default_left":[0,0,0,0,0,0,0,0,0,0,0,0,0,0,0],"id":27,"left_children":[1,3,5,7,9,11,13,-1,-1,-1,-1,-1,-1,-1,-1],"loss_changes":[9.0075775E1,3.3221954E1,7.184547E1,3.9843884E0,1.7418076E1,3.0093771E1,2.5452011E1,0E0,0E0,0E0,0E0,0E0,0E0,0E0,0E0],"parents":[2147483647,0,0,1,1,2,2,3,3,4,4,5,5,6,6],"right_children":[2,4,6,8,10,12,14,-1,-1,-1,-1,-1,-1,-1,-1],"split_conditions":[9.921676E-1,-1.2579432E1,7.3623724E-2,8.3098245E-1,8.172037E-1,-4.452939E1,-2.3896437E1,-1.0130811E-4,-5.5778613E-3,4.024831E-3,1.3294201E-3,-3.1637408E-2,2.992659E-4,-2.7387079E-2,-4.5881704E-3],"split_indices":[4,5,6,4,4,5,1,0,0,0,0,0,0,0,0],"split_type":[0,0,0,0,0,0,0,0,0,0,0,0,0,0,0],"sum_hessian":[4.3601758E4,2.4694066E4,1.8907691E4,1.3672584E3,2.3326809E4,1.01708955E4,8.736797E3,2.632203E2,1.1040381E3,4.8399673E3,1.8486842E4,4.6429325E1,1.0124466E4,7.8105804E1,8.658691E3],"tree_param":{"num_deleted":"0","num_feature":"8","num_nodes":"15","size_leaf_vector":"1"}},{"base_weights":[-1.4811051E-3,1.5299158E0,-2.5689777E-2,1.8893262E0,9.468996E-1,-7.776273E-2,1.4484076E-1,6.90566E-2,9.599659E-2,6.575306E-2,2.0946456E-2,-8.465131E-3,-1.5628787E-3,1.2092726E-2,2.6240959E-3],"categories":[],"categories_nodes":[],"categories_segments":[],"categories_sizes":[],"default_left":[0,0,0,0,0,0,0,0,0,0,0,0,0,0,0],"id":28,"left_children":[1,3,5,7,9,11,13,-1,-1,-1,-1,-1,-1,-1,-1],"loss_changes":[3.1970837E2,2.6332489E1,7.5397995E1,2.6790771E0,1.4827217E1,3.3679348E1,2.4765278E1,0E0,0E0,0E0,0E0,0E0,0E0,0E0,0E0],"parents":[2147483647,0,0,1,1,2,2,3,3,4,4,5,5,6,6],"right_children":[2,4,6,8,10,12,14,-1,-1,-1,-1,-1,-1,-1,-1],"split_conditions":[-1.4072651E1,-5.149838E1,2.5854437E0,1.8404106E1,-4.452939E1,3.759749E1,2.1690289E1,6.90566E-2,9.599659E-2,6.575306E-2,2.0946456E-2,-8.465131E-3,-1.5628787E-3,1.2092726E-2,2.6240959E-3],"split_indices":[1,7,1,0,5,0,3,0,0,0,0,0,0,0,0],"split_type":[0,0,0,0,0,0,0,0,0,0,0,0,0,0,0],"sum_hessian":[8.621673E3,1.3320442E2,8.488469E3,8.101853E1,5.2185886E1,6.5032036E3,1.9852646E3,6.474262E1,1.627591E1,1.8628033E1,3.3557854E1,1.4571531E3,5.046051E3,6.636062E2,1.3216584E3],"tree_param":{"num_deleted":"0","num_feature":"8","num_nodes":"15","size_leaf_vector":"1"}},{"base_weights":[2.3029232E-4,3.755592E-2,-3.296234E-2,-4.5145683E-2,5.540588E-2,-5.8919635E-2,5.4782987E-2,1.8462265E-3,-3.8355635E-3,-1.205909E-2,2.3544056E-3,-3.7325195E-3,-1.6079008E-3,2.9313032E-4,5.1937895E-3],"categories":[],"categories_nodes":[],"categories_segments":[],"categories_sizes":[],"default_left":[0,0,0,0,0,0,0,0,0,0,0,0,0,0,0],"id":29,"left_children":[1,3,5,7,9,11,13,-1,-1,-1,-1,-1,-1,-1,-1],"loss_changes":[5.019714E1,2.8155283E1,4.8848118E1,1.5691649E1,1.935474E1,1.0653156E1,1.7439941E1,0E0,0E0,0E0,0E0,0E0,0E0,0E0,0E0],"parents":[2147483647,0,0,1,1,2,2,3,3,4,4,5,5,6,6],"right_children":[2,4,6,8,10,12,14,-1,-1,-1,-1,-1,-1,-1,-1],"split_conditions":[-1.2752621E0,8.3098245E-1,1.0960976E0,-8.184294E-2,-4.452939E1,9.1302735E-1,2.3937969E-1,1.8462265E-3,-3.8355635E-3,-1.205909E-2,2.3544056E-3,-3.7325195E-3,-1.6079008E-3,2.9313032E-4,5.1937895E-3],"split_indices":[5,4,4,6,5,4,6,0,0,0,0,0,0,0,0],"split_type":[0,0,0,0,0,0,0,0,0,0,0,0,0,0,0],"sum_hessian":[4.0514332E4,1.9069855E4,2.1444477E4,3.385018E3,1.5684837E4,1.6549146E4,4.8953286E3,1.2092804E3,2.1757378E3,1.4953067E2,1.5535306E4,5.8318306E3,1.0717317E4,2.9998767E3,1.895452E3],"tree_param":{"num_deleted":"0","num_feature":"8","num_nodes":"15","size_leaf_vector":"1"}},{"base_weights":[7.357822E-4,-5.4878014E-1,3.1042313E-3,-6.312735E-1,2.7552807E-1,3.265755E-2,-3.6609665E-2,-1.3112802E-2,-2.8986467E-2,2.8972596E-2,-3.8759648E-3,-6.725443E-3,1.4797569E-3,-2.2203932E-3,2.0322911E-3],"categories":[],"categories_nodes":[],"categories_segments":[],"categories_sizes":[],"default_left":[0,0,0,0,0,0,0,0,0,0,0,0,0,0,0],"id":30,"left_children":[1,3,5,7,9,11,13,-1,-1,-1,-1,-1,-1,-1,-1],"loss_changes":[5.664518E1,1.2875088E1,5.086355E1,4.5827103E0,3.0265698E0,2.1640799E1,3.055193E1,0E0,0E0,0E0,0E0,0E0,0E0,0E0,0E0],"parents":[2147483647,0,0,1,1,2,2,3,3,4,4,5,5,6,6],"right_children":[2,4,6,8,10,12,14,-1,-1,-1,-1,-1,-1,-1,-1],"split_conditions":[-4.452939E1,2.2227615E1,1.0396632E-1,8.351605E-1,7.2451806E-1,-1.6151424E1,1.534192E0,-1.3112802E-2,-2.8986467E-2,2.8972596E-2,-3.8759648E-3,-6.725443E-3,1.4797569E-3,-2.2203932E-3,2.0322911E-3],"split_indices":[5,0,6,2,2,5,2,0,0,0,0,0,0,0,0],"split_type":[0,0,0,0,0,0,0,0,0,0,0,0,0,0,0],"sum_hessian":[4.3520668E4,1.857818E2,4.3334887E4,1.6909377E2,1.6688028E1,2.4845871E4,1.8489016E4,4.0854E1,1.2823978E2,7.139658E0,9.548369E0,5.244343E2,2.4321436E4,1.5202493E4,3.2865225E3],"tree_param":{"num_deleted":"0","num_feature":"8","num_nodes":"15","size_leaf_vector":"1"}},{"base_weights":[-3.1576455E-3,1.3864549E0,-2.5904726E-2,1.6506381E0,8.532199E-1,-1.3817267E-1,5.1646776E-2,6.032947E-2,8.347539E-2,2.1359911E-2,7.688863E-2,-1.0521538E-2,-3.7582167E-3,5.670038E-4,1.0185235E-2],"categories":[],"categories_nodes":[],"categories_segments":[],"categories_sizes":[],"default_left":[0,0,0,0,0,0,0,0,0,0,0,0,0,0,0],"id":31,"left_children":[1,3,5,7,9,11,13,-1,-1,-1,-1,-1,-1,-1,-1],"loss_changes":[2.7280847E2,1.8172974E1,7.393801E1,2.5603027E0,1.5394642E1,1.9131012E1,3.820165E1,0E0,0E0,0E0,0E0,0E0,0E0,0E0,0E0],"parents":[2147483647,0,0,1,1,2,2,3,3,4,4,5,5,6,6],"right_children":[2,4,6,8,10,12,14,-1,-1,-1,-1,-1,-1,-1,-1],"split_conditions":[-1.4072651E1,-4.916327E1,4.6206295E1,1.8404106E1,6.610936E0,3.4103207E1,5.3918343E0,6.032947E-2,8.347539E-2,2.1359911E-2,7.688863E-2,-1.0521538E-2,-3.7582167E-3,5.670038E-4,1.0185235E-2],"split_indices":[1,7,0,0,6,0,1,0,0,0,0,0,0,0,0],"split_type":[0,0,0,0,0,0,0,0,0,0,0,0,0,0,0],"sum_hessian":[8.628412E3,1.3800131E2,8.490411E3,9.088046E1,4.7120853E1,3.4684722E3,5.0219385E3,7.187579E1,1.9004665E1,3.744008E1,9.680776E0,9.0575305E2,2.5627192E3,4.2402427E3,7.816959E2],"tree_param":{"num_deleted":"0","num_feature":"8","num_nodes":"15","size_leaf_vector":"1"}},{"base_weights":[8.3349727E-4,-2.6399633E-2,4.4578917E-2,1.9614642E-2,-5.8603153E-2,8.783774E-2,-4.964009E-3,-2.9832786E-3,1.4335276E-3,-4.1470644E-3,-1.2283544E-3,-1.9796362E-2,3.6803E-3,-9.905415E-3,1.9218841E-4],"categories":[],"categories_nodes":[],"categories_segments":[],"categories_sizes":[],"default_left":[0,0,0,0,0,0,0,0,0,0,0,0,0,0,0],"id":32,"left_children":[1,3,5,7,9,11,13,-1,-1,-1,-1,-1,-1,-1,-1],"loss_changes":[4.816046E1,3.6921196E1,3.3242435E1,1.5680177E1,1.8425606E1,2.0166546E1,1.7143223E1,0E0,0E0,0E0,0E0,0E0,0E0,0E0,0E0],"parents":[2147483647,0,0,1,1,2,2,3,3,4,4,5,5,6,6],"right_children":[2,4,6,8,10,12,14,-1,-1,-1,-1,-1,-1,-1,-1],"split_conditions":[1.0112795E0,-3.121951E0,2.630697E0,7.920701E-1,7.1726227E-1,-5.5626083E1,4.8445007E1,-2.9832786E-3,1.4335276E-3,-4.1470644E-3,-1.2283544E-3,-1.9796362E-2,3.6803E-3,-9.905415E-3,1.9218841E-4],"split_indices":[4,5,5,4,2,7,0,0,0,0,0,0,0,0,0],"split_type":[0,0,0,0,0,0,0,0,0,0,0,0,0,0,0],"sum_hessian":[4.042399E4,2.491431E4,1.5509677E4,1.0257781E4,1.4656528E4,8.279547E3,7.2301294E3,1.5066022E3,8.751179E3,5.6018955E3,9.054633E3,5.7986065E1,8.221561E3,2.7884335E2,6.951286E3],"tree_param":{"num_deleted":"0","num_feature":"8","num_nodes":"15","size_leaf_vector":"1"}},{"base_weights":[-6.4775837E-4,3.907227E-2,-4.7685567E-2,-1.1065912E-2,6.2055968E-2,-6.242965E-1,-4.378736E-2,-2.0005578E-2,-2.971228E-4,5.368076E-3,1.73861E-3,-2.6011502E-2,2.2976415E-2,-2.201032E-3,3.280974E-3],"categories":[],"categories_nodes":[],"categories_segments":[],"categories_sizes":[],"default_left":[0,0,0,0,0,0,0,0,0,0,0,0,0,0,0],"id":33,"left_children":[1,3,5,7,9,11,13,-1,-1,-1,-1,-1,-1,-1,-1],"loss_changes":[8.136422E1,2.720913E1,4.478786E1,1.3201807E1,2.1708607E1,4.5424805E0,2.800734E1,0E0,0E0,0E0,0E0,0E0,0E0,0E0,0E0],"parents":[2147483647,0,0,1,1,2,2,3,3,4,4,5,5,6,6],"right_children":[2,4,6,8,10,12,14,-1,-1,-1,-1,-1,-1,-1,-1],"split_conditions":[9.836711E-1,-2.31805E0,-2.3896437E1,-2.3896437E1,8.172037E-1,-2.4283926E1,2.1137419E0,-2.0005578E-2,-2.971228E-4,5.368076E-3,1.73861E-3,-2.6011502E-2,2.2976415E-2,-2.201032E-3,3.280974E-3],"split_indices":[4,1,1,1,4,7,2,0,0,0,0,0,0,0,0],"split_type":[0,0,0,0,0,0,0,0,0,0,0,0,0,0,0],"sum_hessian":[4.3546863E4,2.361005E4,1.9936812E4,7.4212827E3,1.6188769E4,1.3281003E2,1.9804002E4,5.3785965E1,7.3674966E3,3.3155864E3,1.2873183E4,1.3043927E2,2.3707528E0,1.8180543E4,1.6234585E3],"tree_param":{"num_deleted":"0","num_feature":"8","num_nodes":"15","size_leaf_vector":"1"}},{"base_weights":[-4.6523608E-4,1.3264512E0,-2.2826945E-2,1.6206185E0,8.678805E-1,-7.875283E-2,1.5812035E-1,5.7565745E-2,8.483834E-2,2.4855264E-2,6.586062E-2,-1.0836495E-2,-1.9027817E-3,4.7445938E-4,1.0005167E-2],"categories":[],"categories_nodes":[],"categories_segments":[],"categories_sizes":[],"default_left":[0,0,0,0,0,0,0,0,0,0,0,0,0,0,0],"id":34,"left_children":[1,3,5,7,9,11,13,-1,-1,-1,-1,-1,-1,-1,-1],"loss_changes":[2.5584702E2,1.7870346E1,8.582244E1,4.7475433E0,1.0108631E1,3.8805523E1,2.6942986E1,0E0,0E0,0E0,0E0,0E0,0E0,0E0,0E0],"parents":[2147483647,0,0,1,1,2,2,3,3,4,4,5,5,6,6],"right_children":[2,4,6,8,10,12,14,-1,-1,-1,-1,-1,-1,-1,-1],"split_conditions":[-1.4072651E1,-5.149838E1,2.5854437E0,1.8404106E1,6.610936E0,3.4103207E1,6.2084205E-2,5.7565745E-2,8.483834E-2,2.4855264E-2,6.586062E-2,-1.0836495E-2,-1.9027817E-3,4.7445938E-4,1.0005167E-2],"split_indices":[1,7,1,0,6,0,6,0,0,0,0,0,0,0,0],"split_type":[0,0,0,0,0,0,0,0,0,0,0,0,0,0,0],"sum_hessian":[8.620452E3,1.4190103E2,8.478551E3,8.490284E1,5.6998188E1,6.477192E3,2.001359E3,6.514932E1,1.975352E1,4.465836E1,1.23398285E1,9.0327686E2,5.573915E3,7.7327545E2,1.2280836E3],"tree_param":{"num_deleted":"0","num_feature":"8","num_nodes":"15","size_leaf_vector":"1"}},{"base_weights":[1.7894339E-3,4.44777E-2,-2.3777293E-2,-6.678876E-3,7.746795E-2,-5.1115114E-2,2.5139593E-2,8.5774576E-4,-4.3364684E-3,-1.2301806E-2,3.3381789E-3,-3.1886476E-3,-6.166855E-4,2.370466E-2,8.941994E-4],"categories":[],"categories_nodes":[],"categories_segments":[],"categories_sizes":[],"default_left":[0,0,0,0,0,0,0,0,0,0,0,0,0,0,0],"id":35,"left_children":[1,3,5,7,9,11,13,-1,-1,-1,-1,-1,-1,-1,-1],"loss_changes":[4.420661E1,2.5605877E1,3.3877983E1,1.7022902E1,2.1285576E1,1.6591026E1,1.4338985E1,0E0,0E0,0E0,0E0,0E0,0E0,0E0,0E0],"parents":[2147483647,0,0,1,1,2,2,3,3,4,4,5,5,6,6],"right_children":[2,4,6,8,10,12,14,-1,-1,-1,-1,-1,-1,-1,-1],"split_conditions":[-3.121951E0,9.118191E-1,1.0338141E0,4.2817066E1,-4.452939E1,-1.5269825E0,1.06665945E1,8.5774576E-4,-4.3364684E-3,-1.2301806E-2,3.3381789E-3,-3.1886476E-3,-6.166855E-4,2.370466E-2,8.941994E-4],"split_indices":[5,4,4,0,5,7,3,0,0,0,0,0,0,0,0],"split_type":[0,0,0,0,0,0,0,0,0,0,0,0,0,0,0],"sum_hessian":[4.050256E4,1.5171035E4,2.5331521E4,5.9482046E3,9.22283E3,1.6249974E4,9.081549E3,4.660632E3,1.2875726E3,1.4043777E2,9.082393E3,9.021084E3,7.2288896E3,4.3311172E1,9.038237E3],"tree_param":{"num_deleted":"0","num_feature":"8","num_nodes":"15","size_leaf_vector":"1"}},{"base_weights":[-2.2290747E-3,-6.0207754E-1,4.4040542E-4,-6.1609256E-1,2.1317512E-2,2.196636E-2,-5.4454844E-2,-2.5104275E-2,2.080521E-2,-7.7152387E-3,1.0548596E-3,-1.9175499E-3,-6.4380644E-3],"categories":[],"categories_nodes":[],"categories_segments":[],"categories_sizes":[],"default_left":[0,0,0,0,0,0,0,0,0,0,0,0,0],"id":36,"left_children":[1,3,5,7,-1,9,11,-1,-1,-1,-1,-1,-1],"loss_changes":[6.983915E1,3.4021912E0,5.1311882E1,2.8297348E0,0E0,2.9526043E1,8.480045E0,0E0,0E0,0E0,0E0,0E0,0E0],"parents":[2147483647,0,0,1,1,2,2,3,3,5,5,6,6],"right_children":[2,4,6,8,-1,10,12,-1,-1,-1,-1,-1,-1],"split_conditions":[-2.3896437E1,-2.3217247E1,4.851308E-1,2.6534513E1,2.1317512E-2,-1.6831215E1,3.443349E1,-2.5104275E-2,2.080521E-2,-7.7152387E-3,1.0548596E-3,-1.9175499E-3,-6.4380644E-3],"split_indices":[1,7,6,0,0,5,7,0,0,0,0,0,0],"split_type":[0,0,0,0,0,0,0,0,0,0,0,0,0],"sum_hessian":[4.3613316E4,1.9223572E2,4.3421082E4,1.9034259E2,1.8931274E0,3.1190873E4,1.2230209E4,1.8887619E2,1.4663976E0,6.258148E2,3.0565059E4,1.1526406E4,7.038029E2],"tree_param":{"num_deleted":"0","num_feature":"8","num_nodes":"13","size_leaf_vector":"1"}},{"base_weights":[1.1372382E-3,1.4284945E0,-1.8540684E-2,1.4624211E0,9.4200425E-2,-7.537204E-2,1.4247335E-1,5.047974E-2,6.80697E-2,-1.413153E-2,2.623497E-2,4.826735E-3,-3.773065E-3,1.1259419E-2,2.6100802E-3],"categories":[],"categories_nodes":[],"categories_segments":[],"categories_sizes":[],"default_left":[0,0,0,0,0,0,0,0,0,0,0,0,0,0,0],"id":37,"left_children":[1,3,5,7,9,11,13,-1,-1,-1,-1,-1,-1,-1,-1],"loss_changes":[2.4271017E2,5.1816864E0,7.800889E1,3.345932E0,1.2327225E0,2.342416E1,2.3855877E1,0E0,0E0,0E0,0E0,0E0,0E0,0E0,0E0],"parents":[2147483647,0,0,1,1,2,2,3,3,4,4,5,5,6,6],"right_children":[2,4,6,8,10,12,14,-1,-1,-1,-1,-1,-1,-1,-1],"split_conditions":[-2.3896437E1,-3.4887093E1,2.2624102E0,1.4847081E0,1.4399322E0,4.1574275E-1,2.1851704E1,5.047974E-2,6.80697E-2,-1.413153E-2,2.623497E-2,4.826735E-3,-3.773065E-3,1.1259419E-2,2.6100802E-3],"split_indices":[1,7,1,2,2,2,3,0,0,0,0,0,0,0,0],"split_type":[0,0,0,0,0,0,0,0,0,0,0,0,0,0,0],"sum_hessian":[8.639296E3,1.1651035E2,8.522786E3,1.135277E2,2.9826496E0,6.2997603E3,2.2230254E3,6.51984E1,4.83293E1,1.8665595E0,1.1160902E0,5.549322E2,5.744828E3,7.9294275E2,1.4300826E3],"tree_param":{"num_deleted":"0","num_feature":"8","num_nodes":"15","size_leaf_vector":"1"}},{"base_weights":[1.2579472E-3,-1.4968216E-2,5.5523746E-2,-6.4317025E-2,3.1778275E-3,1.7773634E-3,1.2853886E-1,-4.3371576E-3,-1.1450623E-3,6.780703E-4,-2.726614E-3,-8.266027E-4,4.60262E-3,7.45526E-3,-2.072306E-3],"categories":[],"categories_nodes":[],"categories_segments":[],"categories_sizes":[],"default_left":[0,0,0,0,0,0,0,0,0,0,0,0,0,0,0],"id":38,"left_children":[1,3,5,7,9,11,13,-1,-1,-1,-1,-1,-1,-1,-1],"loss_changes":[3.5685078E1,2.7937908E1,3.6608326E1,1.32023735E1,2.241759E1,1.3666517E1,4.1270363E1,0E0,0E0,0E0,0E0,0E0,0E0,0E0,0E0],"parents":[2147483647,0,0,1,1,2,2,3,3,4,4,5,5,6,6],"right_children":[2,4,6,8,10,12,14,-1,-1,-1,-1,-1,-1,-1,-1],"split_conditions":[1.075064E0,6.278162E-1,2.0302053E-1,9.118191E-1,1.4847081E0,3.778905E1,1.6775622E0,-4.3371576E-3,-1.1450623E-3,6.780703E-4,-2.726614E-3,-8.266027E-4,4.60262E-3,7.45526E-3,-2.072306E-3],"split_indices":[4,2,6,4,2,3,2,0,0,0,0,0,0,0,0],"split_type":[0,0,0,0,0,0,0,0,0,0,0,0,0,0,0],"sum_hessian":[4.0525066E4,3.1197377E4,9.327688E3,8.386755E3,2.2810623E4,5.373375E3,3.9543137E3,3.7499438E3,4.636811E3,1.9119973E4,3.6906511E3,4.485594E3,8.8778064E2,2.9940098E3,9.603039E2],"tree_param":{"num_deleted":"0","num_feature":"8","num_nodes":"15","size_leaf_vector":"1"}},{"base_weights":[-8.4263197E-4,-5.5963826E-1,1.5178974E-3,-4.2516813E-1,-7.53084E-1,-6.8903123E-3,5.637295E-2,-1.8266711E-2,6.123777E-3,-3.0786633E-2,2.2780253E-3,-1.1165455E-4,-8.264576E-3,1.7650628E-3,5.9256153E-3],"categories":[],"categories_nodes":[],"categories_segments":[],"categories_sizes":[],"default_left":[0,0,0,0,0,0,0,0,0,0,0,0,0,0,0],"id":39,"left_children":[1,3,5,7,9,11,13,-1,-1,-1,-1,-1,-1,-1,-1],"loss_changes":[5.7432037E1,4.444149E0,1.999831E1,2.0798397E0,1.035244E0,3.0777603E1,6.469677E0,0E0,0E0,0E0,0E0,0E0,0E0,0E0,0E0],"parents":[2147483647,0,0,1,1,2,2,3,3,4,4,5,5,6,6],"right_children":[2,4,6,8,10,12,14,-1,-1,-1,-1,-1,-1,-1,-1],"split_conditions":[-2.3896437E1,1.4694341E0,1.5171173E0,2.2227615E1,-2.4673666E1,8.295835E0,3.3420846E0,-1.8266711E-2,6.123777E-3,-3.0786633E-2,2.2780253E-3,-1.1165455E-4,-8.264576E-3,1.7650628E-3,5.9256153E-3],"split_indices":[1,2,2,0,7,1,2,0,0,0,0,0,0,0,0],"split_type":[0,0,0,0,0,0,0,0,0,0,0,0,0,0,0],"sum_hessian":[4.35387E4,1.8215448E2,4.3356543E4,1.0934398E2,7.281049E1,3.759486E4,5.7616846E3,1.038948E2,5.4491825E0,7.139876E1,1.411731E0,3.683981E4,7.550514E2,5.0846216E3,6.7706274E2],"tree_param":{"num_deleted":"0","num_feature":"8","num_nodes":"15","size_leaf_vector":"1"}},{"base_weights":[3.23357E-3,1.1634542E0,-1.7805886E-2,9.232432E-1,1.5837462E0,-6.995695E-2,1.4763388E-1,1.4795521E-2,4.6111166E-2,3.2269783E-2,6.964387E-2,6.3555962E-3,-3.6013233E-3,1.1700268E-2,2.9565184E-3],"categories":[],"categories_nodes":[],"categories_segments":[],"categories_sizes":[],"default_left":[0,0,0,0,0,0,0,0,0,0,0,0,0,0,0],"id":40,"left_children":[1,3,5,7,9,11,13,-1,-1,-1,-1,-1,-1,-1,-1],"loss_changes":[2.1071861E2,1.4060303E1,7.3163605E1,1.2304619E1,5.2608337E0,2.9635363E1,2.1685368E1,0E0,0E0,0E0,0E0,0E0,0E0,0E0,0E0],"parents":[2147483647,0,0,1,1,2,2,3,3,4,4,5,5,6,6],"right_children":[2,4,6,8,10,12,14,-1,-1,-1,-1,-1,-1,-1,-1],"split_conditions":[-1.4072651E1,1.3140842E0,2.5854437E0,4.7510727E1,1.188269E0,4.011261E-1,2.1690289E1,1.4795521E-2,4.6111166E-2,3.2269783E-2,6.964387E-2,6.3555962E-3,-3.6013233E-3,1.1700268E-2,2.9565184E-3],"split_indices":[1,4,1,3,2,2,3,0,0,0,0,0,0,0,0],"split_type":[0,0,0,0,0,0,0,0,0,0,0,0,0,0,0],"sum_hessian":[8.630479E3,1.5275056E2,8.477728E3,9.923253E1,5.3518036E1,6.4462676E3,2.03146E3,2.9859655E1,6.937288E1,1.0044603E1,4.3473434E1,5.1934656E2,5.9269214E3,6.841107E2,1.3473494E3],"tree_param":{"num_deleted":"0","num_feature":"8","num_nodes":"15","size_leaf_vector":"1"}},{"base_weights":[-2.8543572E-3,3.2810267E-2,-3.632755E-2,-1.1651389E-2,6.270137E-2,-5.9801318E-2,3.9013084E-2,-2.7692437E-3,1.2605328E-3,4.3618486E-5,3.8358585E-3,-4.373236E-3,-1.3462957E-3,-9.288429E-5,3.983481E-3],"categories":[],"categories_nodes":[],"categories_segments":[],"categories_sizes":[],"default_left":[0,0,0,0,0,0,0,0,0,0,0,0,0,0,0],"id":41,"left_children":[1,3,5,7,9,11,13,-1,-1,-1,-1,-1,-1,-1,-1],"loss_changes":[4.8456306E1,2.6117863E1,3.7031918E1,1.9639732E1,2.4033768E1,2.0668766E1,1.2455639E1,0E0,0E0,0E0,0E0,0E0,0E0,0E0,0E0],"parents":[2147483647,0,0,1,1,2,2,3,3,4,4,5,5,6,6],"right_children":[2,4,6,8,10,12,14,-1,-1,-1,-1,-1,-1,-1,-1],"split_conditions":[-1.0503501E0,9.105313E-1,1.0939159E0,1.9278929E1,-1.8332629E-1,6.8774056E-1,1.9538036E-1,-2.7692437E-3,1.2605328E-3,4.3618486E-5,3.8358585E-3,-4.373236E-3,-1.3462957E-3,-9.288429E-5,3.983481E-3],"split_indices":[5,4,4,3,6,2,6,0,0,0,0,0,0,0,0],"split_type":[0,0,0,0,0,0,0,0,0,0,0,0,0,0,0],"sum_hessian":[4.058767E4,1.96506E4,2.0937072E4,7.900128E3,1.1750472E4,1.5963541E4,4.9735312E3,3.3846108E3,4.515517E3,4.1146377E3,7.635834E3,5.5140356E3,1.0449506E4,2.956797E3,2.0167341E3],"tree_param":{"num_deleted":"0","num_feature":"8","num_nodes":"15","size_leaf_vector":"1"}},{"base_weights":[1.3250564E-3,6.175584E-2,-2.8724324E-2,-2.5915239E-2,8.804364E-2,-1.8839931E-1,-2.0270605E-2,2.5659278E-3,-3.2029664E-3,1.8385188E-3,5.3966064E-3,-2.2191372E-2,-5.986678E-3,-9.717144E-5,-2.5184916E-3],"categories":[],"categories_nodes":[],"categories_segments":[],"categories_sizes":[],"default_left":[0,0,0,0,0,0,0,0,0,0,0,0,0,0,0],"id":42,"left_children":[1,3,5,7,9,11,13,-1,-1,-1,-1,-1,-1,-1,-1],"loss_changes":[7.924329E1,3.340341E1,3.9338394E1,1.6315947E1,2.1985535E1,2.0711823E1,2.1084038E1,0E0,0E0,0E0,0E0,0E0,0E0,0E0,0E0],"parents":[2147483647,0,0,1,1,2,2,3,3,4,4,5,5,6,6],"right_children":[2,4,6,8,10,12,14,-1,-1,-1,-1,-1,-1,-1,-1],"split_conditions":[9.118191E-1,-2.287046E1,-2.5462236E1,2.0246595E1,4.6720467E1,-2.3896437E1,1.0939159E0,2.5659278E-3,-3.2029664E-3,1.8385188E-3,5.3966064E-3,-2.2191372E-2,-5.986678E-3,-9.717144E-5,-2.5184916E-3],"split_indices":[4,7,7,3,0,1,4,0,0,0,0,0,0,0,0],"split_type":[0,0,0,0,0,0,0,0,0,0,0,0,0,0,0],"sum_hessian":[4.3636418E4,1.4491746E4,2.9144672E4,3.3429287E3,1.1148817E4,1.4643597E3,2.7680312E4,1.2552799E3,2.087649E3,5.8756836E3,5.2731343E3,1.3873033E2,1.3256294E3,1.9522645E4,8.1576675E3],"tree_param":{"num_deleted":"0","num_feature":"8","num_nodes":"15","size_leaf_vector":"1"}},{"base_weights":[-4.981269E-3,1.2596755E0,-2.2267556E-2,8.5857734E-2,1.2034218E0,-7.09973E-2,1.3154484E-1,4.16903E-2,5.8603734E-2,4.846622E-3,-3.5947459E-3,1.0806826E-2,2.395079E-3],"categories":[],"categories_nodes":[],"categories_segments":[],"categories_sizes":[],"default_left":[0,0,0,0,0,0,0,0,0,0,0,0,0],"id":43,"left_children":[1,3,5,-1,7,9,11,-1,-1,-1,-1,-1,-1],"loss_changes":[1.8862238E2,3.2207184E0,6.380539E1,0E0,3.1828613E0,2.3453197E1,2.0332207E1,0E0,0E0,0E0,0E0,0E0,0E0],"parents":[2147483647,0,0,1,1,2,2,4,4,5,5,6,6],"right_children":[2,4,6,-1,8,10,12,-1,-1,-1,-1,-1,-1],"split_conditions":[-2.3896437E1,5.4340523E-1,2.5854437E0,8.5857734E-2,1.6775622E0,4.1574275E-1,2.1690289E1,4.16903E-2,5.8603734E-2,4.846622E-3,-3.5947459E-3,1.0806826E-2,2.395079E-3],"split_indices":[1,4,1,0,2,2,3,0,0,0,0,0,0],"split_type":[0,0,0,0,0,0,0,0,0,0,0,0,0],"sum_hessian":[8.62589E3,1.1534615E2,8.510543E3,4.664217E0,1.1068194E2,6.463395E3,2.0471481E3,7.1579185E1,3.9102757E1,5.7749274E2,5.8859023E3,6.967219E2,1.3504261E3],"tree_param":{"num_deleted":"0","num_feature":"8","num_nodes":"13","size_leaf_vector":"1"}},{"base_weights":[-1.1456166E-3,4.0836085E-2,-2.6371881E-2,-3.820451E-2,5.9100598E-2,-4.4687428E-2,4.1835375E-2,-4.7700587E-3,1.078499E-3,-2.7364632E-4,3.3006608E-3,-2.905714E-3,-3.258732E-4,1.0164067E-2,1.2374399E-3],"categories":[],"categories_nodes":[],"categories_segments":[],"categories_sizes":[],"default_left":[0,0,0,0,0,0,0,0,0,0,0,0,0,0,0],"id":44,"left_children":[1,3,5,7,9,11,13,-1,-1,-1,-1,-1,-1,-1,-1],"loss_changes":[4.28917E1,2.1948034E1,3.1606415E1,1.5076988E1,1.9068031E1,2.0372238E1,1.238333E1,0E0,0E0,0E0,0E0,0E0,0E0,0E0,0E0],"parents":[2147483647,0,0,1,1,2,2,3,3,4,4,5,5,6,6],"right_children":[2,4,6,8,10,12,14,-1,-1,-1,-1,-1,-1,-1,-1],"split_conditions":[-3.121951E0,8.3921987E-1,1.0960976E0,2.1325165E1,-3.955869E-1,8.742982E-1,1.4441787E1,-4.7700587E-3,1.078499E-3,-2.7364632E-4,3.3006608E-3,-2.905714E-3,-3.258732E-4,1.0164067E-2,1.2374399E-3],"split_indices":[5,4,4,3,6,7,3,0,0,0,0,0,0,0,0],"split_type":[0,0,0,0,0,0,0,0,0,0,0,0,0,0,0],"sum_hessian":[4.0498473E4,1.5200721E4,2.529775E4,2.8530242E3,1.2347696E4,1.9942877E4,5.354873E3,1.2712118E3,1.5818123E3,3.235864E3,9.111833E3,1.1298193E4,8.644685E3,2.6044135E2,5.0944316E3],"tree_param":{"num_deleted":"0","num_feature":"8","num_nodes":"15","size_leaf_vector":"1"}}]},"name":"gbtree"},"learner_model_param":{"base_score":"[1.1143444E0,-1.4902925E0,3.759482E-1]","boost_from_average":"1","num_class":"3","num_feature":"8","num_target":"1"},"objective":{"name":"multi:softprob","softmax_multiclass_param":{"num_class":"3"}}},"version":[3,2,0]}