{"learner":{"attributes":{"scikit_learn":"{\"_estimator_type\": \"classifier\"}"},"feature_names":["Feature_RSI","Feature_EMA_Dist","Feature_Volume_Ratio","Feature_ADX_14","Feature_ATR_Ratio","Feature_ROC_20","Feature_MACD_Hist_Accel","Feature_Relative_Strength"],"feature_types":["float","float","float","float","float","float","float","float"],"gradient_booster":{"model":{"cats":{"enc":[],"feature_segments":[],"sorted_idx":[]},"gbtree_model_param":{"num_parallel_tree":"1","num_trees":"45"},"iteration_indptr":[0,3,6,9,12,15,18,21,24,27,30,33,36,39,42,45],"tree_info":[0,1,2,0,1,2,0,1,2,0,1,2,0,1,2,0,1,2,0,1,2,0,1,2,0,1,2,0,1,2,0,1,2,0,1,2,0,1,2,0,1,2,0,1,2],"trees":[{"base_weights":[2.5674744E-4,-9.6650743E-1,4.226541E-3,-1.0344303E0,4.8263466E-1,4.1916333E-2,-4.6195306E-2,-4.5681447E-2,-3.3819776E-2,1.1509305E-3,2.4408609E-2,2.3543073E-3,-2.7982097E-3,-2.3017721E-3,3.3219995E-3],"categories":[],"categories_nodes":[],"categories_segments":[],"categories_sizes":[],"default_left":[0,0,0,0,0,0,0,0,0,0,0,0,0,0,0],"id":0,"left_children":[1,3,5,7,9,11,13,-1,-1,-1,-1,-1,-1,-1,-1],"loss_changes":[1.12406845E2,1.22888565E1,5.543465E1,1.3669891E0,3.3244598E-1,3.1640766E1,1.8306963E1,0E0,0E0,0E0,0E0,0E0,0E0,0E0,0E0],"parents":[2147483647,0,0,1,1,2,2,3,3,4,4,5,5,6,6],"right_children":[2,4,6,8,10,12,14,-1,-1,-1,-1,-1,-1,-1,-1],"split_conditions":[-2.002534E1,2.4631845E1,1.0220951E-1,1.2454731E1,2.6134712E1,3.4415127E1,2.1583376E0,-4.5681447E-2,-3.3819776E-2,1.1509305E-3,2.4408609E-2,2.3543073E-3,-2.7982097E-3,-2.3017721E-3,3.3219995E-3],"split_indices":[1,0,6,6,0,3,2,0,0,0,0,0,0,0,0],"split_type":[0,0,0,0,0,0,0,0,0,0,0,0,0,0,0],"sum_hessian":[2.9286918E4,1.1877661E2,2.916814E4,1.1373204E2,5.044566E0,1.6691553E4,1.2476589E4,6.924814E1,4.4483902E1,1.3757908E0,3.6687756E0,1.4496708E4,2.194845E3,1.1469968E4,1.0066203E3],"tree_param":{"num_deleted":"0","num_feature":"8","num_nodes":"15","size_leaf_vector":"1"}},{"base_weights":[2.7849354E-4,4.241081E0,-1.7926672E-2,2.320843E0,6.5232167E0,-8.960402E-2,1.4203404E-1,1.2540969E-1,-7.7275634E-3,3.121801E-1,7.349597E-2,-6.3204537E-3,1.6846583E-4,2.0399944E-4,1.200966E-2],"categories":[],"categories_nodes":[],"categories_segments":[],"categories_sizes":[],"default_left":[0,0,0,0,0,0,0,0,0,0,0,0,0,0,0],"id":1,"left_children":[1,3,5,7,9,11,13,-1,-1,-1,-1,-1,-1,-1,-1],"loss_changes":[4.4539478E2,9.292566E1,6.587525E1,3.1202347E1,4.9996246E1,2.5462614E1,3.8515087E1,0E0,0E0,0E0,0E0,0E0,0E0,0E0,0E0],"parents":[2147483647,0,0,1,1,2,2,3,3,4,4,5,5,6,6],"right_children":[2,4,6,8,10,12,14,-1,-1,-1,-1,-1,-1,-1,-1],"split_conditions":[-3.280708E1,1.2165688E0,3.2899628E0,-4.7045147E1,-4.7045147E1,1.4420384E-1,-1.575397E-2,1.2540969E-1,-7.7275634E-3,3.121801E-1,7.349597E-2,-6.3204537E-3,1.6846583E-4,2.0399944E-4,1.200966E-2],"split_indices":[5,4,5,7,7,6,6,0,0,0,0,0,0,0,0],"split_type":[0,0,0,0,0,0,0,0,0,0,0,0,0,0,0],"sum_hessian":[5.76704E3,2.3659742E1,5.74338E3,1.3943955E1,9.715788E0,3.9664705E3,1.7769097E3,1.0345515E1,3.59844E0,7.106919E0,2.608869E0,2.2934658E3,1.6730048E3,9.530468E2,8.2386285E2],"tree_param":{"num_deleted":"0","num_feature":"8","num_nodes":"15","size_leaf_vector":"1"}},{"base_weights":[5.6860805E-4,-3.337795E-2,7.0205286E-2,3.8439155E-2,-7.3512115E-2,5.194594E-3,1.4469866E-1,-5.418803E-3,2.3033351E-3,-5.656117E-3,-1.9438457E-3,-1.417151E-3,5.818525E-3,8.111319E-3,4.034358E-4],"categories":[],"categories_nodes":[],"categories_segments":[],"categories_sizes":[],"default_left":[0,0,0,0,0,0,0,0,0,0,0,0,0,0,0],"id":2,"left_children":[1,3,5,7,9,11,13,-1,-1,-1,-1,-1,-1,-1,-1],"loss_changes":[6.467717E1,5.3018982E1,4.3422848E1,2.1963888E1,1.9953392E1,2.7293951E1,3.2668945E1,0E0,0E0,0E0,0E0,0E0,0E0,0E0,0E0],"parents":[2147483647,0,0,1,1,2,2,3,3,4,4,5,5,6,6],"right_children":[2,4,6,8,10,12,14,-1,-1,-1,-1,-1,-1,-1,-1],"split_conditions":[1.02888E0,-1.8712041E0,7.161967E-2,7.6595014E-1,6.194997E-1,3.3919113E1,1.3964208E0,-5.418803E-3,2.3033351E-3,-5.656117E-3,-1.9438457E-3,-1.417151E-3,5.818525E-3,8.111319E-3,4.034358E-4],"split_indices":[4,1,6,4,2,3,2,0,0,0,0,0,0,0,0],"split_type":[0,0,0,0,0,0,0,0,0,0,0,0,0,0,0],"sum_hessian":[2.735808E4,1.8392572E4,8.965509E3,6.5936924E3,1.1798879E4,4.7880376E3,4.177471E3,6.5326355E2,5.9404287E3,3.166407E3,8.632473E3,3.713355E3,1.0746826E3,2.9179106E3,1.2595604E3],"tree_param":{"num_deleted":"0","num_feature":"8","num_nodes":"15","size_leaf_vector":"1"}},{"base_weights":[-2.5852106E-3,3.918441E-2,-7.408985E-2,-9.1642424E-2,5.6326117E-2,-9.379112E-1,-6.750398E-2,4.5879693E-5,-6.628993E-3,6.148283E-4,4.065849E-3,1.1655605E-2,-4.0618293E-2,-3.3960657E-3,3.2693837E-4],"categories":[],"categories_nodes":[],"categories_segments":[],"categories_sizes":[],"default_left":[0,0,0,0,0,0,0,0,0,0,0,0,0,0,0],"id":3,"left_children":[1,3,5,7,9,11,13,-1,-1,-1,-1,-1,-1,-1,-1],"loss_changes":[8.762911E1,4.153962E1,6.1485455E1,1.4751577E1,3.0393547E1,8.092041E0,1.4138599E1,0E0,0E0,0E0,0E0,0E0,0E0,0E0,0E0],"parents":[2147483647,0,0,1,1,2,2,3,3,4,4,5,5,6,6],"right_children":[2,4,6,8,10,12,14,-1,-1,-1,-1,-1,-1,-1,-1],"split_conditions":[1.0136921E0,-2.5712284E1,-3.280708E1,2.2573069E1,-7.929515E-1,1.0401073E0,1.4975021E0,4.5879693E-5,-6.628993E-3,6.148283E-4,4.065849E-3,1.1655605E-2,-4.0618293E-2,-3.3960657E-3,3.2693837E-4],"split_indices":[4,7,5,3,5,4,2,0,0,0,0,0,0,0,0],"split_type":[0,0,0,0,0,0,0,0,0,0,0,0,0,0,0],"sum_hessian":[2.9337592E4,1.8519707E4,1.0817884E4,2.1449487E3,1.6374759E4,8.078268E1,1.0737101E4,9.526826E2,1.192266E3,8.602284E3,7.772474E3,4.629877E0,7.61528E1,8.730015E3,2.0070859E3],"tree_param":{"num_deleted":"0","num_feature":"8","num_nodes":"15","size_leaf_vector":"1"}},{"base_weights":[-2.6159037E-3,4.494541E0,-2.3906918E-2,5.0544415E0,1.8943852E0,-9.383799E-2,2.2192661E-1,2.1231297E-1,9.929989E-2,-1.2118877E-3,1.1294232E-1,-7.3513323E-3,-2.3676178E-3,1.924879E-2,3.757261E-3],"categories":[],"categories_nodes":[],"categories_segments":[],"categories_sizes":[],"default_left":[0,0,0,0,0,0,0,0,0,0,0,0,0,0,0],"id":4,"left_children":[1,3,5,7,9,11,13,-1,-1,-1,-1,-1,-1,-1,-1],"loss_changes":[5.5214575E2,2.9983154E1,9.868741E1,1.0030518E0,1.1555893E1,1.3916065E1,4.214888E1,0E0,0E0,0E0,0E0,0E0,0E0,0E0,0E0],"parents":[2147483647,0,0,1,1,2,2,3,3,4,4,5,5,6,6],"right_children":[2,4,6,8,10,12,14,-1,-1,-1,-1,-1,-1,-1,-1],"split_conditions":[-2.002534E1,-4.7045147E1,2.6028345E0,5.985191E1,1.1028612E0,8.748521E-1,2.179638E1,2.1231297E-1,9.929989E-2,-1.2118877E-3,1.1294232E-1,-7.3513323E-3,-2.3676178E-3,1.924879E-2,3.757261E-3],"split_indices":[1,7,1,3,2,4,3,0,0,0,0,0,0,0,0],"split_type":[0,0,0,0,0,0,0,0,0,0,0,0,0,0,0],"sum_hessian":[5.7644707E3,2.6172302E1,5.7382983E3,2.0758419E1,5.4138813E0,4.467943E3,1.2703558E3,1.792841E1,2.8300107E0,2.0776484E0,3.3362331E0,1.2412759E3,3.226667E3,4.189285E2,8.514273E2],"tree_param":{"num_deleted":"0","num_feature":"8","num_nodes":"15","size_leaf_vector":"1"}},{"base_weights":[1.7980817E-3,-2.930575E-2,7.2621055E-2,4.380093E-2,-7.282057E-2,1.434858E-2,1.4379403E-1,-3.1487495E-3,2.5158396E-3,-5.636395E-3,-1.8384331E-3,-2.129105E-3,1.7804865E-3,7.3634875E-3,-2.5516364E-3],"categories":[],"categories_nodes":[],"categories_segments":[],"categories_sizes":[],"default_left":[0,0,0,0,0,0,0,0,0,0,0,0,0,0,0],"id":5,"left_children":[1,3,5,7,9,11,13,-1,-1,-1,-1,-1,-1,-1,-1],"loss_changes":[6.0201023E1,6.0411507E1,3.4585464E1,1.6582722E1,2.1764374E1,9.351069E0,3.1411903E1,0E0,0E0,0E0,0E0,0E0,0E0,0E0,0E0],"parents":[2147483647,0,0,1,1,2,2,3,3,4,4,5,5,6,6],"right_children":[2,4,6,8,10,12,14,-1,-1,-1,-1,-1,-1,-1,-1],"split_conditions":[1.0385411E0,4.3138256E1,1.0803147E-1,7.785361E-1,6.2761736E-1,-3.382082E0,1.9956777E0,-3.1487495E-3,2.5158396E-3,-5.636395E-3,-1.8384331E-3,-2.129105E-3,1.7804865E-3,7.3634875E-3,-2.5516364E-3],"split_indices":[4,0,6,4,2,7,2,0,0,0,0,0,0,0,0],"split_type":[0,0,0,0,0,0,0,0,0,0,0,0,0,0,0],"sum_hessian":[2.7326535E4,1.8988018E4,8.338518E3,7.084969E3,1.1903048E4,4.585427E3,3.7530908E3,9.549027E2,6.130067E3,3.3660017E3,8.537046E3,1.4148777E3,3.1705488E3,3.143112E3,6.099787E2],"tree_param":{"num_deleted":"0","num_feature":"8","num_nodes":"15","size_leaf_vector":"1"}},{"base_weights":[-3.5084912E-4,-8.6175346E-1,3.0132984E-3,-1.116049E0,-6.328433E-1,4.1351926E-2,-5.9999533E-2,-4.7777016E-2,-1.7721677E-2,1.6904336E-3,-3.3570744E-2,-1.4861296E-3,2.567696E-3,3.9003708E-4,-5.663792E-3],"categories":[],"categories_nodes":[],"categories_segments":[],"categories_sizes":[],"default_left":[0,0,0,0,0,0,0,0,0,0,0,0,0,0,0],"id":6,"left_children":[1,3,5,7,9,11,13,-1,-1,-1,-1,-1,-1,-1,-1],"loss_changes":[8.492129E1,5.9298553E0,7.052206E1,2.2504501E0,8.718218E0,3.2545616E1,6.284755E1,0E0,0E0,0E0,0E0,0E0,0E0,0E0,0E0],"parents":[2147483647,0,0,1,1,2,2,3,3,4,4,5,5,6,6],"right_children":[2,4,6,8,10,12,14,-1,-1,-1,-1,-1,-1,-1,-1],"split_conditions":[-2.002534E1,-5.5875385E1,1.009498E0,5.985191E1,8.873008E-1,-3.0952837E0,7.161967E-2,-4.7777016E-2,-1.7721677E-2,1.6904336E-3,-3.3570744E-2,-1.4861296E-3,2.567696E-3,3.9003708E-4,-5.663792E-3],"split_indices":[1,7,4,3,2,1,6,0,0,0,0,0,0,0,0],"split_type":[0,0,0,0,0,0,0,0,0,0,0,0,0,0,0],"sum_hessian":[2.9302676E4,1.13001724E2,2.9189674E4,5.1696613E1,6.130511E1,1.8148191E4,1.1041483E4,4.561022E1,6.086391E0,1.4541876E1,4.6763237E1,4.0899531E3,1.4058238E4,5.9532876E3,5.088196E3],"tree_param":{"num_deleted":"0","num_feature":"8","num_nodes":"15","size_leaf_vector":"1"}},{"base_weights":[9.713409E-3,3.2123168E0,-8.408523E-3,3.7468002E0,9.836265E-1,-1.3730386E-1,8.7793685E-2,4.9153537E-2,1.6835895E-1,8.481242E-2,-7.926055E-3,1.6291497E-2,-6.0828645E-3,-5.076444E-4,8.2148425E-3],"categories":[],"categories_nodes":[],"categories_segments":[],"categories_sizes":[],"default_left":[0,0,0,0,0,0,0,0,0,0,0,0,0,0,0],"id":7,"left_children":[1,3,5,7,9,11,13,-1,-1,-1,-1,-1,-1,-1,-1],"loss_changes":[3.3439944E2,3.493283E1,7.1063065E1,2.484375E1,1.066548E1,1.9759663E1,3.8774696E1,0E0,0E0,0E0,0E0,0E0,0E0,0E0,0E0],"parents":[2147483647,0,0,1,1,2,2,3,3,4,4,5,5,6,6],"right_children":[2,4,6,8,10,12,14,-1,-1,-1,-1,-1,-1,-1,-1],"split_conditions":[-3.280708E1,-4.7045147E1,4.645283E1,9.202525E-1,3.9497677E1,6.509946E-1,1.4420384E-1,4.9153537E-2,1.6835895E-1,8.481242E-2,-7.926055E-3,1.6291497E-2,-6.0828645E-3,-5.076444E-4,8.2148425E-3],"split_indices":[5,7,0,4,3,4,6,0,0,0,0,0,0,0,0],"split_type":[0,0,0,0,0,0,0,0,0,0,0,0,0,0,0],"sum_hessian":[5.760331E3,3.1419672E1,5.7289116E3,2.4792727E1,6.626946E0,2.44824E3,3.2806714E3,4.412404E0,2.0380323E1,2.9731112E0,3.6538346E0,6.393472E1,2.3843054E3,1.7693927E3,1.5112787E3],"tree_param":{"num_deleted":"0","num_feature":"8","num_nodes":"15","size_leaf_vector":"1"}},{"base_weights":[1.1715983E-3,-3.1469416E-2,7.6556355E-2,4.277022E-2,-7.320405E-2,1.6948022E-2,1.4893518E-1,-3.355113E-3,2.4073042E-3,-4.029386E-3,-1.3098177E-3,-9.411836E-4,6.493126E-3,8.361916E-3,2.5172331E-3],"categories":[],"categories_nodes":[],"categories_segments":[],"categories_sizes":[],"default_left":[0,0,0,0,0,0,0,0,0,0,0,0,0,0,0],"id":8,"left_children":[1,3,5,7,9,11,13,-1,-1,-1,-1,-1,-1,-1,-1],"loss_changes":[6.7323074E1,5.91601E1,3.566487E1,1.5158272E1,1.3610756E1,2.668842E1,1.9288742E1,0E0,0E0,0E0,0E0,0E0,0E0,0E0,0E0],"parents":[2147483647,0,0,1,1,2,2,3,3,4,4,5,5,6,6],"right_children":[2,4,6,8,10,12,14,-1,-1,-1,-1,-1,-1,-1,-1],"split_conditions":[1.0401073E0,4.2743443E1,1.0220951E-1,7.7040577E-1,9.466753E-1,3.4415127E1,5.8340534E1,-3.355113E-3,2.4073042E-3,-4.029386E-3,-1.3098177E-3,-9.411836E-4,6.493126E-3,8.361916E-3,2.5172331E-3],"split_indices":[4,0,6,4,4,3,0,0,0,0,0,0,0,0,0],"split_type":[0,0,0,0,0,0,0,0,0,0,0,0,0,0,0],"sum_hessian":[2.7358064E4,1.909197E4,8.266093E3,6.870449E3,1.2221522E4,4.533618E3,3.732474E3,8.2996014E2,6.0404893E3,7.2718213E3,4.949701E3,3.5469058E3,9.867127E2,2.1960884E3,1.5363857E3],"tree_param":{"num_deleted":"0","num_feature":"8","num_nodes":"15","size_leaf_vector":"1"}},{"base_weights":[-1.0084932E-3,-8.372665E-1,2.5844953E-3,-8.920206E-1,4.7992185E-1,2.5094569E-2,-6.3524164E-2,-4.1515816E-2,-2.7317217E-2,2.2751014E-3,2.4270196E-2,-6.730498E-3,1.2924431E-3,-3.1464861E-3,2.5627539E-3],"categories":[],"categories_nodes":[],"categories_segments":[],"categories_sizes":[],"default_left":[0,0,0,0,0,0,0,0,0,0,0,0,0,0,0],"id":9,"left_children":[1,3,5,7,9,11,13,-1,-1,-1,-1,-1,-1,-1,-1],"loss_changes":[8.8372E1,9.502892E0,4.358248E1,2.9865265E0,2.6982164E-1,3.049105E1,1.4373955E1,0E0,0E0,0E0,0E0,0E0,0E0,0E0,0E0],"parents":[2147483647,0,0,1,1,2,2,3,3,4,4,5,5,6,6],"right_children":[2,4,6,8,10,12,14,-1,-1,-1,-1,-1,-1,-1,-1],"split_conditions":[-2.002534E1,2.4631845E1,6.2598884E-1,8.9827795E0,2.6134712E1,-1.469264E1,2.0466774E0,-4.1515816E-2,-2.7317217E-2,2.2751014E-3,2.4270196E-2,-6.730498E-3,1.2924431E-3,-3.1464861E-3,2.5627539E-3],"split_indices":[1,0,6,6,0,5,2,0,0,0,0,0,0,0,0],"split_type":[0,0,0,0,0,0,0,0,0,0,0,0,0,0,0],"sum_hessian":[2.9409875E4,1.24826515E2,2.9285049E4,1.201546E2,4.671915E0,2.1846807E4,7.438242E3,6.8441505E1,5.1713097E1,1.4117035E0,3.2602115E0,7.852314E2,2.1061574E4,6.649688E3,7.8855426E2],"tree_param":{"num_deleted":"0","num_feature":"8","num_nodes":"15","size_leaf_vector":"1"}},{"base_weights":[1.3703991E-3,3.1501691E0,-1.9145714E-2,2.4968278E0,4.5241513E0,-8.985E-2,2.2479159E-1,4.8572067E-2,1.2464255E-1,1.9670245E-1,3.9407335E-2,-8.038205E-3,-2.2981486E-3,6.2134205E-3,2.1716096E-2],"categories":[],"categories_nodes":[],"categories_segments":[],"categories_sizes":[],"default_left":[0,0,0,0,0,0,0,0,0,0,0,0,0,0,0],"id":10,"left_children":[1,3,5,7,9,11,13,-1,-1,-1,-1,-1,-1,-1,-1],"loss_changes":[3.7161105E2,2.2131134E1,9.859301E1,1.803128E1,1.0148346E1,1.5939697E1,2.8297997E1,0E0,0E0,0E0,0E0,0E0,0E0,0E0,0E0],"parents":[2147483647,0,0,1,1,2,2,3,3,4,4,5,5,6,6],"right_children":[2,4,6,8,10,12,14,-1,-1,-1,-1,-1,-1,-1,-1],"split_conditions":[-2.002534E1,1.9473448E1,2.6028345E0,1.1133945E0,2.3825325E1,3.756135E1,2.2751336E0,4.8572067E-2,1.2464255E-1,1.9670245E-1,3.9407335E-2,-8.038205E-3,-2.2981486E-3,6.2134205E-3,2.1716096E-2],"split_indices":[1,0,1,4,0,0,6,0,0,0,0,0,0,0,0],"split_type":[0,0,0,0,0,0,0,0,0,0,0,0,0,0,0],"sum_hessian":[5.75046E3,3.623731E1,5.7142227E3,2.6468508E1,9.768802E0,4.430648E3,1.2835746E3,9.582582E0,1.6885925E1,8.440918E0,1.3278837E0,9.990701E2,3.4315781E3,1.0547661E3,2.288085E2],"tree_param":{"num_deleted":"0","num_feature":"8","num_nodes":"15","size_leaf_vector":"1"}},{"base_weights":[-3.0645735E-3,5.6284938E-2,-3.8433574E-2,3.6709182E-2,1.6436835E-1,-4.6865664E-2,1.1284187E-1,6.699852E-3,1.0453674E-3,-3.575553E-3,9.019947E-3,-2.6991959E-3,3.269676E-4,6.29936E-4,1.3292856E-2],"categories":[],"categories_nodes":[],"categories_segments":[],"categories_sizes":[],"default_left":[0,0,0,0,0,0,0,0,0,0,0,0,0,0,0],"id":11,"left_children":[1,3,5,7,9,11,13,-1,-1,-1,-1,-1,-1,-1,-1],"loss_changes":[5.715815E1,2.1507145E1,2.1768497E1,1.19037695E1,2.420195E1,1.833744E1,1.9197128E1,0E0,0E0,0E0,0E0,0E0,0E0,0E0,0E0],"parents":[2147483647,0,0,1,1,2,2,3,3,4,4,5,5,6,6],"right_children":[2,4,6,8,10,12,14,-1,-1,-1,-1,-1,-1,-1,-1],"split_conditions":[-3.1380892E0,3.4415127E1,4.0949608E1,-1.469264E1,-3.5308167E1,5.001867E-1,3.1779985E1,6.699852E-3,1.0453674E-3,-3.575553E-3,9.019947E-3,-2.6991959E-3,3.269676E-4,6.29936E-4,1.3292856E-2],"split_indices":[5,3,3,5,7,6,7,0,0,0,0,0,0,0,0],"split_type":[0,0,0,0,0,0,0,0,0,0,0,0,0,0,0],"sum_hessian":[2.7227379E4,1.0166801E4,1.7060578E4,8.608918E3,1.5578828E3,1.6160482E4,9.000949E2,6.4290466E2,7.9660137E3,3.0234808E2,1.2555348E3,1.1756908E4,4.4035747E3,6.2477734E2,2.7531754E2],"tree_param":{"num_deleted":"0","num_feature":"8","num_nodes":"15","size_leaf_vector":"1"}},{"base_weights":[-1.3720869E-3,-8.41785E-1,2.2447584E-3,-8.833329E-1,4.1130912E-1,4.0760145E-2,-6.276584E-2,-2.8560411E-2,-4.2169508E-2,1.9097772E-3,2.2013946E-2,-8.767657E-4,2.7292438E-3,-3.14091E-5,-5.4173744E-3],"categories":[],"categories_nodes":[],"categories_segments":[],"categories_sizes":[],"default_left":[0,0,0,0,0,0,0,0,0,0,0,0,0,0,0],"id":12,"left_children":[1,3,5,7,9,11,13,-1,-1,-1,-1,-1,-1,-1,-1],"loss_changes":[8.9196976E1,6.910164E0,7.316472E1,2.7785645E0,2.1220857E-1,3.1596249E1,4.8963203E1,0E0,0E0,0E0,0E0,0E0,0E0,0E0,0E0],"parents":[2147483647,0,0,1,1,2,2,3,3,4,4,5,5,6,6],"right_children":[2,4,6,8,10,12,14,-1,-1,-1,-1,-1,-1,-1,-1],"split_conditions":[-2.002534E1,2.4631845E1,1.0122349E0,1.2165688E0,2.6134712E1,-2.3399818E0,7.161967E-2,-2.8560411E-2,-4.2169508E-2,1.9097772E-3,2.2013946E-2,-8.767657E-4,2.7292438E-3,-3.14091E-5,-5.4173744E-3],"split_indices":[1,0,4,4,0,1,6,0,0,0,0,0,0,0,0],"split_type":[0,0,0,0,0,0,0,0,0,0,0,0,0,0,0],"sum_hessian":[2.9342928E4,1.2474758E2,2.921818E4,1.2102977E2,3.7178137E0,1.8348201E4,1.0869979E4,6.339727E1,5.7632496E1,1.4001215E0,2.3176923E0,5.5912017E3,1.2757E4,5.8669424E3,5.0030366E3],"tree_param":{"num_deleted":"0","num_feature":"8","num_nodes":"15","size_leaf_vector":"1"}},{"base_weights":[2.1954955E-4,2.4611354E0,-1.6767666E-2,1.7186521E0,3.3238204E0,-8.672177E-2,1.3554125E-1,8.016284E-3,9.188604E-2,1.4523305E-1,6.469805E-2,-6.0651824E-3,2.8693298E-4,5.474412E-4,1.2212151E-2],"categories":[],"categories_nodes":[],"categories_segments":[],"categories_sizes":[],"default_left":[0,0,0,0,0,0,0,0,0,0,0,0,0,0,0],"id":13,"left_children":[1,3,5,7,9,11,13,-1,-1,-1,-1,-1,-1,-1,-1],"loss_changes":[2.4010822E2,1.9508667E1,6.0788868E1,1.994503E1,3.1078339E0,2.3827967E1,3.7143177E1,0E0,0E0,0E0,0E0,0E0,0E0,0E0,0E0],"parents":[2147483647,0,0,1,1,2,2,3,3,4,4,5,5,6,6],"right_children":[2,4,6,8,10,12,14,-1,-1,-1,-1,-1,-1,-1,-1],"split_conditions":[-3.280708E1,1.2980477E0,3.2899628E0,2.8381946E0,-4.9238037E1,1.7643502E-1,6.5765806E-2,8.016284E-3,9.188604E-2,1.4523305E-1,6.469805E-2,-6.0651824E-3,2.8693298E-4,5.474412E-4,1.2212151E-2],"split_indices":[5,4,5,6,7,6,6,0,0,0,0,0,0,0,0],"split_type":[0,0,0,0,0,0,0,0,0,0,0,0,0,0,0],"sum_hessian":[5.7416646E3,3.837549E1,5.703289E3,2.2232746E1,1.6142744E1,3.9085554E3,1.7947336E3,6.5055757E0,1.5727169E1,1.2725409E1,3.4173348E0,2.3106409E3,1.5979144E3,1.0454165E3,7.493172E2],"tree_param":{"num_deleted":"0","num_feature":"8","num_nodes":"15","size_leaf_vector":"1"}},{"base_weights":[-7.2900933E-4,-3.0912405E-2,6.776089E-2,1.7570771E-2,-8.884202E-2,1.5943676E-2,1.3837574E-1,7.02002E-3,3.1493304E-4,-3.6354428E-3,2.653351E-2,2.5997587E-4,7.908895E-3,7.1024345E-3,-2.9751398E-3],"categories":[],"categories_nodes":[],"categories_segments":[],"categories_sizes":[],"default_left":[0,0,0,0,0,0,0,0,0,0,0,0,0,0,0],"id":14,"left_children":[1,3,5,7,9,11,13,-1,-1,-1,-1,-1,-1,-1,-1],"loss_changes":[5.6644924E1,5.341919E1,3.0667187E1,1.585689E1,1.3383629E1,8.300074E0,2.958635E1,0E0,0E0,0E0,0E0,0E0,0E0,0E0,0E0],"parents":[2147483647,0,0,1,1,2,2,3,3,4,4,5,5,6,6],"right_children":[2,4,6,8,10,12,14,-1,-1,-1,-1,-1,-1,-1,-1],"split_conditions":[1.0385411E0,-7.929515E-1,1.6855364E-1,-1.513364E1,8.115249E1,2.462533E1,2.1021662E0,7.02002E-3,3.1493304E-4,-3.6354428E-3,2.653351E-2,2.5997587E-4,7.908895E-3,7.1024345E-3,-2.9751398E-3],"split_indices":[4,5,6,5,0,5,2,0,0,0,0,0,0,0,0],"split_type":[0,0,0,0,0,0,0,0,0,0,0,0,0,0,0],"sum_hessian":[2.7398982E4,1.9018227E4,8.380756E3,1.0353632E4,8.664595E3,4.8344556E3,3.5463E3,5.979816E2,9.75565E3,8.641989E3,2.2605547E1,4.596672E3,2.3778348E2,2.9948696E3,5.514303E2],"tree_param":{"num_deleted":"0","num_feature":"8","num_nodes":"15","size_leaf_vector":"1"}},{"base_weights":[-1.7407797E-3,-7.34521E-1,1.2990469E-3,-7.9305685E-1,4.9863157E-1,3.5344597E-2,-5.6284614E-2,-2.4719113E-2,-3.913516E-2,2.4793066E-2,2.2015464E-3,-1.1994763E-3,2.554058E-3,1.7196212E-4,-5.1199943E-3],"categories":[],"categories_nodes":[],"categories_segments":[],"categories_sizes":[],"default_left":[0,0,0,0,0,0,0,0,0,0,0,0,0,0,0],"id":15,"left_children":[1,3,5,7,9,11,13,-1,-1,-1,-1,-1,-1,-1,-1],"loss_changes":[6.543988E1,9.156082E0,5.7359486E1,3.1672974E0,2.945794E-1,3.424575E1,4.723289E1,0E0,0E0,0E0,0E0,0E0,0E0,0E0,0E0],"parents":[2147483647,0,0,1,1,2,2,3,3,4,4,5,5,6,6],"right_children":[2,4,6,8,10,12,14,-1,-1,-1,-1,-1,-1,-1,-1],"split_conditions":[-2.002534E1,2.4631845E1,1.0122349E0,1.2165688E0,1.2494056E0,-2.3399818E0,7.730269E-2,-2.4719113E-2,-3.913516E-2,2.4793066E-2,2.2015464E-3,-1.1994763E-3,2.554058E-3,1.7196212E-4,-5.1199943E-3],"split_indices":[1,0,4,4,4,1,6,0,0,0,0,0,0,0,0],"split_type":[0,0,0,0,0,0,0,0,0,0,0,0,0,0,0],"sum_hessian":[2.9376418E4,1.2036603E2,2.925605E4,1.15252075E2,5.113954E0,1.8385979E4,1.0870072E4,6.1492775E1,5.37593E1,3.7045405E0,1.4094137E0,5.585402E3,1.2800577E4,5.892847E3,4.9772246E3],"tree_param":{"num_deleted":"0","num_feature":"8","num_nodes":"15","size_leaf_vector":"1"}},{"base_weights":[1.8998061E-3,2.3257406E0,-1.6232567E-2,1.8119496E0,3.3995342E0,-8.276748E-2,1.941236E-1,-1.6317815E-2,8.213804E-2,1.6308323E-1,5.627045E-2,-5.254226E-3,1.1645638E-4,-5.2157864E-3,9.730399E-3],"categories":[],"categories_nodes":[],"categories_segments":[],"categories_sizes":[],"default_left":[0,0,0,0,0,0,0,0,0,0,0,0,0,0,0],"id":16,"left_children":[1,3,5,7,9,11,13,-1,-1,-1,-1,-1,-1,-1,-1],"loss_changes":[2.4265367E2,1.8438583E1,7.99927E1,1.8152863E1,1.2206039E1,1.8075401E1,2.1931309E1,0E0,0E0,0E0,0E0,0E0,0E0,0E0,0E0],"parents":[2147483647,0,0,1,1,2,2,3,3,4,4,5,5,6,6],"right_children":[2,4,6,8,10,12,14,-1,-1,-1,-1,-1,-1,-1,-1],"split_conditions":[-2.002534E1,1.9473448E1,2.43574E0,6.5052354E-1,-4.9238037E1,1.4420384E-1,-8.690402E-1,-1.6317815E-2,8.213804E-2,1.6308323E-1,5.627045E-2,-5.254226E-3,1.1645638E-4,-5.2157864E-3,9.730399E-3],"split_indices":[1,0,1,2,7,6,6,0,0,0,0,0,0,0,0],"split_type":[0,0,0,0,0,0,0,0,0,0,0,0,0,0,0],"sum_hessian":[5.7568228E3,4.3586006E1,5.713237E3,3.1297937E1,1.228807E1,4.3408486E3,1.3723885E3,3.003194E0,2.8294743E1,8.389643E0,3.8984268E0,2.769655E3,1.5711935E3,1.8025458E2,1.1921339E3],"tree_param":{"num_deleted":"0","num_feature":"8","num_nodes":"15","size_leaf_vector":"1"}},{"base_weights":[8.858895E-4,4.438532E-2,-4.2133488E-2,2.6106505E-2,1.3316049E-1,-5.5934664E-2,7.170235E-2,-3.5899745E-6,3.095315E-3,-4.285428E-3,7.042281E-3,-3.782341E-3,-1.4469222E-3,1.5917008E-3,1.1642342E-2],"categories":[],"categories_nodes":[],"categories_segments":[],"categories_sizes":[],"default_left":[0,0,0,0,0,0,0,0,0,0,0,0,0,0,0],"id":17,"left_children":[1,3,5,7,9,11,13,-1,-1,-1,-1,-1,-1,-1,-1],"loss_changes":[5.101939E1,2.1994379E1,2.1539564E1,1.510199E1,2.3875511E1,9.328293E0,1.0366169E1,0E0,0E0,0E0,0E0,0E0,0E0,0E0,0E0],"parents":[2147483647,0,0,1,1,2,2,3,3,4,4,5,5,6,6],"right_children":[2,4,6,8,10,12,14,-1,-1,-1,-1,-1,-1,-1,-1],"split_conditions":[-7.929515E-1,3.1798592E1,1.5317728E1,-2.896399E0,-3.5308167E1,6.872793E-1,7.794715E1,-3.5899745E-6,3.095315E-3,-4.285428E-3,7.042281E-3,-3.782341E-3,-1.4469222E-3,1.5917008E-3,1.1642342E-2],"split_indices":[5,3,5,7,7,2,0,0,0,0,0,0,0,0,0],"split_type":[0,0,0,0,0,0,0,0,0,0,0,0,0,0,0],"sum_hessian":[2.7261873E4,1.3555289E4,1.3706584E4,1.1241879E4,2.31341E3,1.2224968E4,1.4816162E3,7.4412603E3,3.8006191E3,3.5019632E2,1.9632136E3,4.136478E3,8.08849E3,1.2944879E3,1.8712825E2],"tree_param":{"num_deleted":"0","num_feature":"8","num_nodes":"15","size_leaf_vector":"1"}},{"base_weights":[-2.0953037E-3,-7.3537266E-1,9.923925E-4,-7.804812E-1,4.4593862E-1,2.9713117E-2,-6.562178E-2,-2.5504937E-2,-3.824423E-2,2.207877E-3,2.3086416E-2,-1.5203034E-3,1.9823057E-3,-7.078995E-4,-4.8282063E-3],"categories":[],"categories_nodes":[],"categories_segments":[],"categories_sizes":[],"default_left":[0,0,0,0,0,0,0,0,0,0,0,0,0,0,0],"id":18,"left_children":[1,3,5,7,9,11,13,-1,-1,-1,-1,-1,-1,-1,-1],"loss_changes":[6.6727425E1,6.9332123E0,5.6151806E1,2.3859482E0,2.3382783E-1,2.7561827E1,2.3338993E1,0E0,0E0,0E0,0E0,0E0,0E0,0E0,0E0],"parents":[2147483647,0,0,1,1,2,2,3,3,4,4,5,5,6,6],"right_children":[2,4,6,8,10,12,14,-1,-1,-1,-1,-1,-1,-1,-1],"split_conditions":[-2.002534E1,2.4631845E1,1.0401073E0,1.2696861E0,2.6134712E1,-3.0952837E0,7.161967E-2,-2.5504937E-2,-3.824423E-2,2.207877E-3,2.3086416E-2,-1.5203034E-3,1.9823057E-3,-7.078995E-4,-4.8282063E-3],"split_indices":[1,0,4,4,0,1,6,0,0,0,0,0,0,0,0],"split_type":[0,0,0,0,0,0,0,0,0,0,0,0,0,0,0],"sum_hessian":[2.947013E4,1.2257851E2,2.934755E4,1.1839681E2,4.181693E0,2.0506654E4,8.840897E3,6.784248E1,5.055433E1,1.4084284E0,2.7732646E0,4.647127E3,1.5859527E4,4.728379E3,4.112518E3],"tree_param":{"num_deleted":"0","num_feature":"8","num_nodes":"15","size_leaf_vector":"1"}},{"base_weights":[-1.206449E-3,1.9124658E0,-1.6593117E-2,2.6039472E0,1.194538E0,-9.2183605E-2,1.1238561E-1,2.1822589E-2,1.1222565E-1,9.673344E-3,7.9207145E-2,-5.7950667E-3,-4.8706276E-4,8.441754E-3,1.7957006E-3],"categories":[],"categories_nodes":[],"categories_segments":[],"categories_sizes":[],"default_left":[0,0,0,0,0,0,0,0,0,0,0,0,0,0,0],"id":19,"left_children":[1,3,5,7,9,11,13,-1,-1,-1,-1,-1,-1,-1,-1],"loss_changes":[1.6931992E2,1.9659134E1,5.5626034E1,7.8171844E0,1.7747025E1,1.5163078E1,1.4029148E1,0E0,0E0,0E0,0E0,0E0,0E0,0E0,0E0],"parents":[2147483647,0,0,1,1,2,2,3,3,4,4,5,5,6,6],"right_children":[2,4,6,8,10,12,14,-1,-1,-1,-1,-1,-1,-1,-1],"split_conditions":[-3.280708E1,-5.5875385E1,2.0641823E0,9.202525E-1,1.2090174E0,4.54936E1,2.2050484E1,2.1822589E-2,1.1222565E-1,9.673344E-3,7.9207145E-2,-5.7950667E-3,-4.8706276E-4,8.441754E-3,1.7957006E-3],"split_indices":[5,7,5,4,2,0,3,0,0,0,0,0,0,0,0],"split_type":[0,0,0,0,0,0,0,0,0,0,0,0,0,0,0],"sum_hessian":[5.7482935E3,4.4866444E1,5.7034272E3,2.1516E1,2.3350441E1,3.5961304E3,2.1072969E3,2.2507699E0,1.926523E1,1.1144238E1,1.2206203E1,2.1676763E3,1.4284541E3,8.5515063E2,1.2521461E3],"tree_param":{"num_deleted":"0","num_feature":"8","num_nodes":"15","size_leaf_vector":"1"}},{"base_weights":[-1.7398484E-3,4.8839055E-2,-3.6746874E-2,2.5716813E-2,1.437151E-1,-6.852705E-2,5.7356123E-2,8.512323E-3,6.2195095E-4,-3.1637806E-3,7.856641E-3,-2.9711367E-3,6.3299737E-3,1.4929316E-2,1.9913325E-3],"categories":[],"categories_nodes":[],"categories_segments":[],"categories_sizes":[],"default_left":[0,0,0,0,0,0,0,0,0,0,0,0,0,0,0],"id":20,"left_children":[1,3,5,7,9,11,13,-1,-1,-1,-1,-1,-1,-1,-1],"loss_changes":[4.8372055E1,2.451006E1,4.8287125E1,1.7091087E1,2.572461E1,1.5753662E1,9.732606E0,0E0,0E0,0E0,0E0,0E0,0E0,0E0,0E0],"parents":[2147483647,0,0,1,1,2,2,3,3,4,4,5,5,6,6],"right_children":[2,4,6,8,10,12,14,-1,-1,-1,-1,-1,-1,-1,-1],"split_conditions":[-2.4428377E0,3.1798592E1,1.0789896E0,-1.513364E1,8.1989014E-1,4.3333523E1,2.2460634E-1,8.512323E-3,6.2195095E-4,-3.1637806E-3,7.856641E-3,-2.9711367E-3,6.3299737E-3,1.4929316E-2,1.9913325E-3],"split_indices":[5,3,4,5,4,3,2,0,0,0,0,0,0,0,0],"split_type":[0,0,0,0,0,0,0,0,0,0,0,0,0,0,0],"sum_hessian":[2.7317307E4,1.1173376E4,1.614393E4,8.98493E3,2.1884463E3,1.2068474E4,4.0754565E3,4.6211493E2,8.522814E3,4.1852023E2,1.7699261E3,1.1770626E4,2.978472E2,9.4286674E1,3.98117E3],"tree_param":{"num_deleted":"0","num_feature":"8","num_nodes":"15","size_leaf_vector":"1"}},{"base_weights":[-1.0525618E-3,-6.0239285E-1,1.5598229E-3,-6.6125035E-1,2.531586E-1,3.0399201E-2,-4.099118E-2,-3.518569E-2,-1.9256508E-2,2.6744323E-2,-2.5587238E-2,-6.359372E-4,2.2145624E-3,-2.1094317E-3,3.6581566E-3],"categories":[],"categories_nodes":[],"categories_segments":[],"categories_sizes":[],"default_left":[0,0,0,0,0,0,0,0,0,0,0,0,0,0,0],"id":21,"left_children":[1,3,5,7,9,11,13,-1,-1,-1,-1,-1,-1,-1,-1],"loss_changes":[4.614914E1,6.5660515E0,3.5895523E1,4.2568207E0,3.7297769E0,2.0152124E1,1.8385689E1,0E0,0E0,0E0,0E0,0E0,0E0,0E0,0E0],"parents":[2147483647,0,0,1,1,2,2,3,3,4,4,5,5,6,6],"right_children":[2,4,6,8,10,12,14,-1,-1,-1,-1,-1,-1,-1,-1],"split_conditions":[-3.280708E1,2.6134712E1,1.5218322E-1,-5.5875385E1,4.684861E1,-3.0562885E0,2.1583376E0,-3.518569E-2,-1.9256508E-2,2.6744323E-2,-2.5587238E-2,-6.359372E-4,2.2145624E-3,-2.1094317E-3,3.6581566E-3],"split_indices":[5,0,6,7,3,5,2,0,0,0,0,0,0,0,0],"split_type":[0,0,0,0,0,0,0,0,0,0,0,0,0,0,0],"sum_hessian":[2.9375314E4,1.2606922E2,2.9249246E4,1.1816705E2,7.9021735E0,1.7433678E4,1.1815568E4,5.1606117E1,6.6560936E1,5.564217E0,2.3379562E0,6.107538E3,1.132614E4,1.0853714E4,9.61855E2],"tree_param":{"num_deleted":"0","num_feature":"8","num_nodes":"15","size_leaf_vector":"1"}},{"base_weights":[-2.865679E-3,2.1917014E0,-2.1748403E-2,2.251264E0,-1.0948871E-2,-8.8750675E-2,1.8827726E-1,7.442159E-2,1.2638088E-1,-8.26743E-3,-2.163735E-3,1.5091093E-2,3.5264194E-3],"categories":[],"categories_nodes":[],"categories_segments":[],"categories_sizes":[],"default_left":[0,0,0,0,0,0,0,0,0,0,0,0,0],"id":22,"left_children":[1,3,5,7,-1,9,11,-1,-1,-1,-1,-1,-1],"loss_changes":[2.3839137E2,7.8229523E0,8.02781E1,1.1165344E1,0E0,1.7665455E1,2.6075153E1,0E0,0E0,0E0,0E0,0E0,0E0],"parents":[2147483647,0,0,1,1,2,2,3,3,5,5,6,6],"right_children":[2,4,6,8,-1,10,12,-1,-1,-1,-1,-1,-1],"split_conditions":[-2.002534E1,2.4631845E1,2.43574E0,1.9473448E1,-1.0948871E-2,3.756135E1,2.179638E1,7.442159E-2,1.2638088E-1,-8.26743E-3,-2.163735E-3,1.5091093E-2,3.5264194E-3],"split_indices":[1,0,1,0,0,0,3,0,0,0,0,0,0],"split_type":[0,0,0,0,0,0,0,0,0,0,0,0,0],"sum_hessian":[5.75062E3,4.8076336E1,5.702544E3,4.702706E1,1.0492722E0,4.3237583E3,1.3787856E3,3.5013184E1,1.2013881E1,9.808994E2,3.342859E3,4.7649384E2,9.0229175E2],"tree_param":{"num_deleted":"0","num_feature":"8","num_nodes":"13","size_leaf_vector":"1"}},{"base_weights":[2.4333159E-3,5.2528396E-2,-3.1043014E-2,3.4632355E-2,1.4349282E-1,-7.290966E-2,3.103691E-2,4.6724387E-4,3.3059623E-3,-1.6751844E-3,8.8570025E-3,-5.926196E-3,-1.7889766E-3,6.3039386E-4,7.0044505E-3],"categories":[],"categories_nodes":[],"categories_segments":[],"categories_sizes":[],"default_left":[0,0,0,0,0,0,0,0,0,0,0,0,0,0,0],"id":23,"left_children":[1,3,5,7,9,11,13,-1,-1,-1,-1,-1,-1,-1,-1],"loss_changes":[4.5797012E1,1.7802908E1,4.25486E1,1.0074068E1,2.5984291E1,2.0728085E1,1.4510789E1,0E0,0E0,0E0,0E0,0E0,0E0,0E0,0E0],"parents":[2147483647,0,0,1,1,2,2,3,3,4,4,5,5,6,6],"right_children":[2,4,6,8,10,12,14,-1,-1,-1,-1,-1,-1,-1,-1],"split_conditions":[-2.593931E0,3.343002E1,1.0167013E0,-3.382082E0,8.5814893E-1,6.194997E-1,4.0949608E1,4.6724387E-4,3.3059623E-3,-1.6751844E-3,8.8570025E-3,-5.926196E-3,-1.7889766E-3,6.3039386E-4,7.0044505E-3],"split_indices":[5,3,4,7,4,2,3,0,0,0,0,0,0,0,0],"split_type":[0,0,0,0,0,0,0,0,0,0,0,0,0,0,0],"sum_hessian":[2.7306932E4,1.0938152E4,1.6368779E4,9.141136E3,1.797016E3,9.775809E3,6.592971E3,6.1857056E3,2.955431E3,5.320131E2,1.2650029E3,2.6627888E3,7.1130195E3,5.9619043E3,6.310669E2],"tree_param":{"num_deleted":"0","num_feature":"8","num_nodes":"15","size_leaf_vector":"1"}},{"base_weights":[1.5142426E-3,-6.8770766E-1,4.4542057E-3,-7.4216706E-1,4.9544448E-1,3.6120016E-2,-5.0422072E-2,-3.4418564E-2,-2.190063E-2,2.3848603E-3,2.457666E-2,9.290583E-5,3.1993208E-3,-1.7287233E-5,-4.3253037E-3],"categories":[],"categories_nodes":[],"categories_segments":[],"categories_sizes":[],"default_left":[0,0,0,0,0,0,0,0,0,0,0,0,0,0,0],"id":24,"left_children":[1,3,5,7,9,11,13,-1,-1,-1,-1,-1,-1,-1,-1],"loss_changes":[5.9555817E1,8.411682E0,5.0857826E1,2.2862778E0,2.7930152E-1,2.7511627E1,3.0894684E1,0E0,0E0,0E0,0E0,0E0,0E0,0E0,0E0],"parents":[2147483647,0,0,1,1,2,2,3,3,4,4,5,5,6,6],"right_children":[2,4,6,8,10,12,14,-1,-1,-1,-1,-1,-1,-1,-1],"split_conditions":[-2.002534E1,2.4631845E1,1.0151813E0,8.9827795E0,3.9971397E1,-5.7603455E-1,7.161967E-2,-3.4418564E-2,-2.190063E-2,2.3848603E-3,2.457666E-2,9.290583E-5,3.1993208E-3,-1.7287233E-5,-4.3253037E-3],"split_indices":[1,0,4,6,3,5,6,0,0,0,0,0,0,0,0],"split_type":[0,0,0,0,0,0,0,0,0,0,0,0,0,0,0],"sum_hessian":[2.9389086E4,1.2384107E2,2.9265246E4,1.1874793E2,5.093141E0,1.855729E4,1.0707957E4,7.17327E1,4.7015236E1,1.414099E0,3.679042E0,1.0481853E4,8.0754355E3,5.7383247E3,4.969632E3],"tree_param":{"num_deleted":"0","num_feature":"8","num_nodes":"15","size_leaf_vector":"1"}},{"base_weights":[6.499342E-3,1.912833E0,-1.2839369E-2,2.4142647E0,1.3828956E0,-8.33087E-2,1.9159093E-1,1.00170754E-1,1.8886069E-2,1.969022E-2,6.3348204E-2,-7.45972E-3,-2.1011627E-3,5.1884884E-3,1.8795537E-2],"categories":[],"categories_nodes":[],"categories_segments":[],"categories_sizes":[],"default_left":[0,0,0,0,0,0,0,0,0,0,0,0,0,0,0],"id":25,"left_children":[1,3,5,7,9,11,13,-1,-1,-1,-1,-1,-1,-1,-1],"loss_changes":[2.1298824E2,1.2078705E1,8.241392E1,3.7942505E0,4.6840363E0,1.3501287E1,2.5193466E1,0E0,0E0,0E0,0E0,0E0,0E0,0E0,0E0],"parents":[2147483647,0,0,1,1,2,2,3,3,4,4,5,5,6,6],"right_children":[2,4,6,8,10,12,14,-1,-1,-1,-1,-1,-1,-1,-1],"split_conditions":[-2.002534E1,-5.5875385E1,2.277625E0,5.985191E1,-8.590978E0,3.756135E1,2.1803808E0,1.00170754E-1,1.8886069E-2,1.969022E-2,6.3348204E-2,-7.45972E-3,-2.1011627E-3,5.1884884E-3,1.8795537E-2],"split_indices":[1,7,1,3,6,0,6,0,0,0,0,0,0,0,0],"split_type":[0,0,0,0,0,0,0,0,0,0,0,0,0,0,0],"sum_hessian":[5.775691E3,5.7019524E1,5.7186714E3,2.747072E1,2.9548801E1,4.2531553E3,1.4655159E3,2.5977383E1,1.4933376E0,6.071509E0,2.3477293E1,9.7604474E2,3.2771106E3,1.2001351E3,2.653808E2],"tree_param":{"num_deleted":"0","num_feature":"8","num_nodes":"15","size_leaf_vector":"1"}},{"base_weights":[-2.238574E-3,3.5596464E-2,-4.1243665E-2,1.8132078E-2,1.262931E-1,-7.377318E-2,5.5502538E-2,1.1514784E-3,-3.8545316E-3,-1.7934879E-3,6.78181E-3,-5.3117E-3,-2.0442912E-3,2.751123E-3,-6.846248E-3],"categories":[],"categories_nodes":[],"categories_segments":[],"categories_sizes":[],"default_left":[0,0,0,0,0,0,0,0,0,0,0,0,0,0,0],"id":26,"left_children":[1,3,5,7,9,11,13,-1,-1,-1,-1,-1,-1,-1,-1],"loss_changes":[4.023931E1,2.1921412E1,4.225654E1,1.4162994E1,1.6548298E1,1.3434563E1,1.0178917E1,0E0,0E0,0E0,0E0,0E0,0E0,0E0,0E0],"parents":[2147483647,0,0,1,1,2,2,3,3,4,4,5,5,6,6],"right_children":[2,4,6,8,10,12,14,-1,-1,-1,-1,-1,-1,-1,-1],"split_conditions":[-6.459699E-1,3.2165165E1,1.089385E0,1.6739684E0,8.2204014E-1,6.194997E-1,3.0726087E0,1.1514784E-3,-3.8545316E-3,-1.7934879E-3,6.78181E-3,-5.3117E-3,-2.0442912E-3,2.751123E-3,-6.846248E-3],"split_indices":[5,3,4,2,4,2,2,0,0,0,0,0,0,0,0],"split_type":[0,0,0,0,0,0,0,0,0,0,0,0,0,0,0],"sum_hessian":[2.7264863E4,1.3840059E4,1.3424805E4,1.1606358E4,2.2337002E3,1.0046913E4,3.3778923E3,1.0618915E4,9.874426E2,4.506468E2,1.7830535E3,2.7864548E3,7.2604575E3,3.191652E3,1.8624043E2],"tree_param":{"num_deleted":"0","num_feature":"8","num_nodes":"15","size_leaf_vector":"1"}},{"base_weights":[-7.514842E-4,-6.536454E-1,2.1113448E-3,-7.1057194E-1,5.133765E-1,3.3269923E-2,-4.4042334E-2,-3.586262E-2,-2.14778E-2,2.5180995E-3,2.5030794E-2,1.8216239E-3,-1.9784025E-3,-2.2253043E-3,3.3966026E-3],"categories":[],"categories_nodes":[],"categories_segments":[],"categories_sizes":[],"default_left":[0,0,0,0,0,0,0,0,0,0,0,0,0,0,0],"id":27,"left_children":[1,3,5,7,9,11,13,-1,-1,-1,-1,-1,-1,-1,-1],"loss_changes":[5.4855953E1,8.876816E0,4.202315E1,3.4773407E0,2.916807E-1,1.771121E1,1.7607243E1,0E0,0E0,0E0,0E0,0E0,0E0,0E0,0E0],"parents":[2147483647,0,0,1,1,2,2,3,3,4,4,5,5,6,6],"right_children":[2,4,6,8,10,12,14,-1,-1,-1,-1,-1,-1,-1,-1],"split_conditions":[-2.002534E1,2.4631845E1,1.5218322E-1,-5.5875385E1,3.9971397E1,3.4415127E1,2.1583376E0,-3.586262E-2,-2.14778E-2,2.5180995E-3,2.5030794E-2,1.8216239E-3,-1.9784025E-3,-2.2253043E-3,3.3966026E-3],"split_indices":[1,0,6,7,3,3,2,0,0,0,0,0,0,0,0],"split_type":[0,0,0,0,0,0,0,0,0,0,0,0,0,0,0],"sum_hessian":[2.9346752E4,1.27126335E2,2.9219625E4,1.2158655E2,5.5397882E0,1.7443625E4,1.1776E4,5.669244E1,6.489411E1,1.4178332E0,4.121955E0,1.5190928E4,2.2526985E3,1.0805412E4,9.705872E2],"tree_param":{"num_deleted":"0","num_feature":"8","num_nodes":"15","size_leaf_vector":"1"}},{"base_weights":[4.5939386E-3,1.0356358E0,-1.3206492E-2,1.8239094E0,-3.9091546E-2,-1.2618792E-1,5.878877E-2,5.7004493E-2,8.912584E-2,-9.518274E-3,1.037567E-1,4.686278E-3,-6.095591E-3,-1.3782055E-3,6.7374315E-3],"categories":[],"categories_nodes":[],"categories_segments":[],"categories_sizes":[],"default_left":[0,0,0,0,0,0,0,0,0,0,0,0,0,0,0],"id":28,"left_children":[1,3,5,7,9,11,13,-1,-1,-1,-1,-1,-1,-1,-1],"loss_changes":[1.0556645E2,8.277299E1,4.6002964E1,5.906494E0,2.2757767E1,1.4052727E1,3.5323948E1,0E0,0E0,0E0,0E0,0E0,0E0,0E0,0E0],"parents":[2147483647,0,0,1,1,2,2,3,3,4,4,5,5,6,6],"right_children":[2,4,6,8,10,12,14,-1,-1,-1,-1,-1,-1,-1,-1],"split_conditions":[-4.9238037E1,2.3825325E1,4.5609295E1,1.622792E1,5.3337406E1,4.5896536E-1,1.5218322E-1,5.7004493E-2,8.912584E-2,-9.518274E-3,1.037567E-1,4.686278E-3,-6.095591E-3,-1.3782055E-3,6.7374315E-3],"split_indices":[7,0,0,0,0,2,6,0,0,0,0,0,0,0,0],"split_type":[0,0,0,0,0,0,0,0,0,0,0,0,0,0,0],"sum_hessian":[5.7502573E3,9.662007E1,5.653637E3,5.533602E1,4.128405E1,2.2001738E3,3.4534634E3,3.013348E1,2.520254E1,3.923067E1,2.0533798E0,2.1353508E2,1.9866388E3,1.8667034E3,1.58676E3],"tree_param":{"num_deleted":"0","num_feature":"8","num_nodes":"15","size_leaf_vector":"1"}},{"base_weights":[-6.5099925E-4,-2.0711938E-2,7.9116784E-2,2.4452234E-2,-7.451731E-2,9.6792124E-2,-9.0496905E-2,3.204845E-4,4.4098054E-3,2.346466E-3,-3.289384E-3,1.7940248E-3,6.9998465E-3,7.000019E-3,-4.7039734E-3],"categories":[],"categories_nodes":[],"categories_segments":[],"categories_sizes":[],"default_left":[0,0,0,0,0,0,0,0,0,0,0,0,0,0,0],"id":29,"left_children":[1,3,5,7,9,11,13,-1,-1,-1,-1,-1,-1,-1,-1],"loss_changes":[4.3819183E1,5.317304E1,1.650595E1,1.6778069E1,1.0267521E1,2.023706E1,3.7611475E0,0E0,0E0,0E0,0E0,0E0,0E0,0E0,0E0],"parents":[2147483647,0,0,1,1,2,2,3,3,4,4,5,5,6,6],"right_children":[2,4,6,8,10,12,14,-1,-1,-1,-1,-1,-1,-1,-1],"split_conditions":[1.089385E0,-5.7603455E-1,2.2240188E0,3.1798592E1,-2.5288904E1,1.9312803E-1,1.723573E1,3.204845E-4,4.4098054E-3,2.346466E-3,-3.289384E-3,1.7940248E-3,6.9998465E-3,7.000019E-3,-4.7039734E-3],"split_indices":[4,5,2,3,7,6,3,0,0,0,0,0,0,0,0],"split_type":[0,0,0,0,0,0,0,0,0,0,0,0,0,0,0],"sum_hessian":[2.7381256E4,2.1879486E4,5.50177E3,1.1895207E4,9.984279E3,4.982931E3,5.1883905E2,9.983253E3,1.9119539E3,5.465065E2,9.437772E3,2.9951726E3,1.9877583E3,4.7552677E1,4.7128635E2],"tree_param":{"num_deleted":"0","num_feature":"8","num_nodes":"15","size_leaf_vector":"1"}},{"base_weights":[6.1977946E-5,-6.8590647E-1,3.0889937E-3,-7.2098905E-1,4.0037873E-1,2.969306E-2,-3.614942E-2,-3.282988E-2,-2.2335002E-2,2.0091154E-3,2.1392679E-2,-6.7879544E-3,1.4429992E-3,-2.1363378E-3,2.2470495E-3],"categories":[],"categories_nodes":[],"categories_segments":[],"categories_sizes":[],"default_left":[0,0,0,0,0,0,0,0,0,0,0,0,0,0,0],"id":30,"left_children":[1,3,5,7,9,11,13,-1,-1,-1,-1,-1,-1,-1,-1],"loss_changes":[6.0882E1,5.197796E0,3.0474203E1,1.571785E0,1.9311345E-1,2.2143986E1,1.8798538E1,0E0,0E0,0E0,0E0,0E0,0E0,0E0,0E0],"parents":[2147483647,0,0,1,1,2,2,3,3,4,4,5,5,6,6],"right_children":[2,4,6,8,10,12,14,-1,-1,-1,-1,-1,-1,-1,-1],"split_conditions":[-2.002534E1,2.4631845E1,1.5218322E-1,8.9827795E0,2.6134712E1,-1.469264E1,1.6276497E0,-3.282988E-2,-2.2335002E-2,2.0091154E-3,2.1392679E-2,-6.7879544E-3,1.4429992E-3,-2.1363378E-3,2.2470495E-3],"split_indices":[1,0,6,6,0,5,2,0,0,0,0,0,0,0,0],"split_type":[0,0,0,0,0,0,0,0,0,0,0,0,0,0,0],"sum_hessian":[2.9318396E4,1.2781561E2,2.9190582E4,1.2414259E2,3.673019E0,1.739609E4,1.1794492E4,7.44332E1,4.970939E1,1.4000736E0,2.2729454E0,5.3873315E2,1.6857355E4,9.937275E3,1.8572168E3],"tree_param":{"num_deleted":"0","num_feature":"8","num_nodes":"15","size_leaf_vector":"1"}},{"base_weights":[1.4085236E-3,1.6483941E0,-1.6341886E-2,1.2866116E0,2.0959268E0,-8.317117E-2,1.7238331E-1,1.3567388E-2,6.4301424E-2,8.774554E-2,5.381457E-3,-8.057562E-3,-1.9725992E-3,1.42185185E-2,2.759887E-3],"categories":[],"categories_nodes":[],"categories_segments":[],"categories_sizes":[],"default_left":[0,0,0,0,0,0,0,0,0,0,0,0,0,0,0],"id":31,"left_children":[1,3,5,7,9,11,13,-1,-1,-1,-1,-1,-1,-1,-1],"loss_changes":[1.6837373E2,7.2462006E0,7.18803E1,1.0567268E1,4.6613464E0,1.6841906E1,2.818573E1,0E0,0E0,0E0,0E0,0E0,0E0,0E0,0E0],"parents":[2147483647,0,0,1,1,2,2,3,3,4,4,5,5,6,6],"right_children":[2,4,6,8,10,12,14,-1,-1,-1,-1,-1,-1,-1,-1],"split_conditions":[-2.002534E1,1.622792E1,2.277625E0,9.082345E-1,2.4631845E1,3.7381413E1,2.188394E1,1.3567388E-2,6.4301424E-2,8.774554E-2,5.381457E-3,-8.057562E-3,-1.9725992E-3,1.42185185E-2,2.759887E-3],"split_indices":[1,0,1,2,0,0,3,0,0,0,0,0,0,0,0],"split_type":[0,0,0,0,0,0,0,0,0,0,0,0,0,0,0],"sum_hessian":[5.757464E3,6.0409992E1,5.697054E3,3.554806E1,2.4861933E1,4.2076475E3,1.4894065E3,9.514984E0,2.6033077E1,2.3569351E1,1.2925813E0,9.353374E2,3.2723103E3,5.366501E2,9.5275635E2],"tree_param":{"num_deleted":"0","num_feature":"8","num_nodes":"15","size_leaf_vector":"1"}},{"base_weights":[1.446034E-3,-2.7775347E-2,5.9830267E-2,1.1452077E-2,-8.6159736E-2,1.1014223E-2,1.1548398E-1,-2.4539896E-3,1.2301834E-3,2.0534773E-3,-3.8711324E-3,-1.0065712E-3,5.53627E-3,6.2788944E-3,1.049868E-3],"categories":[],"categories_nodes":[],"categories_segments":[],"categories_sizes":[],"default_left":[0,0,0,0,0,0,0,0,0,0,0,0,0,0,0],"id":32,"left_children":[1,3,5,7,9,11,13,-1,-1,-1,-1,-1,-1,-1,-1],"loss_changes":[4.6515423E1,4.1616154E1,2.4706059E1,1.5275812E1,1.0666466E1,2.2337471E1,1.5728573E1,0E0,0E0,0E0,0E0,0E0,0E0,0E0,0E0],"parents":[2147483647,0,0,1,1,2,2,3,3,4,4,5,5,6,6],"right_children":[2,4,6,8,10,12,14,-1,-1,-1,-1,-1,-1,-1,-1],"split_conditions":[1.02888E0,0E0,7.161967E-2,8.1989014E-1,-2.4495478E1,3.4142986E1,6.2102327E0,-2.4539896E-3,1.2301834E-3,2.0534773E-3,-3.8711324E-3,-1.0065712E-3,5.53627E-3,6.2788944E-3,1.049868E-3],"split_indices":[4,5,6,4,7,3,5,0,0,0,0,0,0,0,0],"split_type":[0,0,0,0,0,0,0,0,0,0,0,0,0,0,0],"sum_hessian":[2.7262723E4,1.8169426E4,9.093296E3,1.0868129E4,7.3012974E3,4.8448696E3,4.2484263E3,2.2772012E3,8.590928E3,5.231647E2,6.7781323E3,3.7739104E3,1.0709592E3,2.899586E3,1.3488405E3],"tree_param":{"num_deleted":"0","num_feature":"8","num_nodes":"15","size_leaf_vector":"1"}},{"base_weights":[-1.48844E-3,-6.286738E-1,1.317139E-3,-6.6676587E-1,4.3450224E-1,3.2279577E-2,-4.985486E-2,-1.9657781E-2,-3.281445E-2,2.2761626E-2,1.6650852E-3,-9.588912E-4,2.3491115E-3,-4.556015E-5,-4.22944E-3],"categories":[],"categories_nodes":[],"categories_segments":[],"categories_sizes":[],"default_left":[0,0,0,0,0,0,0,0,0,0,0,0,0,0,0],"id":33,"left_children":[1,3,5,7,9,11,13,-1,-1,-1,-1,-1,-1,-1,-1],"loss_changes":[5.1678246E1,5.586563E0,4.6327778E1,3.0076485E0,2.47437E-1,2.7104164E1,3.0006685E1,0E0,0E0,0E0,0E0,0E0,0E0,0E0,0E0],"parents":[2147483647,0,0,1,1,2,2,3,3,4,4,5,5,6,6],"right_children":[2,4,6,8,10,12,14,-1,-1,-1,-1,-1,-1,-1,-1],"split_conditions":[-2.002534E1,2.4631845E1,1.0109386E0,1.1847242E0,5.433387E0,-2.218819E0,7.161967E-2,-1.9657781E-2,-3.281445E-2,2.2761626E-2,1.6650852E-3,-9.588912E-4,2.3491115E-3,-4.556015E-5,-4.22944E-3],"split_indices":[1,0,4,4,6,1,6,0,0,0,0,0,0,0,0],"split_type":[0,0,0,0,0,0,0,0,0,0,0,0,0,0,0],"sum_hessian":[2.9367543E4,1.2979091E2,2.9237752E4,1.2566149E2,4.129415E0,1.8216148E4,1.1021604E4,6.0641693E1,6.50198E1,2.7420206E0,1.3873943E0,5.8257144E3,1.2390435E4,5.888858E3,5.132746E3],"tree_param":{"num_deleted":"0","num_feature":"8","num_nodes":"15","size_leaf_vector":"1"}},{"base_weights":[-8.0751337E-4,1.288601E0,-2.1296024E-2,1.6900433E0,4.731742E-1,-8.116443E-2,1.5799144E-1,1.1561073E-1,6.1736032E-2,-1.2748488E-2,3.6524847E-2,-1.8744452E-3,-7.312345E-3,1.7765012E-2,3.1678462E-3],"categories":[],"categories_nodes":[],"categories_segments":[],"categories_sizes":[],"default_left":[0,0,0,0,0,0,0,0,0,0,0,0,0,0,0],"id":34,"left_children":[1,3,5,7,9,11,13,-1,-1,-1,-1,-1,-1,-1,-1],"loss_changes":[1.5208823E2,2.8676804E1,6.0839294E1,6.0908966E0,1.1124166E1,1.4806372E1,3.195636E1,0E0,0E0,0E0,0E0,0E0,0E0,0E0,0E0],"parents":[2147483647,0,0,1,1,2,2,3,3,4,4,5,5,6,6],"right_children":[2,4,6,8,10,12,14,-1,-1,-1,-1,-1,-1,-1,-1],"split_conditions":[-1.3377456E1,-4.9238037E1,2.43574E0,6.066228E-1,1.0251569E0,2.716053E1,1.8663206E1,1.1561073E-1,6.1736032E-2,-1.2748488E-2,3.6524847E-2,-1.8744452E-3,-7.312345E-3,1.7765012E-2,3.1678462E-3],"split_indices":[1,7,1,4,2,3,3,0,0,0,0,0,0,0,0],"split_type":[0,0,0,0,0,0,0,0,0,0,0,0,0,0,0],"sum_hessian":[5.75494E3,8.904672E1,5.665893E3,5.8951675E1,3.0095047E1,4.247948E3,1.4179448E3,4.3814178E0,5.4570255E1,1.0846808E1,1.924824E1,3.1771665E3,1.0707819E3,3.0516074E2,1.1127842E3],"tree_param":{"num_deleted":"0","num_feature":"8","num_nodes":"15","size_leaf_vector":"1"}},{"base_weights":[7.75093E-4,-2.4684658E-2,5.790335E-2,1.4644854E-2,-7.502375E-2,1.0874102E-2,1.1423966E-1,-3.6541845E-3,1.032748E-3,-1.2199006E-2,-2.7661808E-3,2.2147821E-4,1.663056E-2,6.001931E-3,-8.819508E-4],"categories":[],"categories_nodes":[],"categories_segments":[],"categories_sizes":[],"default_left":[0,0,0,0,0,0,0,0,0,0,0,0,0,0,0],"id":35,"left_children":[1,3,5,7,9,11,13,-1,-1,-1,-1,-1,-1,-1,-1],"loss_changes":[3.973964E1,3.7418804E1,2.231454E1,1.2570147E1,1.1167019E1,9.92015E0,1.870507E1,0E0,0E0,0E0,0E0,0E0,0E0,0E0,0E0],"parents":[2147483647,0,0,1,1,2,2,3,3,4,4,5,5,6,6],"right_children":[2,4,6,8,10,12,14,-1,-1,-1,-1,-1,-1,-1,-1],"split_conditions":[1.0385411E0,-5.7603455E-1,1.0220951E-1,7.7040577E-1,2.4401718E-1,3.7867E1,1.75055E0,-3.6541845E-3,1.032748E-3,-1.2199006E-2,-2.7661808E-3,2.2147821E-4,1.663056E-2,6.001931E-3,-8.819508E-4],"split_indices":[4,5,6,4,2,5,2,0,0,0,0,0,0,0,0],"split_type":[0,0,0,0,0,0,0,0,0,0,0,0,0,0,0],"sum_hessian":[2.7320414E4,1.8898627E4,8.421785E3,1.0609905E4,8.288722E3,4.5906934E3,3.8310925E3,1.0110944E3,9.598812E3,2.0502553E2,8.0836963E3,4.531968E3,5.8725468E1,3.0338684E3,7.9722406E2],"tree_param":{"num_deleted":"0","num_feature":"8","num_nodes":"15","size_leaf_vector":"1"}},{"base_weights":[-1.1905628E-3,2.69181E-2,-5.188296E-2,-7.748335E-2,4.129369E-2,-4.3847734E-1,-4.388743E-2,1.3087606E-3,-5.913626E-3,5.4991734E-3,1.0273193E-3,-3.1157034E-2,-1.27500845E-2,2.5993466E-4,-4.081449E-3],"categories":[],"categories_nodes":[],"categories_segments":[],"categories_sizes":[],"default_left":[0,0,0,0,0,0,0,0,0,0,0,0,0,0,0],"id":36,"left_children":[1,3,5,7,9,11,13,-1,-1,-1,-1,-1,-1,-1,-1],"loss_changes":[4.182472E1,2.83428E1,3.2344635E1,1.7727165E1,2.4918613E1,8.394798E0,3.0058884E1,0E0,0E0,0E0,0E0,0E0,0E0,0E0,0E0],"parents":[2147483647,0,0,1,1,2,2,3,3,4,4,5,5,6,6],"right_children":[2,4,6,8,10,12,14,-1,-1,-1,-1,-1,-1,-1,-1],"split_conditions":[1.0195845E0,-2.5288904E1,-3.059634E1,7.785361E-1,8.177623E-1,-5.13849E1,7.161967E-2,1.3087606E-3,-5.913626E-3,5.4991734E-3,1.0273193E-3,-3.1157034E-2,-1.27500845E-2,2.5993466E-4,-4.081449E-3],"split_indices":[4,7,7,4,4,7,6,0,0,0,0,0,0,0,0],"split_type":[0,0,0,0,0,0,0,0,0,0,0,0,0,0,0],"sum_hessian":[2.9350852E4,1.8881584E4,1.0469268E4,2.284708E3,1.6596875E4,2.1104663E2,1.0258221E4,8.904731E2,1.394235E3,2.3164182E3,1.4280457E4,5.3476337E1,1.5757028E2,5.4964487E3,4.761772E3],"tree_param":{"num_deleted":"0","num_feature":"8","num_nodes":"15","size_leaf_vector":"1"}},{"base_weights":[1.9203702E-3,1.3866552E0,-1.4225644E-2,1.1226544E0,7.1469605E-2,-7.66631E-2,1.6507553E-1,6.5760665E-2,2.514519E-2,-7.289406E-3,-1.548953E-3,8.522757E-3,6.8070367E-4],"categories":[],"categories_nodes":[],"categories_segments":[],"categories_sizes":[],"default_left":[0,0,0,0,0,0,0,0,0,0,0,0,0],"id":37,"left_children":[1,3,5,7,-1,9,11,-1,-1,-1,-1,-1,-1],"loss_changes":[1.288828E2,5.011635E0,6.3804573E1,9.969139E0,0E0,1.692394E1,1.0456654E1,0E0,0E0,0E0,0E0,0E0,0E0],"parents":[2147483647,0,0,1,1,2,2,3,3,5,5,6,6],"right_children":[2,4,6,8,-1,10,12,-1,-1,-1,-1,-1,-1],"split_conditions":[-2.002534E1,1.5472556E0,2.3311887E0,-5.5875385E1,7.1469605E-2,8.6999136E-1,6.802829E1,6.5760665E-2,2.514519E-2,-7.289406E-3,-1.548953E-3,8.522757E-3,6.8070367E-4],"split_indices":[1,2,1,7,0,4,0,0,0,0,0,0,0],"split_type":[0,0,0,0,0,0,0,0,0,0,0,0,0],"sum_hessian":[5.7626353E3,6.543959E1,5.6971953E3,4.171771E1,2.3721886E1,4.22612E3,1.4710754E3,1.9164701E1,2.2553007E1,1.1162299E3,3.1098901E3,1.1106243E3,3.6045114E2],"tree_param":{"num_deleted":"0","num_feature":"8","num_nodes":"13","size_leaf_vector":"1"}},{"base_weights":[1.7468484E-4,3.5477147E-2,-3.4911945E-2,1.9459413E-2,1.1324985E-1,-4.6153348E-2,8.323893E-2,8.135898E-3,4.6166088E-4,-2.8051986E-4,7.175663E-3,-2.0891125E-3,4.393649E-3,6.2090475E-3,-4.463971E-3],"categories":[],"categories_nodes":[],"categories_segments":[],"categories_sizes":[],"default_left":[0,0,0,0,0,0,0,0,0,0,0,0,0,0,0],"id":38,"left_children":[1,3,5,7,9,11,13,-1,-1,-1,-1,-1,-1,-1,-1],"loss_changes":[3.3872265E1,1.6978752E1,1.8219915E1,1.6461445E1,1.8517149E1,1.1873411E1,1.6734745E1,0E0,0E0,0E0,0E0,0E0,0E0,0E0,0E0],"parents":[2147483647,0,0,1,1,2,2,3,3,4,4,5,5,6,6],"right_children":[2,4,6,8,10,12,14,-1,-1,-1,-1,-1,-1,-1,-1],"split_conditions":[-7.929515E-1,3.1798592E1,7.410937E0,-1.513364E1,2.9744398E1,4.3333523E1,2.0466774E0,8.135898E-3,4.6166088E-4,-2.8051986E-4,7.175663E-3,-2.0891125E-3,4.393649E-3,6.2090475E-3,-4.463971E-3],"split_indices":[5,3,1,5,0,3,2,0,0,0,0,0,0,0,0],"split_type":[0,0,0,0,0,0,0,0,0,0,0,0,0,0,0],"sum_hessian":[2.734424E4,1.3630192E4,1.3714048E4,1.1303436E4,2.3267568E3,1.2523148E4,1.1908992E3,4.654737E2,1.0837962E4,8.259176E2,1.5008391E3,1.2054412E4,4.6873624E2,8.6975305E2,3.2114606E2],"tree_param":{"num_deleted":"0","num_feature":"8","num_nodes":"15","size_leaf_vector":"1"}},{"base_weights":[1.4260724E-3,-6.2407255E-1,4.2183213E-3,-6.678639E-1,4.68148E-1,3.4824196E-2,-3.711564E-2,-3.1656943E-2,-1.821632E-2,2.6787072E-3,2.3534523E-2,-1.2008718E-3,2.5980903E-3,7.2913204E-4,-4.0799268E-3],"categories":[],"categories_nodes":[],"categories_segments":[],"categories_sizes":[],"default_left":[0,0,0,0,0,0,0,0,0,0,0,0,0,0,0],"id":39,"left_children":[1,3,5,7,9,11,13,-1,-1,-1,-1,-1,-1,-1,-1],"loss_changes":[5.1184895E1,6.542164E0,3.691021E1,2.9376106E0,2.3108792E-1,3.2752964E1,4.4574627E1,0E0,0E0,0E0,0E0,0E0,0E0,0E0,0E0],"parents":[2147483647,0,0,1,1,2,2,3,3,4,4,5,5,6,6],"right_children":[2,4,6,8,10,12,14,-1,-1,-1,-1,-1,-1,-1,-1],"split_conditions":[-2.002534E1,2.4631845E1,9.9346066E-1,1.2454731E1,3.9971397E1,-2.2569683E0,7.161967E-2,-3.1656943E-2,-1.821632E-2,2.6787072E-3,2.3534523E-2,-1.2008718E-3,2.5980903E-3,7.2913204E-4,-4.0799268E-3],"split_indices":[1,0,4,6,3,1,6,0,0,0,0,0,0,0,0],"split_type":[0,0,0,0,0,0,0,0,0,0,0,0,0,0,0],"sum_hessian":[2.9303816E4,1.2924312E2,2.9174574E4,1.2463456E2,4.6085587E0,1.6762719E4,1.2411855E4,7.708089E1,4.755367E1,1.4215722E0,3.1869864E0,5.31754E3,1.1445179E4,6.6986846E3,5.713171E3],"tree_param":{"num_deleted":"0","num_feature":"8","num_nodes":"15","size_leaf_vector":"1"}},{"base_weights":[2.764803E-3,1.1355278E0,-9.804184E-3,6.340178E-1,1.369223E0,-7.961598E-2,1.0568671E-1,-1.7234089E-2,3.5710733E-2,6.210605E-2,2.5940815E-2,-4.6601305E-3,1.1391828E-3,3.2621954E-4,9.139603E-3],"categories":[],"categories_nodes":[],"categories_segments":[],"categories_sizes":[],"default_left":[0,0,0,0,0,0,0,0,0,0,0,0,0,0,0],"id":40,"left_children":[1,3,5,7,9,11,13,-1,-1,-1,-1,-1,-1,-1,-1],"loss_changes":[8.203771E1,6.542801E0,4.5957306E1,6.435917E0,4.5811996E0,1.4168392E1,2.5719055E1,0E0,0E0,0E0,0E0,0E0,0E0,0E0,0E0],"parents":[2147483647,0,0,1,1,2,2,3,3,4,4,5,5,6,6],"right_children":[2,4,6,8,10,12,14,-1,-1,-1,-1,-1,-1,-1,-1],"split_conditions":[-3.280708E1,1.0749263E0,2.0641823E0,2.8381946E0,-4.9238037E1,6.874849E-1,4.8960846E-2,-1.7234089E-2,3.5710733E-2,6.210605E-2,2.5940815E-2,-4.6601305E-3,1.1391828E-3,3.2621954E-4,9.139603E-3],"split_indices":[5,4,5,6,7,6,6,0,0,0,0,0,0,0,0],"split_type":[0,0,0,0,0,0,0,0,0,0,0,0,0,0,0],"sum_hessian":[5.7602305E3,6.223287E1,5.6979976E3,2.096181E1,4.127106E1,3.5515012E3,2.1464966E3,3.9677374E0,1.6994072E1,3.1977903E1,9.293156E0,2.6478518E3,9.0364923E2,1.1969431E3,9.4955347E2],"tree_param":{"num_deleted":"0","num_feature":"8","num_nodes":"15","size_leaf_vector":"1"}},{"base_weights":[-2.298535E-3,3.4351964E-2,-4.0383697E-2,-3.6359996E-2,4.9661998E-2,-6.872831E-2,4.248994E-2,8.479953E-5,-4.1419403E-3,-1.221593E-3,2.6170723E-3,3.3008768E-3,-3.1032744E-3,2.3569292E-3,-4.2561474E-3],"categories":[],"categories_nodes":[],"categories_segments":[],"categories_sizes":[],"default_left":[0,0,0,0,0,0,0,0,0,0,0,0,0,0,0],"id":41,"left_children":[1,3,5,7,9,11,13,-1,-1,-1,-1,-1,-1,-1,-1],"loss_changes":[3.828654E1,1.513423E1,3.1600115E1,6.433563E0,1.4530193E1,1.3428852E1,8.39575E0,0E0,0E0,0E0,0E0,0E0,0E0,0E0,0E0],"parents":[2147483647,0,0,1,1,2,2,3,3,4,4,5,5,6,6],"right_children":[2,4,6,8,10,12,14,-1,-1,-1,-1,-1,-1,-1,-1],"split_conditions":[-6.459699E-1,8.3146095E-1,1.089385E0,1.5218322E-1,-1.0620794E0,-2.5288904E1,2.2854064E0,8.479953E-5,-4.1419403E-3,-1.221593E-3,2.6170723E-3,3.3008768E-3,-3.1032744E-3,2.3569292E-3,-4.2561474E-3],"split_indices":[5,4,4,6,6,7,2,0,0,0,0,0,0,0,0],"split_type":[0,0,0,0,0,0,0,0,0,0,0,0,0,0,0],"sum_hessian":[2.7427035E4,1.3976818E4,1.3450216E4,2.4873235E3,1.1489495E4,1.0022478E4,3.427738E3,1.5821616E3,9.051619E2,1.88727E3,9.602226E3,5.537708E2,9.468707E3,3.0875693E3,3.401687E2],"tree_param":{"num_deleted":"0","num_feature":"8","num_nodes":"15","size_leaf_vector":"1"}},{"base_weights":[8.732684E-4,3.2783188E-2,-5.1963296E-2,-1.7228141E-2,5.9855048E-2,-5.108352E-1,-4.601545E-2,-2.2441128E-2,-5.353262E-4,4.500083E-3,1.4701159E-3,-1.1131148E-2,-2.771639E-2,-5.6100303E-6,-4.0805833E-3],"categories":[],"categories_nodes":[],"categories_segments":[],"categories_sizes":[],"default_left":[0,0,0,0,0,0,0,0,0,0,0,0,0,0,0],"id":42,"left_children":[1,3,5,7,9,11,13,-1,-1,-1,-1,-1,-1,-1,-1],"loss_changes":[4.954586E1,2.4806421E1,3.0176205E1,1.344813E1,1.445369E1,5.7982025E0,2.8064743E1,0E0,0E0,0E0,0E0,0E0,0E0,0E0,0E0],"parents":[2147483647,0,0,1,1,2,2,3,3,4,4,5,5,6,6],"right_children":[2,4,6,8,10,12,14,-1,-1,-1,-1,-1,-1,-1,-1],"split_conditions":[1.0122349E0,-1.9822788E0,-1.3377456E1,-2.002534E1,-1.623516E-1,1.1847242E0,1.0220951E-1,-2.2441128E-2,-5.353262E-4,4.500083E-3,1.4701159E-3,-1.1131148E-2,-2.771639E-2,-5.6100303E-6,-4.0805833E-3],"split_indices":[4,1,1,1,6,4,6,0,0,0,0,0,0,0,0],"split_type":[0,0,0,0,0,0,0,0,0,0,0,0,0,0,0],"sum_hessian":[2.9384438E4,1.832044E4,1.1063999E4,6.434323E3,1.1886115E4,1.4048912E2,1.092351E4,4.41576E1,6.390166E3,3.6238726E3,8.262242E3,6.2802467E1,7.7686646E1,6.0050776E3,4.918432E3],"tree_param":{"num_deleted":"0","num_feature":"8","num_nodes":"15","size_leaf_vector":"1"}},{"base_weights":[2.143796E-3,1.3014143E0,-1.4608913E-2,2.1010137E0,1.1528324E0,-7.970263E-2,1.443778E-1,9.7888924E-2,1.3638375E-2,5.70833E-2,3.239314E-2,-7.6403087E-3,-1.819898E-3,1.1481035E-2,1.9941763E-3],"categories":[],"categories_nodes":[],"categories_segments":[],"categories_sizes":[],"default_left":[0,0,0,0,0,0,0,0,0,0,0,0,0,0,0],"id":43,"left_children":[1,3,5,7,9,11,13,-1,-1,-1,-1,-1,-1,-1,-1],"loss_changes":[1.2563034E2,6.306999E0,5.898481E1,5.440426E0,4.8812714E0,1.5386623E1,2.2310581E1,0E0,0E0,0E0,0E0,0E0,0E0,0E0,0E0],"parents":[2147483647,0,0,1,1,2,2,3,3,4,4,5,5,6,6],"right_children":[2,4,6,8,10,12,14,-1,-1,-1,-1,-1,-1,-1,-1],"split_conditions":[-2.002534E1,7.930104E-1,1.9669315E0,-4.9238037E1,-5.5875385E1,3.756135E1,2.2316032E1,9.7888924E-2,1.3638375E-2,5.70833E-2,3.239314E-2,-7.6403087E-3,-1.819898E-3,1.1481035E-2,1.9941763E-3],"split_indices":[1,4,1,7,7,0,3,0,0,0,0,0,0,0,0],"split_type":[0,0,0,0,0,0,0,0,0,0,0,0,0,0,0],"sum_hessian":[5.7699087E3,7.24736E1,5.697435E3,9.297626E0,6.3175976E1,4.0427258E3,1.6547091E3,7.4431124E0,1.8545133E0,3.3350163E1,2.982581E1,9.4924805E2,3.0934778E3,6.586636E2,9.9604553E2],"tree_param":{"num_deleted":"0","num_feature":"8","num_nodes":"15","size_leaf_vector":"1"}},{"base_weights":[1.7547173E-3,-2.444957E-2,4.5242324E-2,3.825251E-2,-6.2082883E-2,5.875019E-2,-8.755439E-2,-2.7064495E-3,2.2032403E-3,-4.3760003E-3,-1.4207434E-3,1.5505957E-3,5.374931E-3,-2.634176E-3,-7.6366696E-3],"categories":[],"categories_nodes":[],"categories_segments":[],"categories_sizes":[],"default_left":[0,0,0,0,0,0,0,0,0,0,0,0,0,0,0],"id":44,"left_children":[1,3,5,7,9,11,13,-1,-1,-1,-1,-1,-1,-1,-1],"loss_changes":[3.113496E1,4.0232296E1,1.843296E1,1.1402359E1,1.3388405E1,1.4088402E1,2.115735E0,0E0,0E0,0E0,0E0,0E0,0E0,0E0,0E0],"parents":[2147483647,0,0,1,1,2,2,3,3,4,4,5,5,6,6],"right_children":[2,4,6,8,10,12,14,-1,-1,-1,-1,-1,-1,-1,-1],"split_conditions":[1.0122349E0,4.2743443E1,2.0466774E0,7.748172E-1,6.91236E-1,3.3688667E1,4.1326666E0,-2.7064495E-3,2.2032403E-3,-4.3760003E-3,-1.4207434E-3,1.5505957E-3,5.374931E-3,-2.634176E-3,-7.6366696E-3],"split_indices":[4,0,2,4,2,3,2,0,0,0,0,0,0,0,0],"split_type":[0,0,0,0,0,0,0,0,0,0,0,0,0,0,0],"sum_hessian":[2.73199E4,1.7047838E4,1.0272062E4,6.3942144E3,1.0653624E4,9.32418E3,9.4788257E2,8.7626056E2,5.517954E3,3.8294226E3,6.824201E3,7.376316E3,1.9478634E3,7.847653E2,1.6311726E2],"tree_param":{"num_deleted":"0","num_feature":"8","num_nodes":"15","size_leaf_vector":"1"}}]},"name":"gbtree"},"learner_model_param":{"base_score":"[1.1157949E0,-1.4971286E0,3.8133395E-1]","boost_from_average":"1","num_class":"3","num_feature":"8","num_target":"1"},"objective":{"name":"multi:softprob","softmax_multiclass_param":{"num_class":"3"}}},"version":[3,2,0]}